{"learner":{"attributes":{"scikit_learn":"{\"_estimator_type\": \"classifier\"}"},"feature_names":["CPIAUCSL","macd_hist","ICSA","obv","inflation_yoy","UMCSENT","volume_ratio","upper_shadow","lower_shadow","price_above_sma50","volume_trend","higher_highs","HOUST","roc_10","price_volume_correlation","RSXFS","macd_signal","price_change_20d","bb_position","candle_body","BAMLH0A0HYM2","gdp_growth_yoy","atr","rsi_14","macd","VIXCLS","volume_roc_10","lower_lows","DGS2","candle_range","ad_line","T10Y2Y","volume_sma_20","DGS10","sma_200","sma_10","UNRATE","INDPRO","candle_direction","CSCICP03USM665S","DFF","is_doji","price_above_sma20"],"feature_types":["float","float","float","float","float","float","float","float","float","int","float","float","float","float","float","float","float","float","float","float","float","float","float","float","float","float","float","float","float","float","float","float","float","float","float","float","float","float","int","float","float","int","int"],"gradient_booster":{"model":{"cats":{"enc":[],"feature_segments":[],"sorted_idx":[]},"gbtree_model_param":{"num_parallel_tree":"1","num_trees":"900"},"iteration_indptr":[0,3,6,9,12,15,18,21,24,27,30,33,36,39,42,45,48,51,54,57,60,63,66,69,72,75,78,81,84,87,90,93,96,99,102,105,108,111,114,117,120,123,126,129,132,135,138,141,144,147,150,153,156,159,162,165,168,171,174,177,180,183,186,189,192,195,198,201,204,207,210,213,216,219,222,225,228,231,234,237,240,243,246,249,252,255,258,261,264,267,270,273,276,279,282,285,288,291,294,297,300,303,306,309,312,315,318,321,324,327,330,333,336,339,342,345,348,351,354,357,360,363,366,369,372,375,378,381,384,387,390,393,396,399,402,405,408,411,414,417,420,423,426,429,432,435,438,441,444,447,450,453,456,459,462,465,468,471,474,477,480,483,486,489,492,495,498,501,504,507,510,513,516,519,522,525,528,531,534,537,540,543,546,549,552,555,558,561,564,567,570,573,576,579,582,585,588,591,594,597,600,603,606,609,612,615,618,621,624,627,630,633,636,639,642,645,648,651,654,657,660,663,666,669,672,675,678,681,684,687,690,693,696,699,702,705,708,711,714,717,720,723,726,729,732,735,738,741,744,747,750,753,756,759,762,765,768,771,774,777,780,783,786,789,792,795,798,801,804,807,810,813,816,819,822,825,828,831,834,837,840,843,846,849,852,855,858,861,864,867,870,873,876,879,882,885,888,891,894,897,900],"tree_info":[0,1,2,0,1,2,0,1,2,0,1,2,0,1,2,0,1,2,0,1,2,0,1,2,0,1,2,0,1,2,0,1,2,0,1,2,0,1,2,0,1,2,0,1,2,0,1,2,0,1,2,0,1,2,0,1,2,0,1,2,0,1,2,0,1,2,0,1,2,0,1,2,0,1,2,0,1,2,0,1,2,0,1,2,0,1,2,0,1,2,0,1,2,0,1,2,0,1,2,0,1,2,0,1,2,0,1,2,0,1,2,0,1,2,0,1,2,0,1,2,0,1,2,0,1,2,0,1,2,0,1,2,0,1,2,0,1,2,0,1,2,0,1,2,0,1,2,0,1,2,0,1,2,0,1,2,0,1,2,0,1,2,0,1,2,0,1,2,0,1,2,0,1,2,0,1,2,0,1,2,0,1,2,0,1,2,0,1,2,0,1,2,0,1,2,0,1,2,0,1,2,0,1,2,0,1,2,0,1,2,0,1,2,0,1,2,0,1,2,0,1,2,0,1,2,0,1,2,0,1,2,0,1,2,0,1,2,0,1,2,0,1,2,0,1,2,0,1,2,0,1,2,0,1,2,0,1,2,0,1,2,0,1,2,0,1,2,0,1,2,0,1,2,0,1,2,0,1,2,0,1,2,0,1,2,0,1,2,0,1,2,0,1,2,0,1,2,0,1,2,0,1,2,0,1,2,0,1,2,0,1,2,0,1,2,0,1,2,0,1,2,0,1,2,0,1,2,0,1,2,0,1,2,0,1,2,0,1,2,0,1,2,0,1,2,0,1,2,0,1,2,0,1,2,0,1,2,0,1,2,0,1,2,0,1,2,0,1,2,0,1,2,0,1,2,0,1,2,0,1,2,0,1,2,0,1,2,0,1,2,0,1,2,0,1,2,0,1,2,0,1,2,0,1,2,0,1,2,0,1,2,0,1,2,0,1,2,0,1,2,0,1,2,0,1,2,0,1,2,0,1,2,0,1,2,0,1,2,0,1,2,0,1,2,0,1,2,0,1,2,0,1,2,0,1,2,0,1,2,0,1,2,0,1,2,0,1,2,0,1,2,0,1,2,0,1,2,0,1,2,0,1,2,0,1,2,0,1,2,0,1,2,0,1,2,0,1,2,0,1,2,0,1,2,0,1,2,0,1,2,0,1,2,0,1,2,0,1,2,0,1,2,0,1,2,0,1,2,0,1,2,0,1,2,0,1,2,0,1,2,0,1,2,0,1,2,0,1,2,0,1,2,0,1,2,0,1,2,0,1,2,0,1,2,0,1,2,0,1,2,0,1,2,0,1,2,0,1,2,0,1,2,0,1,2,0,1,2,0,1,2,0,1,2,0,1,2,0,1,2,0,1,2,0,1,2,0,1,2,0,1,2,0,1,2,0,1,2,0,1,2,0,1,2,0,1,2,0,1,2,0,1,2,0,1,2,0,1,2,0,1,2,0,1,2,0,1,2,0,1,2,0,1,2,0,1,2,0,1,2,0,1,2,0,1,2,0,1,2,0,1,2,0,1,2,0,1,2,0,1,2,0,1,2,0,1,2,0,1,2,0,1,2,0,1,2,0,1,2,0,1,2,0,1,2,0,1,2,0,1,2,0,1,2,0,1,2,0,1,2,0,1,2,0,1,2,0,1,2,0,1,2,0,1,2,0,1,2,0,1,2,0,1,2,0,1,2,0,1,2,0,1,2,0,1,2,0,1,2,0,1,2,0,1,2,0,1,2,0,1,2,0,1,2,0,1,2,0,1,2,0,1,2,0,1,2,0,1,2,0,1,2,0,1,2,0,1,2,0,1,2,0,1,2,0,1,2,0,1,2,0,1,2,0,1,2,0,1,2,0,1,2,0,1,2,0,1,2,0,1,2,0,1,2,0,1,2,0,1,2,0,1,2,0,1,2,0,1,2,0,1,2,0,1,2,0,1,2,0,1,2,0,1,2,0,1,2,0,1,2,0,1,2,0,1,2,0,1,2,0,1,2,0,1,2,0,1,2,0,1,2,0,1,2,0,1,2,0,1,2],"trees":[{"base_weights":[1.04095735E-1,-3.9760625E-1,1.4393578E-1,-5.4051155E-1,7.3662326E-2,-4.4003534E-1,1.7956364E-1,-6.36993E-1,1.3009868E-2,2.9349789E-2,-6.4472985E-1,-3.4730867E-1,2.1378557E-1,-2.4659881E-2,-7.626432E-2,-3.0635357E-2,-7.585394E-2,1.3589373E-1,-6.8146455E-1,3.2436643E-2,3.119723E-1,-4.592128E-2,5.887275E-2,-7.545075E-2,-4.1577347E-2,2.7676818E-1,-3.157128E-1,-2.569452E-2,3.9939696E-1,1.4838831E-3,7.328614E-2,-4.2747602E-2,7.219633E-2,2.1745918E-2,-3.48772E-2,2.8023621E-2,6.96855E-2],"categories":[],"categories_nodes":[],"categories_segments":[],"categories_sizes":[],"default_left":[0,0,0,0,0,0,0,0,0,0,0,0,0,0,0,0,0,0,0,0,0,0,0,0,0,0,0,0,0,0,0,0,0,0,0,0,0],"id":0,"left_children":[1,3,5,7,-1,9,11,13,-1,-1,15,17,19,-1,-1,-1,-1,21,23,25,27,-1,-1,-1,-1,29,31,33,35,-1,-1,-1,-1,-1,-1,-1,-1],"loss_changes":[8.11726E0,4.8489256E0,7.8339477E0,1.7796059E0,0E0,3.2926002E0,6.411762E0,1.0279102E0,0E0,0E0,5.249872E-1,3.5464163E0,5.920043E0,0E0,0E0,0E0,0E0,2.4057527E0,1.0175371E-1,1.0038114E1,6.432951E0,0E0,0E0,0E0,0E0,8.230594E0,5.628347E0,3.5092869E0,5.9902363E0,0E0,0E0,0E0,0E0,0E0,0E0,0E0,0E0],"parents":[2147483647,0,0,1,1,2,2,3,3,5,5,6,6,7,7,10,10,11,11,12,12,17,17,18,18,19,19,20,20,25,25,26,26,27,27,28,28],"right_children":[2,4,6,8,-1,10,12,14,-1,-1,16,18,20,-1,-1,-1,-1,22,24,26,28,-1,-1,-1,-1,30,32,34,36,-1,-1,-1,-1,-1,-1,-1,-1],"split_conditions":[3.0844156E2,6.1913285E0,-1.9346848E1,6.982169E7,7.3662326E-2,1.349E1,-6.488386E-1,2.8371298E1,1.3009868E-2,2.9349789E-2,2E0,1.856325E0,1.368E3,-2.4659881E-2,-7.626432E-2,-3.0635357E-2,-7.585394E-2,-5.648491E0,2.27E5,3.31E0,9.0278363E-1,-4.592128E-2,5.887275E-2,-7.545075E-2,-4.1577347E-2,2.7477381E0,6.95792E2,-6.301636E-2,7.210274E-1,1.4838831E-3,7.328614E-2,-4.2747602E-2,7.219633E-2,2.1745918E-2,-3.48772E-2,2.8023621E-2,6.96855E-2],"split_indices":[35,8,24,32,0,25,26,23,0,0,27,24,12,0,0,0,0,16,2,20,10,0,0,0,0,13,35,26,18,0,0,0,0,0,0,0,0],"split_type":[0,0,0,0,0,0,0,0,0,0,0,0,0,0,0,0,0,0,0,0,0,0,0,0,0,0,0,0,0,0,0,0,0,0,0,0,0],"sum_hessian":[4.0699295E2,2.9690844E1,3.7730212E2,2.6493368E1,3.1974754E0,2.1468765E1,3.5583334E2,2.3295893E1,3.1974754E0,4.5678225E0,1.6900942E1,2.1468765E1,3.343646E2,5.938169E0,1.7357725E1,4.5678225E0,1.233312E1,8.678863E0,1.2789902E1,1.17849815E2,2.1651477E2,3.6542578E0,5.0246043E0,9.592426E0,3.1974754E0,6.94309E1,4.8418915E1,4.4307877E1,1.722069E2,4.4307877E1,2.5123022E1,4.3851093E1,4.5678225E0,2.5123022E1,1.9184853E1,1.233312E2,4.8875698E1],"tree_param":{"num_deleted":"0","num_feature":"43","num_nodes":"37","size_leaf_vector":"1"}},{"base_weights":[-2.473105E-1,-2.6398772E-1,5.710586E-1,3.950813E-1,-2.8175575E-1,1.1427629E-1,-5.7267114E-3,-1.2689063E-2,7.705801E-2,-1.649005E-1,-3.571354E-1,-2.5519112E-1,2.894826E-1,-4.8235574E-1,-2.2449523E-1,-3.0160114E-1,4.2925817E-1,6.944296E-1,-3.3602104E-1,-5.11309E-1,9.193904E-3,-8.8071816E-2,-5.577764E-1,-4.5172825E-2,-1.49011435E-2,1.06979154E-1,-1.2689063E-2,-1.2689063E-2,1.010684E-1,-6.6693604E-2,8.471829E-3,8.0312986E-4,-5.342385E-2,-2.6882142E-3,-6.753001E-2,-6.156516E-2,-1.2689063E-2],"categories":[],"categories_nodes":[],"categories_segments":[],"categories_sizes":[],"default_left":[0,0,0,0,0,0,0,0,0,0,0,0,0,0,0,0,0,0,0,0,0,0,0,0,0,0,0,0,0,0,0,0,0,0,0,0,0],"id":1,"left_children":[1,3,5,7,9,-1,-1,-1,-1,11,13,15,17,19,21,23,25,27,29,31,-1,33,35,-1,-1,-1,-1,-1,-1,-1,-1,-1,-1,-1,-1,-1,-1],"loss_changes":[4.863884E0,4.10511E0,2.6483486E0,1.857142E0,2.9506626E0,0E0,0E0,0E0,0E0,5.5279713E0,3.3570862E0,3.5757318E0,5.6781254E0,1.8094845E0,4.527747E0,2.352479E0,2.6200714E0,3.632553E0,1.2734888E0,1.2570992E0,0E0,2.517801E0,6.445036E-1,0E0,0E0,0E0,0E0,0E0,0E0,0E0,0E0,0E0,0E0,0E0,0E0,0E0,0E0],"parents":[2147483647,0,0,1,1,2,2,3,3,4,4,9,9,10,10,11,11,12,12,13,13,14,14,15,15,16,16,17,17,18,18,19,19,21,21,22,22],"right_children":[2,4,6,8,10,-1,-1,-1,-1,12,14,16,18,20,22,24,26,28,30,32,-1,34,36,-1,-1,-1,-1,-1,-1,-1,-1,-1,-1,-1,-1,-1,-1],"split_conditions":[1.2068003E0,1.0484066E0,2.17E5,3E0,-8.115387E-1,1.1427629E-1,-5.7267114E-3,-1.2689063E-2,7.705801E-2,2.37E5,4.700004E0,4.62E0,1.0583888E0,4.5114117E0,6.0321884E0,-5.201587E0,9.410656E-1,1.5840399E1,8.408136E-1,2E5,9.193904E-3,1.735E3,3.430126E-1,-4.5172825E-2,-1.49011435E-2,1.06979154E-1,-1.2689063E-2,-1.2689063E-2,1.010684E-1,-6.6693604E-2,8.471829E-3,8.0312986E-4,-5.342385E-2,-2.6882142E-3,-6.753001E-2,-6.156516E-2,-1.2689063E-2],"split_indices":[10,7,2,11,1,0,0,0,0,2,13,33,6,1,1,13,10,22,19,2,0,12,4,0,0,0,0,0,0,0,0,0,0,0,0,0,0],"split_type":[0,0,0,0,0,0,0,0,0,0,0,0,0,0,0,0,0,0,0,0,0,0,0,0,0,0,0,0,0,0,0,0,0,0,0,0,0],"sum_hessian":[3.5742316E2,3.50471E2,6.9521666E0,8.996922E0,3.4147406E2,3.680559E0,3.2716079E0,3.680559E0,5.316363E0,1.3454488E2,2.069292E2,1.1246152E2,2.2083353E1,1.05918304E2,1.01010895E2,1.0550935E2,6.9521666E0,1.3495382E1,8.587971E0,1.01010895E2,4.9074116E0,7.197537E1,2.903552E1,5.2754677E1,5.2754677E1,3.2716079E0,3.680559E0,3.680559E0,9.814823E0,4.9074116E0,3.680559E0,4.08951E0,9.692139E1,6.543216E1,6.5432158E0,2.5354961E1,3.680559E0],"tree_param":{"num_deleted":"0","num_feature":"43","num_nodes":"37","size_leaf_vector":"1"}},{"base_weights":[1.1528173E-1,-2.3767905E-1,1.9168198E-1,2.2468543E-1,-4.2714715E-1,1.0399823E0,1.669616E-1,7.496463E-1,-2.2829838E-1,-4.9927363E-1,2.752328E-2,1.348301E-1,4.140183E-2,6.577656E-1,1.2564766E-1,3.6357235E-2,1.3244577E-1,1.3043831E-1,-7.438674E-2,2.6849985E-2,-5.681168E-1,8.8519543E-1,-3.192423E-2,1.5822655E-1,-3.5129115E-1,-1.2700538E-2,4.140183E-2,1.134496E-2,-6.26255E-1,-4.3544166E-2,1.3697591E-1,3.7378186E-1,4.4091586E-2,-5.1682013E-1,4.140183E-2,-6.8753615E-2,-2.6008919E-2,5.324893E-2,-7.281428E-2,-5.3582616E-2,4.6590604E-2,5.7838835E-2,-2.5231808E-3,6.2920265E-3,-7.657358E-2],"categories":[],"categories_nodes":[],"categories_segments":[],"categories_sizes":[],"default_left":[0,0,0,0,0,0,0,0,0,0,0,0,0,0,0,0,0,0,0,0,0,0,0,0,0,0,0,0,0,0,0,0,0,0,0,0,0,0,0,0,0,0,0,0,0],"id":2,"left_children":[1,3,5,7,9,11,13,15,17,19,-1,-1,-1,21,23,-1,-1,25,-1,-1,27,29,-1,31,33,-1,-1,-1,35,37,-1,39,41,43,-1,-1,-1,-1,-1,-1,-1,-1,-1,-1,-1],"loss_changes":[1.0942427E1,6.3387356E0,6.8632326E0,5.0262046E0,2.633566E0,1.5666876E0,6.4962673E0,1.9536572E0,2.1358833E0,2.5115461E0,0E0,0E0,0E0,5.638586E0,4.6438465E0,0E0,0E0,5.124439E-1,0E0,0E0,1.7612066E0,9.312144E0,0E0,6.8661795E0,2.4387603E0,0E0,0E0,0E0,7.792263E-1,2.8247378E0,0E0,8.138794E0,6.873499E0,2.3514085E0,0E0,0E0,0E0,0E0,0E0,0E0,0E0,0E0,0E0,0E0,0E0],"parents":[2147483647,0,0,1,1,2,2,3,3,4,4,5,5,6,6,7,7,8,8,9,9,13,13,14,14,17,17,20,20,21,21,23,23,24,24,28,28,29,29,31,31,32,32,33,33],"right_children":[2,4,6,8,10,12,14,16,18,20,-1,-1,-1,22,24,-1,-1,26,-1,-1,28,30,-1,32,34,-1,-1,-1,36,38,-1,40,42,44,-1,-1,-1,-1,-1,-1,-1,-1,-1,-1,-1],"split_conditions":[1.354E1,1.1956517E1,2.9510358E2,-3.6E-1,7.3193016E0,9.83771E0,1.018458E2,4.2723866E0,-4.8411395E8,-1.4760241E-1,2.752328E-2,1.348301E-1,4.140183E-2,7.26384E1,6.95792E2,3.6357235E-2,1.3244577E-1,-2.8695805E0,-7.438674E-2,2.6849985E-2,3.202234E0,1.908E1,-3.192423E-2,-4.1E-1,1.78E1,-1.2700538E-2,4.140183E-2,1.134496E-2,9.6877927E-1,1.677E1,1.3697591E-1,3.921862E6,1.0824007E1,-8.7E-1,4.140183E-2,-6.8753615E-2,-2.6008919E-2,5.324893E-2,-7.281428E-2,-5.3582616E-2,4.6590604E-2,5.7838835E-2,-2.5231808E-3,6.2920265E-3,-7.657358E-2],"split_indices":[25,29,35,31,1,22,37,7,30,17,0,0,0,23,35,0,0,1,0,0,7,25,0,31,25,0,0,0,26,25,0,3,22,31,0,0,0,0,0,0,0,0,0,0,0],"split_type":[0,0,0,0,0,0,0,0,0,0,0,0,0,0,0,0,0,0,0,0,0,0,0,0,0,0,0,0,0,0,0,0,0,0,0,0,0,0,0,0,0,0,0,0,0],"sum_hessian":[4.056833E2,7.191659E1,3.3376672E2,2.0745169E1,5.1171417E1,9.220075E0,3.2454663E2,9.681079E0,1.106409E1,4.656138E1,4.6100373E0,5.9930487E0,3.2270262E0,2.4894203E1,2.9965244E2,5.9930487E0,3.68803E0,6.4540524E0,4.6100373E0,3.68803E0,4.287335E1,2.0284164E1,4.6100373E0,2.8075128E2,1.8901154E1,3.2270262E0,3.2270262E0,3.2270262E0,3.9646324E1,6.915056E0,1.3369109E1,9.681079E1,1.8394049E2,1.5674128E1,3.2270262E0,3.3653275E1,5.9930487E0,3.68803E0,3.2270262E0,8.759071E0,8.805172E1,2.1206173E1,1.6273433E2,4.6100373E0,1.106409E1],"tree_param":{"num_deleted":"0","num_feature":"43","num_nodes":"45","size_leaf_vector":"1"}},{"base_weights":[8.847002E-2,-4.1468078E-1,1.2329651E-1,-5.350079E-1,4.117559E-2,-1.6880991E-2,2.436158E-1,-6.464154E-1,1.3543676E-2,-1.0467234E-1,5.114463E-1,-5.22372E-3,3.378628E-1,-7.415803E-2,-3.872445E-2,-4.9125287E-1,2.8077634E-3,6.853165E-1,-4.6836052E-2,8.924869E-2,-7.523894E-2,-5.5153977E-2,3.696439E-1,-6.2042075E-1,3.9071005E-2,1.1637937E-1,-5.579085E-1,3.43523E-1,1.193182E-1,3.6027712E-1,-2.1994777E-1,2.9090235E-1,9.901317E-1,-7.090178E-2,-3.86237E-2,-8.719087E-3,5.12374E-2,-6.983518E-2,1.607467E-2,7.271317E-2,-3.309336E-2,1.18842E-2,8.897207E-2,-5.635464E-2,3.4515377E-2,1.7655581E-2,6.319094E-2,1.1693712E-2,1.1964219E-1],"categories":[],"categories_nodes":[],"categories_segments":[],"categories_sizes":[],"default_left":[0,0,0,0,0,0,0,0,0,0,0,0,0,0,0,0,0,0,0,0,0,0,0,0,0,0,0,0,0,0,0,0,0,0,0,0,0,0,0,0,0,0,0,0,0,0,0,0,0],"id":3,"left_children":[1,3,5,7,-1,9,11,13,-1,15,17,19,21,-1,-1,23,25,27,-1,29,-1,-1,31,33,-1,35,37,39,-1,41,43,45,47,-1,-1,-1,-1,-1,-1,-1,-1,-1,-1,-1,-1,-1,-1,-1,-1],"loss_changes":[7.21671E0,2.6782227E0,6.545644E0,1.8044434E0,0E0,8.2362E0,4.923128E0,3.5597134E-1,0E0,6.4130335E0,4.358E0,4.102186E0,4.2849007E0,0E0,0E0,3.8662672E0,7.5877805E0,3.5521774E0,0E0,4.266011E0,0E0,0E0,6.9985886E0,4.7263718E-1,0E0,8.092614E0,2.0873876E0,3.468561E0,0E0,3.3652136E0,4.6132154E0,4.9866962E0,2.7922363E0,0E0,0E0,0E0,0E0,0E0,0E0,0E0,0E0,0E0,0E0,0E0,0E0,0E0,0E0,0E0,0E0],"parents":[2147483647,0,0,1,1,2,2,3,3,5,5,6,6,7,7,9,9,10,10,11,11,12,12,15,15,16,16,17,17,19,19,22,22,23,23,25,25,26,26,27,27,29,29,30,30,31,31,32,32],"right_children":[2,4,6,8,-1,10,12,14,-1,16,18,20,22,-1,-1,24,26,28,-1,30,-1,-1,32,34,-1,36,38,40,-1,42,44,46,48,-1,-1,-1,-1,-1,-1,-1,-1,-1,-1,-1,-1,-1,-1,-1,-1],"split_conditions":[3.0844156E2,6.982169E7,-3.7E-1,1.0480037E1,4.117559E-2,6.95792E2,4.1133793E1,5.563519E-1,1.3543676E-2,1.025192E2,1.752E1,2.747E1,1.060177E1,-7.415803E-2,-3.872445E-2,5.2709804E0,6.3488055E2,-7.7E-1,-4.6836052E-2,-6.262524E0,-7.523894E-2,-5.5153977E-2,1.712E3,6.905998E0,3.9071005E-2,5.550858E2,6.6441564E7,1.977289E1,1.193182E-1,1.5219338E9,6.398035E0,5.545124E2,-3.349922E0,-7.090178E-2,-3.86237E-2,-8.719087E-3,5.12374E-2,-6.983518E-2,1.607467E-2,7.271317E-2,-3.309336E-2,1.18842E-2,8.897207E-2,-5.635464E-2,3.4515377E-2,1.7655581E-2,6.319094E-2,1.1693712E-2,1.1964219E-1],"split_indices":[35,32,31,13,0,35,23,26,0,37,25,25,22,0,0,1,35,31,0,13,0,0,12,13,0,35,32,16,0,3,7,34,16,0,0,0,0,0,0,0,0,0,0,0,0,0,0,0,0],"split_type":[0,0,0,0,0,0,0,0,0,0,0,0,0,0,0,0,0,0,0,0,0,0,0,0,0,0,0,0,0,0,0,0,0,0,0,0,0,0,0,0,0,0,0,0,0,0,0,0,0],"sum_hessian":[4.131138E2,2.648684E1,3.8662695E2,2.325695E1,3.2298892E0,1.7823262E2,2.0839435E2,2.0074001E1,3.1829493E0,1.5306715E2,2.5165474E1,5.698109E1,1.5141325E2,1.4264312E1,5.809689E0,3.3423622E1,1.19643524E2,2.1485E1,3.6804733E0,5.054442E1,6.4366727E0,5.0588207E0,1.4635443E2,2.9278654E1,4.144968E0,9.970593E1,1.993759E1,1.3060097E1,8.424904E0,2.7098194E1,2.3446222E1,1.3014655E2,1.6207891E1,2.0785318E1,8.493336E0,6.57375E1,3.3968437E1,1.6797007E1,3.1405835E0,8.414605E0,4.645492E0,1.8825003E1,8.273191E0,1.4690932E1,8.755291E0,9.7797935E1,3.2348606E1,3.219917E0,1.2987975E1],"tree_param":{"num_deleted":"0","num_feature":"43","num_nodes":"49","size_leaf_vector":"1"}},{"base_weights":[-2.4546868E-1,-2.6607057E-1,5.936057E-1,-3.1002513E-1,-9.805895E-3,1.0373832E-1,1.7369853E-2,8.199071E-2,-3.3184394E-1,3.6682254E-1,-1.6698208E-1,5.282058E-1,-4.0005255E-1,-2.2988358E-1,-4.214641E-1,5.2577173E-3,1.0375052E-1,1.4517474E-2,-4.2157272E-1,1.1950231E-2,1.0788403E-1,-6.526741E-2,-4.6344916E-3,2.8583992E-2,-3.4275967E-1,-4.9912754E-1,-1.5017304E-1,7.8935936E-2,-3.7448582E-1,-2.3892745E-1,3.1780916E-1,-5.9690034E-1,2.051514E-2,-5.4381885E-2,1.6945843E-2,7.440383E-3,-4.463849E-2,-2.6919465E-3,-5.318109E-2,-4.0686637E-2,1.46058975E-2,-5.164615E-3,-6.53545E-2,1.7879413E-2,-5.2394874E-2,-2.5875632E-2,9.06232E-2,-6.745108E-2,-3.3854567E-2],"categories":[],"categories_nodes":[],"categories_segments":[],"categories_sizes":[],"default_left":[0,0,0,0,0,0,0,0,0,0,0,0,0,0,0,0,0,0,0,0,0,0,0,0,0,0,0,0,0,0,0,0,0,0,0,0,0,0,0,0,0,0,0,0,0,0,0,0,0],"id":4,"left_children":[1,3,5,7,9,-1,-1,11,13,15,17,19,21,23,25,27,-1,29,31,-1,-1,-1,-1,33,35,37,39,-1,41,43,45,47,-1,-1,-1,-1,-1,-1,-1,-1,-1,-1,-1,-1,-1,-1,-1,-1,-1],"loss_changes":[6.1142235E0,3.8691654E0,1.4288628E0,2.5536613E0,3.013894E0,0E0,0E0,3.348293E0,2.4838161E0,3.509315E0,1.7206628E0,1.7019787E0,5.843791E-1,3.8755546E0,3.0538712E0,3.0131702E0,0E0,1.6362042E0,1.7390487E0,0E0,0E0,0E0,0E0,3.1862981E0,4.016021E0,1.7179546E0,2.5758393E0,0E0,5.2420855E-1,1.396833E0,3.420086E0,1.1950731E-1,0E0,0E0,0E0,0E0,0E0,0E0,0E0,0E0,0E0,0E0,0E0,0E0,0E0,0E0,0E0,0E0,0E0],"parents":[2147483647,0,0,1,1,2,2,3,3,4,4,7,7,8,8,9,9,10,10,11,11,12,12,13,13,14,14,15,15,17,17,18,18,23,23,24,24,25,25,26,26,28,28,29,29,30,30,31,31],"right_children":[2,4,6,8,10,-1,-1,12,14,16,18,20,22,24,26,28,-1,30,32,-1,-1,-1,-1,34,36,38,40,-1,42,44,46,48,-1,-1,-1,-1,-1,-1,-1,-1,-1,-1,-1,-1,-1,-1,-1,-1,-1],"split_conditions":[1.2068003E0,2.1142724E0,2.17E5,5.3303866E0,4.32676E1,1.0373832E-1,1.7369853E-2,2.61E1,3E0,2.39E5,1.0400376E0,6.7959136E-1,7.843648E-1,1.371E3,2.2920375E-1,1.3323093E1,1.0375052E-1,3.96E0,8.4689245E0,1.1950231E-2,1.0788403E-1,-6.526741E-2,-4.6344916E-3,-1.5568054E-1,2.05E5,-4.4728003E0,6.1121395E1,7.8935936E-2,6.0134195E-2,5.8196587E1,2.5154278E0,1.4180943E-1,2.051514E-2,-5.4381885E-2,1.6945843E-2,7.440383E-3,-4.463849E-2,-2.6919465E-3,-5.318109E-2,-4.0686637E-2,1.46058975E-2,-5.164615E-3,-6.53545E-2,1.7879413E-2,-5.2394874E-2,-2.5875632E-2,9.06232E-2,-6.745108E-2,-3.3854567E-2],"split_indices":[10,19,2,29,23,0,0,25,11,2,6,19,6,12,4,29,0,33,8,0,0,0,0,14,2,13,23,0,14,23,1,14,0,0,0,0,0,0,0,0,0,0,0,0,0,0,0,0,0],"split_type":[0,0,0,0,0,0,0,0,0,0,0,0,0,0,0,0,0,0,0,0,0,0,0,0,0,0,0,0,0,0,0,0,0,0,0,0,0,0,0,0,0,0,0,0,0,0,0,0,0],"sum_hessian":[3.5457968E2,3.4626526E2,8.314427E0,2.952182E2,5.104705E1,3.8550413E0,4.4593863E0,1.5308759E1,2.7990942E2,1.4803948E1,3.6243103E1,8.052572E0,7.256186E0,1.316286E2,1.4828084E2,9.780934E0,5.0230136E0,2.0984562E1,1.525854E1,4.7960544E0,3.2565176E0,4.0187283E0,3.2374582E0,3.976411E1,9.1864494E1,1.1492753E2,3.3353313E1,3.2420852E0,6.5388494E0,1.12636385E1,9.720924E0,1.2051438E1,3.2071016E0,7.656842E0,3.2107265E1,1.8092558E1,7.3771935E1,7.649515E0,1.0727801E2,1.8030022E1,1.5323291E1,3.2527003E0,3.286149E0,4.4411683E0,6.8224697E0,4.852392E0,4.8685317E0,8.845947E0,3.2054906E0],"tree_param":{"num_deleted":"0","num_feature":"43","num_nodes":"49","size_leaf_vector":"1"}},{"base_weights":[1.1914023E-1,-2.2982225E-1,1.9127913E-1,1.4544246E-1,-3.9011094E-1,1.0824583E0,1.6592763E-1,-9.6430466E-2,9.0985194E-2,-1.14407904E-1,-5.892219E-1,6.5876216E-2,1.2803982E-1,9.5014983E-1,1.4275864E-1,2.6857078E-1,-5.002469E-1,-2.6737887E-1,6.933547E-2,-6.7833114E-1,-1.3137457E-2,6.9300555E-2,1.2156551E-1,9.381683E-1,1.179637E-1,-4.4040855E-2,7.383004E-2,-7.4067205E-2,-1.1215097E-2,-5.856949E-1,3.0659613E-1,-1.3017774E-2,-7.5753644E-2,1.0434315E-2,1.331498E-1,3.7618354E-1,3.2127444E-2,-7.481106E-2,-1.0555978E-2,1.0555966E-1,-4.1658934E-2,8.588895E-2,1.8726617E-2,2.2759998E-2,-1.0225525E-2],"categories":[],"categories_nodes":[],"categories_segments":[],"categories_sizes":[],"default_left":[0,0,0,0,0,0,0,0,0,0,0,0,0,0,0,0,0,0,0,0,0,0,0,0,0,0,0,0,0,0,0,0,0,0,0,0,0,0,0,0,0,0,0,0,0],"id":5,"left_children":[1,3,5,7,9,11,13,15,-1,17,19,-1,-1,21,23,25,27,29,-1,31,-1,-1,-1,33,35,-1,-1,-1,-1,37,39,-1,-1,-1,-1,41,43,-1,-1,-1,-1,-1,-1,-1,-1],"loss_changes":[1.0586676E1,4.351827E0,7.73697E0,4.044875E0,2.6982956E0,5.201454E-1,6.0430984E0,2.4302034E0,0E0,2.6370082E0,1.0982475E0,0E0,0E0,3.8008022E-1,6.388826E0,2.881292E0,6.4119554E-1,3.3862967E0,0E0,9.507742E-1,0E0,0E0,0E0,3.0682116E0,7.0533605E0,0E0,0E0,0E0,0E0,8.352809E-1,3.6156526E0,0E0,0E0,0E0,0E0,7.134982E0,6.3364816E0,0E0,0E0,0E0,0E0,0E0,0E0,0E0,0E0],"parents":[2147483647,0,0,1,1,2,2,3,3,4,4,5,5,6,6,7,7,9,9,10,10,13,13,14,14,15,15,16,16,17,17,19,19,23,23,24,24,29,29,30,30,35,35,36,36],"right_children":[2,4,6,8,10,12,14,16,-1,18,20,-1,-1,22,24,26,28,30,-1,32,-1,-1,-1,34,36,-1,-1,-1,-1,38,40,-1,-1,-1,-1,42,44,-1,-1,-1,-1,-1,-1,-1,-1],"split_conditions":[1.354E1,1.1956517E1,-2.1499523E1,5.2359447E0,5.608006E2,1.392E1,2.9649747E2,-4.7109347E8,9.0985194E-2,6.180193E1,1.4662177E1,6.5876216E-2,1.2803982E-1,2.7866597E0,1.379E1,-4.0882792E0,6.423138E7,4.65E0,6.933547E-2,-1.2230869E-1,-1.3137457E-2,6.9300555E-2,1.2156551E-1,4.3404022E-1,1.358E3,-4.4040855E-2,7.383004E-2,-7.4067205E-2,-1.1215097E-2,8.569989E0,-3.5301743E-3,-1.3017774E-2,-7.5753644E-2,1.0434315E-2,1.331498E-1,3.67E0,3.9201605E0,-7.481106E-2,-1.0555978E-2,1.0555966E-1,-4.1658934E-2,8.588895E-2,1.8726617E-2,2.2759998E-2,-1.0225525E-2],"split_indices":[25,29,24,8,35,25,35,30,0,23,16,0,0,7,25,16,32,28,0,17,0,0,0,18,12,0,0,0,0,8,17,0,0,0,0,33,8,0,0,0,0,0,0,0,0],"split_type":[0,0,0,0,0,0,0,0,0,0,0,0,0,0,0,0,0,0,0,0,0,0,0,0,0,0,0,0,0,0,0,0,0,0,0,0,0,0,0,0,0,0,0,0,0],"sum_hessian":[4.204224E2,7.1747665E1,3.4867474E2,2.1289799E1,5.0457867E1,9.419996E0,3.3925473E2,1.6139526E1,5.150272E0,2.1435902E1,2.9021965E1,3.2981749E0,6.1218214E0,9.496626E0,3.2975812E2,8.364701E0,7.774825E0,1.8183146E1,3.2527566E0,2.4070614E1,4.9513507E0,5.199001E0,4.297625E0,9.73537E0,3.2002274E2,3.2510824E0,5.113619E0,4.5855584E0,3.189267E0,1.1807245E1,6.3759E0,3.2317367E0,2.0838877E1,3.2424417E0,6.492928E0,7.9465294E1,2.4055745E2,8.625427E0,3.1818178E0,3.1773956E0,3.1985042E0,2.2103725E1,5.7361572E1,9.827776E1,1.4227968E2],"tree_param":{"num_deleted":"0","num_feature":"43","num_nodes":"45","size_leaf_vector":"1"}},{"base_weights":[8.6613484E-2,-1.6167177E-1,1.5335917E-1,3.0381805E-1,-2.6723146E-1,2.707776E-2,3.4151244E-1,-7.041844E-2,6.1423403E-1,5.9627272E-2,-3.4494394E-1,-2.8164387E-2,6.8927556E-1,5.3272074E-1,1.16345584E-1,8.8711745E-1,-1.14264125E-2,-4.0814102E-1,3.6273606E-2,-1.4871274E-1,2.7980405E-1,-1.2173941E-2,9.2188317E-1,1.0670345E0,4.0835384E-1,9.930653E-2,2.2324858E-2,1.313754E-1,5.40679E-2,2.868588E-2,-4.5604208E-1,-2.3760852E-1,4.7265568E-1,-5.1496554E-2,7.072696E-1,1.2982652E-1,5.3564336E-2,3.9091352E-2,1.2833017E-1,-3.1066373E-1,5.0504047E-1,-1.0385315E-1,8.1700534E-1,-6.344318E-2,-2.905423E-2,7.2176695E-2,-2.8556703E-2,-2.8857604E-2,7.8631125E-2,-3.753299E-2,3.647655E-2,-4.3301795E-2,9.143944E-2,1.0518002E-2,-7.431284E-2,7.926949E-2,1.9574722E-2,-3.18741E-2,2.4460796E-2,1.2614502E-1,3.0612687E-2],"categories":[],"categories_nodes":[],"categories_segments":[],"categories_sizes":[],"default_left":[0,0,0,0,0,0,0,0,0,0,0,0,0,0,0,0,0,0,0,0,0,0,0,0,0,0,0,0,0,0,0,0,0,0,0,0,0,0,0,0,0,0,0,0,0,0,0,0,0,0,0,0,0,0,0,0,0,0,0,0,0],"id":6,"left_children":[1,3,5,7,9,11,13,-1,15,-1,17,19,21,23,25,27,-1,29,-1,31,33,-1,35,37,39,-1,41,-1,-1,-1,43,45,47,49,51,-1,-1,-1,-1,53,55,57,59,-1,-1,-1,-1,-1,-1,-1,-1,-1,-1,-1,-1,-1,-1,-1,-1,-1,-1],"loss_changes":[6.7095137E0,4.2051964E0,7.5508018E0,4.9388885E0,4.687124E0,7.074819E0,5.437257E0,0E0,2.4955168E0,0E0,2.8956141E0,6.552846E0,2.9005284E0,4.3886814E0,4.7696214E0,1.0624809E0,0E0,2.0014048E0,0E0,7.020776E0,7.082695E0,0E0,1.4450397E0,1.6539335E0,3.9435625E0,0E0,5.4544015E0,0E0,0E0,0E0,1.5297432E0,5.1115665E0,3.8517478E0,3.7704434E0,5.22752E0,0E0,0E0,0E0,0E0,1.2591257E0,4.3089886E0,3.4773865E0,1.4994607E0,0E0,0E0,0E0,0E0,0E0,0E0,0E0,0E0,0E0,0E0,0E0,0E0,0E0,0E0,0E0,0E0,0E0,0E0],"parents":[2147483647,0,0,1,1,2,2,3,3,4,4,5,5,6,6,8,8,10,10,11,11,12,12,13,13,14,14,15,15,17,17,19,19,20,20,22,22,23,23,24,24,26,26,30,30,31,31,32,32,33,33,34,34,39,39,40,40,41,41,42,42],"right_children":[2,4,6,8,10,12,14,-1,16,-1,18,20,22,24,26,28,-1,30,-1,32,34,-1,36,38,40,-1,42,-1,-1,-1,44,46,48,50,52,-1,-1,-1,-1,54,56,58,60,-1,-1,-1,-1,-1,-1,-1,-1,-1,-1,-1,-1,-1,-1,-1,-1,-1,-1],"split_conditions":[9.133771E-1,-4.9152224E8,7.7329524E-2,-1.3550311E1,5.0137396E7,6.887901E7,4.28E0,-7.041844E-2,8.9853334E-1,5.9627272E-2,8.1E-1,2.0268621E1,-3.349922E0,9.755695E1,-5.590111E-1,-3.1215131E0,-1.14264125E-2,9.662722E1,3.6273606E-2,1.1166639E1,-3.6E-1,-1.2173941E-2,3.3E0,9.5837194E-1,-4.737195E-1,9.930653E-2,7.769165E0,1.313754E-1,5.40679E-2,2.868588E-2,4.31E0,5.130531E7,4.386484E0,1.0246968E0,1.5087917E9,1.2982652E-1,5.3564336E-2,3.9091352E-2,1.2833017E-1,1.0246968E0,1.392E1,1.281976E0,1.1273767E0,-6.344318E-2,-2.905423E-2,7.2176695E-2,-2.8556703E-2,-2.8857604E-2,7.8631125E-2,-3.753299E-2,3.647655E-2,-4.3301795E-2,9.143944E-2,1.0518002E-2,-7.431284E-2,7.926949E-2,1.9574722E-2,-3.18741E-2,2.4460796E-2,1.2614502E-1,3.0612687E-2],"split_indices":[10,30,14,16,32,30,20,0,10,0,31,22,16,39,26,1,0,39,0,13,31,0,33,10,26,0,8,0,0,0,28,32,1,10,3,0,0,0,0,10,25,6,6,0,0,0,0,0,0,0,0,0,0,0,0,0,0,0,0,0,0],"split_type":[0,0,0,0,0,0,0,0,0,0,0,0,0,0,0,0,0,0,0,0,0,0,0,0,0,0,0,0,0,0,0,0,0,0,0,0,0,0,0,0,0,0,0,0,0,0,0,0,0,0,0,0,0,0,0,0,0,0,0,0,0],"sum_hessian":[4.0467172E2,8.539034E1,3.1928137E2,1.5574748E1,6.981559E1,1.9143994E2,1.2784143E2,3.5612926E0,1.2013455E1,5.6030517E0,6.421254E1,1.7664825E2,1.4791692E1,6.88199E1,5.902153E1,8.823728E0,3.1897278E0,5.911693E1,5.095613E0,1.27224915E2,4.942334E1,3.2116466E0,1.1580045E1,1.2699101E1,5.6120804E1,5.520881E0,5.350065E1,3.6997025E0,5.1240253E0,3.644991E0,5.5471935E1,1.1149642E2,1.5728488E1,2.7761349E1,2.166199E1,5.614149E0,5.9658957E0,3.257683E0,9.441418E0,6.503256E0,4.9617546E1,4.61363E1,7.3643484E0,2.62692E1,2.9202736E1,5.142109E0,1.0635432E2,4.4989243E0,1.1229565E1,1.5754847E1,1.2006503E1,3.2389088E0,1.842308E1,3.2360365E0,3.2672193E0,2.5459572E1,2.4157976E1,2.8720526E1,1.7415773E1,3.7549903E0,3.6093578E0],"tree_param":{"num_deleted":"0","num_feature":"43","num_nodes":"61","size_leaf_vector":"1"}},{"base_weights":[-1.9657049E-1,-2.7170798E-1,-5.7288207E-2,-1.5527996E-1,-3.8703603E-1,7.4399814E-2,-1.0000857E-1,2.3272151E-1,-2.6247197E-1,-1.1217855E-1,-4.7456118E-1,-2.1795487E-2,-4.4815785E-1,-2.5420102E-1,6.759802E-1,-4.048309E-1,-2.4544296E-3,-2.3824598E-1,8.1319936E-2,-5.1846665E-1,2.6432633E-2,5.3290095E-2,-4.6424672E-1,-0E0,-5.630644E-1,1.190866E-2,-6.528541E-2,9.1619134E-1,-3.3982627E-3,-4.615557E-1,5.3417634E-2,-1.6354017E-1,3.9050806E-1,-3.4696528E-1,3.569056E-2,-6.566619E-1,-3.220049E-1,4.951596E-2,-3.7120193E-2,6.6466886E-1,-1.0363101E-2,2.245432E-2,-6.7056425E-2,-6.7739755E-2,-2.9565746E-2,-3.690688E-2,4.48869E-2,5.269229E-2,1.3929655E-1,-5.050646E-2,1.9922173E-2,-3.4364622E-2,4.2693865E-2,-8.285008E-3,1.0111759E-1,-4.873536E-2,7.536135E-3,-6.786324E-2,-3.4045245E-2,2.1547226E-3,-5.7107497E-2,-8.793361E-3,1.2324693E-1,6.4770654E-3,-5.610695E-2],"categories":[],"categories_nodes":[],"categories_segments":[],"categories_sizes":[],"default_left":[0,0,0,0,0,0,0,0,0,0,0,0,0,0,0,0,0,0,0,0,0,0,0,0,0,0,0,0,0,0,0,0,0,0,0,0,0,0,0,0,0,0,0,0,0,0,0,0,0,0,0,0,0,0,0,0,0,0,0,0,0,0,0,0,0],"id":7,"left_children":[1,3,5,7,9,-1,11,13,15,17,19,21,23,25,27,29,31,33,-1,35,37,39,41,-1,43,45,-1,47,-1,49,-1,51,53,55,-1,57,59,-1,-1,61,63,-1,-1,-1,-1,-1,-1,-1,-1,-1,-1,-1,-1,-1,-1,-1,-1,-1,-1,-1,-1,-1,-1,-1,-1],"loss_changes":[3.672371E0,3.0225277E0,4.2121224E0,4.7856674E0,2.6987095E0,0E0,3.18168E0,5.3929143E0,3.2993307E0,3.2451494E0,1.9597759E0,3.2723598E0,1.1283231E0,1.3104136E0,2.3204064E0,3.110056E0,2.0266683E0,1.6252441E0,0E0,2.0527515E0,1.3177953E0,3.295589E0,2.0923896E0,0E0,4.0824175E-1,1.1879736E0,0E0,1.5673561E0,0E0,1.6192408E0,0E0,2.4674315E0,2.8137112E0,1.3066881E0,0E0,1.984787E-1,2.9250417E0,0E0,0E0,3.5331879E0,3.1610758E0,0E0,0E0,0E0,0E0,0E0,0E0,0E0,0E0,0E0,0E0,0E0,0E0,0E0,0E0,0E0,0E0,0E0,0E0,0E0,0E0,0E0,0E0,0E0,0E0],"parents":[2147483647,0,0,1,1,2,2,3,3,4,4,6,6,7,7,8,8,9,9,10,10,11,11,12,12,13,13,14,14,15,15,16,16,17,17,19,19,20,20,21,21,22,22,24,24,25,25,27,27,29,29,31,31,32,32,33,33,35,35,36,36,39,39,40,40],"right_children":[2,4,6,8,10,-1,12,14,16,18,20,22,24,26,28,30,32,34,-1,36,38,40,42,-1,44,46,-1,48,-1,50,-1,52,54,56,-1,58,60,-1,-1,62,64,-1,-1,-1,-1,-1,-1,-1,-1,-1,-1,-1,-1,-1,-1,-1,-1,-1,-1,-1,-1,-1,-1,-1,-1],"split_conditions":[7.526954E-2,1.028868E2,1.009894E1,-4.0822806E0,3.271757E2,7.4399814E-2,8.305296E0,-6.7568946E0,3.11022E2,6.1872063E0,6.5010108E7,1.031703E2,-1.2531139E-1,1.7111489E-1,6.517824E0,1.6790167E1,6.248906E7,3.2429092E2,8.1319936E-2,2.1008324E1,1.2113283E0,4.515378E-2,5.369756E-1,-0E0,1.424E3,2.2527016E1,-6.528541E-2,3.875927E0,-3.3982627E-3,4E0,5.3417634E-2,1.84E1,6.2978E0,6.585321E7,3.569056E-2,1.3886818E-1,3.6031685E-3,4.951596E-2,-3.7120193E-2,1.568E1,2.8E-1,2.245432E-2,-6.7056425E-2,-6.7739755E-2,-2.9565746E-2,-3.690688E-2,4.48869E-2,5.269229E-2,1.3929655E-1,-5.050646E-2,1.9922173E-2,-3.4364622E-2,4.2693865E-2,-8.285008E-3,1.0111759E-1,-4.873536E-2,7.536135E-3,-6.786324E-2,-3.4045245E-2,2.1547226E-3,-5.7107497E-2,-8.793361E-3,1.2324693E-1,6.4770654E-3,-5.610695E-2],"split_indices":[4,37,22,13,34,0,7,13,0,16,32,37,14,18,8,13,32,34,0,22,6,18,6,0,12,23,0,8,0,27,0,25,7,32,0,17,17,0,0,25,31,0,0,0,0,0,0,0,0,0,0,0,0,0,0,0,0,0,0,0,0,0,0,0,0],"split_type":[0,0,0,0,0,0,0,0,0,0,0,0,0,0,0,0,0,0,0,0,0,0,0,0,0,0,0,0,0,0,0,0,0,0,0,0,0,0,0,0,0,0,0,0,0,0,0,0,0,0,0,0,0,0,0,0,0,0,0,0,0,0,0,0,0],"sum_hessian":[3.5410077E2,2.2948776E2,1.24613E2,1.1474752E2,1.1474025E2,6.105858E0,1.1850714E2,2.461152E1,9.0136E1,2.8043922E1,8.669633E1,9.708917E1,2.1417965E1,1.1640932E1,1.2970589E1,5.796179E1,3.217421E1,2.4841938E1,3.201985E0,7.989105E1,6.805274E0,8.288519E1,1.4203978E1,4.3274446E0,1.709052E1,6.888725E0,4.7522078E0,9.775066E0,3.195523E0,5.4808205E1,3.153585E0,2.3041676E1,9.132534E0,2.1182205E1,3.6597328E0,4.646403E1,3.342702E1,3.2275898E0,3.5776844E0,7.8748956E0,7.50103E1,3.160187E0,1.1043791E1,1.1602462E1,5.488059E0,3.5661497E0,3.3225753E0,5.6127357E0,4.1623306E0,5.15864E1,3.2218065E0,1.7818031E1,5.2236447E0,5.138865E0,3.9936688E0,1.606374E1,5.1184654E0,4.304255E1,3.4214797E0,1.3918517E1,1.9508505E1,3.3469756E0,4.5279202E0,6.592297E1,9.087324E0],"tree_param":{"num_deleted":"0","num_feature":"43","num_nodes":"65","size_leaf_vector":"1"}},{"base_weights":[1.2319383E-1,2.236476E-1,-6.543601E-2,4.623366E-1,1.2496778E-1,6.104362E-1,-1.2762204E-1,1.9189444E-1,6.512538E-1,1.219236E-1,9.5619395E-2,1.08498864E-1,-1.1498322E-2,-3.2167974E-1,7.882454E-2,4.9837753E-1,-1.3342616E-1,4.1208006E-2,7.588363E-1,6.191E-2,7.678114E-1,-4.0673792E-2,-5.2315587E-1,-2.3784967E-1,3.88284E-1,9.6937054E-1,-9.377339E-2,-7.411956E-2,1.1458069E-1,7.5679064E-2,-7.454794E-2,8.792217E-1,-7.3837437E-4,1.4872706E-1,-3.5260436E-1,4.8416805E-2,1.1495828E-1,7.337275E-2,-2.1680754E-1,-2.4749206E-1,-6.557093E-1,5.363474E-2,-6.2606317E-1,6.714261E-1,-2.564098E-1,3.922825E-2,1.2461548E-1,4.1896436E-2,-5.129903E-2,-2.816738E-2,6.726338E-2,4.7613185E-2,1.0635133E-1,3.199404E-3,4.910311E-2,-3.7502719E-3,-5.9386887E-2,4.373734E-2,-4.2887505E-2,3.6395773E-2,-5.501308E-2,-1.8586189E-2,-7.64468E-2,-4.712243E-2,4.0160935E-2,-2.287384E-2,-7.6503806E-2,1.2853837E-1,4.7529213E-2,2.6273657E-2,-7.4654914E-2],"categories":[],"categories_nodes":[],"categories_segments":[],"categories_sizes":[],"default_left":[0,0,0,0,0,0,0,0,0,0,0,0,0,0,0,0,0,0,0,0,0,0,0,0,0,0,0,0,0,0,0,0,0,0,0,0,0,0,0,0,0,0,0,0,0,0,0,0,0,0,0,0,0,0,0,0,0,0,0,0,0,0,0,0,0,0,0,0,0,0,0],"id":8,"left_children":[1,3,5,7,9,11,13,15,17,-1,19,-1,-1,21,23,25,27,29,31,33,35,37,39,41,43,45,47,-1,49,-1,-1,51,-1,53,55,-1,-1,-1,57,59,61,63,65,67,69,-1,-1,-1,-1,-1,-1,-1,-1,-1,-1,-1,-1,-1,-1,-1,-1,-1,-1,-1,-1,-1,-1,-1,-1,-1,-1],"loss_changes":[7.8037205E0,6.2597E0,5.9497538E0,3.8986511E0,5.9714956E0,4.2027116E0,5.264336E0,3.2856843E0,2.9215107E0,0E0,4.118331E0,0E0,0E0,3.772018E0,6.215326E0,4.816969E0,2.4370894E0,4.059121E0,3.664318E0,6.35486E0,7.2454834E-1,3.8609114E0,1.3254452E0,3.5827627E0,5.9272594E0,1.3094387E0,1.6419635E0,0E0,2.5164216E0,0E0,0E0,2.2930374E0,0E0,5.8050156E0,2.2520666E0,0E0,0E0,0E0,3.2721353E0,2.4685016E0,1.2274628E0,3.2488108E0,6.2874556E-1,2.4691057E0,2.5553885E0,0E0,0E0,0E0,0E0,0E0,0E0,0E0,0E0,0E0,0E0,0E0,0E0,0E0,0E0,0E0,0E0,0E0,0E0,0E0,0E0,0E0,0E0,0E0,0E0,0E0,0E0],"parents":[2147483647,0,0,1,1,2,2,3,3,4,4,5,5,6,6,7,7,8,8,10,10,13,13,14,14,15,15,16,16,17,17,18,18,19,19,20,20,21,21,22,22,23,23,24,24,25,25,26,26,28,28,31,31,33,33,34,34,38,38,39,39,40,40,41,41,42,42,43,43,44,44],"right_children":[2,4,6,8,10,12,14,16,18,-1,20,-1,-1,22,24,26,28,30,32,34,36,38,40,42,44,46,48,-1,50,-1,-1,52,-1,54,56,-1,-1,-1,58,60,62,64,66,68,70,-1,-1,-1,-1,-1,-1,-1,-1,-1,-1,-1,-1,-1,-1,-1,-1,-1,-1,-1,-1,-1,-1,-1,-1,-1,-1],"split_conditions":[3.9614588E-2,-1.5568054E-1,-1.3817386E-1,1.586E1,-8.156345E8,4E0,5.411583E-1,5.9962697E0,5.98E1,1.219236E-1,1.9131716E-1,1.08498864E-1,-1.1498322E-2,1.7111489E-1,5.2508755E0,1.383E1,-3.2537293E-1,-6.3975994E8,1.8151112E-1,8.00594E-1,1.575733E1,-1.0700902E1,9.9582E0,7.677803E-1,1.9547945E-1,9.915849E0,5.5250612E7,-7.411956E-2,1.025186E2,7.5679064E-2,-7.454794E-2,-2.36752E0,-7.3837437E-4,2.0638183E-1,2E0,4.8416805E-2,1.1495828E-1,7.337275E-2,9.374107E-1,-1.0095522E8,3.94E0,2.2645633E-1,3.104522E0,2.6058624E0,6.03234E1,3.922825E-2,1.2461548E-1,4.1896436E-2,-5.129903E-2,-2.816738E-2,6.726338E-2,4.7613185E-2,1.0635133E-1,3.199404E-3,4.910311E-2,-3.7502719E-3,-5.9386887E-2,4.373734E-2,-4.2887505E-2,3.6395773E-2,-5.501308E-2,-1.8586189E-2,-7.64468E-2,-4.712243E-2,4.0160935E-2,-2.287384E-2,-7.6503806E-2,1.2853837E-1,4.7529213E-2,2.6273657E-2,-7.4654914E-2],"split_indices":[4,14,17,25,3,27,18,7,5,0,17,0,0,18,7,25,14,3,17,18,13,24,29,18,14,29,32,0,37,0,0,13,0,14,27,0,0,0,10,30,28,4,8,13,23,0,0,0,0,0,0,0,0,0,0,0,0,0,0,0,0,0,0,0,0,0,0,0,0,0,0],"split_type":[0,0,0,0,0,0,0,0,0,0,0,0,0,0,0,0,0,0,0,0,0,0,0,0,0,0,0,0,0,0,0,0,0,0,0,0,0,0,0,0,0,0,0,0,0,0,0,0,0,0,0,0,0,0,0,0,0,0,0,0,0,0,0,0,0,0,0,0,0,0,0],"sum_hessian":[4.1082452E2,2.684008E2,1.4242375E2,7.810258E1,1.902982E2,1.17903185E1,1.3063342E2,3.2421246E1,4.5681328E1,4.775612E0,1.8552258E2,7.180976E0,4.6093426E0,6.755808E1,6.3075348E1,1.6824835E1,1.559641E1,7.0083494E0,3.867298E1,1.7690886E2,8.61373E0,2.8468527E1,3.9089554E1,3.1026001E1,3.2049347E1,9.429691E0,7.3951435E0,4.5791144E0,1.1017295E1,3.7385888E0,3.2697606E0,3.3521915E1,5.1510644E0,1.4652551E2,3.0383348E1,5.222411E0,3.3913188E0,5.111341E0,2.3357185E1,1.3030953E1,2.60586E1,1.7622786E1,1.3403215E1,2.2373936E1,9.675411E0,3.2521217E0,6.17757E0,3.2192492E0,4.1758943E0,6.3667874E0,4.650508E0,1.0800222E1,2.2721693E1,1.095635E2,3.6962013E1,1.340538E1,1.6977968E1,5.576655E0,1.7780529E1,4.1982145E0,8.832739E0,5.1218977E0,2.0936703E1,6.8970265E0,1.07257595E1,3.7282906E0,9.674925E0,5.1591268E0,1.721481E1,4.62212E0,5.053291E0],"tree_param":{"num_deleted":"0","num_feature":"43","num_nodes":"71","size_leaf_vector":"1"}},{"base_weights":[8.823247E-2,-4.0427396E-1,1.2426801E-1,-6.211705E-1,5.1677298E-2,-5.518542E-1,1.4634532E-1,-7.1977E-2,-2.2992978E-2,6.6524744E-2,-4.7022466E-2,-8.119875E-3,-7.082861E-2,4.8704407E-1,9.903213E-2,-3.967082E-2,5.579317E-1,-1.6427271E-1,1.5117131E-1,3.672446E-1,1.0626705E0,1.4675358E-1,-4.1668668E-1,4.299878E-1,7.792164E-2,-1.6960455E-2,5.8571655E-2,1.2405892E-1,6.818488E-2,5.865599E-2,-1.799315E-2,1.022712E-2,-6.539344E-2,-4.2631496E-2,5.9328016E-2,-6.6139996E-3,2.511449E-2],"categories":[],"categories_nodes":[],"categories_segments":[],"categories_sizes":[],"default_left":[0,0,0,0,0,0,0,0,0,0,0,0,0,0,0,0,0,0,0,0,0,0,0,0,0,0,0,0,0,0,0,0,0,0,0,0,0],"id":9,"left_children":[1,3,5,7,9,11,13,-1,-1,-1,-1,-1,-1,15,17,-1,19,21,23,25,27,29,31,33,35,-1,-1,-1,-1,-1,-1,-1,-1,-1,-1,-1,-1],"loss_changes":[7.1508684E0,2.7691827E0,5.5937757E0,6.1059046E-1,2.860437E0,7.8378916E-1,5.8237925E0,0E0,0E0,0E0,0E0,0E0,0E0,2.8104572E0,4.409006E0,0E0,3.774847E0,4.17832E0,5.426865E0,3.5860023E0,4.736414E-1,3.4348824E0,3.6754665E0,7.806654E0,5.3340693E0,0E0,0E0,0E0,0E0,0E0,0E0,0E0,0E0,0E0,0E0,0E0,0E0],"parents":[2147483647,0,0,1,1,2,2,3,3,4,4,5,5,6,6,13,13,14,14,16,16,17,17,18,18,19,19,20,20,21,21,22,22,23,23,24,24],"right_children":[2,4,6,8,10,12,14,-1,-1,-1,-1,-1,-1,16,18,-1,20,22,24,26,28,30,32,34,36,-1,-1,-1,-1,-1,-1,-1,-1,-1,-1,-1,-1],"split_conditions":[3.0844156E2,4.78E0,-2.2288845E1,5.594737E0,6.1216433E-2,1.37E1,-7.4789577E0,-7.1977E-2,-2.2992978E-2,6.6524744E-2,-4.7022466E-2,-8.119875E-3,-7.082861E-2,2.1E5,4.154832E1,-3.967082E-2,-9.267688E0,1.677E1,3.45E0,2.5284103E1,4.206193E1,3.2222786E1,2.11E5,1.818309E0,5.4324365E2,-1.6960455E-2,5.8571655E-2,1.2405892E-1,6.818488E-2,5.865599E-2,-1.799315E-2,1.022712E-2,-6.539344E-2,-4.2631496E-2,5.9328016E-2,-6.6139996E-3,2.511449E-2],"split_indices":[35,20,24,8,14,25,13,0,0,0,0,0,0,2,23,0,13,25,28,23,23,23,2,8,35,0,0,0,0,0,0,0,0,0,0,0,0],"split_type":[0,0,0,0,0,0,0,0,0,0,0,0,0,0,0,0,0,0,0,0,0,0,0,0,0,0,0,0,0,0,0,0,0,0,0,0,0],"sum_hessian":[4.0411188E2,2.729313E1,3.7681876E2,1.8619091E1,8.674039E0,1.1696034E1,3.651227E2,1.4600058E1,4.019035E0,4.0623307E0,4.611708E0,3.1150305E0,8.581004E0,4.415108E1,3.2097165E2,3.1395957E0,4.1011486E1,5.270028E1,2.6827136E2,3.0035242E1,1.0976242E1,2.3450315E1,2.9249962E1,5.543026E1,2.1284111E2,8.5615835E0,2.1473658E1,7.148247E0,3.8279955E0,1.0091282E1,1.3359034E1,9.062327E0,2.0187634E1,8.753508E0,4.667675E1,1.15920235E2,9.692087E1],"tree_param":{"num_deleted":"0","num_feature":"43","num_nodes":"37","size_leaf_vector":"1"}},{"base_weights":[-1.9885314E-1,-8.8955045E-2,-2.7249637E-1,-1.2468013E-1,8.514732E-2,1.7409893E-2,-3.348449E-1,5.2159756E-1,-1.6211766E-1,-2.1342176E-1,1.0765713E0,-4.5345435E-1,-2.2658381E-1,3.1209234E-3,1.073251E-1,3.005544E-2,-3.0678523E-1,-5.451189E-1,1.6317448E-1,1.580631E-1,4.8954647E-2,1.9695967E-2,-4.8145598E-1,1.760404E-1,-2.9994974E-1,-3.973463E-1,2.9970995E-1,4.7240686E-2,-4.0621E-1,-6.642899E-2,-9.0798567E-4,8.361445E-1,-5.13016E-2,-5.2905256E-1,-7.3749915E-2,8.1380665E-2,-2.025957E-1,-4.5830882E-1,-3.6617134E-2,1.6143827E-5,-6.034559E-2,3.4323048E-3,8.6496286E-2,-2.594893E-2,5.1104326E-2,1.0551282E-2,-4.6797078E-2,1.4291279E-1,1.5888698E-2,-6.438069E-2,-3.690491E-2,4.422632E-2,-6.304037E-2,2.1560742E-2,-6.4220205E-2,-5.0639924E-2,2.1066694E-3,-2.768448E-2,4.6339925E-2],"categories":[],"categories_nodes":[],"categories_segments":[],"categories_sizes":[],"default_left":[0,0,0,0,0,0,0,0,0,0,0,0,0,0,0,0,0,0,0,0,0,0,0,0,0,0,0,0,0,0,0,0,0,0,0,0,0,0,0,0,0,0,0,0,0,0,0,0,0,0,0,0,0,0,0,0,0,0,0],"id":10,"left_children":[1,3,5,7,-1,9,11,13,15,17,19,21,23,-1,-1,25,27,29,31,-1,-1,-1,33,35,37,39,41,43,45,-1,-1,47,-1,49,51,-1,53,55,57,-1,-1,-1,-1,-1,-1,-1,-1,-1,-1,-1,-1,-1,-1,-1,-1,-1,-1,-1,-1],"loss_changes":[2.803813E0,4.695547E0,3.8226166E0,3.2779326E0,0E0,9.137471E0,2.1414852E0,1.8767202E0,3.624899E0,3.8351789E0,1.698627E0,1.5304794E0,2.7062254E0,0E0,0E0,6.381423E0,2.646288E0,9.7253895E-1,6.508414E0,0E0,0E0,0E0,1.463892E0,3.4297903E0,3.169642E0,1.8064375E0,5.0283527E0,2.3313756E0,1.8770418E0,0E0,0E0,2.7090673E0,0E0,1.1653214E0,2.5076826E0,0E0,1.6545058E0,1.1558237E0,3.5196726E0,0E0,0E0,0E0,0E0,0E0,0E0,0E0,0E0,0E0,0E0,0E0,0E0,0E0,0E0,0E0,0E0,0E0,0E0,0E0,0E0],"parents":[2147483647,0,0,1,1,2,2,3,3,5,5,6,6,7,7,8,8,9,9,10,10,11,11,12,12,15,15,16,16,17,17,18,18,22,22,23,23,24,24,25,25,26,26,27,27,28,28,31,31,33,33,34,34,36,36,37,37,38,38],"right_children":[2,4,6,8,-1,10,12,14,16,18,20,22,24,-1,-1,26,28,30,32,-1,-1,-1,34,36,38,40,42,44,46,-1,-1,48,-1,50,52,-1,54,56,58,-1,-1,-1,-1,-1,-1,-1,-1,-1,-1,-1,-1,-1,-1,-1,-1,-1,-1,-1,-1],"split_conditions":[-8.115387E-1,6.470316E2,3.2623166E2,1.6088978E0,8.514732E-2,3.2429092E2,4.700004E0,8.082344E-3,1.586E1,3.7716937E0,-1.8998751E-1,1.1300752E0,1.4394757E0,3.1209234E-3,1.073251E-1,-7.4789577E0,5.6617388E7,9.343591E-1,5.513669E0,1.580631E-1,4.8954647E-2,1.9695967E-2,1.032534E2,4.9887244E-2,3.9E0,1.5139261E9,1.5788548E0,4.4073305E0,-3.734725E-1,-6.642899E-2,-9.0798567E-4,-6.954979E-2,-5.13016E-2,2.2513997E-2,2.467774E-1,8.1380665E-2,8.3461004E-1,2.4957386E9,7.5544853E0,1.6143827E-5,-6.034559E-2,3.4323048E-3,8.6496286E-2,-2.594893E-2,5.1104326E-2,1.0551282E-2,-4.6797078E-2,1.4291279E-1,1.5888698E-2,-6.438069E-2,-3.690491E-2,4.422632E-2,-6.304037E-2,2.1560742E-2,-6.4220205E-2,-5.0639924E-2,2.1066694E-3,-2.768448E-2,4.6339925E-2],"split_indices":[1,34,34,8,0,34,13,17,25,8,14,7,1,0,0,13,32,26,8,0,0,0,37,17,36,3,19,8,14,0,0,26,0,14,26,0,19,3,8,0,0,0,0,0,0,0,0,0,0,0,0,0,0,0,0,0,0,0,0],"split_type":[0,0,0,0,0,0,0,0,0,0,0,0,0,0,0,0,0,0,0,0,0,0,0,0,0,0,0,0,0,0,0,0,0,0,0,0,0,0,0,0,0,0,0,0,0,0,0,0,0,0,0,0,0,0,0,0,0,0,0],"sum_hessian":[3.5110394E2,1.4150868E2,2.0959526E2,1.365158E2,4.9928994E0,3.682689E1,1.7276837E2,7.25799E0,1.292578E2,3.0225117E1,6.60177E0,8.185096E1,9.091741E1,3.9942555E0,3.263734E0,5.5251263E1,7.400654E1,1.6187943E1,1.4037175E1,3.3691635E0,3.2326062E0,3.2060955E0,7.864486E1,1.3781743E1,7.7135666E1,2.1212038E1,3.4039227E1,1.6017843E1,5.7988697E1,1.3071449E1,3.1164935E0,7.097605E0,6.93957E0,7.017717E1,8.467688E0,5.1896257E0,8.592116E0,4.7885315E1,2.9250353E1,7.111459E0,1.4100578E1,2.3356367E1,1.06828575E1,9.538271E0,6.4795723E0,6.0630364E0,5.192566E1,3.6463313E0,3.451274E0,4.0327194E1,2.9849977E1,4.311692E0,4.1559954E0,4.312786E0,4.2793303E0,4.3703953E1,4.1813636E0,1.9923122E1,9.32723E0],"tree_param":{"num_deleted":"0","num_feature":"43","num_nodes":"59","size_leaf_vector":"1"}},{"base_weights":[1.003959E-1,8.64224E-1,8.001915E-2,1.11265086E-1,3.0964002E-2,9.757961E-2,-6.654652E-2,8.719864E-1,8.098995E-2,5.2239608E-2,1.1020445E-1,1.6235195E-1,-7.2844446E-2,5.869508E-1,1.1022036E-1,-3.733227E-1,2.5216933E-2,1.5215402E-2,1.0937854E-1,9.91084E-2,7.556822E-3,2.4307953E-2,-5.657186E-2,5.6052793E-2,-6.7556957E-3],"categories":[],"categories_nodes":[],"categories_segments":[],"categories_sizes":[],"default_left":[0,0,0,0,0,0,0,0,0,0,0,0,0,0,0,0,0,0,0,0,0,0,0,0,0],"id":11,"left_children":[1,3,5,-1,-1,7,-1,9,11,-1,-1,13,15,17,19,21,23,-1,-1,-1,-1,-1,-1,-1,-1],"loss_changes":[6.1794014E0,1.2489576E0,5.098237E0,0E0,0E0,4.8367743E0,0E0,4.174857E-1,4.724103E0,0E0,0E0,5.386644E0,3.8642197E0,5.7547274E0,6.605391E0,3.867929E0,4.9103255E0,0E0,0E0,0E0,0E0,0E0,0E0,0E0,0E0],"parents":[2147483647,0,0,1,1,2,2,5,5,7,7,8,8,11,11,12,12,13,13,14,14,15,15,16,16],"right_children":[2,4,6,-1,-1,8,-1,10,12,-1,-1,14,16,18,20,22,24,-1,-1,-1,-1,-1,-1,-1,-1],"split_conditions":[3.5E0,3.347751E-2,7.810184E1,1.11265086E-1,3.0964002E-2,2.9510358E2,-6.654652E-2,4.2101612E7,3.9614588E-2,5.2239608E-2,1.1020445E-1,3.153455E2,5.85556E5,-2.1E-1,8.050928E-1,2.567667E-1,4.719284E2,1.5215402E-2,1.0937854E-1,9.91084E-2,7.556822E-3,2.4307953E-2,-5.657186E-2,5.6052793E-2,-6.7556957E-3],"split_indices":[36,4,23,0,0,35,0,30,4,0,0,35,15,31,10,19,35,0,0,0,0,0,0,0,0],"split_type":[0,0,0,0,0,0,0,0,0,0,0,0,0,0,0,0,0,0,0,0,0,0,0,0,0],"sum_hessian":[4.0343423E2,1.0247696E1,3.9318652E2,6.8833466E0,3.3643498E0,3.8435382E2,8.832698E0,7.826534E0,3.7652728E2,3.4086227E0,4.417911E0,2.4669595E2,1.2983133E2,2.6654833E1,2.2004112E2,3.212708E1,9.7704254E1,1.4523191E1,1.2131642E1,8.114827E0,2.119263E2,7.5124426E0,2.4614637E1,1.4516555E1,8.31877E1],"tree_param":{"num_deleted":"0","num_feature":"43","num_nodes":"25","size_leaf_vector":"1"}},{"base_weights":[5.94338E-2,-4.519375E-1,8.355695E-2,1.5432316E-2,-5.837758E-1,-6.968877E-3,2.258362E-1,-7.081982E-2,-4.214758E-3,-4.9493708E-2,8.613866E-1,1.8690841E-1,1.0430949E-1,-9.309329E-2,4.1899985E-1,2.1954091E-2,1.1712461E-1,3.257465E-1,-0E0,-2.063791E-1,1.2276289E-1,6.9031316E-1,-7.2142474E-2,7.8405035E-1,1.7999412E-1,-1.1165048E-1,3.6908883E-1,-2.4634898E-2,5.5337556E-2,-5.3865433E-2,2.4198895E-2,-2.672284E-2,1.0399889E-1,2.068699E-2,1.0164743E-1,-2.3439785E-2,3.9838005E-2,-2.6507346E-2,4.1881107E-2,-3.7349943E-2,8.250077E-2],"categories":[],"categories_nodes":[],"categories_segments":[],"categories_sizes":[],"default_left":[0,0,0,0,0,0,0,0,0,0,0,0,0,0,0,0,0,0,0,0,0,0,0,0,0,0,0,0,0,0,0,0,0,0,0,0,0,0,0,0,0],"id":12,"left_children":[1,3,5,-1,7,9,11,-1,-1,13,15,17,-1,19,21,-1,-1,23,25,27,29,31,-1,33,35,37,39,-1,-1,-1,-1,-1,-1,-1,-1,-1,-1,-1,-1,-1,-1],"loss_changes":[5.058106E0,1.5243042E0,5.101781E0,0E0,9.521775E-1,8.811334E0,4.7502155E0,0E0,0E0,4.662526E0,2.0493298E0,3.8247786E0,0E0,5.1556716E0,6.042104E0,0E0,0E0,5.530917E0,2.57998E0,4.1832876E0,5.674739E0,5.386932E0,0E0,2.5641327E0,5.8511887E0,3.9233978E0,4.9927616E0,0E0,0E0,0E0,0E0,0E0,0E0,0E0,0E0,0E0,0E0,0E0,0E0,0E0,0E0],"parents":[2147483647,0,0,1,1,2,2,4,4,5,5,6,6,9,9,10,10,11,11,13,13,14,14,17,17,18,18,19,19,20,20,21,21,23,23,24,24,25,25,26,26],"right_children":[2,4,6,-1,8,10,12,-1,-1,14,16,18,-1,20,22,-1,-1,24,26,28,30,32,-1,34,36,38,40,-1,-1,-1,-1,-1,-1,-1,-1,-1,-1,-1,-1,-1,-1],"split_conditions":[1.009894E1,-6.4218134E-1,7.9981424E-2,1.5432316E-2,9.4155806E-1,7.5768616E7,7.3526886E1,-7.081982E-2,-4.214758E-3,6.3139453E2,-6.148786E8,4.38E0,1.0430949E-1,3.9614588E-2,-1.7600123E-2,2.1954091E-2,1.1712461E-1,5.2109296E2,5E0,2.0100931E1,-1.1140954E-1,1.9427092E1,-7.2142474E-2,-3.4903054E0,5.535755E2,4.52E0,3.569387E-1,-2.4634898E-2,5.5337556E-2,-5.3865433E-2,2.4198895E-2,-2.672284E-2,1.0399889E-1,2.068699E-2,1.0164743E-1,-2.3439785E-2,3.9838005E-2,-2.6507346E-2,4.1881107E-2,-3.7349943E-2,8.250077E-2],"split_indices":[22,1,14,0,18,30,23,0,0,34,3,20,0,4,14,0,0,34,20,16,17,22,0,16,35,28,18,0,0,0,0,0,0,0,0,0,0,0,0,0,0],"split_type":[0,0,0,0,0,0,0,0,0,0,0,0,0,0,0,0,0,0,0,0,0,0,0,0,0,0,0,0,0,0,0,0,0,0,0,0,0,0,0,0,0],"sum_hessian":[4.1261197E2,1.832086E1,3.942911E2,3.1339195E0,1.518694E1,2.4060031E2,1.5369078E2,1.2174779E1,3.0121617E0,2.2956747E2,1.1032845E1,1.4693709E2,6.7537007E0,2.102907E2,1.9276777E1,3.7528129E0,7.280032E0,8.435403E1,6.2583057E1,1.3821844E2,7.207225E1,1.5674809E1,3.6019678E0,2.008252E1,6.427151E1,4.816038E1,1.4422675E1,1.3149959E2,6.718856E0,1.082562E1,6.1246628E1,4.1227617E0,1.1552048E1,5.9431334E0,1.4139386E1,2.2020985E1,4.2250526E1,3.754109E1,1.0619292E1,5.409907E0,9.012769E0],"tree_param":{"num_deleted":"0","num_feature":"43","num_nodes":"41","size_leaf_vector":"1"}},{"base_weights":[-1.6157605E-1,6.001052E-1,-1.7955205E-1,4.5834607E-3,1.15331315E-1,4.7695392E-1,-1.950539E-1,1.18602216E-1,-1.4812462E-2,-5.2351825E-2,-2.6425016E-1,2.3849119E-1,-1.4993872E-1,-3.0298004E-1,7.203927E-2,6.4410114E-1,-1.5320252E-1,-3.0913764E-1,1.4556128E-1,-2.3654792E-1,-4.7615835E-1,-4.0136003E-1,3.328044E-1,-1.8463606E-2,1.02951385E-1,-5.40045E-2,3.842439E-2,-3.867692E-2,8.3498016E-2,4.315401E-2,-1.1271002E-2,-5.724832E-3,-3.529323E-2,-0E0,-5.1872563E-2,-6.3752316E-2,-1.7860666E-3,2.4929922E-3,9.068262E-2],"categories":[],"categories_nodes":[],"categories_segments":[],"categories_sizes":[],"default_left":[0,0,0,0,0,0,0,0,0,0,0,0,0,0,0,0,0,0,0,0,0,0,0,0,0,0,0,0,0,0,0,0,0,0,0,0,0,0,0],"id":13,"left_children":[1,3,5,-1,-1,7,9,-1,-1,11,13,15,17,19,21,23,25,27,29,31,33,35,37,-1,-1,-1,-1,-1,-1,-1,-1,-1,-1,-1,-1,-1,-1,-1,-1],"loss_changes":[4.6020117E0,2.2348726E0,3.3476572E0,0E0,0E0,3.4504251E0,3.1602173E0,0E0,0E0,3.0089314E0,2.855317E0,4.263131E0,3.776679E0,2.162386E0,2.7537043E0,4.302017E0,2.8259E0,4.61825E0,2.0901132E0,2.9128218E0,1.0395784E0,6.409823E-1,2.4743004E0,0E0,0E0,0E0,0E0,0E0,0E0,0E0,0E0,0E0,0E0,0E0,0E0,0E0,0E0,0E0,0E0],"parents":[2147483647,0,0,1,1,2,2,5,5,6,6,9,9,10,10,11,11,12,12,13,13,14,14,15,15,16,16,17,17,18,18,19,19,20,20,21,21,22,22],"right_children":[2,4,6,-1,-1,8,10,-1,-1,12,14,16,18,20,22,24,26,28,30,32,34,36,38,-1,-1,-1,-1,-1,-1,-1,-1,-1,-1,-1,-1,-1,-1,-1,-1],"split_conditions":[2.68E0,1.8052917E1,1.0484066E0,4.5834607E-3,1.15331315E-1,-2.6598781E-2,1.026309E2,1.18602216E-1,-1.4812462E-2,-4.4728003E0,4.9997538E-1,-6.790028E0,8.201673E-1,-2.1E-1,3.01E0,3.11E0,6.7328653E0,1.6934034E1,9.3867713E-1,1.5139261E9,-9.390632E8,9.1352826E-1,-4E-1,-1.8463606E-2,1.02951385E-1,-5.40045E-2,3.842439E-2,-3.867692E-2,8.3498016E-2,4.315401E-2,-1.1271002E-2,-5.724832E-3,-3.529323E-2,-0E0,-5.1872563E-2,-6.3752316E-2,-1.7860666E-3,2.4929922E-3,9.068262E-2],"split_indices":[20,22,7,0,0,17,37,0,0,13,4,16,18,31,33,20,7,16,18,3,3,19,31,0,0,0,0,0,0,0,0,0,0,0,0,0,0,0,0],"split_type":[0,0,0,0,0,0,0,0,0,0,0,0,0,0,0,0,0,0,0,0,0,0,0,0,0,0,0,0,0,0,0,0,0,0,0,0,0,0,0],"sum_hessian":[3.382943E2,7.596888E0,3.3069742E2,3.939185E0,3.657703E0,7.411038E0,3.2328638E2,3.5051515E0,3.9058867E0,1.0609975E2,2.1718663E2,2.6362167E1,7.973758E1,1.9503236E2,2.2154278E1,1.3044785E1,1.3317383E1,5.2036835E1,2.7700748E1,1.4154788E2,5.3484478E1,7.7135363E0,1.4440742E1,4.0750346E0,8.96975E0,7.851571E0,5.4658117E0,4.8874184E1,3.162651E0,1.3297161E1,1.4403586E1,5.6111675E1,8.54362E1,4.570071E0,4.8914406E1,4.5714145E0,3.142122E0,9.580713E0,4.8600287E0],"tree_param":{"num_deleted":"0","num_feature":"43","num_nodes":"39","size_leaf_vector":"1"}},{"base_weights":[7.757589E-2,1.9940707E-1,-2.2473445E-2,2.7644268E-1,-3.0559278E-1,5.410743E-1,-9.912894E-2,2.0922068E-1,9.2949164E-1,3.2539186E-1,-6.177412E-1,7.479242E-1,-6.904055E-2,-3.172497E-1,4.86471E-2,-2.3994332E-2,3.4762257E-1,1.15491845E-1,9.446607E-3,1.0187159E-1,-4.6210676E-2,-7.332123E-2,-1.7094871E-2,-2.3881232E-2,9.548621E-1,-7.2623506E-2,5.2277394E-2,-4.062995E-1,2.7026448E-2,8.9726675E-1,-2.268658E-2,4.4760072E-1,-1.896377E-1,7.269907E-1,1.2824084E-1,1.0975126E-1,6.561247E-2,-5.0814253E-1,-7.9276655E-3,9.5296256E-2,-2.0757413E-1,1.1970776E-1,3.3016205E-2,1.421093E-1,-3.0321E-1,8.01927E-2,-6.5698745E-3,-7.6674186E-2,1.4587207E-3,2.6194299E-2,8.938674E-2,4.2541504E-2,-2.5571248E-2,-2.1336999E-2,-6.2049728E-2,5.0452556E-2,-7.4331455E-2,2.747343E-2,-5.8089733E-2,5.6111645E-2,-2.747008E-3,1.8227648E-2,-5.4686148E-2],"categories":[],"categories_nodes":[],"categories_segments":[],"categories_sizes":[],"default_left":[0,0,0,0,0,0,0,0,0,0,0,0,0,0,0,0,0,0,0,0,0,0,0,0,0,0,0,0,0,0,0,0,0,0,0,0,0,0,0,0,0,0,0,0,0,0,0,0,0,0,0,0,0,0,0,0,0,0,0,0,0,0,0],"id":14,"left_children":[1,3,5,7,9,11,13,15,17,19,21,23,25,27,29,31,33,-1,-1,-1,-1,-1,-1,-1,35,-1,-1,37,39,41,43,45,47,49,51,-1,-1,53,55,-1,57,-1,-1,59,61,-1,-1,-1,-1,-1,-1,-1,-1,-1,-1,-1,-1,-1,-1,-1,-1,-1,-1],"loss_changes":[4.9928255E0,7.182762E0,9.626268E0,6.9035807E0,4.8343086E0,3.4361339E0,6.3842974E0,4.732918E0,2.6486282E0,4.4707E0,7.428417E-1,4.1848145E0,2.6705425E0,2.489336E0,7.1939654E0,4.205052E0,7.5330286E0,0E0,0E0,0E0,0E0,0E0,0E0,0E0,4.6271896E-1,0E0,0E0,2.533887E0,3.6324327E0,1.3739147E0,5.0247035E0,2.6111584E0,4.817678E0,2.4524784E0,6.686696E0,0E0,0E0,1.5778332E0,5.065309E0,0E0,2.3857255E0,0E0,0E0,4.8890657E0,4.815337E0,0E0,0E0,0E0,0E0,0E0,0E0,0E0,0E0,0E0,0E0,0E0,0E0,0E0,0E0,0E0,0E0,0E0,0E0],"parents":[2147483647,0,0,1,1,2,2,3,3,4,4,5,5,6,6,7,7,8,8,9,9,10,10,11,11,12,12,13,13,14,14,15,15,16,16,24,24,27,27,28,28,29,29,30,30,31,31,32,32,33,33,34,34,37,37,38,38,40,40,43,43,44,44],"right_children":[2,4,6,8,10,12,14,16,18,20,22,24,26,28,30,32,34,-1,-1,-1,-1,-1,-1,-1,36,-1,-1,38,40,42,44,46,48,50,52,-1,-1,54,56,-1,58,-1,-1,60,62,-1,-1,-1,-1,-1,-1,-1,-1,-1,-1,-1,-1,-1,-1,-1,-1,-1,-1],"split_conditions":[-3.7E-1,6.95792E2,3.1118634E2,7.01E1,5.8758276E7,4.7139072E0,-1.4E-1,-1.7455638E8,1.3297741E-1,-2.0618214E8,1.3298224E1,-9.610835E0,2.4960594E0,1.9488944E0,-1.5578993E1,9.210419E-1,-9.77604E7,1.15491845E-1,9.446607E-3,1.0187159E-1,-4.6210676E-2,-7.332123E-2,-1.7094871E-2,-2.3881232E-2,3.4739585E0,-7.2623506E-2,5.2277394E-2,4.54E0,1.4366258E9,1.4223948E9,9.553553E-2,1.7902443E1,4.17E0,-7.8E-1,1.1765962E0,1.0975126E-1,6.561247E-2,3.7608304E0,1.2500291E0,9.5296256E-2,3.954897E0,1.1970776E-1,3.3016205E-2,1.789E1,-2.437792E0,8.01927E-2,-6.5698745E-3,-7.6674186E-2,1.4587207E-3,2.6194299E-2,8.938674E-2,4.2541504E-2,-2.5571248E-2,-2.1336999E-2,-6.2049728E-2,5.0452556E-2,-7.4331455E-2,2.747343E-2,-5.8089733E-2,5.6111645E-2,-2.747008E-3,1.8227648E-2,-5.4686148E-2],"split_indices":[31,35,35,5,32,8,31,30,17,30,8,16,7,19,16,10,30,0,0,0,0,0,0,0,8,0,0,33,3,3,14,29,33,31,1,0,0,7,13,0,8,0,0,25,1,0,0,0,0,0,0,0,0,0,0,0,0,0,0,0,0,0,0],"split_type":[0,0,0,0,0,0,0,0,0,0,0,0,0,0,0,0,0,0,0,0,0,0,0,0,0,0,0,0,0,0,0,0,0,0,0,0,0,0,0,0,0,0,0,0,0,0,0,0,0,0,0,0,0,0,0,0,0,0,0,0,0,0,0],"sum_hessian":[4.080247E2,1.8439052E2,2.2363417E2,1.6019649E2,2.4194027E1,2.6548363E1,1.9708582E2,1.455041E2,1.4692392E1,7.9000554E0,1.629397E1,1.9932032E1,6.6163306E0,7.982473E1,1.1726108E2,5.395202E1,9.155208E1,1.1444675E1,3.2477164E0,4.2531505E0,3.646905E0,1.2718915E1,3.5750558E0,3.3690135E0,1.6563019E1,3.2042992E0,3.4120317E0,6.3636963E1,1.6187767E1,9.111409E0,1.08149666E2,1.3823082E1,4.0128937E1,3.3292854E1,5.8259224E1,1.0802554E1,5.7604637E0,5.045871E1,1.3178253E1,3.2965984E0,1.2891169E1,5.772333E0,3.3390756E0,6.7934074E1,4.021559E1,8.259919E0,5.563163E0,1.0544951E1,2.9583986E1,9.017983E0,2.4274874E1,3.29816E1,2.5277624E1,1.4250699E1,3.620801E1,7.7046733E0,5.4735794E0,5.5192347E0,7.3719344E0,1.9676062E1,4.8258015E1,1.3309863E1,2.690573E1],"tree_param":{"num_deleted":"0","num_feature":"43","num_nodes":"63","size_leaf_vector":"1"}},{"base_weights":[9.701189E-2,-6.033319E-2,1.1518036E-1,-4.13324E-1,1.3870847E-1,-1.0865381E-1,-6.857357E-2,8.433243E-1,1.2378777E-1,-4.9001426E-2,4.6855167E-2,1.1851903E-1,3.4618866E-2,-1.8315604E-2,1.9052051E-1,-1.2289385E-1,2.9464337E-1,1.594585E-1,6.418068E-1,2.08493E-2,-2.0706264E-2,7.4031755E-2,-4.1373026E-2,6.0273807E-2,1.251611E-2,8.827068E-2,-3.5730656E-2],"categories":[],"categories_nodes":[],"categories_segments":[],"categories_sizes":[],"default_left":[0,0,0,0,0,0,0,0,0,0,0,0,0,0,0,0,0,0,0,0,0,0,0,0,0,0,0],"id":15,"left_children":[1,-1,3,5,7,9,-1,11,13,-1,-1,-1,-1,15,17,19,21,23,25,-1,-1,-1,-1,-1,-1,-1,-1],"loss_changes":[5.139567E0,0E0,4.916566E0,1.3049774E0,3.8928437E0,1.8320019E0,0E0,1.120153E0,3.5531363E0,0E0,0E0,0E0,0E0,3.8729804E0,3.4727564E0,2.4954548E0,9.386844E0,3.5404272E0,3.9659743E0,0E0,0E0,0E0,0E0,0E0,0E0,0E0,0E0],"parents":[2147483647,0,0,2,2,3,3,4,4,5,5,7,7,8,8,13,13,14,14,15,15,16,16,17,17,18,18],"right_children":[2,-1,4,6,8,10,-1,12,14,-1,-1,-1,-1,16,18,20,22,24,26,-1,-1,-1,-1,-1,-1,-1,-1],"split_conditions":[-2.2288845E1,-6.033319E-2,1.009894E1,3.2071954E2,-4.721819E-2,2.7455068E0,-6.857357E-2,3.89E0,-1.04356006E-1,-4.9001426E-2,4.6855167E-2,1.1851903E-1,3.4618866E-2,2.0723858E1,7.3526886E1,1.1493022E1,5.0115824E0,2.91299E2,1.7607468E1,2.08493E-2,-2.0706264E-2,7.4031755E-2,-4.1373026E-2,6.0273807E-2,1.251611E-2,8.827068E-2,-3.5730656E-2],"split_indices":[24,0,22,34,18,7,0,20,14,0,0,0,0,22,23,22,24,0,13,0,0,0,0,0,0,0,0],"split_type":[0,0,0,0,0,0,0,0,0,0,0,0,0,0,0,0,0,0,0,0,0,0,0,0,0,0,0],"sum_hessian":[4.071116E2,1.0073706E1,3.970379E2,1.6670345E1,3.8036755E2,8.108561E0,8.561785E0,7.6334004E0,3.7273416E2,4.996031E0,3.11253E0,4.321839E0,3.3115616E0,1.1865004E2,2.5408412E2,8.921744E1,2.94326E1,2.3805568E2,1.6028437E1,1.7800005E1,7.1417435E1,1.81501E1,1.12825E1,1.6767654E1,2.2128802E2,1.300459E1,3.0238461E0],"tree_param":{"num_deleted":"0","num_feature":"43","num_nodes":"27","size_leaf_vector":"1"}},{"base_weights":[-1.7944658E-1,-1.8898478E-1,7.561968E-2,-2.2644088E-1,5.9012286E-2,-3.0364972E-1,-8.2342535E-2,3.5958886E-1,-2.3808838E-1,2.5067044E-2,-3.1974515E-1,1.6378876E-2,-3.9879307E-1,7.1459895E-1,-2.7746117E-1,3.2143332E-2,-4.1260117E-1,-2.4537723E-1,-4.9350628E-1,7.357896E-2,-6.257441E-2,6.736363E-2,-5.8319074E-1,1.0150715E-2,1.1719866E0,9.497701E-3,-6.409951E-2,1.9146536E-2,-5.7611126E-1,-2.7884934E-2,3.141279E-2,-1.5159272E-2,-5.869764E-2,-3.859626E-3,3.9469473E-2,5.7274323E-2,-3.3857126E-2,-6.392129E-2,-2.890935E-2,1.5343142E-1,6.6208385E-2,-6.471994E-2,-2.9509688E-2],"categories":[],"categories_nodes":[],"categories_segments":[],"categories_sizes":[],"default_left":[0,0,0,0,0,0,0,0,0,0,0,0,0,0,0,0,0,0,0,0,0,0,0,0,0,0,0,0,0,0,0,0,0,0,0,0,0,0,0,0,0,0,0],"id":16,"left_children":[1,3,-1,5,7,9,11,13,15,-1,17,19,21,23,25,-1,27,29,31,33,-1,35,37,-1,39,-1,-1,-1,41,-1,-1,-1,-1,-1,-1,-1,-1,-1,-1,-1,-1,-1,-1],"loss_changes":[2.9053106E0,3.0570278E0,0E0,3.1252499E0,3.830059E0,1.663887E0,3.1591508E0,4.9059906E0,2.106629E0,0E0,2.237732E0,2.7402534E0,2.1180289E0,3.752502E0,1.0942104E0,0E0,1.6743484E0,2.3748631E0,1.6236486E0,2.5586836E0,0E0,1.4249277E0,1.7466831E-1,0E0,1.128253E0,0E0,0E0,0E0,1.4839935E-1,0E0,0E0,0E0,0E0,0E0,0E0,0E0,0E0,0E0,0E0,0E0,0E0,0E0,0E0],"parents":[2147483647,0,0,1,1,3,3,4,4,5,5,6,6,7,7,8,8,10,10,11,11,12,12,13,13,14,14,16,16,17,17,18,18,19,19,21,21,22,22,24,24,28,28],"right_children":[2,4,-1,6,8,10,12,14,16,-1,18,20,22,24,26,-1,28,30,32,34,-1,36,38,-1,40,-1,-1,-1,42,-1,-1,-1,-1,-1,-1,-1,-1,-1,-1,-1,-1,-1,-1],"split_conditions":[4.86E0,2.37E5,7.561968E-2,3.728854E0,-9.7635275E-1,1.1300752E0,6.0321884E0,1.0583888E0,5.3988372E7,2.5067044E-2,2.23E5,1.735E3,1.357E1,-7.1971087E0,2.0541558E9,3.2143332E-2,2.0771408E-1,2.1942438E9,1.348E1,2.103302E-1,-6.257441E-2,1.1685776E0,2.5405066E0,1.0150715E-2,-2.2235088E0,9.497701E-3,-6.409951E-2,1.9146536E-2,6.6547134E1,-2.7884934E-2,3.141279E-2,-1.5159272E-2,-5.869764E-2,-3.859626E-3,3.9469473E-2,5.7274323E-2,-3.3857126E-2,-6.392129E-2,-2.890935E-2,1.5343142E-1,6.6208385E-2,-6.471994E-2,-2.9509688E-2],"split_indices":[33,2,0,13,1,7,1,6,32,0,2,12,25,13,3,0,19,3,25,4,0,19,19,0,13,0,0,0,23,0,0,0,0,0,0,0,0,0,0,0,0,0,0],"split_type":[0,0,0,0,0,0,0,0,0,0,0,0,0,0,0,0,0,0,0,0,0,0,0,0,0,0,0,0,0,0,0,0,0,0,0,0,0,0,0,0,0,0,0],"sum_hessian":[3.3020306E2,3.2705566E2,3.1474123E0,2.844985E2,4.255715E1,1.8471974E2,9.9778755E1,2.1311686E1,2.1245464E1,4.9958053E0,1.7972394E2,7.588434E1,2.3894417E1,1.3778252E1,7.533433E0,4.8947473E0,1.6350718E1,1.2642998E2,5.3293964E1,6.990179E1,5.9825516E0,6.637075E0,1.7257341E1,6.0327096E0,7.7455425E0,3.6217601E0,3.911673E0,3.3491275E0,1.3001591E1,1.19509285E2,6.920693E0,1.1727358E1,4.156661E1,5.163924E1,1.8262545E1,3.0478384E0,3.5892365E0,1.4111832E1,3.1455102E0,4.295921E0,3.4496214E0,9.988613E0,3.0129771E0],"tree_param":{"num_deleted":"0","num_feature":"43","num_nodes":"43","size_leaf_vector":"1"}},{"base_weights":[8.865269E-2,-2.0793478E-1,1.4874642E-1,2.0467603E-1,-3.567983E-1,1.7502335E-1,-3.6658746E-1,-2.4080947E-2,8.5747235E-2,3.57131E-1,-4.8966342E-1,3.535398E-1,8.418863E-2,-6.359885E-1,4.9452167E-2,3.7450922E-1,-5.5640515E-2,1.0508137E-1,-4.4376537E-2,-5.720642E-1,-7.2760545E-2,6.49129E-1,1.9355687E-1,1.2593736E-1,-4.813812E-1,-7.097754E-2,-3.6147248E-2,-1.4335269E-2,7.849333E-2,-1.613644E-2,-6.3506997E-1,4.793411E-2,-6.909731E-2,1.476113E-1,9.473905E-1,-3.2878995E-1,3.3972672E-1,-6.122404E-2,1.5470183E-1,-2.1755964E-1,-7.32252E-2,-3.2710757E-2,-6.891451E-2,6.46679E-2,-7.426773E-2,1.17405154E-1,6.1237723E-2,2.8904546E-2,-5.826552E-2,-2.389705E-2,4.3091547E-2,4.937511E-2,8.038879E-3,1.483952E-2,-7.175312E-2],"categories":[],"categories_nodes":[],"categories_segments":[],"categories_sizes":[],"default_left":[0,0,0,0,0,0,0,0,0,0,0,0,0,0,0,0,0,0,0,0,0,0,0,0,0,0,0,0,0,0,0,0,0,0,0,0,0,0,0,0,0,0,0,0,0,0,0,0,0,0,0,0,0,0,0],"id":17,"left_children":[1,3,5,7,9,11,13,15,-1,17,19,21,23,25,-1,27,-1,-1,-1,29,31,33,35,37,39,-1,-1,-1,-1,-1,41,-1,-1,43,45,47,49,-1,51,53,-1,-1,-1,-1,-1,-1,-1,-1,-1,-1,-1,-1,-1,-1,-1],"loss_changes":[7.2241793E0,4.2040377E0,4.5576E0,2.7636523E0,4.7965984E0,5.16469E0,3.8089182E0,2.8535297E0,0E0,4.453561E0,1.392046E0,5.009472E0,5.011787E0,1.20186806E-1,0E0,1.6774569E0,0E0,0E0,0E0,8.232355E-1,2.5568035E0,5.5094357E0,5.389151E0,4.190692E0,8.5096097E-1,0E0,0E0,0E0,0E0,0E0,3.812399E-1,0E0,0E0,6.386367E0,1.5316658E0,2.4458146E0,2.9436946E0,0E0,4.771595E0,1.425223E0,0E0,0E0,0E0,0E0,0E0,0E0,0E0,0E0,0E0,0E0,0E0,0E0,0E0,0E0,0E0],"parents":[2147483647,0,0,1,1,2,2,3,3,4,4,5,5,6,6,7,7,9,9,10,10,11,11,12,12,13,13,15,15,19,19,20,20,21,21,22,22,23,23,24,24,30,30,33,33,34,34,35,35,36,36,38,38,39,39],"right_children":[2,4,6,8,10,12,14,16,-1,18,20,22,24,26,-1,28,-1,-1,-1,30,32,34,36,38,40,-1,-1,-1,-1,-1,42,-1,-1,44,46,48,50,-1,52,54,-1,-1,-1,-1,-1,-1,-1,-1,-1,-1,-1,-1,-1,-1,-1],"split_conditions":[1.354E1,7.039514E-1,6.95792E2,2.28E5,3.004289E-1,-4.1E-1,1.795E1,7.7166715E0,8.5747235E-2,1.6104914E9,1.1300763E0,1.72E1,1.9410193E9,6.958113E-1,4.9452167E-2,-7.493495E0,-5.5640515E-2,1.0508137E-1,-4.4376537E-2,5.5250612E7,5.9962697E0,3.4391487E1,4.23E0,4.994261E7,-7.188744E-2,-7.097754E-2,-3.6147248E-2,-1.4335269E-2,7.849333E-2,-1.613644E-2,3.7355824E0,4.793411E-2,-6.909731E-2,-9.197559E0,4.09E0,-9.426207E0,3.921862E6,-6.122404E-2,-6.3975994E8,6.8948407E0,-7.32252E-2,-3.2710757E-2,-6.891451E-2,6.46679E-2,-7.426773E-2,1.17405154E-1,6.1237723E-2,2.8904546E-2,-5.826552E-2,-2.389705E-2,4.3091547E-2,4.937511E-2,8.038879E-3,1.483952E-2,-7.175312E-2],"split_indices":[25,6,35,2,19,31,25,7,0,3,26,25,3,26,0,24,0,0,0,32,7,23,20,32,26,0,0,0,0,0,7,0,0,1,20,24,3,0,3,24,0,0,0,0,0,0,0,0,0,0,0,0,0,0,0],"split_type":[0,0,0,0,0,0,0,0,0,0,0,0,0,0,0,0,0,0,0,0,0,0,0,0,0,0,0,0,0,0,0,0,0,0,0,0,0,0,0,0,0,0,0,0,0,0,0,0,0,0,0,0,0,0,0],"sum_hessian":[4.053866E2,6.7977806E1,3.374088E2,1.7834892E1,5.0142914E1,3.2128647E2,1.6122349E1,1.3164743E1,4.6701484E0,7.723028E0,4.2419884E1,1.0788034E2,2.1340611E2,1.2388756E1,3.7335935E0,7.4375186E0,5.727225E0,4.188707E0,3.5343215E0,3.5187916E1,7.231968E0,3.755738E1,7.032296E1,1.9897305E2,1.443307E1,9.352162E0,3.036593E0,3.2094028E0,4.2281156E0,4.938677E0,3.0249239E1,3.7466695E0,3.4852982E0,1.418705E1,2.337033E1,1.5199072E1,5.5123886E1,7.2560945E0,1.9171695E2,7.3202534E0,7.1128163E0,4.89963E0,2.534961E1,9.18046E0,5.0065904E0,1.3611921E1,9.7584095E0,4.3076687E0,1.0891402E1,7.332444E0,4.7791443E1,3.412291E1,1.5759404E2,4.151711E0,3.1685424E0],"tree_param":{"num_deleted":"0","num_feature":"43","num_nodes":"55","size_leaf_vector":"1"}},{"base_weights":[5.9328128E-2,2.687866E-2,5.390235E-1,5.698973E-2,-6.160629E-1,6.957946E-1,-4.8551377E-2,-3.8497475E-1,8.8974945E-2,-7.1808085E-2,-1.4176922E-2,8.960858E-1,-4.4660684E-2,-6.2955457E-1,6.5175414E-2,-8.2294576E-2,1.6872266E-1,5.5995204E-2,1.01518944E-1,-3.055935E-2,-6.9384895E-2,8.002358E-2,-4.7299396E-2,7.6043695E-2,-5.730825E-1,-2.4811302E-1,2.381788E-1,-1.2588064E-2,4.013693E-2,-1.3804679E-2,-7.193378E-2,-6.0020622E-2,2.0965596E-3,-5.102052E-2,2.5871417E-2],"categories":[],"categories_nodes":[],"categories_segments":[],"categories_sizes":[],"default_left":[0,0,0,0,0,0,0,0,0,0,0,0,0,0,0,0,0,0,0,0,0,0,0,0,0,0,0,0,0,0,0,0,0,0,0],"id":18,"left_children":[1,3,5,7,9,11,-1,13,15,-1,-1,17,-1,19,21,23,25,-1,-1,-1,-1,-1,-1,27,29,31,33,-1,-1,-1,-1,-1,-1,-1,-1],"loss_changes":[6.3271103E0,7.39163E0,4.1971235E0,5.169634E0,7.294154E-1,5.2316732E0,0E0,2.770315E0,4.69536E0,0E0,0E0,5.561285E-1,0E0,2.1421719E-1,3.4771714E0,8.497408E0,6.7937164E0,0E0,0E0,0E0,0E0,0E0,0E0,5.424709E0,1.6011515E0,3.217325E0,3.0809584E0,0E0,0E0,0E0,0E0,0E0,0E0,0E0,0E0],"parents":[2147483647,0,0,1,1,2,2,3,3,4,4,5,5,7,7,8,8,11,11,13,13,14,14,15,15,16,16,23,23,24,24,25,25,26,26],"right_children":[2,4,6,8,10,12,-1,14,16,-1,-1,18,-1,20,22,24,26,-1,-1,-1,-1,-1,-1,28,30,32,34,-1,-1,-1,-1,-1,-1,-1,-1],"split_conditions":[6.884766E2,6.4999475E2,3.4678247E0,3.0844156E2,6.6316496E7,1.795E1,-4.8551377E-2,4.78E0,1.361E3,-7.1808085E-2,-1.4176922E-2,1.365E1,-4.4660684E-2,9.632279E0,2.811E1,3.31E0,-1.3771564E1,5.5995204E-2,1.01518944E-1,-3.055935E-2,-6.9384895E-2,8.002358E-2,-4.7299396E-2,2.7477381E0,2.2919245E0,1.717171E1,1.009894E1,-1.2588064E-2,4.013693E-2,-1.3804679E-2,-7.193378E-2,-6.0020622E-2,2.0965596E-3,-5.102052E-2,2.5871417E-2],"split_indices":[35,35,19,35,32,25,0,20,12,0,0,25,0,22,25,20,16,0,0,0,0,0,0,13,24,22,22,0,0,0,0,0,0,0,0],"split_type":[0,0,0,0,0,0,0,0,0,0,0,0,0,0,0,0,0,0,0,0,0,0,0,0,0,0,0,0,0,0,0,0,0,0,0],"sum_hessian":[4.1010217E2,3.844123E2,2.5689882E1,3.6745007E2,1.6962227E1,2.2393066E1,3.2968159E0,2.4512457E1,3.4293762E2,1.3743776E1,3.2184503E0,1.9145485E1,3.2475808E0,1.6000957E1,8.511498E0,1.0855126E2,2.3438635E2,5.377857E0,1.3767628E1,3.0025585E0,1.29984E1,3.655602E0,4.8558965E0,8.198271E1,2.6568556E1,3.323458E1,2.0115178E2,5.0433422E1,3.154929E1,6.9057026E0,1.9662853E1,1.4504204E1,1.8730375E1,5.178386E0,1.9597339E2],"tree_param":{"num_deleted":"0","num_feature":"43","num_nodes":"35","size_leaf_vector":"1"}},{"base_weights":[-1.6936694E-1,-1.8637025E-1,4.9251676E-1,-6.681767E-2,-2.651758E-1,-0E0,1.00504674E-1,-1.8726999E-1,1.5991414E-1,1.7943211E-1,-2.992836E-1,4.7026202E-1,-2.4632442E-1,-2.1969303E-1,3.6809787E-1,-4.4693958E-2,6.2812203E-1,-4.5415387E-1,-2.3907635E-1,-5.7682074E-3,1.02924466E-1,-6.4622484E-2,-3.9026558E-1,4.2536203E-2,-4.0692687E-1,1.2463247E-1,1.7629275E-1,1.3588987E-1,1.07484665E-2,-3.0951282E-1,-6.4862095E-2,-3.730049E-1,-7.544865E-2,-3.281742E-2,3.3551823E-2,-4.637171E-2,3.7670337E-2,-6.4189665E-2,2.5384054E-2,-2.6617054E-2,4.7621783E-2,-5.7201065E-2,-5.647336E-3,-4.1498918E-2,2.9505169E-2,-1.7216092E-2,7.0904516E-2],"categories":[],"categories_nodes":[],"categories_segments":[],"categories_sizes":[],"default_left":[0,0,0,0,0,0,0,0,0,0,0,0,0,0,0,0,0,0,0,0,0,0,0,0,0,0,0,0,0,0,0,0,0,0,0,0,0,0,0,0,0,0,0,0,0,0,0],"id":19,"left_children":[1,3,5,7,9,-1,-1,11,13,15,17,19,21,23,25,-1,27,29,31,-1,-1,33,35,-1,37,-1,39,-1,-1,41,-1,43,45,-1,-1,-1,-1,-1,-1,-1,-1,-1,-1,-1,-1,-1,-1],"loss_changes":[3.6935177E0,2.9991598E0,2.0558848E0,3.5173905E0,2.9526606E0,0E0,0E0,3.2628334E0,3.5299325E0,3.8809936E0,1.5983677E0,2.122424E0,1.980629E0,1.9007614E0,4.698347E0,0E0,2.914671E0,1.2853575E0,2.8078203E0,0E0,0E0,3.670915E0,2.445881E0,0E0,1.9600623E0,0E0,3.2056642E0,0E0,0E0,1.8637881E0,0E0,2.0238256E0,4.4431615E0,0E0,0E0,0E0,0E0,0E0,0E0,0E0,0E0,0E0,0E0,0E0,0E0,0E0,0E0],"parents":[2147483647,0,0,1,1,2,2,3,3,4,4,7,7,8,8,9,9,10,10,11,11,12,12,13,13,14,14,16,16,17,17,18,18,21,21,22,22,24,24,26,26,29,29,31,31,32,32],"right_children":[2,4,6,8,10,-1,-1,12,14,16,18,20,22,24,26,-1,28,30,32,-1,-1,34,36,-1,38,-1,40,-1,-1,42,-1,44,46,-1,-1,-1,-1,-1,-1,-1,-1,-1,-1,-1,-1,-1,-1],"split_conditions":[1.2068003E0,-8.7308645E-1,-2.385196E0,5.5736554E2,1.009894E1,-0E0,1.00504674E-1,1.5571777E0,2.9569471E1,-6.3975994E8,2.11E5,-4.7342095E0,9.607474E-1,9.0278363E-1,1.5219338E9,-4.4693958E-2,3.63E0,7.834773E0,4.245312E0,-5.7682074E-3,1.02924466E-1,-2.8501946E-2,1.82E3,4.2536203E-2,1.0861928E0,1.2463247E-1,1.0174241E0,1.3588987E-1,1.07484665E-2,3.7389984E0,-6.4862095E-2,2.9292274E-1,4.59E0,-3.281742E-2,3.3551823E-2,-4.637171E-2,3.7670337E-2,-6.4189665E-2,2.5384054E-2,-2.6617054E-2,4.7621783E-2,-5.7201065E-2,-5.647336E-3,-4.1498918E-2,2.9505169E-2,-1.7216092E-2,7.0904516E-2],"split_indices":[10,1,24,34,22,0,0,8,23,3,2,13,10,10,3,0,33,24,24,0,0,17,12,0,10,0,10,0,0,8,0,14,20,0,0,0,0,0,0,0,0,0,0,0,0,0,0],"split_type":[0,0,0,0,0,0,0,0,0,0,0,0,0,0,0,0,0,0,0,0,0,0,0,0,0,0,0,0,0,0,0,0,0,0,0,0,0,0,0,0,0,0,0,0,0,0,0],"sum_hessian":[3.299941E2,3.2194644E2,8.04765E0,1.2848338E2,1.9346306E2,4.1557612E0,3.8918893E0,8.4206665E1,4.4276722E1,1.3544717E1,1.7991835E2,6.7426004E0,7.7464066E1,1.5509839E1,2.8766884E1,5.5601954E0,7.984521E0,4.971693E1,1.3020142E2,3.4216902E0,3.3209102E0,3.4611893E1,4.285217E1,3.3403711E0,1.2169468E1,4.96451E0,2.3802374E1,3.1749792E0,4.8095417E0,2.8954496E1,2.0762432E1,7.119198E1,5.9009438E1,2.1029055E1,1.3582836E1,3.9262024E1,3.5901449E0,9.0909195E0,3.0785484E0,9.486011E0,1.4316362E1,1.3955795E1,1.4998701E1,6.715892E1,4.033058E0,5.271613E1,6.29331E0],"tree_param":{"num_deleted":"0","num_feature":"43","num_nodes":"47","size_leaf_vector":"1"}},{"base_weights":[5.1408794E-2,1.6197062E-1,-7.6095685E-2,7.360962E-1,1.316563E-1,-1.0370157E-1,9.757088E-2,1.0743859E-1,2.3571773E-2,-4.7424436E-3,2.6446137E-1,6.483174E-1,-1.3886376E-1,3.4529984E-1,-1.194243E-1,3.431803E-1,-2.56688E-1,2.0870385E-3,1.03949346E-1,-6.41196E-2,-5.5616933E-1,6.652648E-1,-3.8333887E-1,-1.8252529E-1,8.490614E-2,4.723457E-1,-3.230319E-2,-5.972537E-2,1.9465854E-2,-4.677743E-1,4.1224426E-3,-7.286704E-2,-8.3624154E-2,6.0022064E-3,8.239621E-2,4.83523E-3,-7.191691E-2,-3.0697143E-2,1.9558953E-2,8.2806535E-3,5.911977E-2,8.138701E-2,-3.51809E-2,-6.155408E-2,5.474537E-3,-4.452547E-2,6.1698854E-3,-6.894833E-2,4.0875E-2],"categories":[],"categories_nodes":[],"categories_segments":[],"categories_sizes":[],"default_left":[0,0,0,0,0,0,0,0,0,0,0,0,0,0,0,0,0,0,0,0,0,0,0,0,0,0,0,0,0,0,0,0,0,0,0,0,0,0,0,0,0,0,0,0,0,0,0,0,0],"id":20,"left_children":[1,3,5,7,9,11,-1,-1,-1,13,15,17,19,21,23,25,27,-1,-1,29,31,33,35,37,-1,39,41,-1,-1,43,45,-1,47,-1,-1,-1,-1,-1,-1,-1,-1,-1,-1,-1,-1,-1,-1,-1,-1],"loss_changes":[5.9385724E0,3.8316607E0,5.583918E0,1.7280488E0,3.9146779E0,4.9864345E0,0E0,0E0,0E0,4.2218E0,4.49484E0,1.9497881E0,5.607356E0,6.0865545E0,4.8287296E0,4.6543016E0,2.236547E0,0E0,0E0,4.3042507E0,2.1471128E0,1.64639E0,1.2106335E0,3.553123E0,0E0,3.2106295E0,6.529871E0,0E0,0E0,1.8017006E0,3.382299E0,0E0,2.3229585E0,0E0,0E0,0E0,0E0,0E0,0E0,0E0,0E0,0E0,0E0,0E0,0E0,0E0,0E0,0E0,0E0],"parents":[2147483647,0,0,1,1,2,2,3,3,4,4,5,5,9,9,10,10,11,11,12,12,13,13,14,14,15,15,16,16,19,19,20,20,21,21,22,22,23,23,25,25,26,26,29,29,30,30,32,32],"right_children":[2,4,6,8,10,12,-1,-1,-1,14,16,18,20,22,24,26,28,-1,-1,30,32,34,36,38,-1,40,42,-1,-1,44,46,-1,48,-1,-1,-1,-1,-1,-1,-1,-1,-1,-1,-1,-1,-1,-1,-1,-1],"split_conditions":[3.92E0,-6.583541E-1,2.7720806E1,-3.5004687E-2,3.78E0,-2.2288845E1,9.757088E-2,1.0743859E-1,2.3571773E-2,-6.639233E8,6.884766E2,-7.655123E0,2.269399E1,1.1639869E1,5.43E0,6.9104454E1,3.76E0,2.0870385E-3,1.03949346E-1,-3.6766388E0,3.97E0,2E0,2.5407773E-1,4.4E-1,8.490614E-2,1.132589E1,3.5E0,-5.972537E-2,1.9465854E-2,1.462705E0,-5.8578986E-1,-7.286704E-2,2.0951626E-1,6.0022064E-3,8.239621E-2,4.83523E-3,-7.191691E-2,-3.0697143E-2,1.9558953E-2,8.2806535E-3,5.911977E-2,8.138701E-2,-3.51809E-2,-6.155408E-2,5.474537E-3,-4.452547E-2,6.1698854E-3,-6.894833E-2,4.0875E-2],"split_indices":[33,26,22,14,28,24,0,0,0,3,35,1,22,22,20,23,33,0,0,1,20,27,19,31,0,22,36,0,0,6,26,0,26,0,0,0,0,0,0,0,0,0,0,0,0,0,0,0,0],"split_type":[0,0,0,0,0,0,0,0,0,0,0,0,0,0,0,0,0,0,0,0,0,0,0,0,0,0,0,0,0,0,0,0,0,0,0,0,0,0,0,0,0,0,0,0,0,0,0,0,0],"sum_hessian":[4.2046457E2,2.2559964E2,1.9486494E2,1.1032231E1,2.145674E2,1.9006175E2,4.8031855E0,6.3945317E0,4.637699E0,1.0552765E2,1.0903975E2,8.284842E0,1.8177692E2,2.5776678E1,7.975097E1,9.492716E1,1.4112586E1,3.3202038E0,4.9646378E0,1.5446541E2,2.7311506E1,1.801274E1,7.763941E0,7.504582E1,4.7051497E0,7.080942E1,2.4117746E1,8.151252E0,5.961334E0,2.2464832E1,1.3200058E2,1.9813011E1,7.498496E0,3.9014113E0,1.4111327E1,3.3042908E0,4.45965E0,5.6675816E1,1.8370007E1,1.679023E1,5.4019188E1,6.4823356E0,1.763541E1,1.7647709E1,4.817124E0,1.4718018E1,1.17282555E2,3.4349298E0,4.063566E0],"tree_param":{"num_deleted":"0","num_feature":"43","num_nodes":"49","size_leaf_vector":"1"}},{"base_weights":[5.8705565E-2,2.837894E-1,1.0804562E-2,-2.0008776E-1,4.5221475E-1,-5.8980894E-1,3.4059074E-2,-4.1775048E-1,4.796922E-2,7.699018E-2,5.7211846E-1,-1.5922725E-2,-7.2902374E-2,6.6434395E-1,1.34980455E-2,-7.415544E-2,-1.3353537E-1,-2.8171468E-1,1.1075663E-1,-7.5147473E-3,6.7888784E-1,1.00372866E-1,3.0264035E-2,-3.0265043E-2,2.9570165E-1,1.929353E-2,-3.6662042E-2,-0E0,-7.267132E-2,4.1570774E-1,9.648073E-1,-5.6801327E-2,4.8465437E-1,-7.207882E-2,4.3127367E-1,9.620025E-2,-3.966079E-3,1.07476465E-1,5.07255E-2,-2.5737373E-2,1.0438877E-3,8.752113E-2,2.6222984E-3,6.187529E-2,-2.7544139E-2],"categories":[],"categories_nodes":[],"categories_segments":[],"categories_sizes":[],"default_left":[0,0,0,0,0,0,0,0,0,0,0,0,0,0,0,0,0,0,0,0,0,0,0,0,0,0,0,0,0,0,0,0,0,0,0,0,0,0,0,0,0,0,0,0,0],"id":21,"left_children":[1,3,5,7,9,11,13,15,-1,17,19,-1,-1,21,23,-1,25,27,-1,-1,29,-1,-1,31,33,-1,-1,-1,-1,35,37,39,41,-1,43,-1,-1,-1,-1,-1,-1,-1,-1,-1,-1],"loss_changes":[4.407319E0,5.8892345E0,4.692333E0,2.7461085E0,2.336648E0,6.4951277E-1,4.173981E0,1.2050068E0,0E0,5.0185375E0,2.8511534E0,0E0,0E0,1.0894747E0,3.9460852E0,0E0,6.1975306E-1,1.1972541E0,0E0,0E0,2.4362602E0,0E0,0E0,3.7104964E0,5.916167E0,0E0,0E0,0E0,0E0,4.685567E0,6.121187E-1,3.5490417E0,2.2848854E0,0E0,5.0880647E0,0E0,0E0,0E0,0E0,0E0,0E0,0E0,0E0,0E0,0E0],"parents":[2147483647,0,0,1,1,2,2,3,3,4,4,5,5,6,6,7,7,9,9,10,10,13,13,14,14,16,16,17,17,20,20,23,23,24,24,29,29,30,30,31,31,32,32,34,34],"right_children":[2,4,6,8,10,12,14,16,-1,18,20,-1,-1,22,24,-1,26,28,-1,-1,30,-1,-1,32,34,-1,-1,-1,-1,36,38,40,42,-1,44,-1,-1,-1,-1,-1,-1,-1,-1,-1,-1],"split_conditions":[1.354E1,1.5439992E9,1.38E1,9.530032E0,5.583434E2,-4.7592202E8,-8.8E-1,3.347751E-2,4.796922E-2,6.745371E1,3.91E0,-1.5922725E-2,-7.2902374E-2,3.02858E2,4.0373948E-1,-7.415544E-2,-3.8E-1,1E0,1.1075663E-1,-7.5147473E-3,3.7995654E-1,1.00372866E-1,3.0264035E-2,6.95792E2,5.1731265E-1,1.929353E-2,-3.6662042E-2,-0E0,-7.267132E-2,-3.6766388E0,1.0735285E0,-4.9E-1,3E0,-7.207882E-2,1.035744E0,9.620025E-2,-3.966079E-3,1.07476465E-1,5.07255E-2,-2.5737373E-2,1.0438877E-3,8.752113E-2,2.6222984E-3,6.187529E-2,-2.7544139E-2],"split_indices":[25,3,25,7,34,30,31,4,0,23,33,0,0,0,4,0,31,38,0,0,18,0,0,35,6,0,0,0,0,1,10,31,27,0,26,0,0,0,0,0,0,0,0,0,0],"split_type":[0,0,0,0,0,0,0,0,0,0,0,0,0,0,0,0,0,0,0,0,0,0,0,0,0,0,0,0,0,0,0,0,0,0,0,0,0,0,0,0,0,0,0,0,0],"sum_hessian":[4.11437E2,7.174265E1,3.3969437E2,1.8365887E1,5.3376762E1,1.2410912E1,3.2728345E2,1.4052113E1,4.3137755E0,1.3167822E1,4.020894E1,3.2601583E0,9.150753E0,1.0086728E1,3.1719672E2,6.328895E0,7.723217E0,9.749885E0,3.4179378E0,5.5650535E0,3.4643887E1,4.9697065E0,5.117021E0,2.7438156E2,4.2815155E1,3.0455976E0,4.6776195E0,6.1026263E0,3.647258E0,1.8349173E1,1.6294714E1,2.6120364E2,1.3177911E1,4.900792E0,3.791436E1,8.391016E0,9.958158E0,1.2852577E1,3.4421365E0,6.588328E1,1.9532037E2,6.9488473E0,6.2290635E0,3.0086803E1,7.8275595E0],"tree_param":{"num_deleted":"0","num_feature":"43","num_nodes":"45","size_leaf_vector":"1"}},{"base_weights":[-1.5183441E-1,-1.6765368E-1,4.1225544E-1,-1.0954008E-1,-3.3491907E-1,-1.912227E-2,9.753571E-2,1.0810249E-1,-1.6730818E-1,-3.8666344E-1,2.4590695E-1,1.8486496E-2,8.132109E-2,-1.348254E-1,-5.658946E-1,5.627629E-2,-4.429278E-1,7.959153E-2,-2.9185906E-2,2.1234506E-1,-5.5068976E-1,-1.5577751E-1,5.942784E-2,-6.3434966E-2,-2.9601311E-2,-4.3430362E-2,8.89469E-2,-4.9148765E-1,2.9252071E-2,-1.025801E-2,5.9116703E-2,-3.061924E-2,-6.354702E-2,-2.054125E-2,7.0093363E-3,-5.329297E-2,2.7536798E-2],"categories":[],"categories_nodes":[],"categories_segments":[],"categories_sizes":[],"default_left":[0,0,0,0,0,0,0,0,0,0,0,0,0,0,0,0,0,0,0,0,0,0,0,0,0,0,0,0,0,0,0,0,0,0,0,0,0],"id":22,"left_children":[1,3,5,7,9,-1,-1,11,13,15,17,19,-1,21,23,25,27,-1,-1,29,31,33,-1,-1,-1,-1,-1,35,-1,-1,-1,-1,-1,-1,-1,-1,-1],"loss_changes":[2.8567963E0,2.999877E0,3.0342155E0,2.9410431E0,2.438774E0,0E0,0E0,2.9884777E0,2.31458E0,1.8849621E0,1.9892368E0,4.7642026E0,0E0,2.580888E0,1.4055252E-1,3.4469092E0,2.3862362E0,0E0,0E0,3.9394321E0,1.12682104E-1,1.8832126E0,0E0,0E0,0E0,0E0,0E0,2.0089731E0,0E0,0E0,0E0,0E0,0E0,0E0,0E0,0E0,0E0],"parents":[2147483647,0,0,1,1,2,2,3,3,4,4,7,7,8,8,9,9,10,10,11,11,13,13,14,14,15,15,16,16,19,19,20,20,21,21,27,27],"right_children":[2,4,6,8,10,-1,-1,12,14,16,18,20,-1,22,24,26,28,-1,-1,30,32,34,-1,-1,-1,-1,-1,36,-1,-1,-1,-1,-1,-1,-1,-1,-1],"split_conditions":[1.2068003E0,1.31639E0,-2.385196E0,-1.05686655E1,2.0919916E1,-1.912227E-2,9.753571E-2,4.6945698E1,1.1553665E1,1.5398651E-1,1.1291029E1,-8.7308645E-1,8.132109E-2,7.168364E2,1.711E1,1E0,1.56547E-1,7.959153E-2,-2.9185906E-2,2.787401E1,4.3E0,1.0792063E0,5.942784E-2,-6.3434966E-2,-2.9601311E-2,-4.3430362E-2,8.89469E-2,3.580044E-1,2.9252071E-2,-1.025801E-2,5.9116703E-2,-3.061924E-2,-6.354702E-2,-2.054125E-2,7.0093363E-3,-5.329297E-2,2.7536798E-2],"split_indices":[10,6,24,24,29,0,0,23,7,19,7,1,0,35,25,38,21,0,0,23,28,6,0,0,0,0,0,14,0,0,0,0,0,0,0,0,0],"split_type":[0,0,0,0,0,0,0,0,0,0,0,0,0,0,0,0,0,0,0,0,0,0,0,0,0,0,0,0,0,0,0,0,0,0,0,0,0],"sum_hessian":[3.2201E2,3.1346674E2,8.543268E0,2.3320638E2,8.026037E1,4.0699453E0,4.473323E0,4.853427E1,1.846721E2,7.3883835E1,6.376534E0,4.327825E1,5.2560205E0,1.7111205E2,1.3560061E1,8.12699E0,6.575684E1,3.220584E0,3.15595E0,3.246069E1,1.0817563E1,1.6654195E2,4.570095E0,1.0413191E1,3.1468701E0,5.069782E0,3.0572088E0,6.184267E1,3.914174E0,1.7620897E1,1.4839792E1,3.2076719E0,7.609891E0,1.3690823E2,2.9633722E1,5.8824608E1,3.0180647E0],"tree_param":{"num_deleted":"0","num_feature":"43","num_nodes":"37","size_leaf_vector":"1"}},{"base_weights":[7.656922E-2,1.7947246E-1,-4.315474E-2,2.3075987E-1,-1.405849E-1,5.1515374E-2,-2.8611234E-1,5.967183E-1,1.901217E-1,9.7801365E-2,-7.195582E-2,2.4227023E-1,-1.7312951E-1,-3.8834164E-1,7.411759E-2,7.685073E-1,-5.950405E-3,-5.57671E-2,2.1245721E-1,-4.8425622E-2,9.167779E-2,-4.351873E-2,6.217643E-1,-2.577776E-1,6.4926594E-2,-3.994624E-2,-5.294535E-1,1.2683682E-2,9.761638E-2,5.2907145E-1,1.536441E-1,-4.926865E-1,2.574372E-1,9.446462E-2,-2.3660213E-1,-1.2221691E-2,7.9309696E-1,-1.1139513E-1,-6.562825E-1,5.3713626E-1,-6.0453225E-2,-5.970123E-1,1.1508401E-2,1.3707602E-2,7.292904E-2,-1.3649865E-2,2.306241E-2,-2.0840736E-2,-7.172853E-2,8.934666E-2,-8.612372E-3,-6.425344E-2,4.9790177E-3,1.3205116E-2,1.0615661E-1,5.838688E-3,-6.503553E-2,-7.215826E-2,-3.7691373E-2,7.825352E-3,8.867838E-2,-6.813866E-2,-1.7065514E-2],"categories":[],"categories_nodes":[],"categories_segments":[],"categories_sizes":[],"default_left":[0,0,0,0,0,0,0,0,0,0,0,0,0,0,0,0,0,0,0,0,0,0,0,0,0,0,0,0,0,0,0,0,0,0,0,0,0,0,0,0,0,0,0,0,0,0,0,0,0,0,0,0,0,0,0,0,0,0,0,0,0,0,0],"id":23,"left_children":[1,3,5,7,9,11,13,15,17,19,-1,21,23,25,-1,27,-1,-1,29,31,-1,33,35,37,-1,39,41,-1,-1,43,45,47,49,-1,51,-1,53,55,57,59,-1,61,-1,-1,-1,-1,-1,-1,-1,-1,-1,-1,-1,-1,-1,-1,-1,-1,-1,-1,-1,-1,-1],"loss_changes":[5.189731E0,3.7282023E0,4.4824862E0,2.8162012E0,4.3558483E0,5.9781446E0,5.733045E0,2.2442904E0,2.9215965E0,2.7218046E0,0E0,8.258251E0,4.4162602E0,2.392209E0,0E0,1.9260206E0,0E0,0E0,3.114668E0,2.5676074E0,0E0,8.167207E0,4.2356615E0,3.2988615E0,0E0,4.824035E0,1.5910568E0,0E0,0E0,1.9862552E0,3.2495983E0,3.8818526E-1,2.484566E0,0E0,4.2692714E0,0E0,4.594816E0,3.9718375E0,1.4344692E-1,1.0562522E0,0E0,1.0573578E0,0E0,0E0,0E0,0E0,0E0,0E0,0E0,0E0,0E0,0E0,0E0,0E0,0E0,0E0,0E0,0E0,0E0,0E0,0E0,0E0,0E0],"parents":[2147483647,0,0,1,1,2,2,3,3,4,4,5,5,6,6,7,7,8,8,9,9,11,11,12,12,13,13,15,15,18,18,19,19,21,21,22,22,23,23,25,25,26,26,29,29,30,30,31,31,32,32,34,34,36,36,37,37,38,38,39,39,41,41],"right_children":[2,4,6,8,10,12,14,16,18,20,-1,22,24,26,-1,28,-1,-1,30,32,-1,34,36,38,-1,40,42,-1,-1,44,46,48,50,-1,52,-1,54,56,58,60,-1,62,-1,-1,-1,-1,-1,-1,-1,-1,-1,-1,-1,-1,-1,-1,-1,-1,-1,-1,-1,-1,-1],"split_conditions":[3.92E0,4.0373948E-1,2.1419277E1,-1.270572E1,3.1E-1,1E0,2.7720806E1,2.0641303E0,-2.8487131E-2,3.202E1,-7.195582E-2,-1.0075424E1,6.02386E2,9.070237E-1,7.411759E-2,5.583456E7,-5.950405E-3,-5.57671E-2,4.016035E1,4.462575E0,9.167779E-2,1.387516E9,4.8738516E2,1.0764366E0,6.4926594E-2,1.7064789E1,2.761993E0,1.2683682E-2,9.761638E-2,2.9925296E2,5.84E1,3.27E0,5.4091997E0,9.446462E-2,4.65E0,-1.2221691E-2,-2.5785878E0,6.3535103E1,6.016805E2,-4.0137282E-1,-6.0453225E-2,9.841481E-1,1.1508401E-2,1.3707602E-2,7.292904E-2,-1.3649865E-2,2.306241E-2,-2.0840736E-2,-7.172853E-2,8.934666E-2,-8.612372E-3,-6.425344E-2,4.9790177E-3,1.3205116E-2,1.0615661E-1,5.838688E-3,-6.503553E-2,-7.215826E-2,-3.7691373E-2,7.825352E-3,8.867838E-2,-6.813866E-2,-1.7065514E-2],"split_indices":[33,4,22,24,31,9,22,19,18,25,0,24,35,10,0,32,0,0,23,24,0,3,35,10,0,29,19,0,0,35,5,33,13,0,28,0,1,23,34,26,0,26,0,0,0,0,0,0,0,0,0,0,0,0,0,0,0,0,0,0,0,0,0],"split_type":[0,0,0,0,0,0,0,0,0,0,0,0,0,0,0,0,0,0,0,0,0,0,0,0,0,0,0,0,0,0,0,0,0,0,0,0,0,0,0,0,0,0,0,0,0,0,0,0,0,0,0,0,0,0,0,0,0,0,0,0,0,0,0],"sum_hessian":[4.1997562E2,2.262759E2,1.936997E2,1.9531766E2,3.0958227E1,1.3914723E2,5.455248E1,1.9138742E1,1.7617892E2,2.1865658E1,9.09257E0,7.5486206E1,6.3661022E1,4.9760197E1,4.792282E0,1.5275205E1,3.863538E0,4.9102397E0,1.7126868E2,1.8529268E1,3.3363888E0,4.295941E1,3.25268E1,5.7892475E1,5.7685456E0,1.4585813E1,3.5174385E1,3.8918402E0,1.1383365E1,2.6438717E1,1.4482997E2,7.6637115E0,1.0865557E1,6.8737392E0,3.608567E1,5.9846287E0,2.654217E1,4.261693E1,1.527555E1,7.127893E0,7.45792E0,3.1984388E1,3.1899962E0,9.164351E0,1.7274364E1,3.0080017E1,1.1474995E2,3.6640627E0,3.999649E0,3.8567042E0,7.008853E0,1.5020474E1,2.1065197E1,7.816771E0,1.8725397E1,3.2334583E1,1.0282343E1,1.1963048E1,3.3125021E0,3.2590494E0,3.8688433E0,2.645474E1,5.5296483E0],"tree_param":{"num_deleted":"0","num_feature":"43","num_nodes":"63","size_leaf_vector":"1"}},{"base_weights":[4.8534766E-2,-3.0131456E-1,7.406991E-2,-5.562559E-1,8.7548696E-2,-7.585195E-2,1.4013787E-1,-6.624209E-2,-1.6322764E-2,6.1755348E-2,-4.6879094E-2,8.716048E-2,-4.2456916E-1,-2.8849104E-1,1.883964E-1,-4.187971E-3,6.4697194E-1,-5.5605376E-1,4.9224943E-2,5.3912955E-3,-5.2034634E-1,4.1644225E-1,1.21243075E-1,-2.2580738E-1,2.9112E-1,-2.240442E-2,1.0953683E-1,-7.013457E-2,-1.8168081E-1,-6.9996044E-2,2.8324193E-1,-2.641971E-1,-7.009663E-2,1.0567013E-1,3.10667E-1,7.576888E-1,7.953284E-2,6.014782E-2,-3.6957946E-2,7.635971E-2,-1.2151251E-3,2.5511205E-2,-6.655404E-2,-4.0830858E-2,8.4444396E-2,-6.773341E-2,1.659742E-2,5.4756023E-2,2.9529724E-3,1.0462014E-1,4.1712206E-2,5.7295407E-3,8.93529E-2],"categories":[],"categories_nodes":[],"categories_segments":[],"categories_sizes":[],"default_left":[0,0,0,0,0,0,0,0,0,0,0,0,0,0,0,0,0,0,0,0,0,0,0,0,0,0,0,0,0,0,0,0,0,0,0,0,0,0,0,0,0,0,0,0,0,0,0,0,0,0,0,0,0],"id":24,"left_children":[1,3,5,7,9,11,13,-1,-1,-1,-1,15,17,19,21,23,25,27,-1,29,31,33,35,37,39,-1,-1,-1,41,-1,43,45,-1,-1,47,49,51,-1,-1,-1,-1,-1,-1,-1,-1,-1,-1,-1,-1,-1,-1,-1,-1],"loss_changes":[3.5905924E0,2.7532349E0,3.7423863E0,6.004467E-1,3.205303E0,6.5713444E0,5.4196215E0,0E0,0E0,0E0,0E0,4.0642767E0,4.473205E0,1.8483055E0,3.5547228E0,4.3972225E0,4.457282E0,1.6586161E0,0E0,2.2390878E0,5.7569027E-1,3.439968E0,4.7619734E0,4.594022E0,4.1820602E0,0E0,0E0,0E0,2.0388107E0,0E0,3.3572037E0,1.228816E0,0E0,0E0,3.0053816E0,8.989024E-1,3.0092678E0,0E0,0E0,0E0,0E0,0E0,0E0,0E0,0E0,0E0,0E0,0E0,0E0,0E0,0E0,0E0,0E0],"parents":[2147483647,0,0,1,1,2,2,3,3,4,4,5,5,6,6,11,11,12,12,13,13,14,14,15,15,16,16,17,17,19,19,20,20,21,21,22,22,23,23,24,24,28,28,30,30,31,31,34,34,35,35,36,36],"right_children":[2,4,6,8,10,12,14,-1,-1,-1,-1,16,18,20,22,24,26,28,-1,30,32,34,36,38,40,-1,-1,-1,42,-1,44,46,-1,-1,48,50,52,-1,-1,-1,-1,-1,-1,-1,-1,-1,-1,-1,-1,-1,-1,-1,-1],"split_conditions":[3.0844156E2,4.78E0,1.361E3,5.594737E0,6.1216433E-2,3.31E0,-1.5159049E1,-6.624209E-2,-1.6322764E-2,6.1755348E-2,-4.6879094E-2,1.4787508E0,6.95792E2,2E0,1.385E3,2.7477381E0,4.1E0,1.0788454E0,4.9224943E-2,1.475021E9,3.79E0,-7.2E-1,5.0137396E7,5.1197463E-1,7.15E1,-2.240442E-2,1.0953683E-1,-7.013457E-2,-5.7E-1,-6.9996044E-2,-2.1803675E1,-3.314868E-2,-7.009663E-2,1.0567013E-1,9.1352826E-1,8.942573E-1,7.8672295E1,6.014782E-2,-3.6957946E-2,7.635971E-2,-1.2151251E-3,2.5511205E-2,-6.655404E-2,-4.0830858E-2,8.4444396E-2,-6.773341E-2,1.659742E-2,5.4756023E-2,2.9529724E-3,1.0462014E-1,4.1712206E-2,5.7295407E-3,8.93529E-2],"split_indices":[35,20,12,8,14,20,16,0,0,0,0,6,35,27,12,13,36,10,0,3,20,31,32,6,5,0,0,0,31,0,16,14,0,0,19,6,23,0,0,0,0,0,0,0,0,0,0,0,0,0,0,0,0],"split_type":[0,0,0,0,0,0,0,0,0,0,0,0,0,0,0,0,0,0,0,0,0,0,0,0,0,0,0,0,0,0,0,0,0,0,0,0,0,0,0,0,0,0,0,0,0,0,0,0,0,0,0,0,0],"sum_hessian":[4.0412048E2,2.7150024E1,3.7697046E2,1.6528164E1,1.06218605E1,1.1484195E2,2.621285E2,1.2758779E1,3.7693863E0,5.5260935E0,5.095767E0,7.811453E1,3.6727417E1,2.6265974E1,2.3586255E2,6.708793E1,1.1026599E1,3.225065E1,4.4767704E0,1.1436411E1,1.4829563E1,5.3198067E1,1.8266449E2,3.853259E1,2.8555342E1,3.688552E0,7.338047E0,2.2978409E1,9.272239E0,3.087262E0,8.349149E0,6.4633594E0,8.366204E0,7.281093E0,4.5916973E1,1.0981812E1,1.7168268E2,5.5549126E0,3.2977676E1,1.1233E1,1.7322342E1,4.7893605E0,4.482878E0,3.6725917E0,4.6765575E0,3.3862295E0,3.0771298E0,2.4674862E1,2.1242111E1,5.6741285E0,5.307683E0,1.67341E2,4.3416734E0],"tree_param":{"num_deleted":"0","num_feature":"43","num_nodes":"53","size_leaf_vector":"1"}},{"base_weights":[-1.4640899E-1,-1.6082692E-1,4.9389893E-1,-1.3546018E-1,-4.72756E-1,-5.874784E-3,9.831991E-2,-1.5621413E-1,3.108888E-1,-5.408793E-1,-4.165852E-3,-8.466598E-2,-3.012912E-1,-5.1529605E-2,9.462836E-2,-6.301336E-2,-3.0384062E-2,5.867322E-1,-1.1364867E-1,-3.3862E-1,4.9101055E-2,-6.278809E-2,5.8130026E-2,1.3739505E-1,-3.345453E-2,-5.1931012E-3,-3.3120953E-2,4.6642657E-2,-3.7193216E-2],"categories":[],"categories_nodes":[],"categories_segments":[],"categories_sizes":[],"default_left":[0,0,0,0,0,0,0,0,0,0,0,0,0,0,0,0,0,0,0,0,0,0,0,0,0,0,0,0,0],"id":25,"left_children":[1,3,5,7,9,-1,-1,11,13,15,-1,17,19,21,-1,-1,-1,23,25,27,-1,-1,-1,-1,-1,-1,-1,-1,-1],"loss_changes":[3.0062308E0,2.4757214E0,2.0190086E0,2.7466288E0,6.394162E-1,0E0,0E0,2.9140525E0,3.0981321E0,3.1846333E-1,0E0,3.6812558E0,2.7676601E0,3.068777E0,0E0,0E0,0E0,5.798435E0,2.4249704E0,2.408185E0,0E0,0E0,0E0,0E0,0E0,0E0,0E0,0E0,0E0],"parents":[2147483647,0,0,1,1,2,2,3,3,4,4,7,7,8,8,9,9,11,11,12,12,13,13,17,17,18,18,19,19],"right_children":[2,4,6,8,10,-1,-1,12,14,16,-1,18,20,22,-1,-1,-1,24,26,28,-1,-1,-1,-1,-1,-1,-1,-1,-1],"split_conditions":[1.2108564E0,1.1657132E1,-2.385196E0,2.0919916E1,6.1541125E2,-5.874784E-3,9.831991E-2,1.1916308E0,9.115847E0,2.2584412E1,-4.165852E-3,-9.590846E0,1.56547E-1,2.5507351E-2,9.462836E-2,-6.301336E-2,-3.0384062E-2,1.5626058E-1,1.0620989E0,1.018266E2,4.9101055E-2,-6.278809E-2,5.8130026E-2,1.3739505E-1,-3.345453E-2,-5.1931012E-3,-3.3120953E-2,4.6642657E-2,-3.7193216E-2],"split_indices":[10,7,24,29,34,0,0,6,24,22,0,1,21,26,0,0,0,14,10,37,0,0,0,0,0,0,0,0,0],"split_type":[0,0,0,0,0,0,0,0,0,0,0,0,0,0,0,0,0,0,0,0,0,0,0,0,0,0,0,0,0],"sum_hessian":[3.2828174E2,3.212785E2,7.003236E0,2.9754547E2,2.3733023E1,3.23408E0,3.7691557E0,2.8460138E2,1.2944106E1,2.0272127E1,3.4608948E0,1.9116937E2,9.3432014E1,8.200938E0,4.7431684E0,1.4299941E1,5.9721866E0,7.688427E0,1.8348094E2,8.9403305E1,4.028705E0,4.375104E0,3.8258338E0,4.17789E0,3.5105371E0,1.4338812E2,4.0092823E1,3.3814952E0,8.602181E1],"tree_param":{"num_deleted":"0","num_feature":"43","num_nodes":"29","size_leaf_vector":"1"}},{"base_weights":[7.796419E-2,7.9921156E-2,6.2265035E-2,1.2433455E-1,-6.015103E-2,1.9759946E-1,-5.1750716E-2,-4.075616E-1,3.651723E-2,-7.474586E-2,2.2478423E-1,7.2281405E-2,-1.1867664E-1,4.6824247E-2,-5.180425E-1,4.282585E-1,-1.02732494E-1,5.27452E-1,1.4304116E-1,-5.701532E-1,1.663115E-2,-4.812109E-3,-6.015383E-1,8.6441535E-1,1.4103217E-1,7.36069E-1,-1.8533868E-1,-3.733527E-2,6.3167624E-2,-3.19877E-2,1.9979263E-2,-7.261484E-2,-1.7815432E-2,-4.6385866E-2,1.2381438E-2,-3.0630639E-2,-7.11999E-2,1.1270081E-1,3.5430495E-2,-7.4685253E-3,8.58355E-2,1.0941198E-1,3.131829E-2,5.0082047E-2,-2.7518494E-2],"categories":[],"categories_nodes":[],"categories_segments":[],"categories_sizes":[],"default_left":[0,0,0,0,0,0,0,0,0,0,0,0,0,0,0,0,0,0,0,0,0,0,0,0,0,0,0,0,0,0,0,0,0,0,0,0,0,0,0,0,0,0,0,0,0],"id":26,"left_children":[1,-1,3,5,7,9,11,13,15,-1,17,-1,19,-1,21,23,25,27,29,31,33,-1,35,37,39,41,43,-1,-1,-1,-1,-1,-1,-1,-1,-1,-1,-1,-1,-1,-1,-1,-1,-1,-1],"loss_changes":[4.4999213E0,0E0,3.0242217E0,3.4221015E0,4.5091696E0,4.7659297E0,3.9533443E0,2.85567E0,5.710524E0,0E0,4.4243813E0,0E0,4.4132724E0,0E0,9.557247E-1,3.3302178E0,5.267865E0,3.6518726E0,3.7662115E0,9.129243E-1,2.7941113E0,0E0,5.9258556E-1,1.2525396E0,2.6887798E0,8.517618E-1,4.3031216E0,0E0,0E0,0E0,0E0,0E0,0E0,0E0,0E0,0E0,0E0,0E0,0E0,0E0,0E0,0E0,0E0,0E0,0E0],"parents":[2147483647,0,0,2,2,3,3,4,4,5,5,6,6,7,7,8,8,10,10,12,12,14,14,15,15,16,16,17,17,18,18,19,19,20,20,22,22,23,23,24,24,25,25,26,26],"right_children":[2,-1,4,6,8,10,12,14,16,-1,18,-1,20,-1,22,24,26,28,30,32,34,-1,36,38,40,42,44,-1,-1,-1,-1,-1,-1,-1,-1,-1,-1,-1,-1,-1,-1,-1,-1,-1,-1],"split_conditions":[2.9510358E2,7.9921156E-2,3.9614588E-2,5.581294E2,5.83874E5,-6.143572E-3,8.1566304E-1,4.915739E0,3.4513073E0,-7.474586E-2,3.569387E-1,7.2281405E-2,6.69E1,4.6824247E-2,3.2118124E2,9.988418E-1,3.42E0,3.0066653E2,9.662722E1,4E0,2E0,-4.812109E-3,-6.3975994E8,2.22E5,3.0561333E0,7.6320255E-1,5.3360276E7,-3.733527E-2,6.3167624E-2,-3.19877E-2,1.9979263E-2,-7.261484E-2,-1.7815432E-2,-4.6385866E-2,1.2381438E-2,-3.0630639E-2,-7.11999E-2,1.1270081E-1,3.5430495E-2,-7.4685253E-3,8.58355E-2,1.0941198E-1,3.131829E-2,5.0082047E-2,-2.7518494E-2],"split_indices":[35,0,4,34,15,18,10,29,8,0,18,0,5,0,34,10,33,35,39,27,27,0,3,2,8,18,32,0,0,0,0,0,0,0,0,0,0,0,0,0,0,0,0,0,0],"split_type":[0,0,0,0,0,0,0,0,0,0,0,0,0,0,0,0,0,0,0,0,0,0,0,0,0,0,0,0,0,0,0,0,0,0,0,0,0,0,0,0,0,0,0,0,0],"sum_hessian":[4.0536288E2,8.393421E0,3.9696948E2,2.639515E2,1.3301796E2,1.867888E2,7.7162704E1,2.9110878E1,1.03907074E2,5.0458417E0,1.8174297E2,5.940169E0,7.1222534E1,3.1232553E0,2.5987621E1,2.7383007E1,7.652407E1,3.827066E1,1.434723E2,1.6519663E1,5.4702873E1,4.125312E0,2.186231E1,1.065466E1,1.6728348E1,6.681097E0,6.984297E1,3.8424952E0,3.4428165E1,1.5425093E1,1.2804721E2,1.1573618E1,4.9460444E0,9.746173E0,4.49567E1,6.301823E0,1.5560487E1,6.8245654E0,3.8300943E0,1.2822479E1,3.9058683E0,3.4038856E0,3.2772117E0,7.9046273E0,6.1938347E1],"tree_param":{"num_deleted":"0","num_feature":"43","num_nodes":"45","size_leaf_vector":"1"}},{"base_weights":[4.7672234E-2,-5.2372533E-1,6.588152E-2,-6.4951174E-2,-1.7700408E-2,-5.504814E-1,8.0891415E-2,-6.512815E-2,-2.9831856E-2,1.4506662E-1,-4.9777992E-2,4.026325E-2,3.4161305E-1,4.697724E-1,-1.1965867E-1,-1.9188888E-1,2.2920181E-1,-6.896059E-2,3.897749E-1,9.193181E-1,-1.7458072E-2,-1.7689565E-1,4.097183E-1,-2.709572E-2,4.0315773E-2,-4.163345E-2,3.249034E-2,1.9099874E-2,6.1186012E-2,1.1432993E-1,5.1744163E-2,-2.3109987E-2,3.9080404E-2,8.383826E-2,-1.8911663E-2],"categories":[],"categories_nodes":[],"categories_segments":[],"categories_sizes":[],"default_left":[0,0,0,0,0,0,0,0,0,0,0,0,0,0,0,0,0,0,0,0,0,0,0,0,0,0,0,0,0,0,0,0,0,0,0],"id":27,"left_children":[1,3,5,-1,-1,7,9,-1,-1,11,13,15,17,19,21,23,25,-1,27,29,-1,31,33,-1,-1,-1,-1,-1,-1,-1,-1,-1,-1,-1,-1],"loss_changes":[4.193925E0,4.473393E-1,3.6102896E0,0E0,0E0,1.2049675E-1,3.2445462E0,0E0,0E0,5.29954E0,4.566816E0,7.442727E0,4.4567366E0,4.3947296E0,3.372567E0,3.567276E0,5.794861E0,0E0,3.7022047E0,5.722871E-1,0E0,3.1060402E0,2.8458557E0,0E0,0E0,0E0,0E0,0E0,0E0,0E0,0E0,0E0,0E0,0E0,0E0],"parents":[2147483647,0,0,1,1,2,2,5,5,6,6,9,9,10,10,11,11,12,12,13,13,14,14,15,15,16,16,18,18,19,19,21,21,22,22],"right_children":[2,4,6,-1,-1,8,10,-1,-1,12,14,16,18,20,22,24,26,-1,28,30,-1,32,34,-1,-1,-1,-1,-1,-1,-1,-1,-1,-1,-1,-1],"split_conditions":[-7.8405376E8,3.05447E2,-2.2288845E1,-6.4951174E-2,-1.7700408E-2,1.1604213E0,6.94E1,-6.512815E-2,-2.9831856E-2,4.48E0,3.2380436E1,-3E-1,8.1566304E-1,8.408136E-1,1.8423222E1,6.95792E2,3.3565178E1,-6.896059E-2,-2.113047E0,1.0198144E0,-1.7458072E-2,1.2400401E1,3.9E0,-2.709572E-2,4.0315773E-2,-4.163345E-2,3.249034E-2,1.9099874E-2,6.1186012E-2,1.1432993E-1,5.1744163E-2,-2.3109987E-2,3.9080404E-2,8.383826E-2,-1.8911663E-2],"split_indices":[3,35,24,0,0,19,5,0,0,28,23,31,10,19,24,35,23,0,24,10,0,13,20,0,0,0,0,0,0,0,0,0,0,0,0],"split_type":[0,0,0,0,0,0,0,0,0,0,0,0,0,0,0,0,0,0,0,0,0,0,0,0,0,0,0,0,0,0,0,0,0,0,0],"sum_hessian":[4.0704684E2,1.2315804E1,3.9473105E2,8.761493E0,3.5543103E0,9.140912E0,3.8559012E2,6.134033E0,3.0068786E0,2.5909567E2,1.2649446E2,1.6939786E2,8.969781E1,1.4759197E1,1.1173527E2,7.576869E1,9.3629166E1,3.850231E0,8.584757E1,8.760077E0,5.9991198E0,1.01063614E2,1.0671653E1,6.707805E1,8.690648E0,1.1910338E1,8.171883E1,4.5636845E1,4.0210728E1,5.3467855E0,3.4132924E0,9.246998E1,8.593636E0,6.293536E0,4.3781166E0],"tree_param":{"num_deleted":"0","num_feature":"43","num_nodes":"35","size_leaf_vector":"1"}},{"base_weights":[-1.5322755E-1,-3.9323106E-2,-2.348356E-1,3.3046648E-2,-4.827658E-1,-1.2679939E-1,-4.374805E-1,-4.730431E-1,9.273185E-2,-5.718053E-1,-0E0,-4.7394086E-2,-4.671778E-1,-5.116455E-1,4.212662E-2,-6.276114E-2,-0E0,-4.4873184E-1,1.5707864E-1,-6.342777E-2,-2.672483E-2,8.719171E-2,-7.947579E-2,-5.807715E-1,1.7257368E-2,-7.0009716E-2,-5.7271105E-1,-2.4468614E-2,5.4495413E-2,-6.2453862E-2,-1.1875768E-3,4.0054673E-1,5.04752E-3,-1.1929451E-1,5.1531035E-2,-2.7842013E-2,-6.305616E-2,-5.9485853E-2,4.2405646E-2,-6.080307E-1,-3.4666532E-1,1.2881356E-2,6.811889E-2,-1.6445627E-2,3.817618E-2,6.864601E-3,-3.0241946E-2,-2.6137E-2,-6.3215986E-2,-6.1469197E-2,-0E0],"categories":[],"categories_nodes":[],"categories_segments":[],"categories_sizes":[],"default_left":[0,0,0,0,0,0,0,0,0,0,0,0,0,0,0,0,0,0,0,0,0,0,0,0,0,0,0,0,0,0,0,0,0,0,0,0,0,0,0,0,0,0,0,0,0,0,0,0,0,0,0],"id":28,"left_children":[1,3,5,7,9,11,13,15,17,19,-1,21,23,25,27,-1,-1,29,31,-1,-1,-1,33,35,-1,37,39,-1,-1,-1,-1,41,43,45,-1,-1,-1,-1,-1,47,49,-1,-1,-1,-1,-1,-1,-1,-1,-1,-1],"loss_changes":[2.8880377E0,4.269485E0,3.9280567E0,3.3804283E0,7.5248337E-1,3.171782E0,2.2904997E0,7.977388E-1,3.5095167E0,1.897912E-1,0E0,2.7918732E0,1.6731815E0,1.4085903E0,1.2477219E0,0E0,0E0,7.518122E-1,3.321499E0,0E0,0E0,0E0,2.1936572E0,1.7928553E-1,0E0,1.8484278E0,2.6585865E-1,0E0,0E0,0E0,0E0,2.5536494E0,3.62125E0,3.066998E0,0E0,0E0,0E0,0E0,0E0,2.3631477E-1,6.5920144E-1,0E0,0E0,0E0,0E0,0E0,0E0,0E0,0E0,0E0,0E0],"parents":[2147483647,0,0,1,1,2,2,3,3,4,4,5,5,6,6,7,7,8,8,9,9,11,11,12,12,13,13,14,14,17,17,18,18,22,22,23,23,25,25,26,26,31,31,32,32,33,33,39,39,40,40],"right_children":[2,4,6,8,10,12,14,16,18,20,-1,22,24,26,28,-1,-1,30,32,-1,-1,-1,34,36,-1,38,40,-1,-1,-1,-1,42,44,46,-1,-1,-1,-1,-1,48,50,-1,-1,-1,-1,-1,-1,-1,-1,-1,-1],"split_conditions":[-2.5623072E8,9.841481E-1,1.2285911E1,1.4423324E9,1.0980186E0,4.96E0,2.7076485E0,5.667765E2,1.245E1,2.9124627E-1,-0E0,3.1946518E2,4.6693513E-1,5.2070504E-1,2.3E5,-6.276114E-2,-0E0,1.018337E0,-1.1537744E0,-6.342777E-2,-2.672483E-2,8.719171E-2,2.3163057E1,5.3385985E-1,1.7257368E-2,4.518324E-1,1.1133472E0,-2.4468614E-2,5.4495413E-2,-6.2453862E-2,-1.1875768E-3,5.470547E2,8.5948306E-1,9.988418E-1,5.1531035E-2,-2.7842013E-2,-6.305616E-2,-5.9485853E-2,4.2405646E-2,-4.2969952E8,7.2666373E0,1.2881356E-2,6.811889E-2,-1.6445627E-2,3.817618E-2,6.864601E-3,-3.0241946E-2,-2.6137E-2,-6.3215986E-2,-6.1469197E-2,-0E0],"split_indices":[30,26,29,3,10,20,19,34,25,4,0,34,4,6,2,0,0,6,13,0,0,0,22,6,0,6,10,0,0,0,0,35,18,10,0,0,0,0,0,3,7,0,0,0,0,0,0,0,0,0,0],"split_type":[0,0,0,0,0,0,0,0,0,0,0,0,0,0,0,0,0,0,0,0,0,0,0,0,0,0,0,0,0,0,0,0,0,0,0,0,0,0,0,0,0,0,0,0,0,0,0,0,0,0,0],"sum_hessian":[3.1364014E2,1.3148853E2,1.821516E2,1.12926056E2,1.856247E1,1.19238144E2,6.2913456E1,1.166308E1,1.0126298E2,1.5504329E1,3.0581412E0,9.701393E1,2.2224215E1,5.4662445E1,8.251012E0,8.607782E0,3.0552979E0,1.0527235E1,9.073574E1,1.2503031E1,3.0012982E0,3.0780013E0,9.393593E1,1.901369E1,3.210524E0,6.8651066E0,4.7797337E1,5.1601343E0,3.0908775E0,7.3125343E0,3.2147002E0,3.456342E1,5.6172325E1,8.827436E1,5.6615696E0,3.065571E0,1.594812E1,3.417103E0,3.4480033E0,4.080948E1,6.9878573E0,1.7815601E1,1.6747818E1,3.8596565E1,1.7575758E1,4.3325737E1,4.4948624E1,3.0023696E0,3.780711E1,3.8989754E0,3.088882E0],"tree_param":{"num_deleted":"0","num_feature":"43","num_nodes":"51","size_leaf_vector":"1"}},{"base_weights":[7.750298E-2,1.5647526E-1,-8.080262E-2,1.8623027E-1,-2.6831564E-1,-5.343246E-1,-1.5456712E-2,2.1634723E-1,-2.2151563E-1,-6.1358297E-1,3.6184426E-2,-0E0,-6.847503E-2,1.9411391E-1,-1.805854E-1,8.550791E-2,1.9674821E-1,1.6122818E-1,-7.2788894E-2,-7.7415146E-2,-1.5252021E-2,1.0004778E-1,1.2317553E-1,2.3911415E-1,-2.9845476E-1,3.275345E-1,1.1140433E-1,8.866462E-2,-5.3665765E-2,3.3319277E-1,-2.5454876E-1,-4.441076E-2,4.5860058E-1,-4.4349277E-1,-6.692625E-2,-9.841691E-3,4.1772902E-2,9.202726E-2,8.637919E-3,4.820259E-2,-4.7924083E-2,6.0407436E-3,-7.362529E-2,8.2950786E-2,1.8667256E-2,-6.1096128E-2,-1.3042751E-3,-3.4902718E-2,4.309818E-2],"categories":[],"categories_nodes":[],"categories_segments":[],"categories_sizes":[],"default_left":[0,0,0,0,0,0,0,0,0,0,0,0,0,0,0,0,0,0,0,0,0,0,0,0,0,0,0,0,0,0,0,0,0,0,0,0,0,0,0,0,0,0,0,0,0,0,0,0,0],"id":29,"left_children":[1,3,5,7,9,11,13,15,17,19,-1,-1,-1,21,23,-1,25,27,-1,-1,-1,-1,29,31,33,35,37,-1,-1,39,41,-1,43,45,47,-1,-1,-1,-1,-1,-1,-1,-1,-1,-1,-1,-1,-1,-1],"loss_changes":[5.0978537E0,3.4352612E0,3.948771E0,3.1296701E0,3.8829522E0,1.4191213E0,4.099664E0,2.8484259E0,3.4264991E0,7.490034E-1,0E0,0E0,0E0,2.8476293E0,3.3049142E0,0E0,2.525261E0,5.062816E0,0E0,0E0,0E0,0E0,3.8231728E0,2.1901884E0,1.6983075E0,3.513073E0,2.7272253E0,0E0,0E0,3.778335E0,2.656371E0,0E0,1.002852E0,2.2292175E0,2.8837526E0,0E0,0E0,0E0,0E0,0E0,0E0,0E0,0E0,0E0,0E0,0E0,0E0,0E0,0E0],"parents":[2147483647,0,0,1,1,2,2,3,3,4,4,5,5,6,6,7,7,8,8,9,9,13,13,14,14,16,16,17,17,22,22,23,23,24,24,25,25,26,26,29,29,30,30,32,32,33,33,34,34],"right_children":[2,4,6,8,10,12,14,16,18,20,-1,-1,-1,22,24,-1,26,28,-1,-1,-1,-1,30,32,34,36,38,-1,-1,40,42,-1,44,46,48,-1,-1,-1,-1,-1,-1,-1,-1,-1,-1,-1,-1,-1,-1],"split_conditions":[3.9614588E-2,1.8574669E1,1.4106803E-1,4.59E0,1.028143E2,-8.654717E-2,-3.6E-1,-8.156345E8,5.730305E7,1.7360553E-2,3.6184426E-2,-0E0,-6.847503E-2,3.42E0,-7.493495E0,8.550791E-2,-8.631527E-2,-4.714098E-1,-7.2788894E-2,-7.7415146E-2,-1.5252021E-2,1.0004778E-1,4.35E0,-2.8308704E-1,1.8011494E1,1.14253845E1,-1.961529E-1,8.866462E-2,-5.3665765E-2,9.382906E0,1.0448443E0,-4.441076E-2,3.7389984E0,4.21E0,2.2E5,-9.841691E-3,4.1772902E-2,9.202726E-2,8.637919E-3,4.820259E-2,-4.7924083E-2,6.0407436E-3,-7.362529E-2,8.2950786E-2,1.8667256E-2,-6.1096128E-2,-1.3042751E-3,-3.4902718E-2,4.309818E-2],"split_indices":[4,24,4,33,37,17,31,3,32,14,0,0,0,33,24,0,14,13,0,0,0,0,20,14,22,22,17,0,0,13,10,0,8,20,2,0,0,0,0,0,0,0,0,0,0,0,0,0,0],"split_type":[0,0,0,0,0,0,0,0,0,0,0,0,0,0,0,0,0,0,0,0,0,0,0,0,0,0,0,0,0,0,0,0,0,0,0,0,0,0,0,0,0,0,0,0,0,0,0,0,0],"sum_hessian":[4.0696466E2,2.7193842E2,1.3502626E2,2.5440955E2,1.7528866E1,1.6722013E1,1.18304245E2,2.371829E2,1.7226639E1,1.1428475E1,6.1003904E0,3.552491E0,1.3169522E1,5.1861652E1,6.644259E1,6.7823143E0,2.3040059E2,9.737328E0,7.489311E0,8.265246E0,3.1632283E0,3.9735765E0,4.7888077E1,1.4359873E1,5.2082718E1,9.040414E1,1.3999646E2,4.831482E0,4.9058456E0,3.0953987E1,1.693409E1,3.3558295E0,1.1004044E1,3.1700739E1,2.0381979E1,1.5602437E1,7.48017E1,3.9740186E0,1.3602245E2,2.6299776E1,4.654211E0,1.0166631E1,6.76746E0,4.4125605E0,6.5914826E0,2.2624376E1,9.076364E0,1.3157848E1,7.2241306E0],"tree_param":{"num_deleted":"0","num_feature":"43","num_nodes":"49","size_leaf_vector":"1"}},{"base_weights":[6.37414E-2,3.6265228E-2,4.1900927E-1,5.7914294E-2,-5.0650495E-1,5.3673995E-1,-4.7188934E-2,-5.3779066E-1,7.38679E-2,-6.8563536E-2,-0E0,5.8426447E-2,7.185351E-1,-3.0670052E-2,-6.394714E-2,-9.9277236E-2,1.43293E-1,-4.873224E-2,5.4739606E-2,2.391943E-2,8.4146637E-1,7.0177115E-2,-1.5378062E-1,7.959796E-2,3.7955248E-1,9.5741495E-2,4.8789766E-2,1.1317956E-2,-2.6552377E-2,1.9156875E-2,-8.383592E-3,1.9693773E-2,7.88008E-2],"categories":[],"categories_nodes":[],"categories_segments":[],"categories_sizes":[],"default_left":[0,0,0,0,0,0,0,0,0,0,0,0,0,0,0,0,0,0,0,0,0,0,0,0,0,0,0,0,0,0,0,0,0],"id":30,"left_children":[1,3,5,7,9,11,-1,13,15,-1,-1,17,19,-1,-1,21,23,-1,-1,-1,25,-1,27,29,31,-1,-1,-1,-1,-1,-1,-1,-1],"loss_changes":[3.8881333E0,4.3594174E0,3.0388303E0,3.383332E0,1.3319695E0,2.1327577E0,0E0,1.0313296E-1,4.228869E0,0E0,0E0,1.9739245E0,9.4981956E-1,0E0,0E0,4.3305283E0,3.731576E0,0E0,0E0,0E0,3.9723206E-1,0E0,2.8227007E0,3.6418622E0,3.8382568E0,0E0,0E0,0E0,0E0,0E0,0E0,0E0,0E0],"parents":[2147483647,0,0,1,1,2,2,3,3,4,4,5,5,7,7,8,8,11,11,12,12,15,15,16,16,20,20,22,22,23,23,24,24],"right_children":[2,4,6,8,10,12,-1,14,16,-1,-1,18,20,-1,-1,22,24,-1,-1,-1,26,-1,28,30,32,-1,-1,-1,-1,-1,-1,-1,-1],"split_conditions":[6.884766E2,6.518498E2,3.4678247E0,-2.2288845E1,4.265454E-1,5.8758276E7,-4.7188934E-2,4.59E0,8.554553E0,-6.8563536E-2,-0E0,2.4118371E-1,2.157279E9,-3.0670052E-2,-6.394714E-2,4.9359024E7,1.5626058E-1,-4.873224E-2,5.4739606E-2,2.391943E-2,1.1107405E1,7.0177115E-2,3.6E0,6.94E1,5.5240424E2,9.5741495E-2,4.8789766E-2,1.1317956E-2,-2.6552377E-2,1.9156875E-2,-8.383592E-3,1.9693773E-2,7.88008E-2],"split_indices":[35,35,19,24,4,32,0,28,29,0,0,14,3,0,0,32,14,0,0,0,7,0,36,5,35,0,0,0,0,0,0,0,0],"split_type":[0,0,0,0,0,0,0,0,0,0,0,0,0,0,0,0,0,0,0,0,0,0,0,0,0,0,0,0,0,0,0,0,0],"sum_hessian":[4.030368E2,3.7446744E2,2.8569368E1,3.603673E2,1.4100131E1,2.5368912E1,3.2004569E0,9.150488E0,3.5121683E2,1.0482895E1,3.6172361E0,7.1745286E0,1.8194384E1,3.219233E0,5.931255E0,1.00095856E2,2.5112097E2,3.293931E0,3.8805976E0,3.9398654E0,1.4254518E1,6.184121E0,9.391173E1,1.9823438E2,5.2886585E1,1.0392732E1,3.8617864E0,2.7445887E1,6.646584E1,1.1799146E2,8.024291E1,3.681856E1,1.6068026E1],"tree_param":{"num_deleted":"0","num_feature":"43","num_nodes":"33","size_leaf_vector":"1"}},{"base_weights":[-1.400248E-1,-1.4929774E-1,7.256941E-2,-8.0861196E-2,-2.649525E-1,-1.0906134E-1,4.9261492E-1,8.256784E-2,-3.2007742E-1,-7.440816E-2,-5.502598E-1,9.562697E-2,-0E0,4.271461E-1,-3.414118E-1,-3.747802E-1,7.308974E-2,1.7012177E-1,-1.3673268E-1,-6.222218E-2,-2.7548045E-2,8.3248004E-2,-2.8392537E-2,-6.0464215E-2,-0E0,-4.2704463E-1,-0E0,-3.6543614E-1,8.589851E-2,3.1367783E-2,-3.606348E-2,-1.6743714E-2,3.8752075E-2,-1.3639475E-2,-4.9756136E-2,5.0680768E-2,-5.9854805E-2,-0E0,-5.956E-2],"categories":[],"categories_nodes":[],"categories_segments":[],