{"learner":{"attributes":{"scikit_learn":"{\"_estimator_type\": \"classifier\"}"},"feature_names":["CSCICP03USM665S","BAMLH0A0HYM2","HOUST","sma_200","INDPRO","is_doji","macd_hist","RSXFS","ad_line","VIXCLS","candle_range","UMCSENT","lower_shadow","gdp_growth_yoy","volume_roc_10","higher_highs","volume_sma_20","DGS10","sma_10","roc_10","bb_position","atr","DGS2","CPIAUCSL","lower_lows","inflation_yoy","price_volume_correlation","macd","upper_shadow","candle_body","obv","T10Y2Y","sma_50","ICSA","rsi_14","volume_ratio","candle_direction","DFF","UNRATE","price_above_sma50","price_above_sma20"],"feature_types":["float","float","float","float","float","int","float","float","float","float","float","float","float","float","float","float","float","float","float","float","float","float","float","float","float","float","float","float","float","float","float","float","float","float","float","float","int","float","float","int","int"],"gradient_booster":{"model":{"cats":{"enc":[],"feature_segments":[],"sorted_idx":[]},"gbtree_model_param":{"num_parallel_tree":"1","num_trees":"900"},"iteration_indptr":[0,3,6,9,12,15,18,21,24,27,30,33,36,39,42,45,48,51,54,57,60,63,66,69,72,75,78,81,84,87,90,93,96,99,102,105,108,111,114,117,120,123,126,129,132,135,138,141,144,147,150,153,156,159,162,165,168,171,174,177,180,183,186,189,192,195,198,201,204,207,210,213,216,219,222,225,228,231,234,237,240,243,246,249,252,255,258,261,264,267,270,273,276,279,282,285,288,291,294,297,300,303,306,309,312,315,318,321,324,327,330,333,336,339,342,345,348,351,354,357,360,363,366,369,372,375,378,381,384,387,390,393,396,399,402,405,408,411,414,417,420,423,426,429,432,435,438,441,444,447,450,453,456,459,462,465,468,471,474,477,480,483,486,489,492,495,498,501,504,507,510,513,516,519,522,525,528,531,534,537,540,543,546,549,552,555,558,561,564,567,570,573,576,579,582,585,588,591,594,597,600,603,606,609,612,615,618,621,624,627,630,633,636,639,642,645,648,651,654,657,660,663,666,669,672,675,678,681,684,687,690,693,696,699,702,705,708,711,714,717,720,723,726,729,732,735,738,741,744,747,750,753,756,759,762,765,768,771,774,777,780,783,786,789,792,795,798,801,804,807,810,813,816,819,822,825,828,831,834,837,840,843,846,849,852,855,858,861,864,867,870,873,876,879,882,885,888,891,894,897,900],"tree_info":[0,1,2,0,1,2,0,1,2,0,1,2,0,1,2,0,1,2,0,1,2,0,1,2,0,1,2,0,1,2,0,1,2,0,1,2,0,1,2,0,1,2,0,1,2,0,1,2,0,1,2,0,1,2,0,1,2,0,1,2,0,1,2,0,1,2,0,1,2,0,1,2,0,1,2,0,1,2,0,1,2,0,1,2,0,1,2,0,1,2,0,1,2,0,1,2,0,1,2,0,1,2,0,1,2,0,1,2,0,1,2,0,1,2,0,1,2,0,1,2,0,1,2,0,1,2,0,1,2,0,1,2,0,1,2,0,1,2,0,1,2,0,1,2,0,1,2,0,1,2,0,1,2,0,1,2,0,1,2,0,1,2,0,1,2,0,1,2,0,1,2,0,1,2,0,1,2,0,1,2,0,1,2,0,1,2,0,1,2,0,1,2,0,1,2,0,1,2,0,1,2,0,1,2,0,1,2,0,1,2,0,1,2,0,1,2,0,1,2,0,1,2,0,1,2,0,1,2,0,1,2,0,1,2,0,1,2,0,1,2,0,1,2,0,1,2,0,1,2,0,1,2,0,1,2,0,1,2,0,1,2,0,1,2,0,1,2,0,1,2,0,1,2,0,1,2,0,1,2,0,1,2,0,1,2,0,1,2,0,1,2,0,1,2,0,1,2,0,1,2,0,1,2,0,1,2,0,1,2,0,1,2,0,1,2,0,1,2,0,1,2,0,1,2,0,1,2,0,1,2,0,1,2,0,1,2,0,1,2,0,1,2,0,1,2,0,1,2,0,1,2,0,1,2,0,1,2,0,1,2,0,1,2,0,1,2,0,1,2,0,1,2,0,1,2,0,1,2,0,1,2,0,1,2,0,1,2,0,1,2,0,1,2,0,1,2,0,1,2,0,1,2,0,1,2,0,1,2,0,1,2,0,1,2,0,1,2,0,1,2,0,1,2,0,1,2,0,1,2,0,1,2,0,1,2,0,1,2,0,1,2,0,1,2,0,1,2,0,1,2,0,1,2,0,1,2,0,1,2,0,1,2,0,1,2,0,1,2,0,1,2,0,1,2,0,1,2,0,1,2,0,1,2,0,1,2,0,1,2,0,1,2,0,1,2,0,1,2,0,1,2,0,1,2,0,1,2,0,1,2,0,1,2,0,1,2,0,1,2,0,1,2,0,1,2,0,1,2,0,1,2,0,1,2,0,1,2,0,1,2,0,1,2,0,1,2,0,1,2,0,1,2,0,1,2,0,1,2,0,1,2,0,1,2,0,1,2,0,1,2,0,1,2,0,1,2,0,1,2,0,1,2,0,1,2,0,1,2,0,1,2,0,1,2,0,1,2,0,1,2,0,1,2,0,1,2,0,1,2,0,1,2,0,1,2,0,1,2,0,1,2,0,1,2,0,1,2,0,1,2,0,1,2,0,1,2,0,1,2,0,1,2,0,1,2,0,1,2,0,1,2,0,1,2,0,1,2,0,1,2,0,1,2,0,1,2,0,1,2,0,1,2,0,1,2,0,1,2,0,1,2,0,1,2,0,1,2,0,1,2,0,1,2,0,1,2,0,1,2,0,1,2,0,1,2,0,1,2,0,1,2,0,1,2,0,1,2,0,1,2,0,1,2,0,1,2,0,1,2,0,1,2,0,1,2,0,1,2,0,1,2,0,1,2,0,1,2,0,1,2,0,1,2,0,1,2,0,1,2,0,1,2,0,1,2,0,1,2,0,1,2,0,1,2,0,1,2,0,1,2,0,1,2,0,1,2,0,1,2,0,1,2,0,1,2,0,1,2,0,1,2,0,1,2,0,1,2,0,1,2,0,1,2,0,1,2,0,1,2,0,1,2,0,1,2,0,1,2,0,1,2,0,1,2,0,1,2,0,1,2,0,1,2,0,1,2,0,1,2,0,1,2,0,1,2,0,1,2,0,1,2,0,1,2,0,1,2,0,1,2,0,1,2,0,1,2,0,1,2,0,1,2,0,1,2,0,1,2,0,1,2,0,1,2,0,1,2,0,1,2],"trees":[{"base_weights":[5.334707E-2,-1.7678231E-1,2.937615E-1,-3.6665758E-1,1.8066916E-1,1.0222783E0,1.5921377E-1,9.079867E-2,-4.251826E-1,-1.9214243E-1,8.050099E-1,5.448324E-1,1.348541E-1,-2.7945077E-1,4.7598422E-1,-6.927027E-1,-2.9085696E-1,-4.9774095E-1,6.1294E-1,3.2622E-1,1.2227523E0,9.0358794E-2,-9.808319E-3,-3.712439E-1,8.425409E-2,8.956375E-1,1.9385941E-1,-7.567981E-2,-4.4822103E-1,-3.6967683E-1,4.9748473E-2,-6.054992E-1,1.4678876E-2,1.3931239E-1,-2.4257515E-2,-4.041731E-2,7.3640846E-2,1.4104994E-1,7.589686E-2,-6.1825246E-1,2.3370037E-2,1.0620878E0,-1.7911712E-2,7.491913E-2,1.3802557E-1,-7.168319E-2,-9.808319E-3,-3.9295875E-3,-5.4175872E-2,-9.808319E-3,-6.944061E-2,-7.171776E-2,3.5968781E-3,9.417308E-2,-4.8589434E-2,1.2631705E-1,4.7545988E-2,-1.705443E-2,6.936595E-2],"categories":[],"categories_nodes":[],"categories_segments":[],"categories_sizes":[],"default_left":[0,0,0,0,0,0,0,0,0,0,0,0,0,0,0,0,0,0,0,0,0,0,0,0,0,0,0,0,0,0,0,0,0,0,0,0,0,0,0,0,0,0,0,0,0,0,0,0,0,0,0,0,0,0,0,0,0,0,0],"id":0,"left_children":[1,3,5,7,9,11,13,-1,15,17,19,21,-1,23,25,27,29,31,33,35,37,-1,-1,39,-1,41,43,-1,45,47,-1,49,-1,-1,-1,-1,-1,-1,-1,51,53,55,-1,57,-1,-1,-1,-1,-1,-1,-1,-1,-1,-1,-1,-1,-1,-1,-1],"loss_changes":[1.5917337E1,9.981079E0,1.3667405E1,7.1529274E0,1.189457E1,3.1356316E0,1.6581114E1,0E0,3.1854668E0,7.8354588E0,3.6258373E0,2.1995354E0,0E0,5.1200438E0,8.081021E0,3.2215023E-1,3.8351474E0,1.6642694E0,5.9531918E0,2.8038998E0,5.5139637E-1,0E0,0E0,4.5688567E0,0E0,5.062353E0,5.7317734E0,0E0,5.591546E-1,3.1349592E0,0E0,8.165083E-1,0E0,0E0,0E0,0E0,0E0,0E0,0E0,1.9218645E0,8.390375E0,2.606432E0,0E0,5.8513308E0,0E0,0E0,0E0,0E0,0E0,0E0,0E0,0E0,0E0,0E0,0E0,0E0,0E0,0E0,0E0],"parents":[2147483647,0,0,1,1,2,2,3,3,4,4,5,5,6,6,8,8,9,9,10,10,11,11,13,13,14,14,15,15,16,16,17,17,18,18,19,19,20,20,23,23,25,25,26,26,28,28,29,29,31,31,39,39,40,40,41,41,43,43],"right_children":[2,4,6,8,10,12,14,-1,16,18,20,22,-1,24,26,28,30,32,34,36,38,-1,-1,40,-1,42,44,-1,46,48,-1,50,-1,-1,-1,-1,-1,-1,-1,52,54,56,-1,58,-1,-1,-1,-1,-1,-1,-1,-1,-1,-1,-1,-1,-1,-1,-1],"split_conditions":[3.925988E2,6.937198E-2,-4.2E-1,4.324839E7,3.8E0,6.867668E0,-1.7627729E0,9.079867E-2,-5.6602144E-1,5.607097E0,-3.7094667E0,3.7E0,1.348541E-1,5.31E0,2.17E5,4.94E0,3.8537927E2,1.514E3,1.1920034E0,3.5148853E2,1.0425596E0,9.0358794E-2,-9.808319E-3,4.998735E2,8.425409E-2,2.885E1,1.030505E2,-7.567981E-2,3.6450342E2,1.381E3,4.9748473E-2,4.16E0,1.4678876E-2,1.3931239E-1,-2.4257515E-2,-4.041731E-2,7.3640846E-2,1.4104994E-1,7.589686E-2,-8.103413E-1,2.147456E1,4.51E0,-1.7911712E-2,5.097331E2,1.3802557E-1,-7.168319E-2,-9.808319E-3,-3.9295875E-3,-5.4175872E-2,-9.808319E-3,-6.944061E-2,-7.171776E-2,3.5968781E-3,9.417308E-2,-4.8589434E-2,1.2631705E-1,4.7545988E-2,-1.705443E-2,6.936595E-2],"split_indices":[32,26,31,16,38,12,19,0,27,19,19,17,0,1,33,22,3,2,35,18,35,0,0,18,0,9,4,0,3,2,0,22,0,0,0,0,0,0,0,27,21,17,0,32,0,0,0,0,0,0,0,0,0,0,0,0,0,0,0],"split_type":[0,0,0,0,0,0,0,0,0,0,0,0,0,0,0,0,0,0,0,0,0,0,0,0,0,0,0,0,0,0,0,0,0,0,0,0,0,0,0,0,0,0,0,0,0,0,0,0,0,0,0,0,0,0,0,0,0,0,0],"sum_hessian":[2.8729337E2,1.465875E2,1.4070589E2,9.591527E1,5.067222E1,2.1716665E1,1.1898923E2,4.0718746E0,9.184339E1,3.1670135E1,1.900208E1,9.048611E0,1.2668055E1,4.9767357E1,6.922187E1,3.0312845E1,6.1530552E1,2.3073956E1,8.59618E0,9.048611E0,9.953471E0,5.8815966E0,3.1670136E0,4.614791E1,3.6194441E0,2.759826E1,4.1623608E1,2.3526386E1,6.7864575E0,5.6101383E1,5.4291663E0,1.9906942E1,3.1670136E0,4.5243053E0,4.0718746E0,3.1670136E0,5.8815966E0,6.7864575E0,3.1670136E0,2.8503122E1,1.764479E1,2.3978817E1,3.6194441E0,3.800416E1,3.6194441E0,3.6194441E0,3.1670136E0,1.9454512E1,3.6646873E1,3.1670136E0,1.673993E1,2.4883678E1,3.6194441E0,6.3340273E0,1.1310763E1,1.764479E1,6.3340273E0,2.714583E1,1.0858333E1],"tree_param":{"num_deleted":"0","num_feature":"41","num_nodes":"59","size_leaf_vector":"1"}},{"base_weights":[-2.726249E-1,-3.1798106E-1,6.367027E-1,8.0234784E-1,-3.499649E-1,1.1401707E0,-6.49817E-2,1.8166848E-2,1.3695048E-1,-4.8608837E-1,-2.2277433E-1,1.6882357E-1,4.8746187E-2,-6.131114E-1,-2.6941958E-1,3.6044782E-1,-2.9412293E-1,-5.589881E-3,-6.385232E-1,-5.545404E-1,2.9165085E-2,1.0133236E-1,-1.4070882E-1,1.4041796E-1,-4.085824E-1,-6.658637E-2,-2.2782048E-2,-6.369942E-2,-5.589881E-3,-6.730016E-2,3.3962514E-2,-6.596741E-2,4.7862757E-2,6.0947724E-2,-2.1681888E-2,-4.854301E-2,1.0578993E-2],"categories":[],"categories_nodes":[],"categories_segments":[],"categories_sizes":[],"default_left":[0,0,0,0,0,0,0,0,0,0,0,0,0,0,0,0,0,0,0,0,0,0,0,0,0,0,0,0,0,0,0,0,0,0,0,0,0],"id":1,"left_children":[1,3,5,7,9,11,-1,-1,-1,13,15,-1,-1,17,19,21,23,-1,25,27,29,-1,31,33,35,-1,-1,-1,-1,-1,-1,-1,-1,-1,-1,-1,-1],"loss_changes":[1.0419712E1,8.621166E0,7.859879E0,2.1556501E0,3.9790325E0,2.8041668E0,0E0,0E0,0E0,3.0004635E0,5.072868E0,0E0,0E0,9.2892075E-1,3.6440847E0,4.410609E0,5.4411535E0,0E0,6.5330696E-1,8.212743E-1,4.4631352E0,0E0,2.4447923E0,3.833395E0,3.4535809E0,0E0,0E0,0E0,0E0,0E0,0E0,0E0,0E0,0E0,0E0,0E0,0E0],"parents":[2147483647,0,0,1,1,2,2,3,3,4,4,5,5,9,9,10,10,13,13,14,14,15,15,16,16,18,18,19,19,20,20,22,22,23,23,24,24],"right_children":[2,4,6,8,10,12,-1,-1,-1,14,16,-1,-1,18,20,22,24,-1,26,28,30,-1,32,34,36,-1,-1,-1,-1,-1,-1,-1,-1,-1,-1,-1,-1],"split_conditions":[3.17603E2,-5.4435015E0,4E0,3.8245786E2,-2.6707811E8,9.620935E-2,-6.49817E-2,1.8166848E-2,1.3695048E-1,8.627305E0,2.03E5,1.6882357E-1,4.8746187E-2,2.73E0,4.7613745E2,6.2943874E-3,-3.701663E-1,-5.589881E-3,1.3801237E0,4.27E0,4.869186E7,1.0133236E-1,8.955296E-1,-4.9E-1,5.256038E-1,-6.658637E-2,-2.2782048E-2,-6.369942E-2,-5.589881E-3,-6.730016E-2,3.3962514E-2,-6.596741E-2,4.7862757E-2,6.0947724E-2,-2.1681888E-2,-4.854301E-2,1.0578993E-2],"split_indices":[23,6,24,3,8,14,0,0,0,28,33,0,0,1,32,6,14,0,35,1,16,0,6,31,25,0,0,0,0,0,0,0,0,0,0,0,0],"split_type":[0,0,0,0,0,0,0,0,0,0,0,0,0,0,0,0,0,0,0,0,0,0,0,0,0,0,0,0,0,0,0,0,0,0,0,0,0],"sum_hessian":[2.5282027E2,2.409757E2,1.1844568E1,6.534934E0,2.3444077E2,8.577101E0,3.267467E0,3.267467E0,3.267467E0,1.12727615E2,1.2171315E2,4.4927673E0,4.084334E0,7.065897E1,4.2068638E1,1.3069868E1,1.0864328E2,3.267467E0,6.739151E1,2.1646969E1,2.0421669E1,5.718067E0,7.351801E0,2.2463837E1,8.617944E1,6.289874E1,4.4927673E0,1.8379501E1,3.267467E0,6.1265006E0,1.4295168E1,4.084334E0,3.267467E0,9.802401E0,1.2661435E1,7.515174E1,1.1027701E1],"tree_param":{"num_deleted":"0","num_feature":"41","num_nodes":"37","size_leaf_vector":"1"}},{"base_weights":[1.3426848E-1,9.9868983E-1,3.0489985E-2,-1.2244679E-2,1.1988583E0,1.0191698E0,-3.1168427E-2,6.0323942E-2,1.3028918E-1,1.174669E0,3.940227E-2,2.0162319E-1,-2.2523953E-1,6.919274E-2,1.331606E-1,3.8269877E-1,-2.3489606E-1,-6.056324E-1,-3.2775016E-3,4.797827E-1,-7.622451E-2,3.4530738E-1,-6.7491317E-1,-7.344116E-1,-1.5414745E-1,-2.7398157E-1,5.206987E-1,-1.9837194E-3,7.583771E-2,-1.0018911E-2,1.12113915E-1,-2.212296E-2,-7.794293E-2,-5.1930595E-2,-7.854773E-2,-5.838979E-2,2.6071925E-2,1.3196306E-1,-4.700315E-2,9.090143E-2,-4.1624285E-2],"categories":[],"categories_nodes":[],"categories_segments":[],"categories_sizes":[],"default_left":[0,0,0,0,0,0,0,0,0,0,0,0,0,0,0,0,0,0,0,0,0,0,0,0,0,0,0,0,0,0,0,0,0,0,0,0,0,0,0,0,0],"id":2,"left_children":[1,3,5,-1,7,9,11,-1,-1,13,-1,15,17,-1,-1,19,21,23,25,27,-1,29,31,33,35,37,39,-1,-1,-1,-1,-1,-1,-1,-1,-1,-1,-1,-1,-1,-1],"loss_changes":[2.6155685E1,7.1402626E0,1.6047564E1,0E0,1.3802528E0,1.2990685E0,1.1130632E1,0E0,0E0,6.2952423E-1,0E0,8.857689E0,1.1300051E1,0E0,0E0,8.811092E0,8.396331E0,2.773016E0,1.208046E1,1.0256489E1,0E0,4.9720683E0,7.698765E-1,2.4889755E-1,2.056164E0,1.7596647E1,1.0618417E1,0E0,0E0,0E0,0E0,0E0,0E0,0E0,0E0,0E0,0E0,0E0,0E0,0E0,0E0],"parents":[2147483647,0,0,1,1,2,2,4,4,5,5,6,6,9,9,11,11,12,12,15,15,16,16,17,17,18,18,19,19,21,21,22,22,23,23,24,24,25,25,26,26],"right_children":[2,4,6,-1,8,10,12,-1,-1,14,-1,16,18,-1,-1,20,22,24,26,28,-1,30,32,34,36,38,40,-1,-1,-1,-1,-1,-1,-1,-1,-1,-1,-1,-1,-1,-1],"split_conditions":[3.6450342E2,4.808225E7,-8.943368E8,-1.2244679E-2,3.4331393E2,3.6886243E2,3.02858E2,6.0323942E-2,1.3028918E-1,3.87E0,3.940227E-2,3.8727014E2,3.841233E2,6.919274E-2,1.331606E-1,7.2E-1,4.075918E1,2.32E5,3.347751E-2,2.05E5,-7.622451E-2,4.2736487E2,1.7335094E1,1.2193099E-1,1.401E1,4.6770978E2,4.9869522E-1,-1.9837194E-3,7.583771E-2,-1.0018911E-2,1.12113915E-1,-2.212296E-2,-7.794293E-2,-5.1930595E-2,-7.854773E-2,-5.838979E-2,2.6071925E-2,1.3196306E-1,-4.700315E-2,9.090143E-2,-4.1624285E-2],"split_indices":[3,16,30,0,32,3,23,0,0,1,0,32,3,0,0,31,34,33,25,33,0,32,21,20,9,32,20,0,0,0,0,0,0,0,0,0,0,0,0,0,0],"split_type":[0,0,0,0,0,0,0,0,0,0,0,0,0,0,0,0,0,0,0,0,0,0,0,0,0,0,0,0,0,0,0,0,0,0,0,0,0,0,0,0,0],"sum_hessian":[2.9264478E2,3.1172018E1,2.6147275E2,4.65254E0,2.6519478E1,1.5353382E1,2.4611937E2,4.187286E0,2.2332191E1,1.2096604E1,3.256778E0,1.11660965E2,1.344584E2,3.256778E0,8.839827E0,7.909318E1,3.256778E1,4.9316925E1,8.514149E1,7.3044876E1,6.048302E0,1.3957621E1,1.861016E1,3.815083E1,1.1166096E1,5.6295734E1,2.8845749E1,2.6054224E1,4.6990654E1,8.839827E0,5.117794E0,3.722032E0,1.4888128E1,7.909318E0,3.024151E1,5.583048E0,5.583048E0,6.048302E0,5.0247433E1,2.0471176E1,8.374572E0],"tree_param":{"num_deleted":"0","num_feature":"41","num_nodes":"41","size_leaf_vector":"1"}},{"base_weights":[4.4033352E-2,-1.7644714E-1,2.6788297E-1,-3.5295275E-1,1.4775926E-1,8.975233E-1,1.4277197E-1,-4.1076645E-1,9.04809E-2,9.180866E-1,-8.619659E-2,-2.048155E-2,1.1021789E0,-2.584014E-1,4.0703115E-1,5.929322E-2,-4.6068808E-1,1.1668473E-1,4.7656875E-2,3.1583288E-1,-5.7197523E-1,3.6784463E-2,1.2356331E-1,2.7149922E-1,-4.4248298E-1,6.8850446E-1,9.972856E-2,-1.8995853E-1,-5.5487823E-1,-8.828326E-2,6.9781554E-1,-7.320031E-2,5.41597E-3,-7.2024696E-2,9.4396484E-1,-6.279874E-1,9.593784E-2,2.0363371E-1,1.0340124E0,-4.080361E-2,1.2939067E-1,-7.392501E-2,1.8702002E-2,-6.5053575E-2,-3.1724136E-2,-5.549062E-2,3.9996512E-2,2.5331264E-2,1.11008085E-1,1.2717536E-1,4.501469E-2,-7.347515E-2,-0E0,-5.355317E-2,8.787147E-2,9.840309E-2,-3.315432E-2,1.1467119E-1,3.5021115E-2,-2.2124218E-2,1.1288928E-1],"categories":[],"categories_nodes":[],"categories_segments":[],"categories_sizes":[],"default_left":[0,0,0,0,0,0,0,0,0,0,0,0,0,0,0,0,0,0,0,0,0,0,0,0,0,0,0,0,0,0,0,0,0,0,0,0,0,0,0,0,0,0,0,0,0,0,0,0,0,0,0,0,0,0,0,0,0,0,0,0,0],"id":3,"left_children":[1,3,5,7,9,11,13,15,-1,17,19,-1,21,23,25,-1,27,-1,-1,29,31,-1,-1,33,35,37,39,41,43,45,47,-1,-1,-1,49,51,53,55,57,59,-1,-1,-1,-1,-1,-1,-1,-1,-1,-1,-1,-1,-1,-1,-1,-1,-1,-1,-1,-1,-1],"loss_changes":[1.4519522E1,8.4893875E0,1.1392509E1,6.968137E0,9.464126E0,5.541939E0,1.29735565E1,4.619936E0,0E0,1.1226225E0,7.832956E0,0E0,1.7925224E0,4.751684E0,6.2997665E0,0E0,2.1517696E0,0E0,0E0,3.428431E0,1.8962846E0,0E0,0E0,8.362962E0,3.6658812E0,6.278776E0,6.1014276E0,4.8455524E0,1.3544731E0,2.439574E0,1.9122624E0,0E0,0E0,0E0,9.838257E-1,1.7374754E0,4.629793E0,6.8634734E0,1.5244007E0,6.6574006E0,0E0,0E0,0E0,0E0,0E0,0E0,0E0,0E0,0E0,0E0,0E0,0E0,0E0,0E0,0E0,0E0,0E0,0E0,0E0,0E0,0E0],"parents":[2147483647,0,0,1,1,2,2,3,3,4,4,5,5,6,6,7,7,9,9,10,10,12,12,13,13,14,14,16,16,19,19,20,20,23,23,24,24,25,25,26,26,27,27,28,28,29,29,30,30,34,34,35,35,36,36,37,37,38,38,39,39],"right_children":[2,4,6,8,10,12,14,16,-1,18,20,-1,22,24,26,-1,28,-1,-1,30,32,-1,-1,34,36,38,40,42,44,46,48,-1,-1,-1,50,52,54,56,58,60,-1,-1,-1,-1,-1,-1,-1,-1,-1,-1,-1,-1,-1,-1,-1,-1,-1,-1,-1,-1,-1],"split_conditions":[3.9448456E2,6.675503E-2,-4.3E-1,3.8592596E2,-2.841006E8,1.8130256E-2,-1.7627729E0,4.324839E7,9.04809E-2,2.15E5,4.16E0,-2.048155E-2,-4.0577278E-1,4.8005544E7,2.22E5,5.929322E-2,1.381E3,1.1668473E-1,4.7656875E-2,5.0281464E7,4.88E0,3.6784463E-2,1.2356331E-1,-4.6371264E0,1.543863E-1,-2.9364095E0,4.984091E2,1.1970123E0,3.96E0,2.15E5,-4.1421313E0,-7.320031E-2,5.41597E-3,-7.2024696E-2,2.0214151E1,5.2617065E2,-3.8045085E8,-1.7E-1,3.966077E-1,9.592312E-1,1.2939067E-1,-7.392501E-2,1.8702002E-2,-6.5053575E-2,-3.1724136E-2,-5.549062E-2,3.9996512E-2,2.5331264E-2,1.11008085E-1,1.2717536E-1,4.501469E-2,-7.347515E-2,-0E0,-5.355317E-2,8.787147E-2,9.840309E-2,-3.315432E-2,1.1467119E-1,3.5021115E-2,-2.2124218E-2,1.1288928E-1],"split_indices":[32,26,31,3,8,20,19,16,0,33,22,0,14,16,33,0,2,0,0,16,22,0,0,6,26,27,3,19,17,33,19,0,0,0,21,32,8,31,26,20,0,0,0,0,0,0,0,0,0,0,0,0,0,0,0,0,0,0,0,0,0],"split_type":[0,0,0,0,0,0,0,0,0,0,0,0,0,0,0,0,0,0,0,0,0,0,0,0,0,0,0,0,0,0,0,0,0,0,0,0,0,0,0,0,0,0,0,0,0,0,0,0,0,0,0,0,0,0,0,0,0,0,0,0,0],"sum_hessian":[2.9380753E2,1.4780327E2,1.4600426E2,9.5895226E1,5.190804E1,2.3967495E1,1.22036766E2,9.182145E1,4.073775E0,1.2123848E1,3.978419E1,3.6764262E0,2.0291069E1,4.831432E1,7.372244E1,4.204149E0,8.76173E1,7.504742E0,4.6191053E0,2.1675072E1,1.810912E1,3.2934957E0,1.6997572E1,1.2304278E1,3.6010044E1,3.8243717E1,3.5478725E1,2.2966972E1,6.465033E1,1.0442545E1,1.1232528E1,1.4536639E1,3.572479E0,4.908886E0,7.395392E0,2.6908304E1,9.101739E0,1.609919E1,2.2144527E1,3.1754648E1,3.7240777E0,9.416076E0,1.3550898E1,4.5671375E1,1.8978954E1,5.4372663E0,5.005278E0,5.599343E0,5.633185E0,4.228524E0,3.166868E0,2.2847979E1,4.060326E0,4.984531E0,4.1172075E0,6.5910606E0,9.508128E0,1.8827559E1,3.3169694E0,2.7655119E1,4.0995293E0],"tree_param":{"num_deleted":"0","num_feature":"41","num_nodes":"61","size_leaf_vector":"1"}},{"base_weights":[-2.3145093E-1,-3.7296142E-2,-3.7218753E-1,-3.3941925E-1,2.9993212E-1,-4.0519357E-1,2.7255547E-1,-6.807152E-2,-1.0375194E-1,-1.21482275E-1,5.967079E-1,-6.739433E-2,-3.4696937E-1,-3.3959962E-2,8.091034E-2,-3.4280413E-1,6.729815E-1,-4.1962025E-1,6.1329354E-2,8.855965E-1,-1.7940015E-1,1.0930874E-1,-3.8409877E-1,-4.6340346E-1,3.6882903E-2,1.2046688E-1,-5.6603714E-3,9.062349E-3,-5.9296435E-1,1.6558908E-1,6.6945565E-1,2.618137E-2,-6.477835E-2,1.0502986E-1,-4.74662E-2,2.8429676E-2,-4.1095978E-1,-6.263313E-2,1.1266651E-2,-6.744791E-2,-3.4559105E-2,-1.4366564E-2,8.99893E-2,-5.6004554E-2,-3.157148E-2],"categories":[],"categories_nodes":[],"categories_segments":[],"categories_sizes":[],"default_left":[0,0,0,0,0,0,0,0,0,0,0,0,0,0,0,0,0,0,0,0,0,0,0,0,0,0,0,0,0,0,0,0,0,0,0,0,0,0,0,0,0,0,0,0,0],"id":4,"left_children":[1,3,5,7,9,11,13,-1,15,17,19,-1,21,-1,-1,23,25,27,-1,29,31,33,35,37,-1,-1,-1,-1,39,-1,41,-1,-1,-1,-1,-1,43,-1,-1,-1,-1,-1,-1,-1,-1],"loss_changes":[6.939788E0,1.09965315E1,3.170227E0,4.5038767E0,6.4123197E0,2.078041E0,2.4102263E0,0E0,6.311316E0,4.5957103E0,6.809182E0,0E0,2.0012121E0,0E0,0E0,2.2748232E0,3.204393E0,1.3875449E0,0E0,3.3130016E0,1.7341611E0,4.846158E0,1.958561E0,2.176332E0,0E0,0E0,0E0,0E0,1.0455847E-1,0E0,3.3523297E0,0E0,0E0,0E0,0E0,0E0,1.3680305E0,0E0,0E0,0E0,0E0,0E0,0E0,0E0,0E0],"parents":[2147483647,0,0,1,1,2,2,3,3,4,4,5,5,6,6,8,8,9,9,10,10,12,12,15,15,16,16,17,17,19,19,20,20,21,21,22,22,23,23,28,28,30,30,36,36],"right_children":[2,4,6,8,10,12,14,-1,16,18,20,-1,22,-1,-1,24,26,28,-1,30,32,34,36,38,-1,-1,-1,-1,40,-1,42,-1,-1,-1,-1,-1,44,-1,-1,-1,-1,-1,-1,-1,-1],"split_conditions":[4.58E0,3.3E0,1.4E-1,4.9765804E7,5.271453E-1,3.6454846E2,7.7154956E0,-6.807152E-2,4.2468317E2,4.03E0,2.7791228E0,-6.739433E-2,-9.151325E0,-3.3959962E-2,8.091034E-2,2.7010494E7,8.232144E0,2.06E1,6.1329354E-2,4.9488895E-2,8.5308206E-1,3.347751E-2,3.6479468E2,5.022167E0,3.6882903E-2,1.2046688E-1,-5.6603714E-3,9.062349E-3,4.5260736E-1,1.6558908E-1,1.0664123E0,2.618137E-2,-6.477835E-2,1.0502986E-1,-4.74662E-2,2.8429676E-2,4.888484E7,-6.263313E-2,1.1266651E-2,-6.744791E-2,-3.4559105E-2,-1.4366564E-2,8.99893E-2,-5.6004554E-2,-3.157148E-2],"split_indices":[37,17,31,16,20,3,28,0,18,17,27,0,19,0,0,8,28,9,0,19,20,25,3,19,0,0,0,0,20,0,19,0,0,0,0,0,16,0,0,0,0,0,0,0,0],"split_type":[0,0,0,0,0,0,0,0,0,0,0,0,0,0,0,0,0,0,0,0,0,0,0,0,0,0,0,0,0,0,0,0,0,0,0,0,0,0,0,0,0,0,0,0,0],"sum_hessian":[2.5542438E2,1.0769272E2,1.4773167E2,5.695899E1,5.0733727E1,1.407201E2,7.0115705E0,2.3015099E1,3.394389E1,2.0849728E1,2.9883999E1,2.456387E1,1.1615623E2,3.2051263E0,3.806444E0,2.6096794E1,7.847097E0,1.4959033E1,5.890695E0,2.1861347E1,8.022651E0,8.523565E0,1.0763266E2,2.2465076E1,3.6317177E0,4.5807843E0,3.2663121E0,3.659123E0,1.129991E1,4.542777E0,1.7318571E1,4.0439143E0,3.9787369E0,3.2990232E0,5.2245426E0,3.9774966E0,1.0365517E2,1.7640688E1,4.8243876E0,8.065313E0,3.234596E0,3.7367542E0,1.3581816E1,3.980733E1,6.384783E1],"tree_param":{"num_deleted":"0","num_feature":"41","num_nodes":"45","size_leaf_vector":"1"}},{"base_weights":[1.5821373E-1,4.0142688E-1,-1.055824E-1,4.5673722E-1,-7.3497094E-2,-7.0485294E-1,-7.076769E-3,2.4697484E-1,7.554237E-1,-7.5171225E-2,-4.0555097E-2,3.066779E-1,-3.3745995E-1,8.56555E-2,8.6571693E-1,8.6739343E-1,-9.60816E-2,3.901301E-1,-7.3868036E-2,-6.6169745E-1,2.3302013E-1,1.0237572E0,-6.116969E-2,3.9366537E-1,1.2277563E-1,9.166989E-1,6.4730505E-3,-5.020098E-2,3.3417176E-2,6.371382E-2,5.775895E-1,-7.303464E-1,-3.845495E-1,-2.4507107E-1,9.277863E-1,1.211919E-1,6.1848324E-2,8.606125E-3,-6.9254875E-2,9.39469E-2,-8.512086E-3,9.927329E-2,4.2190313E-2,5.3049188E-2,-4.7094136E-2,7.629556E-2,-5.937421E-3,-4.1182138E-2,-7.6177314E-2,1.3112806E-2,-7.307242E-2,7.1935365E-3,-7.502422E-2,1.2196042E-1,3.6726788E-2],"categories":[],"categories_nodes":[],"categories_segments":[],"categories_sizes":[],"default_left":[0,0,0,0,0,0,0,0,0,0,0,0,0,0,0,0,0,0,0,0,0,0,0,0,0,0,0,0,0,0,0,0,0,0,0,0,0,0,0,0,0,0,0,0,0,0,0,0,0,0,0,0,0,0,0],"id":5,"left_children":[1,3,5,7,-1,9,11,13,15,-1,-1,17,19,21,23,25,27,29,-1,31,33,35,37,39,-1,41,-1,-1,-1,43,45,47,49,51,53,-1,-1,-1,-1,-1,-1,-1,-1,-1,-1,-1,-1,-1,-1,-1,-1,-1,-1,-1,-1],"loss_changes":[1.9505968E1,9.944841E0,8.515697E0,9.337658E0,0E0,1.3978672E-1,1.2989418E1,8.78213E0,5.998955E0,0E0,0E0,5.586105E0,1.1374208E1,9.860187E0,2.9116669E0,2.069786E0,1.2900513E0,3.5740538E0,0E0,6.051903E-1,7.442435E0,4.805603E-1,5.7610307E0,2.2354097E0,0E0,1.7588654E0,0E0,0E0,0E0,5.526043E0,4.5142345E0,1.6131401E-1,1.5461318E0,2.1717722E0,1.2895555E0,0E0,0E0,0E0,0E0,0E0,0E0,0E0,0E0,0E0,0E0,0E0,0E0,0E0,0E0,0E0,0E0,0E0,0E0,0E0,0E0],"parents":[2147483647,0,0,1,1,2,2,3,3,5,5,6,6,7,7,8,8,11,11,12,12,13,13,14,14,15,15,16,16,17,17,19,19,20,20,21,21,22,22,23,23,25,25,29,29,30,30,31,31,32,32,33,33,34,34],"right_children":[2,4,6,8,-1,10,12,14,16,-1,-1,18,20,22,24,26,28,30,-1,32,34,36,38,40,-1,42,-1,-1,-1,44,46,48,50,52,54,-1,-1,-1,-1,-1,-1,-1,-1,-1,-1,-1,-1,-1,-1,-1,-1,-1,-1,-1,-1],"split_conditions":[3.9224533E2,7.2E-1,-4.4E-1,1.46E3,-7.3497094E-2,3.196707E0,4.4379133E-1,3.6327505E2,3.2870147E0,-7.5171225E-2,-4.0555097E-2,1.552E3,2.23E5,-8.82628E8,1.5006579E1,1.8341103E1,4.1135507E0,1.467E1,-7.3868036E-2,1.2162687E1,4E0,2.41E5,7.886674E-1,-2.8732995E8,1.2277563E-1,6.146129E-1,6.4730505E-3,-5.020098E-2,3.3417176E-2,4.9137198E2,2.6E-1,1.7711606E8,4.098085E2,2.9062648E0,4.630492E2,1.211919E-1,6.1848324E-2,8.606125E-3,-6.9254875E-2,9.39469E-2,-8.512086E-3,9.927329E-2,4.2190313E-2,5.3049188E-2,-4.7094136E-2,7.629556E-2,-5.937421E-3,-4.1182138E-2,-7.6177314E-2,1.3112806E-2,-7.307242E-2,7.1935365E-3,-7.502422E-2,1.2196042E-1,3.6726788E-2],"split_indices":[32,31,31,2,0,29,20,18,6,0,0,2,33,30,10,10,6,9,0,12,22,33,20,8,0,14,0,0,0,18,31,30,3,6,32,0,0,0,0,0,0,0,0,0,0,0,0,0,0,0,0,0,0,0,0],"split_type":[0,0,0,0,0,0,0,0,0,0,0,0,0,0,0,0,0,0,0,0,0,0,0,0,0,0,0,0,0,0,0,0,0,0,0,0,0,0,0,0,0,0,0,0,0,0,0,0,0,0,0,0,0,0,0],"sum_hessian":[3.0339972E2,1.5802849E2,1.4537123E2,1.5083492E2,7.193576E0,2.0291967E1,1.2507927E2,8.891144E1,6.192348E1,1.71255E1,3.1664677E0,6.400254E1,6.107673E1,7.0742744E1,1.816869E1,5.482922E1,7.0942597E0,5.9417507E1,4.5850296E0,3.904465E1,2.2032078E1,9.585092E0,6.1157654E1,8.096661E0,1.0072029E1,5.152536E1,3.30386E0,3.7613282E0,3.3329313E0,2.1918705E1,3.7498802E1,3.0873108E1,8.171544E0,1.3004234E1,9.027843E0,6.241492E0,3.3436E0,4.9534676E1,1.1622978E1,3.8361707E0,4.2604904E0,4.4399815E1,7.1255465E0,1.1802449E1,1.0116255E1,2.9152267E1,8.346536E0,3.1849096E0,2.7688198E1,3.191134E0,4.9804096E0,7.921266E0,5.082968E0,5.7422924E0,3.2855515E0],"tree_param":{"num_deleted":"0","num_feature":"41","num_nodes":"55","size_leaf_vector":"1"}},{"base_weights":[6.1863386E-3,-1.9955513E-1,2.1433736E-1,-3.4150806E-1,1.2153148E-1,7.725727E-1,9.595631E-2,-4.3707985E-1,2.9553512E-1,-7.050927E-2,2.9208866E-1,-4.3641115E-3,9.4266135E-1,-2.6906794E-1,3.5029253E-1,-4.8351103E-1,7.092383E-2,6.994139E-1,-4.6927016E-2,-1.2683876E-1,7.0804405E-1,5.292584E-1,1.1838336E-1,1.9566421E-1,-3.9521077E-1,7.71188E-1,6.4576894E-2,-5.464554E-1,-1.4391087E-1,1.0135887E-2,1.0406951E-1,-4.6983188E-1,5.5176396E-2,1.0753208E0,-0E0,-0E0,9.1746375E-2,-6.86135E-2,6.793072E-1,3.8746677E-2,-4.950825E-1,9.2836624E-1,-4.1018803E-2,9.358569E-2,-8.662437E-2,-3.0962804E-2,-6.611042E-2,4.000473E-2,-5.858908E-2,-7.107719E-2,2.169883E-2,1.2285431E-1,7.582465E-2,-7.145186E-2,7.281347E-2,9.989417E-3,1.19017385E-1,1.9809756E-2,-5.927636E-2,1.0832204E-1,5.9640735E-2,-2.672995E-2,6.74757E-2],"categories":[],"categories_nodes":[],"categories_segments":[],"categories_sizes":[],"default_left":[0,0,0,0,0,0,0,0,0,0,0,0,0,0,0,0,0,0,0,0,0,0,0,0,0,0,0,0,0,0,0,0,0,0,0,0,0,0,0,0,0,0,0,0,0,0,0,0,0,0,0,0,0,0,0,0,0,0,0,0,0,0,0],"id":6,"left_children":[1,3,5,7,9,11,13,15,17,-1,19,-1,21,23,25,27,-1,29,-1,31,33,35,-1,37,39,41,43,45,47,-1,-1,49,-1,51,53,-1,-1,-1,55,-1,57,59,-1,-1,61,-1,-1,-1,-1,-1,-1,-1,-1,-1,-1,-1,-1,-1,-1,-1,-1,-1,-1],"loss_changes":[1.2197548E1,6.54316E0,9.276811E0,6.078311E0,6.139214E0,3.515892E0,1.0903492E1,4.621092E0,4.037092E0,0E0,6.408164E0,0E0,1.8102531E0,2.844248E0,8.246499E0,1.7052898E0,0E0,1.6224794E0,0E0,4.229458E0,4.712905E0,1.5638785E0,0E0,4.3766427E0,2.999598E0,5.265888E0,5.5649023E0,1.7845268E0,3.2686825E0,0E0,0E0,2.0789964E0,0E0,2.9363155E-1,3.4053426E0,0E0,0E0,0E0,1.8367987E0,0E0,2.3431444E0,1.0375023E0,0E0,0E0,4.8452706E0,0E0,0E0,0E0,0E0,0E0,0E0,0E0,0E0,0E0,0E0,0E0,0E0,0E0,0E0,0E0,0E0,0E0,0E0],"parents":[2147483647,0,0,1,1,2,2,3,3,4,4,5,5,6,6,7,7,8,8,10,10,12,12,13,13,14,14,15,15,17,17,19,19,20,20,21,21,23,23,24,24,25,25,26,26,27,27,28,28,31,31,33,33,34,34,38,38,40,40,41,41,44,44],"right_children":[2,4,6,8,10,12,14,16,18,-1,20,-1,22,24,26,28,-1,30,-1,32,34,36,-1,38,40,42,44,46,48,-1,-1,50,-1,52,54,-1,-1,-1,56,-1,58,60,-1,-1,62,-1,-1,-1,-1,-1,-1,-1,-1,-1,-1,-1,-1,-1,-1,-1,-1,-1,-1],"split_conditions":[3.9036838E2,4.06E0,-4.2E-1,2.37E5,-8.82628E8,3.879481E-2,-1.7627729E0,3.8573294E2,3.347751E-2,-7.050927E-2,3.6164243E-2,-4.3641115E-3,2.2E5,4.730114E7,2.17E5,3.709276E2,7.092383E-2,8.526072E-1,-4.6927016E-2,-2.972369E8,-3.060411E8,7.218463E0,1.1838336E-1,-4.6371264E0,3.8193198E2,2.885E1,3.56E0,2.05E5,4.7452228E7,1.0135887E-2,1.0406951E-1,7.985682E0,5.5176396E-2,3.6597296E2,1E0,-0E0,9.1746375E-2,-6.86135E-2,-7.594627E-2,3.8746677E-2,8.3E-1,1.1811135E0,-4.1018803E-2,9.358569E-2,4.984091E2,-3.0962804E-2,-6.611042E-2,4.000473E-2,-5.858908E-2,-7.107719E-2,2.169883E-2,1.2285431E-1,7.582465E-2,-7.145186E-2,7.281347E-2,9.989417E-3,1.19017385E-1,1.9809756E-2,-5.927636E-2,1.0832204E-1,5.9640735E-2,-2.672995E-2,6.74757E-2],"split_indices":[32,17,31,33,30,20,19,3,25,0,26,0,33,16,33,32,0,29,0,8,8,28,0,6,3,9,22,33,16,0,0,12,0,3,36,0,0,0,14,0,37,35,0,0,3,0,0,0,0,0,0,0,0,0,0,0,0,0,0,0,0,0,0],"split_type":[0,0,0,0,0,0,0,0,0,0,0,0,0,0,0,0,0,0,0,0,0,0,0,0,0,0,0,0,0,0,0,0,0,0,0,0,0,0,0,0,0,0,0,0,0,0,0,0,0,0,0,0,0,0,0,0,0,0,0,0,0,0,0],"sum_hessian":[2.845867E2,1.428822E2,1.4170448E2,9.9290695E1,4.3591503E1,2.4548187E1,1.17156296E2,8.6501724E1,1.2788971E1,7.301972E0,3.628953E1,4.144786E0,2.0403402E1,4.7945614E1,6.9210686E1,8.32738E1,3.2279193E0,8.460466E0,4.3285046E0,1.7995028E1,1.8294504E1,7.787917E0,1.2615485E1,1.0054654E1,3.789096E1,2.7774864E1,4.143582E1,6.99528E1,1.3321009E1,3.2274513E0,5.2330146E0,1.2071654E1,5.923373E0,1.1950831E1,6.343673E0,3.4050608E0,4.3828564E0,3.4733171E0,6.581337E0,4.1419516E0,3.374901E1,2.460704E1,3.1678233E0,6.1484585E0,3.5287365E1,2.3223286E1,4.672951E1,5.874417E0,7.446592E0,9.0418415E0,3.0298123E0,7.6508207E0,4.3000107E0,3.1572385E0,3.1864345E0,3.2315211E0,3.3498158E0,4.0292773E0,2.971973E1,1.6419857E1,8.187183E0,2.8678268E1,6.609094E0],"tree_param":{"num_deleted":"0","num_feature":"41","num_nodes":"63","size_leaf_vector":"1"}},{"base_weights":[-2.4707672E-1,-5.202948E-1,-1.2086492E-1,7.842569E-3,-5.524816E-1,-4.3018168E-1,-1.3976551E-2,-7.171437E-2,-5.982044E-1,-5.0713176E-1,4.803154E-2,-2.5181925E-1,1.8202111E-1,2.3710547E-2,-3.6892205E-2,-1.3922076E-2,-6.242978E-1,-5.7090634E-1,1.8858021E-2,5.4715157E-2,-3.2389647E-1,3.847998E-2,7.2023064E-1,-6.384658E-2,-2.9367302E-2,-1.8971764E-3,-6.18916E-1,1.3180499E-1,-4.261935E-1,-9.385427E-2,6.4063525E-1,1.0854539E0,-1.8369954E-2,-6.750263E-2,-4.565881E-2,7.624367E-2,-3.086624E-2,-5.3394455E-2,1.2027811E-4,3.557394E-2,-2.2903578E-2,1.06964044E-1,1.1252931E-2,7.356503E-2,1.5219103E-1],"categories":[],"categories_nodes":[],"categories_segments":[],"categories_sizes":[],"default_left":[0,0,0,0,0,0,0,0,0,0,0,0,0,0,0,0,0,0,0,0,0,0,0,0,0,0,0,0,0,0,0,0,0,0,0,0,0,0,0,0,0,0,0,0,0],"id":7,"left_children":[1,3,5,-1,7,9,11,13,15,17,-1,19,21,-1,-1,-1,23,25,-1,-1,27,29,31,-1,-1,-1,33,35,37,39,41,43,-1,-1,-1,-1,-1,-1,-1,-1,-1,-1,-1,-1,-1],"loss_changes":[8.534214E0,1.5657711E0,5.6107626E0,0E0,1.5714016E0,3.0879745E0,5.954042E0,6.454454E-1,7.297745E-1,1.8429937E0,0E0,3.3275611E0,5.307049E0,0E0,0E0,0E0,1.8848991E-1,9.206381E-1,0E0,0E0,2.517508E0,4.4663095E0,4.905541E0,0E0,0E0,0E0,1.6614437E-1,2.752142E0,2.065477E0,2.7472813E0,2.160305E0,1.2560253E0,0E0,0E0,0E0,0E0,0E0,0E0,0E0,0E0,0E0,0E0,0E0,0E0,0E0],"parents":[2147483647,0,0,1,1,2,2,4,4,5,5,6,6,7,7,8,8,9,9,11,11,12,12,16,16,17,17,20,20,21,21,22,22,26,26,27,27,28,28,29,29,30,30,31,31],"right_children":[2,4,6,-1,8,10,12,14,16,18,-1,20,22,-1,-1,-1,24,26,-1,-1,28,30,32,-1,-1,-1,34,36,38,40,42,44,-1,-1,-1,-1,-1,-1,-1,-1,-1,-1,-1,-1,-1],"split_conditions":[3.7072925E2,-9.6E-1,-1.5422946E-1,7.842569E-3,3.97E0,1E0,4.12E0,5.000193E7,-2.8181502E-1,4.5E0,4.803154E-2,2.01E5,2.238E1,2.3710547E-2,-3.6892205E-2,-1.3922076E-2,2.1761387E1,-3.1100929E-2,1.8858021E-2,5.4715157E-2,1.06084555E-1,1.3E-1,2.6110463E0,-6.384658E-2,-2.9367302E-2,-1.8971764E-3,8.627305E0,2E0,5.3227704E7,-7.185261E0,1.677E1,1.7409397E0,-1.8369954E-2,-6.750263E-2,-4.565881E-2,7.624367E-2,-3.086624E-2,-5.3394455E-2,1.2027811E-4,3.557394E-2,-2.2903578E-2,1.06964044E-1,1.1252931E-2,7.356503E-2,1.5219103E-1],"split_indices":[3,31,26,0,22,5,22,16,26,17,0,33,9,0,0,0,10,20,0,0,20,31,27,0,0,0,28,15,16,19,9,29,0,0,0,0,0,0,0,0,0,0,0,0,0],"split_type":[0,0,0,0,0,0,0,0,0,0,0,0,0,0,0,0,0,0,0,0,0,0,0,0,0,0,0,0,0,0,0,0,0,0,0,0,0,0,0,0,0,0,0,0,0],"sum_hessian":[2.4942973E2,7.846576E1,1.7096397E2,3.8372307E0,7.4628525E1,4.3588436E1,1.2737554E2,6.6933284E0,6.7935196E1,4.0333782E1,3.254651E0,5.776255E1,6.961299E1,3.127447E0,3.5658815E0,3.8946214E0,6.404057E1,3.709503E1,3.2387526E0,4.610372E0,5.3152176E1,5.5187397E1,1.4425594E1,6.1029755E1,3.0108232E0,3.146324E0,3.3948708E1,9.559809E0,4.359237E1,4.5177246E1,1.0010153E1,1.0338842E1,4.086752E0,2.453579E1,9.412918E0,3.9945765E0,5.5652328E0,3.498207E1,8.610298E0,1.0234826E1,3.494242E1,5.3622494E0,4.647904E0,6.0153937E0,4.3234487E0],"tree_param":{"num_deleted":"0","num_feature":"41","num_nodes":"45","size_leaf_vector":"1"}},{"base_weights":[1.70931E-1,3.851295E-1,-6.823673E-2,6.1096394E-1,1.2971268E-2,-5.5903697E-1,7.799722E-2,3.8765058E-1,9.20201E-1,-4.978316E-1,1.7696896E-1,-4.490153E-4,-6.351778E-1,4.734492E-1,-1.9856188E-1,5.3477764E-1,-5.1314473E-1,1.05761E0,4.3361259E-1,-7.610611E-2,1.1612955E-2,7.7947843E-1,-3.218569E-3,-1.9978039E-2,-7.3366396E-2,8.6490315E-1,1.705664E-1,-5.7316405E-1,2.5859582E-1,6.202689E-1,-4.763513E-2,-7.4213706E-2,-1.4760712E-2,1.1165758E0,5.3191286E-2,1.1070857E-1,3.2090052E-4,1.1782868E-1,3.3302885E-2,-3.3358273E-1,4.1338944E-1,1.0152441E0,9.130822E-3,-3.3611214E-1,5.736641E-1,-6.676772E-1,-1.897495E-1,6.354883E-1,-1.7902423E-1,1.0073002E-1,2.4564885E-2,7.770898E-2,1.1571633E-1,-0E0,-7.699347E-2,7.336757E-2,-7.305883E-2,1.1716323E-1,7.397665E-2,3.0434681E-2,-7.493873E-2,9.081707E-2,-4.8198007E-4,-6.996902E-2,-3.615827E-2,2.5461096E-2,-6.8543956E-2,1.0430268E-1,-1.7456627E-2,6.526994E-2,-7.555318E-2],"categories":[],"categories_nodes":[],"categories_segments":[],"categories_sizes":[],"default_left":[0,0,0,0,0,0,0,0,0,0,0,0,0,0,0,0,0,0,0,0,0,0,0,0,0,0,0,0,0,0,0,0,0,0,0,0,0,0,0,0,0,0,0,0,0,0,0,0,0,0,0,0,0,0,0,0,0,0,0,0,0,0,0,0,0,0,0,0,0,0,0],"id":8,"left_children":[1,3,5,7,9,11,13,15,17,19,21,-1,23,25,27,29,31,33,35,-1,-1,37,39,-1,-1,41,43,45,47,49,-1,-1,-1,51,-1,-1,-1,-1,-1,53,55,57,-1,59,61,63,65,67,69,-1,-1,-1,-1,-1,-1,-1,-1,-1,-1,-1,-1,-1,-1,-1,-1,-1,-1,-1,-1,-1,-1],"loss_changes":[1.5251195E1,1.3126371E1,1.0114986E1,6.566353E0,4.9640455E0,1.3018169E0,1.18427925E1,7.580475E0,2.5211105E0,2.3919935E0,4.9946094E0,0E0,1.1050053E0,5.170101E0,1.0911413E1,4.289956E0,5.65923E-1,7.505722E-1,2.5771575E0,0E0,0E0,1.6887822E0,4.800136E0,0E0,0E0,2.1233635E0,5.233863E0,1.1707239E0,4.7614326E0,6.4360924E0,0E0,0E0,0E0,1.0264969E-1,0E0,0E0,0E0,0E0,0E0,2.8097153E0,5.6660585E0,4.1285133E-1,0E0,3.0354824E0,2.8581629E0,1.4145279E-1,1.6629324E0,5.2119346E0,6.366541E0,0E0,0E0,0E0,0E0,0E0,0E0,0E0,0E0,0E0,0E0,0E0,0E0,0E0,0E0,0E0,0E0,0E0,0E0,0E0,0E0,0E0,0E0],"parents":[2147483647,0,0,1,1,2,2,3,3,4,4,5,5,6,6,7,7,8,8,9,9,10,10,12,12,13,13,14,14,15,15,16,16,17,17,18,18,21,21,22,22,25,25,26,26,27,27,28,28,29,29,33,33,39,39,40,40,41,41,43,43,44,44,45,45,46,46,47,47,48,48],"right_children":[2,4,6,8,10,12,14,16,18,20,22,-1,24,26,28,30,32,34,36,-1,-1,38,40,-1,-1,42,44,46,48,50,-1,-1,-1,52,-1,-1,-1,-1,-1,54,56,58,-1,60,62,64,66,68,70,-1,-1,-1,-1,-1,-1,-1,-1,-1,-1,-1,-1,-1,-1,-1,-1,-1,-1,-1,-1,-1,-1],"split_conditions":[3.9224533E2,3.6164243E-2,-3.8E-1,-4.1E-1,-3.060411E8,1.2810137E1,4.4471127E1,-2.147625E8,8.928578E0,3.4966504E2,-3.8916725E-1,-4.490153E-4,1.275E1,-1.2964672E-1,2.23E5,2.58E5,1.0355185E0,4.4E-1,1.541425E1,-7.610611E-2,1.1612955E-2,9.8530954E-1,1.161545E0,-1.9978039E-2,-7.3366396E-2,-3.0111113E0,2.1592966E1,2.1592966E1,4.6770978E2,-4.0323016E-1,-4.763513E-2,-7.4213706E-2,-1.4760712E-2,-4.2689633E0,5.3191286E-2,1.1070857E-1,3.2090052E-4,1.1782868E-1,3.3302885E-2,7.2702684E0,8.884027E-1,-7.3292885E0,9.130822E-3,1.028805E2,1.2E-1,8.039633E-1,7.7453976E0,2.072E1,4.833748E-1,1.0073002E-1,2.4564885E-2,7.770898E-2,1.1571633E-1,-0E0,-7.699347E-2,7.336757E-2,-7.305883E-2,1.1716323E-1,7.397665E-2,3.0434681E-2,-7.493873E-2,9.081707E-2,-4.8198007E-4,-6.996902E-2,-3.615827E-2,2.5461096E-2,-6.8543956E-2,1.0430268E-1,-1.7456627E-2,6.526994E-2,-7.555318E-2],"split_indices":[32,26,31,31,8,10,34,30,28,32,6,0,9,26,33,33,35,31,21,0,0,35,35,0,0,27,21,21,32,27,0,0,0,19,0,0,0,0,0,28,20,27,0,4,31,20,28,9,20,0,0,0,0,0,0,0,0,0,0,0,0,0,0,0,0,0,0,0,0,0,0],"split_type":[0,0,0,0,0,0,0,0,0,0,0,0,0,0,0,0,0,0,0,0,0,0,0,0,0,0,0,0,0,0,0,0,0,0,0,0,0,0,0,0,0,0,0,0,0,0,0,0,0,0,0,0,0,0,0,0,0,0,0,0,0,0,0,0,0,0,0,0,0,0,0],"sum_hessian":[2.969342E2,1.5683232E2,1.4010188E2,9.739678E1,5.943554E1,3.225317E1,1.0784872E2,5.6874203E1,4.0522575E1,1.4247036E1,4.5188507E1,4.0651593E0,2.8188011E1,4.4503513E1,6.33452E1,4.901949E1,7.8547163E0,3.1347427E1,9.175146E0,1.0068982E1,4.1780534E0,1.0454206E1,3.47343E1,5.4430532E0,2.2744957E1,1.9188307E1,2.5315207E1,3.4922516E1,2.8422686E1,4.5324818E1,3.69467E0,4.597808E0,3.2569084E0,2.79138E1,3.433628E0,3.4255161E0,5.74963E0,5.316829E0,5.1373773E0,1.9517313E1,1.5216986E1,1.5931638E1,3.2566695E0,1.1113942E1,1.4201263E1,2.7747654E1,7.1748605E0,1.5369379E1,1.3053308E1,2.207876E1,2.324606E1,3.459113E0,2.4454687E1,1.1195106E1,8.322207E0,1.1984808E1,3.2321777E0,9.723379E0,6.2082586E0,4.2743316E0,6.839611E0,9.071545E0,5.129719E0,2.4708252E1,3.0394013E0,3.702583E0,3.4722776E0,1.0288115E1,5.0812635E0,5.2673965E0,7.7859116E0],"tree_param":{"num_deleted":"0","num_feature":"41","num_nodes":"71","size_leaf_vector":"1"}},{"base_weights":[4.4120032E-2,-6.990139E-2,8.948042E-2,1.4050113E-1,-6.0479146E-1,8.979187E-2,8.2002795E-1,-9.542004E-3,-7.019393E-2,-1.00073256E-1,2.4116413E-1,-8.703215E-3,1.1752244E0,-1.8490084E-1,7.116531E-1,5.892257E-1,1.4604384E-2,1.2865868E-1,8.2629256E-2,-3.030738E-2,5.6652088E-2,1.1432487E-1,2.2685865E-2,-2.772721E-2,7.121632E-2,-6.604136E-3,8.751767E-2],"categories":[],"categories_nodes":[],"categories_segments":[],"categories_sizes":[],"default_left":[0,0,0,0,0,0,0,0,0,0,0,0,0,0,0,0,0,0,0,0,0,0,0,0,0,0,0],"id":9,"left_children":[1,-1,3,5,7,9,11,-1,-1,13,15,-1,17,19,21,23,25,-1,-1,-1,-1,-1,-1,-1,-1,-1,-1],"loss_changes":[9.50961E0,0E0,9.4419775E0,8.499701E0,8.1445885E-1,6.6969857E0,5.6535378E0,0E0,0E0,7.0450583E0,1.0162825E1,0E0,1.6541672E-1,8.279619E0,1.8548965E0,5.4899254E0,5.5562825E0,0E0,0E0,0E0,0E0,0E0,0E0,0E0,0E0,0E0,0E0],"parents":[2147483647,0,0,2,2,3,3,4,4,5,5,6,6,9,9,10,10,12,12,13,13,14,14,15,15,16,16],"right_children":[2,-1,4,6,8,10,12,-1,-1,14,16,-1,18,20,22,24,26,-1,-1,-1,-1,-1,-1,-1,-1,-1,-1],"split_conditions":[-8.7418157E8,-6.990139E-2,2.999E1,9.6964645E-1,3.84E0,3.925988E2,1E0,-9.542004E-3,-7.019393E-2,2.41E5,1.9901499E1,-8.703215E-3,5.259906E7,5.95517E5,6.4366064E0,-9.329494E0,5.7752984E7,1.2865868E-1,8.2629256E-2,-3.030738E-2,5.6652088E-2,1.1432487E-1,2.2685865E-2,-2.772721E-2,7.121632E-2,-6.604136E-3,8.751767E-2],"split_indices":[30,0,9,20,1,32,24,0,0,33,21,0,16,7,28,19,16,0,0,0,0,0,0,0,0,0,0],"split_type":[0,0,0,0,0,0,0,0,0,0,0,0,0,0,0,0,0,0,0,0,0,0,0,0,0,0,0],"sum_hessian":[2.8363293E2,1.6107073E1,2.6752588E2,2.4942026E2,1.8105618E1,2.3234224E2,1.7078018E1,3.0966496E0,1.5008968E1,1.0278856E2,1.2955368E2,4.7477417E0,1.2330276E1,9.324466E1,9.5439005E0,5.0842846E1,7.871083E1,8.926162E0,3.404114E0,8.073979E1,1.2504865E1,4.8679986E0,4.6759024E0,6.2005672E0,4.4642277E1,7.194488E1,6.7659564E0],"tree_param":{"num_deleted":"0","num_feature":"41","num_nodes":"27","size_leaf_vector":"1"}},{"base_weights":[-1.8945502E-1,-2.3055114E-1,6.03956E-1,1.23002306E-1,-2.866304E-1,9.474401E-1,-3.446094E-2,-6.49611E-2,3.1804502E-1,-4.0366635E-1,-1.2679353E-1,1.3147166E-1,6.006943E-2,1.0708048E-1,1.12717E-1,-4.2825684E-1,2.9060919E-2,2.3702946E-1,-3.4678456E-1,-3.8463798E-1,3.9780852E-1,-5.1438236E-1,-1.9630972E-1,-2.72854E-1,5.294474E-1,-5.2568495E-1,-0E0,-0E0,-6.261251E-2,-8.578927E-3,8.9634925E-2,-3.347222E-2,-6.08351E-2,4.8904765E-2,-3.2897595E-2,5.3581834E-2,-5.5865135E-2,7.864066E-2,-6.906262E-3,-6.2106725E-2,-1.9034974E-2,7.114578E-2,-2.877727E-2],"categories":[],"categories_nodes":[],"categories_segments":[],"categories_sizes":[],"default_left":[0,0,0,0,0,0,0,0,0,0,0,0,0,0,0,0,0,0,0,0,0,0,0,0,0,0,0,0,0,0,0,0,0,0,0,0,0,0,0,0,0,0,0],"id":10,"left_children":[1,3,5,7,9,11,-1,-1,13,15,17,-1,-1,-1,19,21,-1,23,25,27,29,31,33,35,37,39,41,-1,-1,-1,-1,-1,-1,-1,-1,-1,-1,-1,-1,-1,-1,-1,-1],"loss_changes":[8.278686E0,4.8234053E0,4.148283E0,4.95932E0,3.8586025E0,9.0645313E-1,0E0,0E0,3.9675634E0,2.0828667E0,7.14356E0,0E0,0E0,0E0,3.0009735E0,2.2465897E0,0E0,5.024418E0,3.505517E0,6.498015E-1,3.3569064E0,1.3135262E0,2.9121678E0,2.8346283E0,3.3689418E0,1.087841E0,3.9240413E0,0E0,0E0,0E0,0E0,0E0,0E0,0E0,0E0,0E0,0E0,0E0,0E0,0E0,0E0,0E0,0E0],"parents":[2147483647,0,0,1,1,2,2,3,3,4,4,5,5,8,8,9,9,10,10,14,14,15,15,17,17,18,18,19,19,20,20,21,21,22,22,23,23,24,24,25,25,26,26],"right_children":[2,4,6,8,10,12,-1,-1,14,16,18,-1,-1,-1,20,22,-1,24,26,28,30,32,34,36,38,40,42,-1,-1,-1,-1,-1,-1,-1,-1,-1,-1,-1,-1,-1,-1,-1,-1],"split_conditions":[3.17603E2,1.06084555E-1,4.9806827E2,3.6407545E0,1.985E1,4.912762E2,-3.446094E-2,-6.49611E-2,6.408077E-1,4.3300644E-1,3.5709625E2,1.3147166E-1,6.006943E-2,1.0708048E-1,3.9224533E2,4.85E0,2.9060919E-2,1.5221864E-2,4.2468317E2,-2.3908813E-1,1.4669138E-2,5.08E0,4.88E0,7.0649654E-1,1.662196E-1,6.3059497E0,-3.0012972E0,-0E0,-6.261251E-2,-8.578927E-3,8.9634925E-2,-3.347222E-2,-6.08351E-2,4.8904765E-2,-3.2897595E-2,5.3581834E-2,-5.5865135E-2,7.864066E-2,-6.906262E-3,-6.2106725E-2,-1.9034974E-2,7.114578E-2,-2.877727E-2],"split_indices":[23,20,3,28,9,32,0,0,29,26,32,0,0,0,32,22,0,26,18,14,20,37,22,35,26,19,19,0,0,0,0,0,0,0,0,0,0,0,0,0,0,0,0],"split_type":[0,0,0,0,0,0,0,0,0,0,0,0,0,0,0,0,0,0,0,0,0,0,0,0,0,0,0,0,0,0,0,0,0,0,0,0,0,0,0,0,0,0,0],"sum_hessian":[2.5451796E2,2.4217125E2,1.2346705E1,3.28931E1,2.0927815E2,9.141887E0,3.204819E0,6.4796815E0,2.641342E1,1.20365654E2,8.89125E1,4.1638947E0,4.977992E0,5.4659576E0,2.0947462E1,1.16424385E2,3.9412706E0,3.3329533E1,5.558297E1,7.4918723E0,1.345559E1,8.4496605E1,3.192778E1,1.2025542E1,2.1303991E1,3.68174E1,1.8765568E1,3.0693107E0,4.4225616E0,6.770364E0,6.6852264E0,2.9539667E1,5.4956936E1,5.0122023E0,2.6915577E1,3.0260007E0,8.999541E0,1.4999794E1,6.3041973E0,2.8365686E1,8.4517145E0,5.4589767E0,1.3306591E1],"tree_param":{"num_deleted":"0","num_feature":"41","num_nodes":"43","size_leaf_vector":"1"}},{"base_weights":[1.2094865E-1,6.953887E-1,1.984302E-2,-4.327693E-2,7.907269E-1,8.359056E-1,-2.3591436E-2,8.890609E-1,1.8468596E-2,1.0312375E-1,2.7245754E-2,-6.543079E-2,6.3278204E-1,6.251692E-1,1.0067842E-1,7.6042466E-2,-2.3524475E-1,9.731758E-2,-4.3061893E-2,-0E0,9.007292E-2,-3.823941E-1,2.3390843E-1,-8.128246E-2,-5.967155E-1,6.536569E-2,-5.40192E-2,3.1935092E-2,-7.000861E-2,5.353995E-2,-1.6059076E-2,-1.6253231E-2,-6.866401E-2],"categories":[],"categories_nodes":[],"categories_segments":[],"categories_sizes":[],"default_left":[0,0,0,0,0,0,0,0,0,0,0,0,0,0,0,0,0,0,0,0,0,0,0,0,0,0,0,0,0,0,0,0,0],"id":11,"left_children":[1,3,5,-1,7,9,11,13,-1,-1,-1,15,17,19,-1,21,23,-1,-1,-1,-1,25,27,29,31,-1,-1,-1,-1,-1,-1,-1,-1],"loss_changes":[1.6564835E1,4.6651707E0,8.726297E0,0E0,2.2308464E0,1.2108564E0,6.3049684E0,8.2474136E-1,0E0,0E0,0E0,5.2516885E0,5.0691767E0,1.8481574E0,0E0,8.577618E0,5.457011E0,0E0,0E0,0E0,0E0,4.9704175E0,7.042647E0,3.3942053E0,1.0545197E0,0E0,0E0,0E0,0E0,0E0,0E0,0E0,0E0],"parents":[2147483647,0,0,1,1,2,2,4,4,5,5,6,6,7,7,11,11,12,12,13,13,15,15,16,16,21,21,22,22,23,23,24,24],"right_children":[2,4,6,-1,8,10,12,14,-1,-1,-1,16,18,20,-1,22,24,-1,-1,-1,-1,26,28,30,32,-1,-1,-1,-1,-1,-1,-1,-1],"split_conditions":[3.6493478E2,4.6762624E7,-8.943368E8,-4.327693E-2,8.662147E-2,3.691403E2,7.0184255E-1,1.0842631E0,1.8468596E-2,1.0312375E-1,2.7245754E-2,1E0,4.2479532E2,5.0711296E7,1.0067842E-1,3.8193198E2,6.82E1,9.731758E-2,-4.3061893E-2,-0E0,9.007292E-2,3.01643E2,7.2E-1,-7.1E-1,4.9488895E-2,6.536569E-2,-5.40192E-2,3.1935092E-2,-7.000861E-2,5.353995E-2,-1.6059076E-2,-1.6253231E-2,-6.866401E-2],"split_indices":[3,16,30,0,26,3,25,29,0,0,0,40,18,16,0,3,11,0,0,0,0,23,31,31,19,0,0,0,0,0,0,0,0],"split_type":[0,0,0,0,0,0,0,0,0,0,0,0,0,0,0,0,0,0,0,0,0,0,0,0,0,0,0,0,0,0,0,0,0],"sum_hessian":[2.8636673E2,4.2623116E1,2.4374362E2,3.212E0,3.9411118E1,1.2341664E1,2.3140196E2,3.3726994E1,5.684126E0,8.971124E0,3.370541E0,2.177634E2,1.36385565E1,1.086105E1,2.2865942E1,1.1850356E2,9.925984E1,1.0409126E1,3.2294304E0,3.4027634E0,7.458287E0,3.015601E1,8.834755E1,6.989037E1,2.9369476E1,3.860597E0,2.6295414E1,8.110123E1,7.246322E0,7.754817E0,6.213555E1,5.278078E0,2.4091398E1],"tree_param":{"num_deleted":"0","num_feature":"41","num_nodes":"33","size_leaf_vector":"1"}},{"base_weights":[2.1795867E-2,-1.58401E-1,1.8845247E-1,-2.6870108E-1,3.4561762E-1,7.535871E-1,7.847957E-2,4.4452235E-1,-3.1508613E-1,-5.2236885E-2,6.364394E-1,3.1400403E-1,9.712746E-2,-3.7712654E-1,2.6325524E-1,1.0265181E-1,-1.5400392E-2,-3.6420375E-1,3.9361712E-1,1.1024994E-1,3.1341043E-1,8.3515234E-2,-1.4280868E-2,1.638941E-1,-5.212887E-1,6.199495E-1,4.565126E-2,-4.3065968E-1,8.501741E-2,-4.0576465E-2,1.24481134E-1,-1.7250882E-1,9.736428E-2,-4.2460542E-2,8.0070205E-2,-7.0023485E-2,-3.269998E-1,-7.130223E-2,7.7969617E-1,-1.02846935E-1,7.6087457E-1,-5.3534366E-2,-1.6161812E-2,9.249509E-2,-2.709339E-2,3.3035006E-2,-7.284296E-2,-4.6174478E-2,4.7476348E-3,-3.6733162E-3,9.5196135E-2,-2.0046491E-2,9.251055E-2,1.0727506E-1,9.735948E-3],"categories":[],"categories_nodes":[],"categories_segments":[],"categories_sizes":[],"default_left":[0,0,0,0,0,0,0,0,0,0,0,0,0,0,0,0,0,0,0,0,0,0,0,0,0,0,0,0,0,0,0,0,0,0,0,0,0,0,0,0,0,0,0,0,0,0,0,0,0,0,0,0,0,0,0],"id":12,"left_children":[1,3,5,7,9,11,13,15,17,-1,19,21,-1,23,25,-1,-1,27,29,-1,31,-1,-1,33,35,37,39,41,43,-1,-1,45,-1,-1,-1,-1,47,-1,49,51,53,-1,-1,-1,-1,-1,-1,-1,-1,-1,-1,-1,-1,-1,-1],"loss_changes":[8.640453E0,7.668644E0,9.214976E0,3.7516756E0,6.2652903E0,2.159275E0,1.0570346E1,2.4831665E0,3.723424E0,0E0,2.6225777E0,2.0627832E0,0E0,2.8613992E0,6.882015E0,0E0,0E0,3.0208702E0,4.780201E0,0E0,3.704909E0,0E0,0E0,2.8934183E0,8.718405E-1,7.249382E0,6.0114594E0,2.3788376E0,3.9069064E0,0E0,0E0,1.8742325E0,0E0,0E0,0E0,0E0,7.60674E-1,0E0,4.3501434E0,4.588837E0,1.8880148E0,0E0,0E0,0E0,0E0,0E0,0E0,0E0,0E0,0E0,0E0,0E0,0E0,0E0,0E0],"parents":[2147483647,0,0,1,1,2,2,3,3,4,4,5,5,6,6,7,7,8,8,10,10,11,11,13,13,14,14,17,17,18,18,20,20,23,23,24,24,25,25,26,26,27,27,28,28,31,31,36,36,38,38,39,39,40,40],"right_children":[2,4,6,8,10,12,14,16,18,-1,20,22,-1,24,26,-1,-1,28,30,-1,32,-1,-1,34,36,38,40,42,44,-1,-1,46,-1,-1,-1,-1,48,-1,50,52,54,-1,-1,-1,-1,-1,-1,-1,-1,-1,-1,-1,-1,-1,-1],"split_conditions":[3.9448456E2,4.26E0,-4.3E-1,1.16E0,1.4552802E1,6.867668E0,4.0650795E1,8.5E-1,3.8546628E2,-5.2236885E-2,2.14E5,1.707E1,9.712746E-2,1.0948161E0,4.0263995E2,1.0265181E-1,-1.5400392E-2,1.8634611E-1,-8.8948363E-1,1.1024994E-1,5.9205523E0,8.3515234E-2,-1.4280868E-2,1E0,-4.9026337E-2,3.6466168E2,4.9900635E2,5.89257E5,2E0,-4.0576465E-2,1.24481134E-1,1.4874463E1,9.736428E-2,-4.2460542E-2,8.0070205E-2,-7.0023485E-2,3.3948398E-1,-7.130223E-2,1.7413034E1,1.7744083E1,5.0371182E2,-5.3534366E-2,-1.6161812E-2,9.249509E-2,-2.709339E-2,3.3035006E-2,-7.284296E-2,-4.6174478E-2,4.7476348E-3,-3.6733162E-3,9.5196135E-2,-2.0046491E-2,9.251055E-2,1.0727506E-1,9.735948E-3],"split_indices":[32,17,31,22,21,12,34,31,3,0,33,9,0,29,3,0,0,26,6,0,27,0,0,36,26,3,3,7,24,0,0,21,0,0,0,0,25,0,21,27,3,0,0,0,0,0,0,0,0,0,0,0,0,0,0],"split_type":[0,0,0,0,0,0,0,0,0,0,0,0,0,0,0,0,0,0,0,0,0,0,0,0,0,0,0,0,0,0,0,0,0,0,0,0,0,0,0,0,0,0,0,0,0,0,0,0,0,0,0,0,0,0,0],"sum_hessian":[2.8741833E2,1.378132E2,1.4960513E2,1.1327013E2,2.4543083E1,2.4126745E1,1.25478386E2,6.732715E0,1.0653741E2,6.053209E0,1.8489874E1,8.223796E0,1.5902949E1,3.6019318E1,8.945907E1,3.4619496E0,3.2707655E0,9.9809685E1,6.72773E0,7.343681E0,1.11461935E1,3.9049618E0,4.3188334E0,7.429623E0,2.8589697E1,3.365222E1,5.5806843E1,8.71446E1,1.2665078E1,3.4358597E0,3.29187E0,6.375989E0,4.7702045E0,3.7969763E0,3.6326468E0,1.447899E1,1.4110706E1,3.4973116E0,3.015491E1,4.616719E1,9.639656E0,6.239577E1,2.4748833E1,3.8057604E0,8.859318E0,3.2746208E0,3.1013682E0,1.0556113E1,3.5545928E0,5.1666045E0,2.4988306E1,4.2325584E1,3.8416061E0,6.412949E0,3.2267065E0],"tree_param":{"num_deleted":"0","num_feature":"41","num_nodes":"55","size_leaf_vector":"1"}},{"base_weights":[-2.3434974E-1,-2.7122623E-1,4.2361796E-1,4.7045013E-1,-3.0276227E-1,7.878226E-1,-6.287147E-2,1.0369057E-3,1.11236036E-1,-3.363442E-1,1.5296134E-1,1.115749E-1,1.1950842E-2,4.135638E-2,-3.5321227E-1,-6.289115E-2,5.072285E-1,-1.7562464E-1,-4.188591E-1,1.1345478E-1,-5.9351652E-5,4.8272584E-2,-2.6987934E-2,-6.2441893E-2,-3.3810224E-2],"categories":[],"categories_nodes":[],"categories_segments":[],"categories_sizes":[],"default_left":[0,0,0,0,0,0,0,0,0,0,0,0,0,0,0,0,0,0,0,0,0,0,0,0,0],"id":13,"left_children":[1,3,5,7,9,11,-1,-1,-1,13,15,-1,-1,-1,17,-1,19,21,23,-1,-1,-1,-1,-1,-1],"loss_changes":[5.759678E0,5.263235E0,4.8568044E0,2.5717344E0,3.3313236E0,1.9237046E0,0E0,0E0,0E0,2.5579853E0,4.091105E0,0E0,0E0,0E0,2.2332516E0,0E0,3.381528E0,3.3320985E0,2.2658234E0,0E0,0E0,0E0,0E0,0E0,0E0],"parents":[2147483647,0,0,1,1,2,2,3,3,4,4,5,5,9,9,10,10,14,14,16,16,17,17,18,18],"right_children":[2,4,6,8,10,12,-1,-1,-1,14,16,-1,-1,-1,18,-1,20,22,24,-1,-1,-1,-1,-1,-1],"split_conditions":[3.17603E2,-5.4435015E0,4E0,3.8245786E2,1.034442E2,4.7351804E2,-6.287147E-2,1.0369057E-3,1.11236036E-1,1.02E0,2.4281753E-2,1.115749E-1,1.1950842E-2,4.135638E-2,-5.5E-1,-6.289115E-2,5.03E0,-4.460602E-1,4.888484E7,1.1345478E-1,-5.9351652E-5,4.8272584E-2,-2.6987934E-2,-6.2441893E-2,-3.3810224E-2],"split_indices":[23,6,24,3,4,18,0,0,0,22,26,0,0,0,31,0,1,14,16,0,0,0,0,0,0],"split_type":[0,0,0,0,0,0,0,0,0,0,0,0,0,0,0,0,0,0,0,0,0,0,0,0,0],"sum_hessian":[2.3743457E2,2.2503313E2,1.2401452E1,8.992047E0,2.1604108E2,9.302194E0,3.0992584E0,5.387806E0,3.6042418E0,2.0144254E2,1.4598531E1,6.0949574E0,3.2072358E0,4.24932E0,1.9719322E2,4.439872E0,1.0158659E1,5.3731014E1,1.434622E2,4.577508E0,5.581151E0,6.544671E0,4.7186344E1,3.9924988E1,1.0353722E2],"tree_param":{"num_deleted":"0","num_feature":"41","num_nodes":"25","size_leaf_vector":"1"}},{"base_weights":[8.787115E-2,2.8436953E-1,-1.2968405E-1,4.6414173E-1,-7.33164E-2,-6.053818E-1,-4.904865E-2,7.618274E-1,1.5958156E-1,-2.6861537E-1,3.70538E-1,-3.8108123E-3,-7.014515E-2,1.0759845E-1,-2.8152773E-1,1.009978E-2,8.3441645E-1,2.73924E-1,-5.2143484E-1,-4.6080977E-2,-7.155364E-2,9.850853E-2,-3.5713083E-1,1.7399451E-1,-6.948576E-2,4.42763E-2,-5.975576E-1,9.0186524E-1,3.611048E-2,1.0161109E-1,8.0786824E-1,-7.607393E-2,-2.0687051E-2,1.891885E-1,-7.2455205E-2,7.0435307E-3,-7.521273E-2,1.15033105E-1,9.5056884E-2,9.3340956E-2,-3.6387154E-1,-7.482003E-3,-7.0996486E-2,3.8963586E-2,9.4696395E-2,2.69422E-2,-4.1099634E-2,1.1083249E-1,1.6692923E-2,9.1634534E-2,-1.0276485E-3,-1.0942073E-2,3.3541366E-2,-6.9860764E-2,1.406053E-4],"categories":[],"categories_nodes":[],"categories_segments":[],"categories_sizes":[],"default_left":[0,0,0,0,0,0,0,0,0,0,0,0,0,0,0,0,0,0,0,0,0,0,0,0,0,0,0,0,0,0,0,0,0,0,0,0,0,0,0,0,0,0,0,0,0,0,0,0,0,0,0,0,0,0,0],"id":14,"left_children":[1,3,5,7,9,11,13,15,17,19,21,-1,-1,23,25,-1,27,29,31,33,-1,-1,35,37,-1,39,41,43,-1,45,47,-1,-1,49,-1,-1,-1,51,-1,-1,53,-1,-1,-1,-1,-1,-1,-1,-1,-1,-1,-1,-1,-1,-1],"loss_changes":[1.2360487E1,9.813762E0,5.1802006E0,9.082666E0,4.3971267E0,9.9392605E-1,4.2917213E0,2.3469048E0,3.9125404E0,3.4454749E0,6.9784474E0,0E0,0E0,3.68362E0,4.948781E0,0E0,1.3048077E0,3.8872714E0,4.258331E-1,3.8849938E0,0E0,0E0,1.2630367E0,2.8469138E0,0E0,8.555779E0,1.3425665E0,7.5065994E-1,0E0,2.836724E0,1.8596835E0,0E0,0E0,2.6629856E0,0E0,0E0,0E0,3.014315E0,0E0,0E0,2.023953E0,0E0,0E0,0E0,0E0,0E0,0E0,0E0,0E0,0E0,0E0,0E0,0E0,0E0,0E0],"parents":[2147483647,0,0,1,1,2,2,3,3,4,4,5,5,6,6,7,7,8,8,9,9,10,10,13,13,14,14,16,16,17,17,18,18,19,19,22,22,23,23,25,25,26,26,27,27,29,29,30,30,33,33,37,37,40,40],"right_children":[2,4,6,8,10,12,14,16,18,20,22,-1,-1,24,26,-1,28,30,32,34,-1,-1,36,38,-1,40,42,44,-1,46,48,-1,-1,50,-1,-1,-1,52,-1,-1,54,-1,-1,-1,-1,-1,-1,-1,-1,-1,-1,-1,-1,-1,-1],"split_conditions":[3.9224533E2,6.769265E-2,-4.3E-1,4.08E0,6.0799603E1,-7.99319E8,4.833748E-1,1.381E3,8.9305663E-1,3.551529E2,7.96383E-1,-3.8108123E-3,-7.014515E-2,1.552E3,4.6770978E2,1.009978E-2,-8.1736344E7,1.8271573E0,1.5925046E1,3.334228E0,-7.155364E-2,9.850853E-2,1.4515935E-1,9.771265E-1,-6.948576E-2,-3.9147968E8,4.9488895E-2,-3.942505E0,3.611048E-2,-2.147625E8,3.94E0,-7.607393E-2,-2.0687051E-2,4.767668E7,-7.2455205E-2,7.0435307E-3,-7.521273E-2,3.347751E-2,9.5056884E-2,9.3340956E-2,1.0255902E0,-7.482003E-3,-7.0996486E-2,3.8963586E-2,9.4696395E-2,2.69422E-2,-4.1099634E-2,1.1083249E-1,1.6692923E-2,9.1634534E-2,-1.0276485E-3,-1.0942073E-2,3.3541366E-2,-6.9860764E-2,1.406053E-4],"split_indices":[32,26,31,1,34,30,20,2,20,18,20,0,0,2,32,0,8,19,10,19,0,0,26,19,0,8,19,6,0,30,17,0,0,16,0,0,0,25,0,0,35,0,0,0,0,0,0,0,0,0,0,0,0,0,0],"split_type":[0,0,0,0,0,0,0,0,0,0,0,0,0,0,0,0,0,0,0,0,0,0,0,0,0,0,0,0,0,0,0,0,0,0,0,0,0,0,0,0,0,0,0,0,0,0,0,0,0,0,0,0,0,0,0],"sum_hessian":[2.8859122E2,1.5185919E2,1.3673203E2,1.0123067E2,5.0628517E1,1.9543987E1,1.1718804E2,5.0951126E1,5.0279545E1,3.53424E1,1.5286117E1,3.0014665E0,1.654252E1,6.9787796E1,4.7400253E1,5.2028303E0,4.5748295E1,4.322817E1,7.0513783E0,2.3817213E1,1.15251875E1,8.342538E0,6.9435787E0,6.4642166E1,5.145626E0,2.3225744E1,2.4174507E1,3.9777958E1,5.970335E0,3.291292E1,1.0315245E1,3.7436569E0,3.3077211E0,1.7628876E1,6.1883373E0,3.252209E0,3.69137E0,6.0306946E1,4.335221E0,7.3438296E0,1.5881915E1,4.4652996E0,1.9709208E1,3.476245E0,3.6301712E1,2.497835E1,7.9345727E0,6.867149E0,3.4480956E0,3.8253522E0,1.3803522E1,2.9677504E1,3.0629442E1,8.382657E0,7.4992576E0],"tree_param":{"num_deleted":"0","num_feature":"41","num_nodes":"55","size_leaf_vector":"1"}},{"base_weights":[2.8925095E-2,-3.4113038E-1,1.3074133E-1,2.4660921E-1,-4.5182952E-1,-6.559945E-2,1.615775E-1,-1.3093324E-2,6.621839E-2,-5.9146225E-1,4.5339454E-2,1.15256764E-1,9.0102977E-1,-6.741119E-2,-3.0331385E-1,8.454291E-2,-3.021795E-1,5.8453095E-1,6.8557106E-2,1.1388117E-1,4.5219894E-2,9.428869E-3,-6.747809E-2,1.2608829E-2,-6.4738095E-2,2.760072E-1,1.0387321E-1,1.01837866E-1,4.2185053E-2,-4.1933548E-2,6.2180888E-2,-2.2665001E-2,1.5022742E-2],"categories":[],"categories_nodes":[],"categories_segments":[],"categories_sizes":[],"default_left":[0,0,0,0,0,0,0,0,0,0,0,0,0,0,0,0,0,0,0,0,0,0,0,0,0,0,0,0,0,0,0,0,0],"id":15,"left_children":[1,3,5,7,9,-1,11,-1,-1,13,15,17,19,-1,21,-1,23,25,27,-1,-1,-1,-1,-1,-1,29,-1,-1,31,-1,-1,-1,-1],"loss_changes":[1.05073E1,3.9408364E0,5.2820873E0,1.5436041E0,3.5796537E0,0E0,7.1240635E0,0E0,0E0,8.291292E-1,3.1554816E0,4.292819E0,1.1033525E0,0E0,1.440613E0,0E0,1.1984116E0,2.3353724E0,4.431989E0,0E0,0E0,0E0,0E0,0E0,0E0,2.660532E0,0E0,0E0,5.126603E0,0E0,0E0,0E0,0E0],"parents":[2147483647,0,0,1,1,2,2,3,3,4,4,6,6,9,9,10,10,11,11,12,12,14,14,16,16,17,17,18,18,25,25,28,28],"right_children":[2,4,6,8,10,-1,12,-1,-1,14,16,18,20,-1,22,-1,24,26,28,-1,-1,-1,-1,-1,-1,30,-1,-1,32,-1,-1,-1,-1],"split_conditions":[3.5104282E2,4.4943852E7,3.6064117E2,1.35728655E1,4.7071943E0,-6.559945E-2,9.754308E-1,-1.3093324E-2,6.621839E-2,5.95191E5,4.9231564E7,-6.423719E8,-2.5610658E8,-6.741119E-2,4.809976E-2,8.454291E-2,6.1164703E1,5.95517E5,3.6256494E2,1.1388117E-1,4.5219894E-2,9.428869E-3,-6.747809E-2,1.2608829E-2,-6.4738095E-2,4.34E0,1.0387321E-1,1.01837866E-1,1.7413034E1,-4.1933548E-2,6.2180888E-2,-2.2665001E-2,1.5022742E-2],"split_indices":[18,16,3,10,19,0,20,0,0,7,16,30,8,0,14,0,34,7,3,0,0,0,0,0,0,1,0,0,21,0,0,0,0],"split_type":[0,0,0,0,0,0,0,0,0,0,0,0,0,0,0,0,0,0,0,0,0,0,0,0,0,0,0,0,0,0,0,0,0],"sum_hessian":[2.7921356E2,5.998355E1,2.1923001E2,9.344465E0,5.0639088E1,8.06987E0,2.1116014E2,4.8060837E0,4.5383816E0,3.9677586E1,1.0961502E1,1.9894844E2,1.2211698E1,3.0459803E1,9.217783E0,3.363114E0,7.5983877E0,1.7708342E1,1.812401E2,7.7365127E0,4.475185E0,4.3582797E0,4.859503E0,3.2902226E0,4.308165E0,1.0772127E1,6.936214E0,4.692177E0,1.7654793E2,3.474702E0,7.2974257E0,5.0315544E1,1.26232376E2],"tree_param":{"num_deleted":"0","num_feature":"41","num_nodes":"33","size_leaf_vector":"1"}},{"base_weights":[-1.9854395E-1,1.6093364E-1,-2.6048118E-1,-3.8513776E-2,6.1230135E-1,-9.398348E-2,-3.996244E-1,3.3661708E-1,-3.014834E-1,2.3956661E-1,1.4198618E-1,-4.04639E-1,1.1730068E-1,-4.2775095E-1,3.5941314E-2,7.827495E-2,8.167102E-2,-6.2415212E-2,-7.0188865E-3,7.299138E-2,-1.5803613E-2,-4.9446952E-1,3.3790898E-2,-1.2664163E-1,4.328741E-1,-5.018004E-1,-2.2105533E-1,2.5770966E-2,-6.2378477E-3,-3.9319616E-2,4.372214E-2,-5.7447803E-1,-0E0,-2.715017E-1,2.3160875E-1,6.5247655E-1,-1.9736774E-2,-5.5469733E-1,-8.0753855E-2,4.636248E-2,-3.8200566E-1,-6.3398525E-2,-3.50104E-2,4.457927E-3,-5.6795366E-2,7.1662955E-2,-7.763102E-3,-3.322717E-2,8.957099E-2,-2.3679314E-2,-5.9188355E-2,5.0098944E-2,-4.4583235E-2,5.9248E-3,-5.755653E-2],"categories":[],"categories_nodes":[],"categories_segments":[],"categories_sizes":[],"default_left":[0,0,0,0,0,0,0,0,0,0,0,0,0,0,0,0,0,0,0,0,0,0,0,0,0,0,0,0,0,0,0,0,0,0,0,0,0,0,0,0,0,0,0,0,0,0,0,0,0,0,0,0,0,0,0],"id":16,"left_children":[1,3,5,7,9,11,13,15,17,19,-1,21,23,25,-1,27,-1,-1,29,-1,-1,31,-1,33,35,37,39,-1,-1,-1,-1,41,-1,43,45,47,-1,49,51,-1,53,-1,-1,-1,-1,-1,-1,-1,-1,-1,-1,-1,-1,-1,-1],"loss_changes":[5.1202307E0,3.0782866E0,4.4853373E0,2.2947967E0,2.94111E0,5.917287E0,2.292883E0,1.0761244E0,1.2519801E0,1.5006971E0,0E0,2.4671564E0,4.1346445E0,1.4889984E0,0E0,1.8240364E-1,0E0,0E0,1.2998629E0,0E0,0E0,1.3504553E0,0E0,1.5633674E0,3.2988887E0,1.6068382E0,3.0545206E0,0E0,0E0,0E0,0E0,2.5772E-1,0E0,2.0746198E0,1.340161E0,4.278804E0,0E0,6.9018936E-1,1.869032E0,0E0,1.9806185E0,0E0,0E0,0E0,0E0,0E0,0E0,0E0,0E0,0E0,0E0,0E0,0E0,0E0,0E0],"parents":[2147483647,0,0,1,1,2,2,3,3,4,4,5,5,6,6,7,7,8,8,9,9,11,11,12,12,13,13,15,15,18,18,21,21,23,23,24,24,25,25,26,26,31,31,33,33,34,34,35,35,37,37,38,38,40,40],"right_children":[2,4,6,8,10,12,14,16,18,20,-1,22,24,26,-1,28,-1,-1,30,-1,-1,32,-1,34,36,38,40,-1,-1,-1,-1,42,-1,44,46,48,-1,50,52,-1,54,-1,-1,-1,-1,-1,-1,-1,-1,-1,-1,-1,-1,-1,-1],"split_conditions":[1.06084555E-1,8.69701E0,4.83E0,-1.7560573E-1,4.26E0,3.53E0,4.3300644E-1,9.781749E0,1.028143E2,-1.8998122E8,1.4198618E-1,6.423856E-1,2.9959753E-2,4.85E0,3.5941314E-2,-3.040176E8,8.167102E-2,-6.2415212E-2,4.767668E7,7.299138E-2,-1.5803613E-2,5.3227704E7,3.3790898E-2,2.18E5,1.543863E-1,1.974E1,3.21E0,2.5770966E-2,-6.2378477E-3,-3.9319616E-2,4.372214E-2,2.885E1,-0E0,1.368E3,2E0,-3.985551E8,-1.9736774E-2,-4.3970996E-1,-2.3476794E0,4.636248E-2,4.27E0,-6.3398525E-2,-3.50104E-2,4.457927E-3,-5.6795366E-2,7.1662955E-2,-7.763102E-3,-3.322717E-2,8.957099E-2,-2.3679314E-2,-5.9188355E-2,5.0098944E-2,-4.4583235E-2,5.9248E-3,-5.755653E-2],"split_indices":[20,28,37,14,17,22,26,12,4,30,0,14,26,22,0,30,0,0,16,0,0,16,0,33,26,9,1,0,0,0,0,9,0,2,24,30,0,14,6,0,17,0,0,0,0,0,0,0,0,0,0,0,0,0,0],"split_type":[0,0,0,0,0,0,0,0,0,0,0,0,0,0,0,0,0,0,0,0,0,0,0,0,0,0,0,0,0,0,0,0,0,0,0,0,0,0,0,0,0,0,0,0,0,0,0,0,0,0,0,0,0,0,0],"sum_hessian":[2.2923184E2,3.3430454E1,1.9580139E2,2.3095211E1,1.0335242E1,8.954215E1,1.0625923E2,9.349585E0,1.3745626E1,7.244836E0,3.0904062E0,3.6401722E1,5.3140434E1,1.0263155E2,3.6276753E0,6.289662E0,3.0599225E0,6.34325E0,7.402376E0,3.3192587E0,3.9255772E0,3.262318E1,3.7785423E0,2.9826868E1,2.3313566E1,7.5100105E1,2.7531452E1,3.039653E0,3.2500088E0,4.086544E0,3.3158321E0,2.8235056E1,4.3881235E0,2.1454855E1,8.372012E0,1.740432E1,5.909247E0,6.6478966E1,8.621137E0,5.086062E0,2.2445389E1,2.181987E1,6.415187E0,1.0261524E1,1.1193331E1,3.3341956E0,5.0378165E0,3.3586879E0,1.4045631E1,7.3206663E0,5.91583E1,3.2041938E0,5.4169426E0,6.707409E0,1.573798E1],"tree_param":{"num_deleted":"0","num_feature":"41","num_nodes":"55","size_leaf_vector":"1"}},{"base_weights":[9.431825E-2,2.6953796E-1,-9.1824256E-2,3.5907096E-1,-2.4047726E-1,-6.3124436E-1,-8.947132E-3,4.1003627E-1,-6.56688E-2,2.5233856E-1,-5.8442956E-1,-3.564069E-2,-6.7629285E-2,1.6634743E-1,-2.6373637E-1,8.576534E-1,3.228309E-1,-3.3018045E-2,8.6157106E-2,-1.3529504E-2,-7.1720876E-2,9.429171E-2,8.7340936E-2,2.3728872E-2,-6.449963E-1,9.433516E-2,4.19141E-2,3.8575643E-1,-5.190812E-1,-7.167156E-2,1.8685736E-1,3.34722E-1,-5.1478475E-1,-6.921286E-2,-3.298073E-2,5.1743495E-3,5.3741157E-2,-7.658928E-2,-1.8020192E-2,5.4822017E-2,-8.754053E-3,5.817458E-2,-6.3823335E-2,-6.954355E-2,-5.215681E-3],"categories":[],"categories_nodes":[],"categories_segments":[],"categories_sizes":[],"default_left":[0,0,0,0,0,0,0,0,0,0,0,0,0,0,0,0,0,0,0,0,0,0,0,0,0,0,0,0,0,0,0,0,0,0,0,0,0,0,0,0,0,0,0,0,0],"id":17,"left_children":[1,3,5,7,9,11,13,15,-1,17,19,-1,-1,21,23,25,27,-1,-1,-1,-1,-1,29,31,33,-1,-1,35,37,-1,39,41,43,-1,-1,-1,-1,-1,-1,-1,-1,-1,-1,-1,-1],"loss_changes":[9.394493E0,6.7947617E0,6.1566935E0,6.546091E0,3.7850785E0,1.0008097E-1,5.4134483E0,4.5587807E0,0E0,3.2801433E0,6.8832636E-1,0E0,0E0,4.2722445E0,5.493602E0,5.5342007E-1,5.3689604E0,0E0,0E0,0E0,0E0,0E0,5.16755E0,4.7208643E0,1.9363785E-1,0E0,0E0,4.717392E0,4.746487E-1,0E0,5.811741E0,4.369769E0,7.776511E-1,0E0,0E0,0E0,0E0,0E0,0E0,0E0,0E0,0E0,0E0,0E0,0E0],"parents":[2147483647,0,0,1,1,2,2,3,3,4,4,5,5,6,6,7,7,9,9,10,10,13,13,14,14,15,15,16,16,22,22,23,23,24,24,27,27,28,28,30,30,31,31,32,32],"right_children":[2,4,6,8,10,12,14,16,-1,18,20,-1,-1,22,24,26,28,-1,-1,-1,-1,-1,30,32,34,-1,-1,36,38,-1,40,42,44,-1,-1,-1,-1,-1,-1,-1,-1,-1,-1,-1,-1],"split_conditions":[3.9224533E2,1.032241E2,-4.3E-1,7.2E-1,3.5172766E2,-3.975973E8,4.9869522E-1,3.64E0,-6.56688E-2,4.81E0,3.8420043E0,-3.564069E-2,-6.7629285E-2,1.7413034E1,-3E-2,9.134206E0,3.1813278E0,-3.3018045E-2,8.6157106E-2,-1.3529504E-2,-7.1720876E-2,9.429171E-2,4.2273853E2,4.6770978E2,-1.7390998E8,9.433516E-2,4.19141E-2,1.026732E2,7.492921E1,-7.167156E-2,7.05E1,5.35226E2,2.235894E1,-6.921286E-2,-3.298073E-2,5.1743495E-3,5.3741157E-2,-7.658928E-2,-1.8020192E-2,5.4822017E-2,-8.754053E-3,5.817458E-2,-6.3823335E-2,-6.954355E-2,-5.215681E-3],"split_indices":[32,4,31,31,18,8,20,1,0,1,12,0,0,21,31,28,6,0,0,0,0,0,32,32,8,0,0,4,34,0,11,18,10,0,0,0,0,0,0,0,0,0,0,0,0],"split_type":[0,0,0,0,0,0,0,0,0,0,0,0,0,0,0,0,0,0,0,0,0,0,0,0,0,0,0,0,0,0,0,0,0,0,0,0,0,0,0,0,0,0,0,0,0],"sum_hessian":[2.8731396E2,1.4825291E2,1.3906105E2,1.26305664E2,2.1947248E1,1.8271242E1,1.2078981E2,1.2042164E2,5.884028E0,8.912825E0,1.3034423E1,3.0111895E0,1.5260053E1,7.134607E1,4.944374E1,1.9304295E1,1.0111735E2,4.4958096E0,4.417015E0,3.1920664E0,9.842357E0,6.370457E0,6.497562E1,2.809326E1,2.1350481E1,1.5861353E1,3.4429417E0,9.424622E1,6.8711214E0,6.9772124E0,5.79984E1,1.7950396E1,1.0142864E1,1.8193087E1,3.157395E0,2.9677193E1,6.456903E1,3.731968E0,3.1391537E0,2.5146658E1,3.285174E1,1.4429799E1,3.5205963E0,7.1028194E0,3.0400448E0],"tree_param":{"num_deleted":"0","num_feature":"41","num_nodes":"45","size_leaf_vector":"1"}},{"base_weights":[3.531718E-2,7.577743E-2,-5.7631415E-1,-6.520697E-2,1.1411862E-1,-1.0159913E-2,-6.714173E-2,-6.3992366E-2,1.5042949E-1,1.03034146E-1,8.1774175E-1,2.6403034E-1,-7.345028E-2,1.1248704E-1,5.548849E-1,5.5411037E-2,1.0261941E-2,-3.2022517E-2,1.5202874E-2,-0E0,8.841686E-2],"categories":[],"categories_nodes":[],"categories_segments":[],"categories_sizes":[],"default_left":[0,0,0,0,0,0,0,0,0,0,0,0,0,0,0,0,0,0,0,0,0],"id":18,"left_children":[1,3,5,-1,7,-1,-1,-1,9,11,13,15,17,-1,19,-1,-1,-1,-1,-1,-1],"loss_changes":[6.817589E0,7.219782E0,6.8637085E-1,0E0,6.7388577E0,0E0,0E0,0E0,7.37605E0,6.299549E0,1.0227108E0,5.3541384E0,5.8751388E0,0E0,1.565448E0,0E0,0E0,0E0,0E0,0E0,0E0],"parents":[2147483647,0,0,1,1,2,2,4,4,8,8,9,9,10,10,11,11,12,12,14,14],"right_children":[2,4,6,-1,8,-1,-1,-1,10,12,14,16,18,-1,20,-1,-1,-1,-1,-1,-1],"split_conditions":[2.999E1,-8.943368E8,2.096286E-1,-6.520697E-2,3.6064117E2,-1.0159913E-2,-6.714173E-2,-6.3992366E-2,9.754308E-1,1.841E1,2.18E5,4.879511E7,1.028224E2,1.1248704E-1,6.992492E1,5.5411037E-2,1.0261941E-2,-3.2022517E-2,1.5202874E-2,-0E0,8.841686E-2],"split_indices":[9,30,20,0,3,0,0,0,20,9,33,16,4,0,34,0,0,0,0,0,0],"split_type":[0,0,0,0,0,0,0,0,0,0,0,0,0,0,0,0,0,0,0,0,0],"sum_hessian":[2.7724042E2,2.6027405E2,1.6966377E1,1.281388E1,2.4746017E2,3.041717E0,1.392466E1,1.1166063E1,2.3629411E2,2.2087213E2,1.542198E1,1.15774765E2,1.0509737E2,6.7853856E0,8.636595E0,4.1081757E1,7.469301E1,5.0370735E1,5.472663E1,3.2931664E0,5.343428E0],"tree_param":{"num_deleted":"0","num_feature":"41","num_nodes":"21","size_leaf_vector":"1"}},{"base_weights":[-1.8295734E-1,2.8185213E-1,-2.2811717E-1,7.957516E-1,-1.840587E-1,-5.785763E-1,-1.7810005E-1,1.06543116E-1,3.589824E-2,6.19693E-2,-6.305125E-2,-1.085113E-2,-6.439866E-2,-1.9951002E-1,8.270899E-2,4.3710032E-1,-2.3121582E-1,-8.27536E-3,8.00403E-2,-3.4954458E-1,-5.0876718E-2,-3.9138738E-2,3.960245E-3,3.308743E-2,-2.5364427E-2],"categories":[],"categories_nodes":[],"categories_segments":[],"categories_sizes":[],"default_left":[0,0,0,0,0,0,0,0,0,0,0,0,0,0,0,0,0,0,0,0,0,0,0,0,0],"id":19,"left_children":[1,3,5,7,9,11,13,-1,-1,-1,-1,-1,-1,15,-1,17,19,-1,-1,21,23,-1,-1,-1,-1],"loss_changes":[4.7832947E0,4.8700876E0,3.5583458E0,9.550533E-1,3.8012419E0,7.070904E-1,3.877707E0,0E0,0E0,0E0,0E0,0E0,0E0,3.5965729E0,0E0,1.6578683E0,3.5953264E0,0E0,0E0,1.7067738E0,5.2627463E0,0E0,0E0,0E0,0E0],"parents":[2147483647,0,0,1,1,2,2,3,3,4,4,5,5,6,6,13,13,15,15,16,16,19,19,20,20],"right_children":[2,4,6,8,10,12,14,-1,-1,-1,-1,-1,-1,16,-1,18,20,-1,-1,22,24,-1,-1,-1,-1],"split_conditions":[2.89E0,5.148905E2,3.7320206E0,5.175259E7,6.6417475E0,2.05E5,2.7010494E7,1.06543116E-1,3.589824E-2,6.19693E-2,-6.305125E-2,-1.085113E-2,-6.439866E-2,-5.4435015E0,8.270899E-2,1.385E3,4.28E0,-8.27536E-3,8.00403E-2,8.829459E-1,3.5239078E2,-3.9138738E-2,3.960245E-3,3.308743E-2,-2.5364427E-2],"split_indices":[1,32,28,16,12,33,8,0,0,0,0,0,0,6,0,2,1,0,0,14,32,0,0,0,0],"split_type":[0,0,0,0,0,0,0,0,0,0,0,0,0,0,0,0,0,0,0,0,0,0,0,0,0],"sum_hessian":[2.2772632E2,1.992358E1,2.0780273E2,9.542284E0,1.0381296E1,2.557165E1,1.822311E2,5.669073E0,3.8732111E0,3.6133626E0,6.7679334E0,3.3429E0,2.222875E1,1.786065E2,3.6245809E0,8.26304E0,1.7034348E2,3.3176894E0,4.9453506E0,1.02463875E2,6.787959E1,9.274764E1,9.716233E0,2.3354208E1,4.4525383E1],"tree_param":{"num_deleted":"0","num_feature":"41","num_nodes":"25","size_leaf_vector":"1"}},{"base_weights":[9.832111E-2,6.305795E-1,3.6758523E-2,-0E0,7.7907276E-1,6.952292E-1,-4.9696066E-3,8.8087186E-2,4.9218744E-1,9.058856E-2,1.1192712E-2,1.6358544E-1,-1.6396062E-1,8.308473E-2,1.024926E-2,2.3788251E-1,-4.2941132E-1,-4.7547445E-1,3.2720644E-2,2.974637E-1,-6.508785E-2,4.5472514E-3,-5.951485E-2,1.7406141E-2,-5.385254E-1,2.855962E-1,-3.147575E-1,7.583902E-2,1.4273052E-2,-5.919535E-2,1.4560421E-2,-5.4839414E-2,3.994083E-2,5.3308714E-2,-6.044493E-2],"categories":[],"categories_nodes":[],"categories_segments":[],"categories_sizes":[],"default_left":[0,0,0,0,0,0,0,0,0,0,0,0,0,0,0,0,0,0,0,0,0,0,0,0,0,0,0,0,0,0,0,0,0,0,0],"id":20,"left_children":[1,3,5,-1,7,9,11,-1,13,-1,-1,15,17,-1,-1,19,21,23,25,27,-1,-1,-1,-1,29,31,33,-1,-1,-1,-1,-1,-1,-1,-1],"loss_changes":[9.51244E0,2.8701696E0,7.2784686E0,0E0,5.341053E-1,1.8269982E0,6.6137376E0,0E0,8.0796885E-1,0E0,0E0,5.255494E0,7.8455205E0,0E0,0E0,5.6182156E0,1.0957882E0,2.0718784E0,6.8537517E0,7.0231705E0,0E0,0E0,0E0,0E0,1.7075558E0,4.3091216E0,8.072473E0,0E0,0E0,0E0,0E0,0E0,0E0,0E0,0E0],"parents":[2147483647,0,0,1,1,2,2,4,4,5,5,6,6,8,8,11,11,12,12,15,15,16,16,17,17,18,18,19,19,24,24,25,25,26,26],"right_children":[2,4,6,-1,8,10,12,-1,14,-1,-1,16,18,-1,-1,20,22,24,26,28,-1,-1,-1,-1,30,32,34,-1,-1,-1,-1,-1,-1,-1,-1],"split_conditions":[3.6438928E2,4.86704E7,-8.82628E8,-0E0,4.89E0,3E0,3.02858E2,8.8087186E-2,1.2625318E1,9.058856E-2,1.1192712E-2,4.2479532E2,4.0020758E2,8.308473E-2,1.024926E-2,7.2E-1,3.9448456E2,2.6952166E-2,4.9869522E-1,1.58E0,-6.508785E-2,4.5472514E-3,-5.951485E-2,1.7406141E-2,1.4442849E0,2.0017843E1,4.6858304E2,7.583902E-2,1.4273052E-2,-5.919535E-2,1.4560421E-2,-5.4839414E-2,3.994083E-2,5.3308714E-2,-6.044493E-2],"split_indices":[3,16,30,0,22,15,23,0,10,0,0,18,3,0,0,31,32,20,20,37,0,0,0,0,35,21,32,0,0,0,0,0,0,0,0],"split_type":[0,0,0,0,0,0,0,0,0,0,0,0,0,0,0,0,0,0,0,0,0,0,0,0,0,0,0,0,0,0,0,0,0,0,0],"sum_hessian":[2.9231107E2,3.0040241E1,2.6227084E2,5.6658354E0,2.4374405E1,1.5679437E1,2.465914E2,1.7580484E1,6.79392E0,1.135272E1,4.326716E0,1.19388885E2,1.27202515E2,3.437117E0,3.3568032E0,1.06299095E2,1.3089786E1,4.9371735E1,7.783078E1,9.9788475E1,6.51062E0,3.2491767E0,9.84061E0,4.212588E0,4.515915E1,4.522448E1,3.26063E1,2.4819267E1,7.496921E1,4.2035934E1,3.1232133E0,5.2791953E0,3.9945286E1,8.194408E0,2.4411892E1],"tree_param":{"num_deleted":"0","num_feature":"41","num_nodes":"35","size_leaf_vector":"1"}},{"base_weights":[3.840758E-2,-6.381482E-2,7.019518E-2,1.0892916E-1,-5.479179E-1,-4.9697596E-1,1.5440011E-1,-6.5601476E-2,-1.4420152E-2,-1.0165287E-2,-6.2405653E-2,-6.235984E-2,1.8857135E-1,1.3707218E-1,8.195513E-1,4.122119E-2,3.8435773E-3,3.5838846E-2,9.4592854E-2],"categories":[],"categories_nodes":[],"categories_segments":[],"categories_sizes":[],"default_left":[0,0,0,0,0,0,0,0,0,0,0,0,0,0,0,0,0,0,0],"id":21,"left_children":[1,-1,3,5,7,9,11,-1,-1,-1,-1,-1,13,15,17,-1,-1,-1,-1],"loss_changes":[5.895616E0,0E0,6.292078E0,6.8345804E0,5.849943E-1,7.879224E-1,6.132817E0,0E0,0E0,0E0,0E0,0E0,7.1174912E0,5.538888E0,8.0368805E-1,0E0,0E0,0E0,0E0],"parents":[2147483647,0,0,2,2,3,3,4,4,5,5,6,6,12,12,13,13,14,14],"right_children":[2,-1,4,6,8,10,12,-1,-1,-1,-1,-1,14,16,18,-1,-1,-1,-1],"split_conditions":[-8.943368E8,-6.381482E-2,2.999E1,-9.151325E0,-1.4848011E8,1.0948161E0,3.6064117E2,-6.5601476E-2,-1.4420152E-2,-1.0165287E-2,-6.2405653E-2,-6.235984E-2,9.656911E-1,1.448E1,3.8420043E0,4.122119E-2,3.8435773E-3,3.5838846E-2,9.4592854E-2],"split_indices":[30,0,9,19,8,29,3,0,0,0,0,0,20,9,12,0,0,0,0],"split_type":[0,0,0,0,0,0,0,0,0,0,0,0,0,0,0,0,0,0,0],"sum_hessian":[2.7646967E2,1.2180071E1,2.6428958E2,2.4893431E2,1.5355276E1,1.715465E1,2.3177966E2,1.1867505E1,3.4877708E0,4.4082694E0,1.2746381E1,9.556199E0,2.2222346E2,2.0571378E2,1.6509687E1,5.393472E1,1.5177905E2,3.8038685E0,1.2705819E1],"tree_param":{"num_deleted":"0","num_feature":"41","num_nodes":"19","size_leaf_vector":"1"}},{"base_weights":[-1.8544196E-1,-2.2570883E-1,3.7956002E-1,4.5541114E-1,-2.5608212E-1,1.0624955E-1,7.136697E-2,3.7289367E-3,9.754758E-2,-2.787293E-2,-3.291073E-1,5.3992312E-2,-4.6980124E-2,-4.7688946E-1,1.363597E-1,-5.71943E-1,-2.685301E-1,-6.1339367E-2,-5.9623603E-4,-2.3485337E-1,4.5666218E-1,-2.0297475E-2,-6.2454473E-2,-6.21485E-2,-3.4407791E-1,-4.828254E-2,5.0539244E-2,1.2388563E-1,2.1643488E-2,1.3400808E-2,-6.2068194E-2,-5.0456103E-2,-2.1909365E-2],"categories":[],"categories_nodes":[],"categories_segments":[],"categories_sizes":[],"default_left":[0,0,0,0,0,0,0,0,0,0,0,0,0,0,0,0,0,0,0,0,0,0,0,0,0,0,0,0,0,0,0,0,0],"id":22,"left_children":[1,3,5,7,9,-1,11,-1,-1,13,15,-1,-1,17,19,21,23,-1,-1,25,27,-1,-1,29,31,-1,-1,-1,-1,-1,-1,-1,-1],"loss_changes":[5.1279E0,4.354932E0,3.0123518E0,1.8301619E0,3.3315105E0,0E0,2.6861775E0,0E0,0E0,3.6861317E0,2.147911E0,0E0,0E0,8.00683E-1,4.3265758E0,4.884367E-1,1.8717136E0,0E0,0E0,3.0780308E0,3.5037432E0,0E0,0E0,3.7140946E0,1.7119274E0,0E0,0E0,0E0,0E0,0E0,0E0,0E0,0E0],"parents":[2147483647,0,0,1,1,2,2,3,3,4,4,6,6,9,9,10,10,13,13,14,14,15,15,16,16,19,19,20,20,23,23,24,24],"right_children":[2,4,6,8,10,-1,12,-1,-1,14,16,-1,-1,18,20,22,24,-1,-1,26,28,-1,-1,30,32,-1,-1,-1,-1,-1,-1,-1,-1],"split_conditions":[3.17603E2,-5.4435015E0,4.912762E2,3.8193198E2,2.1E5,1.0624955E-1,3.347751E-2,3.7289367E-3,9.754758E-2,3.7647284E2,1.2946655E1,5.3992312E-2,-4.6980124E-2,5.180647E7,1.5221864E-2,1.018458E2,3.5911823E2,-6.1339367E-2,-5.9623603E-4,4.2479532E2,5.856952E-2,-2.0297475E-2,-6.2454473E-2,3.1303793E-1,4.44235E2,-4.828254E-2,5.0539244E-2,1.2388563E-1,2.1643488E-2,1.3400808E-2,-6.2068194E-2,-5.0456103E-2,-2.1909365E-2],"split_indices":[23,6,32,3,33,0,25,0,0,3,10,0,0,16,26,4,18,0,0,18,26,0,0,14,18,0,0,0,0,0,0,0,0],"split_type":[0,0,0,0,0,0,0,0,0,0,0,0,0,0,0,0,0,0,0,0,0,0,0,0,0,0,0,0,0,0,0,0,0],"sum_hessian":[2.2559334E2,2.108065E2,1.4786832E1,8.798933E0,2.0200757E2,4.4209895E0,1.0365843E1,5.0435066E0,3.7554266E0,4.9336117E1,1.5267145E2,5.6548E0,4.711043E0,1.3324657E1,3.601146E1,2.9983166E1,1.22688286E2,1.014221E1,3.1824474E0,1.6547863E1,1.9463596E1,4.039011E0,2.5944155E1,3.327997E1,8.940832E1,1.2522774E1,4.0250893E0,4.377671E0,1.5085926E1,2.4553694E1,8.7262745E0,3.866177E1,5.0746544E1],"tree_param":{"num_deleted":"0","num_feature":"41","num_nodes":"33","size_leaf_vector":"1"}},{"base_weights":[7.237916E-2,8.105648E-2,3.1109832E-2,3.4418014E-1,-5.2743595E-2,-4.367985E-1,4.7688887E-1,-9.084309E-2,4.7672555E-1,-6.902265E-2,-8.866263E-3,5.988739E-1,-3.890678E-2,-5.70238E-1,-4.6985053E-2,7.1832263E-1,-2.4602491E-2,6.9854087E-1,-3.6076386E-2,4.118382E-3,-7.2422296E-2,-1.3938318E-1,1.5924956E-1,9.682803E-3,9.452921E-2,7.934129E-2,-2.5007952E-2,6.934407E-4,-4.2375084E-2,6.968381E-2,-1.8081338E-3],"categories":[],"categories_nodes":[],"categories_segments":[],"categories_sizes":[],"default_left":[0,0,0,0,0,0,0,0,0,0,0,0,0,0,0,0,0,0,0,0,0,0,0,0,0,0,0,0,0,0,0],"id":23,"left_children":[1,-1,3,5,7,9,11,13,15,-1,-1,17,-1,19,21,23,-1,25,-1,-1,-1,27,29,-1,-1,-1,-1,-1,-1,-1,-1],"loss_changes":[8.79657E0,0E0,7.2867002E0,6.103946E0,4.359989E0,6.6257393E-1,5.356862E0,4.213642E0,2.590253E0,0E0,0E0,4.2886744E0,0E0,1.6581292E0,3.5582461E0,1.4338393E0,0E0,3.6912518E0,0E0,0E0,0E0,5.4233E0,5.5490165E0,0E0,0E0,0E0,0E0,0E0,0E0,0E0,0E0],"parents":[2147483647,0,0,2,2,3,3,4,4,5,5,6,6,7,7,8,8,11,11,13,13,14,14,15,15,17,17,21,21,22,22],"right_children":[2,-1,4,6,8,10,12,14,16,-1,-1,18,-1,20,22,24,-1,26,-1,-1,-1,28,30,-1,-1,-1,-1,-1,-1,-1,-1],"split_conditions":[3.6064117E2,8.105648E-2,3.5041177E2,4.472888E7,3.023E1,-8.694334E0,1.6014158E1,3.5007004E2,1.7287539E1,-6.902265E-2,-8.866263E-3,5.66891E0,-3.890678E-2,-7.4E-1,3.4466813E0,2.789253E-1,-2.4602491E-2,5.06E0,-3.6076386E-2,4.118382E-3,-7.2422296E-2,4.748623E-1,1.796201E1,9.682803E-3,9.452921E-2,7.934129E-2,-2.5007952E-2,6.934407E-4,-4.2375084E-2,6.968381E-2,-1.8081338E-3],"split_indices":[3,0,18,16,9,27,21,32,10,0,0,19,0,31,27,20,0,22,0,0,0,20,21,0,0,0,0,0,0,0,0],"split_type":[0,0,0,0,0,0,0,0,0,0,0,0,0,0,0,0,0,0,0,0,0,0,0,0,0,0,0,0,0,0,0],"sum_hessian":[2.914945E2,1.5206591E1,2.7628793E2,5.8554466E1,2.1773346E2,8.362028E0,5.0192436E1,2.0337102E2,1.4362442E1,4.6161566E0,3.7458718E0,4.4123234E1,6.0692034E0,1.675445E1,1.8661658E2,1.0868389E1,3.4940534E0,4.0090855E1,4.0323787E0,3.2547572E0,1.3499693E1,1.2923392E2,5.738265E1,3.0633852E0,7.8050036E0,3.6556587E1,3.5342674E0,8.516124E1,4.407268E1,1.4300584E1,4.308206E1],"tree_param":{"num_deleted":"0","num_feature":"41","num_nodes":"31","size_leaf_vector":"1"}},{"base_weights":[6.213337E-2,-2.2696224E-1,1.4030334E-1,5.910315E-2,-3.1143397E-1,2.3488697E-1,-1.5579243E-1,-1.552058E-1,-5.977527E-1,1.7698511E-1,7.734144E-1,-2.8894404E-1,3.2448673E-1,-4.866409E-1,1.7363152E-1,-6.523827E-2,-3.0132273E-2,5.575268E-1,1.2193059E-1,9.362148E-2,5.3069437E-1,-4.414725E-1,2.1010497E-1,-1.1045129E-2,7.9321794E-2,-6.390795E-2,-0E0,-4.2710918E-1,5.3954434E-1,-1.7124346E-2,7.0966125E-1,-8.648994E-2,2.856808E-1,1.9194057E-2,8.25603E-2,-5.3291327E-1,8.339581E-3,-2.714789E-2,6.2919706E-2,-1.374235E-2,-6.67033E-2,9.752131E-3,1.0346743E-1,8.782666E-2,1.8090615E-2,-1.8130498E-2,5.3798724E-2,3.789245E-2,-4.1234992E-2,-6.4094484E-2,-0E0],"categories":[],"categories_nodes":[],"categories_segments":[],"categories_sizes":[],"default_left":[0,0,0,0,0,0,0,0,0,0,0,0,0,0,0,0,0,0,0,0,0,0,0,0,0,0,0,0,0,0,0,0,0,0,0,0,0,0,0,0,0,0,0,0,0,0,0,0,0,0,0],"id":24,"left_children":[1,3,5,-1,7,9,11,13,15,17,19,21,23,25,27,-1,-1,29,31,-1,33,35,37,-1,-1,-1,-1,39,41,-1,43,45,47,-1,-1,49,-1,-1,-1,-1,-1,-1,-1,-1,-1,-1,-1,-1,-1,-1,-1],"loss_changes":[6.147624E0,3.9786417E0,6.02329E0,0E0,2.2634606E0,4.9734707E0,3.3167255E0,3.7804933E0,1.8083286E-1,3.0146413E0,4.2106533E-1,3.1343696E0,2.3444767E0,1.2667065E0,3.804397E0,0E0,0E0,2.1037874E0,4.431196E0,0E0,5.567827E-1,1.5562997E0,1.9608951E0,0E0,0E0,0E0,0E0,3.5830545E-1,2.2417588E0,0E0,1.2456417E0,3.328086E0,4.739874E0,0E0,0E0,1.4967456E0,0E0,0E0,0E0,0E0,0E0,0E0,0E0,0E0,0E0,0E0,0E0,0E0,0E0,0E0,0E0],"parents":[2147483647,0,0,1,1,2,2,4,4,5,5,6,6,7,7,8,8,9,9,10,10,11,11,12,12,13,13,14,14,17,17,18,18,20,20,21,21,22,22,27,27,28,28,30,30,31,31,32,32,35,35],"right_children":[2,4,6,-1,8,10,12,14,16,18,20,22,24,26,28,-1,-1,30,32,-1,34,36,38,-1,-1,-1,-1,40,42,-1,44,46,48,-1,-1,50,-1,-1,-1,-1,-1,-1,-1,-1,-1,-1,-1,-1,-1,-1,-1],"split_conditions":[3.5172766E2,4.3565988E7,2.2645633E-1,5.910315E-2,-4.5261645E8,5.164122E2,1.030505E2,3.6164243E-2,8.758178E0,3.6407545E0,2.0945415E1,3.777436E0,7.205089E-1,7.170034E-1,-8.283781E8,-6.523827E-2,-3.0132273E-2,-5.723137E0,1.028868E2,9.362148E-2,2.28E5,5.2476056E2,7.6534557E0,-1.1045129E-2,7.9321794E-2,-6.390795E-2,-0E0,6.145395E0,1.7910162E-1,-1.7124346E-2,1.5654742E0,5.382829E2,4.9011182E2,1.9194057E-2,8.25603E-2,2.9538503E-1,8.339581E-3,-2.714789E-2,6.2919706E-2,-1.374235E-2,-6.67033E-2,9.752131E-3,1.0346743E-1,8.782666E-2,1.8090615E-2,-1.8130498E-2,5.3798724E-2,3.789245E-2,-4.1234992E-2,-6.4094484E-2,-0E0],"split_indices":[18,16,25,0,30,32,4,26,28,28,21,29,20,20,30,0,0,27,4,0,33,32,12,0,0,0,0,12,19,0,6,18,32,0,0,26,0,0,0,0,0,0,0,0,0,0,0,0,0,0,0],"split_type":[0,0,0,0,0,0,0,0,0,0,0,0,0,0,0,0,0,0,0,0,0,0,0,0,0,0,0,0,0,0,0,0,0,0,0,0,0,0,0,0,0,0,0,0,0,0,0,0,0,0,0],"sum_hessian":[2.7217822E2,5.761848E1,2.1455975E2,5.226214E0,5.239227E1,1.6288638E2,5.1673367E1,3.422245E1,1.8169819E1,1.4736086E2,1.5525522E1,4.0651325E1,1.102204E1,1.7171455E1,1.7050995E1,1.4956087E1,3.213732E0,1.827985E1,1.2908101E2,8.875029E0,6.6504936E0,3.1297523E1,9.353802E0,5.646095E0,5.375945E0,1.3016123E1,4.155332E0,6.344629E0,1.0706366E1,3.0412862E0,1.5238564E1,5.6546005E1,7.2535E1,3.3298056E0,3.320688E0,2.6814913E1,4.4826117E0,4.257764E0,5.0960374E0,3.1343136E0,3.2103155E0,5.826484E0,4.8798814E0,1.1360721E1,3.877843E0,4.929291E1,7.2530947E0,6.41542E1,8.380809E0,2.2149899E1,4.665013E0],"tree_param":{"num_deleted":"0","num_feature":"41","num_nodes":"51","size_leaf_vector":"1"}},{"base_weights":[-1.5237471E-1,-5.0149316E-1,-1.0324879E-1,-6.343718E-2,3.9618503E-2,-5.8485907E-2,-7.071975E-2,-3.218061E-1,-1.4251724E-2,2.1693926E-2,-3.8250363E-1,-4.7863212E-1,2.7783556E-2,-6.2469937E-2,-1.8979844E-1,-6.2323E-2,-1.6877019E-4,8.0914253E-1,-9.647272E-3,-4.3897312E-2,1.5638944E-2,1.914721E-2,1.3375936E-1,-5.43795E-3,4.999922E-2],"categories":[],"categories_nodes":[],"categories_segments":[],"categories_sizes":[],"default_left":[0,0,0,0,0,0,0,0,0,0,0,0,0,0,0,0,0,0,0,0,0,0,0,0,0],"id":25,"left_children":[1,3,5,-1,-1,-1,7,9,11,-1,13,15,17,-1,19,-1,-1,21,23,-1,-1,-1,-1,-1,-1],"loss_changes":[3.8033624E0,3.3352604E0,3.0343952E0,0E0,0E0,0E0,2.6018333E0,1.1302605E0,3.0175326E0,0E0,1.334125E0,8.227012E-1,4.1597743E0,0E0,1.5365701E0,0E0,0E0,1.9428506E0,2.9917974E0,0E0,0E0,0E0,0E0,0E0,0E0],"parents":[2147483647,0,0,1,1,2,2,6,6,7,7,8,8,10,10,11,11,12,12,14,14,17,17,18,18],"right_children":[2,4,6,-1,-1,-1,8,10,12,-1,14,16,18,-1,20,-1,-1,22,24,-1,-1,-1,-1,-1,-1],"split_conditions":[3.7320206E0,2.8045025E-1,3.6361084E2,-6.343718E-2,3.9618503E-2,-5.8485907E-2,-1.919974E-1,5.888895E-1,-3.9875168E8,2.1693926E-2,1E0,3.2419568E-1,-3.8777776E8,-6.2469937E-2,5.116202E7,-6.2323E-2,-1.6877019E-4,4.778908E2,2.969E1,-4.3897312E-2,1.5638944E-2,1.914721E-2,1.3375936E-1,-5.43795E-3,4.999922E-2],"split_indices":[28,25,3,0,0,0,26,35,8,0,36,14,8,0,16,0,0,18,9,0,0,0,0,0,0],"split_type":[0,0,0,0,0,0,0,0,0,0,0,0,0,0,0,0,0,0,0,0,0,0,0,0,0],"sum_hessian":[2.2548845E2,2.745071E1,1.9803775E2,2.4033838E1,3.4168725E0,1.2227705E1,1.8581004E2,3.3703934E1,1.5210611E2,3.2198584E0,3.0484077E1,1.2736895E1,1.3936922E2,1.3178267E1,1.7305809E1,9.589312E0,3.1475832E0,6.3991194E0,1.329701E2,1.021526E1,7.09055E0,3.100556E0,3.2985635E0,1.2250324E2,1.04668455E1],"tree_param":{"num_deleted":"0","num_feature":"41","num_nodes":"25","size_leaf_vector":"1"}},{"base_weights":[7.468566E-2,3.5382253E-1,-3.3629294E-2,4.220256E-1,-6.36403E-2,7.651641E-2,-7.503995E-2,1.5909037E-1,7.108747E-1,-3.4583986E-1,2.1600986E-2,6.82879E-2,-7.7635963E-3,7.687328E-1,1.3585404E-2,5.222977E-2,-4.2234734E-1,7.0133823E-1,-3.920503E-2,1.1852151E-1,-6.870075E-2,8.285355E-2,5.2711792E-2,-1.2861852E-2,-5.446596E-1,9.608441E-3,1.0206332E-1,6.216928E-1,-1.1023791E-1,-3.3168815E-2,2.9731516E-2,-3.8827572E-2,7.848805E-2,-6.338975E-2,2.6137033E-2,8.698835E-2,-8.44886E-4,1.5649064E-2,-2.7359268E-2],"categories":[],"categories_nodes":[],"categories_segments":[],"categories_sizes":[],"default_left":[0,0,0,0,0,0,0,0,0,0,0,0,0,0,0,0,0,0,0,0,0,0,0,0,0,0,0,0,0,0,0,0,0,0,0,0,0,0,0],"id":26,"left_children":[1,3,5,7,-1,-1,9,11,13,15,17,-1,19,21,-1,-1,23,25,27,29,-1,-1,-1,31,33,-1,-1,35,37,-1,-1,-1,-1,-1,-1,-1,-1,-1,-1],"loss_changes":[8.445015E0,5.2762556E0,6.5614595E0,5.458846E0,0E0,0E0,5.021555E0,3.442689E0,1.0521126E0,3.3603168E0,5.8678966E0,0E0,2.573033E0,2.731495E-1,0E0,0E0,2.2719727E0,2.1319551E0,5.999492E0,1.9878755E0,0E0,0E0,0E0,3.280016E0,2.6149368E0,0E0,0E0,2.0218835E0,5.090661E0,0E0,0E0,0E0,0E0,0E0,0E0,0E0,0E0,0E0,0E0],"parents":[2147483647,0,0,1,1,2,2,3,3,6,6,7,7,8,8,9,9,10,10,12,12,13,13,16,16,17,17,18,18,19,19,23,23,24,24,27,27,28,28],"right_children":[2,4,6,8,-1,-1,10,12,14,16,18,-1,20,22,-1,-1,24,26,28,30,-1,-1,-1,32,34,-1,-1,36,38,-1,-1,-1,-1,-1,-1,-1,-1,-1,-1],"split_conditions":[1.5459346E1,7.2E-1,3.6064117E2,-4.4E-1,-6.36403E-2,7.651641E-2,1.476E1,-8.9689805E8,3.6442667E2,4.16E0,1.317E3,6.82879E-2,9.252085E-1,1.5023859E1,1.3585404E-2,5.222977E-2,1.275E1,1.953205E1,-7.4E-1,-6.771907E8,-6.870075E-2,8.285355E-2,5.2711792E-2,4.4E0,3.4347195E1,9.608441E-3,1.0206332E-1,6.684172E1,-1.33556E0,-3.3168815E-2,2.9731516E-2,-3.8827572E-2,7.848805E-2,-6.338975E-2,2.6137033E-2,8.698835E-2,-8.44886E-4,1.5649064E-2,-2.7359268E-2],"split_indices":[21,31,3,31,0,0,9,30,32,22,2,0,20,21,0,0,9,21,31,30,0,0,0,17,27,0,0,34,6,0,0,0,0,0,0,0,0,0,0],"split_type":[0,0,0,0,0,0,0,0,0,0,0,0,0,0,0,0,0,0,0,0,0,0,0,0,0,0,0,0,0,0,0,0,0,0,0,0,0,0,0],"sum_hessian":[2.7811697E2,7.794434E1,2.0017262E2,7.306992E1,4.874418E0,9.660636E0,1.90512E2,3.851319E1,3.4556732E1,5.0311058E1,1.4020093E2,9.374567E0,2.9138622E1,3.1208921E1,3.3478117E0,3.9216778E0,4.638938E1,1.1560442E1,1.2864049E2,2.4515944E1,4.6226783E0,2.4490442E1,6.71848E0,1.0882913E1,3.550647E1,4.145513E0,7.414929E0,1.2272527E1,1.16367966E2,6.785347E0,1.7730597E1,7.5204873E0,3.3624249E0,3.2098206E1,3.408263E0,8.891232E0,3.3812957E0,4.3968105E1,7.2399864E1],"tree_param":{"num_deleted":"0","num_feature":"41","num_nodes":"39","size_leaf_vector":"1"}},{"base_weights":[3.7030406E-2,-1.1599013E-1,1.8072233E-1,-2.6428592E-1,1.6185407E-1,3.5402587E-1,7.1413033E-3,-3.286252E-1,4.2335662E-1,3.9514646E-1,-1.6589329E-1,5.818606E-1,-3.0312352E-2,-1.0479854E-1,6.188845E-1,-4.6486786E-1,-2.8568093E-2,-0E0,7.498317E-2,-1.8600654E-2,5.409954E-1,-4.6154764E-1,6.595487E-2,-1.714024E-2,6.7573434E-1,5.021726E-1,-2.7282965E-1,-2.385607E-1,3.084045E-1,8.757624E-2,-0E0,-5.30432E-1,7.1127E-3,6.6249944E-2,-1.5848543E-1,-1.3712029E-2,7.516738E-1,-6.540425E-2,1.1340438E-2,1.613573E-3,7.3525006E-1,-0E0,8.326628E-2,1.672486E-1,-6.2911354E-2,-3.2253233E-1,7.461952E-2,5.1758623E-1,-2.5750685E-2,8.082899E-3,-5.9674382E-2,-3.7007373E-2,4.483425E-2,8.8772364E-2,2.4014462E-2,1.6136765E-2,8.1522636E-2,-4.8696242E-2,1.0737454E-1,-5.0321836E-2,-9.426601E-3,-9.397024E-3,7.745934E-2],"categories":[],"categories_nodes":[],"categories_segments":[],"categories_sizes":[],"default_left":[0,0,0,0,0,0,0,0,0,0,0,0,0,0,0,0,0,0,0,0,0,0,0,0,0,0,0,0,0,0,0,0,0,0,0,0,0,0,0,0,0,0,0,0,0,0,0,0,0,0,0,0,0,0,0,0,0,0,0,0,0,0,0],"id":27,"left_children":[1,3,5,7,9,11,13,15,17,19,21,23,25,27,29,31,33,-1,-1,-1,35,37,-1,-1,39,41,43,45,47,-1,-1,49,-1,-1,51,-1,53,-1,-1,-1,55,-1,-1,57,-1,59,-1,61,-1,-1,-1,-1,-1,-1,-1,-1,-1,-1,-1,-1,-1,-1,-1],"loss_changes":[6.049345E0,5.485123E0,4.2371492E0,3.8464484E0,3.549097E0,6.2563124E0,4.9448023E0,3.203392E0,9.4169474E-1,2.342442E0,4.655585E0,3.2169275E0,3.3845515E0,3.3317099E0,1.7448282E0,1.9651966E0,2.2218847E0,0E0,0E0,0E0,3.1898017E0,1.6288357E0,0E0,0E0,1.4865074E0,1.320499E0,2.9182606E0,3.7666705E0,1.7677445E0,0E0,0E0,2.032215E0,0E0,0E0,2.757508E0,0E0,1.0336542E0,0E0,0E0,0E0,1.558672E0,0E0,0E0,4.9255757E0,0E0,1.6817656E0,0E0,1.7763646E0,0E0,0E0,0E0,0E0,0E0,0E0,0E0,0E0,0E0,0E0,0E0,0E0,0E0,0E0,0E0],"parents":[2147483647,0,0,1,1,2,2,3,3,4,4,5,5,6,6,7,7,8,8,9,9,10,10,11,11,12,12,13,13,14,14,15,15,16,16,20,20,21,21,24,24,25,25,26,26,27,27,28,28,31,31,34,34,36,36,40,40,43,43,45,45,47,47],"right_children":[2,4,6,8,10,12,14,16,18,20,22,24,26,28,30,32,34,-1,-1,-1,36,38,-1,-1,40,42,44,46,48,-1,-1,50,-1,-1,52,-1,54,-1,-1,-1,56,-1,-1,58,-1,60,-1,62,-1,-1,-1,-1,-1,-1,-1,-1,-1,-1,-1,-1,-1,-1,-1],"split_conditions":[3.9448456E2,4.01E0,5.0840016E7,7.2E-1,5.0711296E7,2.0188787E1,8.243994E-1,4.58E0,9.051541E-1,3.7324574E1,3.655879E2,2.3779518E1,-3.956717E8,3.818719E0,1.2448217E0,9.754308E-1,-2.643482E-1,-0E0,7.498317E-2,-1.8600654E-2,4.56E0,1.6040182E1,6.595487E-2,-1.714024E-2,3.672261E2,-1.4472698E0,4.24E0,5.8314636E7,6.5034366E-1,8.757624E-2,-0E0,3.1978185E0,7.1127E-3,6.6249944E-2,7.8711313E-1,-1.3712029E-2,-2.5045146E8,-6.540425E-2,1.1340438E-2,1.613573E-3,7.357398E-2,-0E0,8.326628E-2,5.0036633E2,-6.2911354E-2,-1.5533422E-1,7.461952E-2,6.2854576E0,-2.5750685E-2,8.082899E-3,-5.9674382E-2,-3.7007373E-2,4.483425E-2,8.8772364E-2,2.4014462E-2,1.6136765E-2,8.1522636E-2,-4.8696242E-2,1.0737454E-1,-5.0321836E-2,-9.426601E-3,-9.397024E-3,7.745934E-2],"split_indices":[32,17,16,31,16,21,20,1,29,34,3,34,8,29,35,20,26,0,0,0,22,21,0,0,3,19,17,16,20,0,0,28,0,0,20,0,8,0,0,0,20,0,0,3,0,19,0,28,0,0,0,0,0,0,0,0,0,0,0,0,0,0,0],"split_type":[0,0,0,0,0,0,0,0,0,0,0,0,0,0,0,0,0,0,0,0,0,0,0,0,0,0,0,0,0,0,0,0,0,0,0,0,0,0,0,0,0,0,0,0,0,0,0,0,0,0,0,0,0,0,0,0,0,0,0,0,0,0,0],"sum_hessian":[2.7463284E2,1.3267152E2,1.4196133E2,8.673996E1,4.5931557E1,7.069714E1,7.126418E1,7.949925E1,7.2407126E0,2.6998455E1,1.8933102E1,4.4516605E1,2.618054E1,6.0172855E1,1.1091331E1,5.440717E1,2.5092081E1,3.325797E0,3.9149158E0,5.273274E0,2.1725182E1,1.4061741E1,4.871361E0,4.8058186E0,3.971079E1,8.030001E0,1.815054E1,4.567214E1,1.4500716E1,7.763918E0,3.3274124E0,4.864447E1,5.7626996E0,3.7840383E0,2.1308043E1,5.045469E0,1.6679712E1,1.0654701E1,3.4070394E0,3.4361463E0,3.627464E1,3.268371E0,4.7616296E0,8.018521E0,1.0132017E1,4.223914E1,3.433E0,1.0722522E1,3.778195E0,4.6109467E0,4.4033524E1,1.5950309E1,5.3577347E0,1.296296E1,3.7167525E0,4.6267557E0,3.1647884E1,4.6201587E0,3.398363E0,2.3265003E1,1.8974136E1,3.0764225E0,7.6460996E0],"tree_param":{"num_deleted":"0","num_feature":"41","num_nodes":"63","size_leaf_vector":"1"}},{"base_weights":[-1.1403721E-1,-1.883243E-1,1.5109508E-1,-2.2374485E-1,3.5398844E-1,-2.3299599E-2,6.94366E-1,4.9936417E-2,-2.6996806E-1,-4.1189477E-2,8.176351E-1,4.2036527E-1,-2.1248846E-1,1.0367794E-1,-7.576979E-4,5.32991E-1,-2.3724237E-1,-3.0474204E-1,1.261339E-1,1.1537947E-1,4.1158356E-2,1.03608645E-1,9.701549E-2,-3.6369258E-1,7.9564095E-2,4.865916E-3,1.2212598E-1,-4.321162E-1,2.2719325E-2,-1.5776238E-1,-3.9279547E-1,-3.5784513E-1,1.03376366E-1,-3.6590714E-2,6.427407E-2,-3.7159987E-2,-6.1613478E-2,-0E0,-6.07629E-2,-3.877089E-2,9.203894E-3,-4.3035742E-2,2.9431893E-2,-6.2217284E-2,-0E0,-4.710118E-2,7.291819E-2],"categories":[],"categories_nodes":[],"categories_segments":[],"categories_sizes":[],"default_left":[0,0,0,0,0,0,0,0,0,0,0,0,0,0,0,0,0,0,0,0,0,0,0,0,0,0,0,0,0,0,0,0,0,0,0,0,0,0,0,0,0,0,0,0,0,0,0],"id":28,"left_children":[1,3,5,7,9,11,13,15,17,-1,19,21,23,-1,-1,25,27,29,31,-1,-1,33,-1,35,-1,-1,-1,37,-1,39,41,43,-1,-1,-1,45,-1,-1,-1,-1,-1,-1,-1,-1,-1,-1,-1],"loss_changes":[4.3276815E0,3.293342E0,4.595383E0,2.0653858E0,3.764907E0,3.020369E0,2.9285393E0,3.2460973E0,1.9283695E0,0E0,6.9534636E-1,1.7416258E0,3.8804426E0,0E0,0E0,2.791119E0,1.3357549E0,1.5890465E0,4.9410944E0,0E0,0E0,1.8231831E0,0E0,1.7765796E0,0E0,0E0,0E0,7.772161E-1,0E0,2.811262E0,2.0716476E0,6.7852974E-1,0E0,0E0,0E0,3.3446229E0,0E0,0E0,0E0,0E0,0E0,0E0,0E0,0E0,0E0,0E0,0E0],"parents":[2147483647,0,0,1,1,2,2,3,3,4,4,5,5,6,6,7,7,8,8,10,10,11,11,12,12,15,15,16,16,17,17,18,18,21,21,23,23,27,27,29,29,30,30,31,31,35,35],"right_children":[2,4,6,8,10,12,14,16,18,-1,20,22,24,-1,-1,26,28,30,32,-1,-1,34,-1,36,-1,-1,-1,38,-1,40,42,44,-1,-1,-1,46,-1,-1,-1,-1,-1,-1,-1,-1,-1,-1,-1],"split_conditions":[1.5E-1,2.969E1,3.17603E2,-4.2361796E-1,5.596067E-1,1.2744023E-1,-2.98152E8,-5.2E-1,2.2812445E1,-4.1189477E-2,1.4515935E-1,4.1751566E2,6.423856E-1,1.0367794E-1,-7.576979E-4,6.581503E-1,4.908368E2,3.5709625E2,4E0,1.1537947E-1,4.1158356E-2,8.5E-1,9.701549E-2,-1.401245E-1,7.9564095E-2,4.865916E-3,1.2212598E-1,2.97979E2,2.2719325E-2,2.1066764E-2,4.57E0,-3.8516973E8,1.03376366E-1,-3.6590714E-2,6.427407E-2,5.2578404E7,-6.1613478E-2,-0E0,-6.07629E-2,-3.877089E-2,9.203894E-3,-4.3035742E-2,2.9431893E-2,-6.2217284E-2,-0E0,-4.710118E-2,7.291819E-2],"split_indices":[31,9,23,14,20,20,8,31,21,0,26,18,14,0,0,35,32,32,24,0,0,31,0,14,0,0,0,23,0,26,17,8,0,0,0,16,0,0,0,0,0,0,0,0,0,0,0],"split_type":[0,0,0,0,0,0,0,0,0,0,0,0,0,0,0,0,0,0,0,0,0,0,0,0,0,0,0,0,0,0,0,0,0,0,0,0,0,0,0,0,0,0,0,0,0,0,0],"sum_hessian":[2.1929143E2,1.716134E2,4.7678013E1,1.613201E2,1.0293306E1,3.6025238E1,1.1652773E1,2.29955E1,1.383246E2,3.8044071E0,6.488899E0,1.0575044E1,2.5450195E1,7.895866E0,3.7569067E0,8.671708E0,1.4323792E1,1.2741436E2,1.0910241E1,3.3144927E0,3.1744065E0,6.900254E0,3.67479E0,2.227274E1,3.1774554E0,5.2380657E0,3.4336424E0,1.0246647E1,4.0771456E0,4.8264915E1,7.9149445E1,7.0834837E0,3.8267574E0,3.6062841E0,3.2939696E0,9.934007E0,1.2338733E1,3.0089102E0,7.2377367E0,2.5310898E1,2.2954018E1,7.5220345E1,3.9291072E0,4.0291686E0,3.0543146E0,6.4509406E0,3.483066E0],"tree_param":{"num_deleted":"0","num_feature":"41","num_nodes":"47","size_leaf_vector":"1"}},{"base_weights":[6.0962275E-2,5.517853E-1,2.0240946E-3,-4.0440552E-2,6.6714346E-1,6.162807E-2,-3.629496E-1,3.7864518E-1,7.857841E-2,3.0066353E-1,-3.277105E-2,8.459289E-2,-6.1369056E-1,-3.023919E-3,7.762017E-2,-6.262391E-2,3.9447242E-1,2.3724242E-1,-1.2256775E-1,-6.473213E-2,5.965301E-1,-2.7699629E-2,-6.9855474E-2,6.484605E-1,8.717079E-2,4.8996183E-1,2.6103673E-3,-5.0472025E-2,-5.3767174E-1,8.886085E-2,2.1399891E-2,2.8860787E-2,8.0397785E-2,9.69856E-2,-1.2941457E-2,7.037489E-2,-1.3926126E-2,-3.092182E-2,2.3990603E-2,8.438976E-4,-5.517107E-2,-2.2695316E-3,-6.703482E-2],"categories":[],"categories_nodes":[],"categories_segments":[],"categories_sizes":[],"default_left":[0,0,0,0,0,0,0,0,0,0,0,0,0,0,0,0,0,0,0,0,0,0,0,0,0,0,0,0,0,0,0,0,0,0,0,0,0,0,0,0,0,0,0],"id":29,"left_children":[1,3,5,-1,7,9,11,13,-1,15,17,19,21,-1,-1,-1,23,25,27,-1,29,-1,-1,31,33,35,37,39,41,-1,-1,-1,-1,-1,-1,-1,-1,-1,-1,-1,-1,-1,-1],"loss_changes":[7.9296474E0,3.297347E0,5.339278E0,0E0,7.565651E-1,4.820697E0,3.9200487E0,1.3975999E0,0E0,5.257301E0,3.6784058E0,4.6431913E0,5.177784E-1,0E0,0E0,0E0,4.2174034E0,2.186433E0,3.3638487E0,0E0,6.9433594E-1,0E0,0E0,1.5433674E0,4.914965E0,2.4805517E0,1.4699229E0,2.9437163E0,1.0716882E0,0E0,0E0,0E0,0E0,0E0,0E0,0E0,0E0,0E0,0E0,0E0,0E0,0E0,0E0],"parents":[2147483647,0,0,1,1,2,2,4,4,5,5,6,6,7,7,9,9,10,10,11,11,12,12,16,16,17,17,18,18,20,20,23,23,24,24,25,25,26,26,27,27,28,28],"right_children":[2,4,6,-1,8,10,12,14,-1,16,18,20,22,-1,-1,-1,24,26,28,-1,30,-1,-1,32,34,36,38,40,42,-1,-1,-1,-1,-1,-1,-1,-1,-1,-1,-1,-1,-1,-1],"split_conditions":[3.6450342E2,4.6762624E7,1.032241E2,-4.0440552E-2,4.9905784E7,1.5740914E1,1.5459346E1,1.7426785E1,7.857841E-2,3.41E0,5.5101233E0,-4.7E-1,7.2328883E-1,-3.023919E-3,7.762017E-2,-6.262391E-2,4.22E0,7.229118E0,1.552E3,-6.473213E-2,5.008819E-1,-2.7699629E-2,-6.9855474E-2,3.3778116E2,-1.0591332E0,4.63E0,-3.8E-1,5.0036633E2,4.7452228E7,8.886085E-2,2.1399891E-2,2.8860787E-2,8.0397785E-2,9.69856E-2,-1.2941457E-2,7.037489E-2,-1.3926126E-2,-3.092182E-2,2.3990603E-2,8.438976E-4,-5.517107E-2,-2.2695316E-3,-6.703482E-2],"split_indices":[3,16,4,0,16,21,21,21,0,1,28,31,35,0,0,0,1,12,2,0,20,0,0,18,6,1,31,3,16,0,0,0,0,0,0,0,0,0,0,0,0,0,0],"split_type":[0,0,0,0,0,0,0,0,0,0,0,0,0,0,0,0,0,0,0,0,0,0,0,0,0,0,0,0,0,0,0,0,0,0,0,0,0,0,0,0,0,0,0],"sum_hessian":[2.7593292E2,2.9310362E1,2.4662257E2,3.035125E0,2.6275238E1,2.1230765E2,3.4314922E1,8.0243845E0,1.8250853E1,6.0344753E1,1.5196289E2,1.2202454E1,2.211247E1,3.8773804E0,4.1470037E0,5.395875E0,5.494888E1,3.7606E1,1.1435689E2,4.9309363E0,7.2715178E0,4.774528E0,1.7337942E1,2.984513E1,2.510375E1,1.7847572E1,1.9758429E1,9.773519E1,1.6621696E1,3.8999958E0,3.371522E0,9.286237E0,2.0558893E1,4.968547E0,2.0135202E1,1.3431216E1,4.4163547E0,8.343098E0,1.1415332E1,8.736582E1,1.03693695E1,3.5834708E0,1.3038225E1],"tree_param":{"num_deleted":"0","num_feature":"41","num_nodes":"43","size_leaf_vector":"1"}},{"base_weights":[3.312048E-2,6.474251E-2,-4.4610104E-1,2.118923E-2,3.6389586E-1,3.2812484E-2,-6.359543E-2,-2.454608E-3,6.4215845E-1,-1.0573736E-1,6.343758E-1,1.7199601E-1,-1.18465975E-1,2.4651328E-2,8.811134E-2,-6.434833E-2,2.3490666E-1,4.3450055E-1,8.6001456E-2,2.483333E-1,-5.7772018E-2,1.386517E-1,-2.746487E-1,-2.4077047E-2,7.597049E-2,7.394425E-2,-2.894391E-3,8.511451E-2,1.2388098E-2,-4.6086844E-2,2.6732266E-2,1.8967504E-3,-3.851546E-2],"categories":[],"categories_nodes":[],"categories_segments":[],"categories_sizes":[],"default_left":[0,0,0,0,0,0,0,0,0,0,0,0,0,0,0,0,0,0,0,0,0,0,0,0,0,0,0,0,0,0,0,0,0],"id":30,"left_children":[1,3,5,7,9,-1,-1,11,13,15,17,19,21,-1,-1,-1,23,25,-1,27,-1,29,31,-1,-1,-1,-1,-1,-1,-1,-1,-1,-1],"loss_changes":[4.024286E0,3.2386684E0,2.4621992E0,3.2943556E0,4.0831566E0,0E0,0E0,4.2848873E0,6.4315104E-1,2.1674044E0,7.463875E-1,4.8074026E0,5.1439576E0,0E0,0E0,0E0,1.8215961E0,1.6524034E0,0E0,5.6477985E0,0E0,3.7008734E0,2.6231546E0,0E0,0E0,0E0,0E0,0E0,0E0,0E0,0E0,0E0,0E0],"parents":[2147483647,0,0,1,1,2,2,3,3,4,4,7,7,8,8,9,9,10,10,11,11,12,12,16,16,17,17,19,19,21,21,22,22],"right_children":[2,4,6,8,10,-1,-1,12,14,16,18,20,22,-1,-1,-1,24,26,-1,28,-1,30,32,-1,-1,-1,-1,-1,-1,-1,-1,-1,-1],"split_conditions":[2.969E1,1.032241E2,6.7476735E-2,5.7752984E7,1E0,3.2812484E-2,-6.359543E-2,4.879511E7,1.8882675E1,1.5620134E1,1.6834677E1,2.1547768E1,4E0,2.4651328E-2,8.811134E-2,-6.434833E-2,1.285E1,1.5807665E1,8.6001456E-2,-3.72821E8,-5.7772018E-2,-2.4419563E0,2E0,-2.4077047E-2,7.597049E-2,7.394425E-2,-2.894391E-3,8.511451E-2,1.2388098E-2,-4.6086844E-2,2.6732266E-2,1.8967504E-3,-3.851546E-2],"split_indices":[9,4,20,16,39,0,0,16,10,21,10,21,22,0,0,0,9,21,0,8,0,6,24,0,0,0,0,0,0,0,0,0,0],"split_type":[0,0,0,0,0,0,0,0,0,0,0,0,0,0,0,0,0,0,0,0,0,0,0,0,0,0,0,0,0,0,0,0,0],"sum_hessian":[2.67786E2,2.5148651E2,1.629949E1,2.1991132E2,3.1575195E1,3.0917416E0,1.3207748E1,2.11786E2,8.125334E0,1.1426538E1,2.0148657E1,8.422439E1,1.275616E2,3.293626E0,4.8317075E0,4.510637E0,6.915902E0,1.1074446E1,9.074211E0,7.6622795E1,7.601594E0,4.796674E1,7.9594864E1,3.5561657E0,3.3597364E0,6.7736635E0,4.300782E0,1.2874575E1,6.374822E1,8.29275E0,3.967399E1,2.154016E1,5.8054703E1],"tree_param":{"num_deleted":"0","num_feature":"41","num_nodes":"33","size_leaf_vector":"1"}},{"base_weights":[-1.3793282E-1,-3.818663E-1,-7.674502E-2,-4.947271E-1,1.3015552E-1,-3.5585303E-2,-5.582793E-1,-5.279714E-3,-5.404669E-1,-5.6894448E-2,6.1148535E-2,-2.3209116E-1,5.66961E-2,-6.254876E-2,-2.8379822E-2,-5.957622E-2,-3.712587E-1,-3.1417203E-1,5.5711996E-2,3.2754767E-1,-3.8987305E-2,-5.8072675E-2,-1.0735836E-2,3.453092E-2,-3.730268E-1,-6.8018764E-2,5.337258E-1,1.7011717E-1,-1.9465435E-1,-4.3144394E-2,1.3495336E-2,-4.7759343E-2,4.630589E-2,1.2234067E-2,8.80647E-2,1.0373721E-1,5.2888095E-3,-3.552504E-2,1.8421149E-2],"categories":[],"categories_nodes":[],"categories_segments":[],"categories_sizes":[],"default_left":[0,0,0,0,0,0,0,0,0,0,0,0,0,0,0,0,0,0,0,0,0,0,0,0,0,0,0,0,0,0,0,0,0,0,0,0,0,0,0],"id":31,"left_children":[1,3,5,7,9,11,13,-1,15,-1,-1,17,19,-1,-1,-1,21,23,-1,25,27,-1,-1,-1,29,31,33,35,37,-1,-1,-1,-1,-1,-1,-1,-1,-1,-1],"loss_changes":[3.2235355E0,2.56315E0,3.4215155E0,6.6383076E-1,2.6624067E0,2.959946E0,1.4293575E-1,0E0,1.8369102E-1,0E0,0E0,3.3742108E0,2.8833613E0,0E0,0E0,0E0,4.044547E-1,1.8575377E0,0E0,2.417288E0,2.647955E0,0E0,0E0,0E0,1.3338556E0,2.1697998E0,2.6372027E0,3.3848186E0,2.874341E0,0E0,0E0,0E0,0E0,0E0,0E0,0E0,0E0,0E0,0E0],"parents":[2147483647,0,0,1,1,2,2,3,3,4,4,5,5,6,6,8,8,11,11,12,12,16,16,17,17,19,19,20,20,24,24,25,25,26,26,27,27,28,28],"right_children":[2,4,6,8,10,12,14,-1,16,-1,-1,18,20,-1,-1,-1,22,24,-1,26,28,-1,-1,-1,30,32,34,36,38,-1,-1,-1,-1,-1,-1,-1,-1,-1,-1],"split_conditions":[3.662982E2,5.44456E7,2.3292814E1,-8.9E-1,-9.306333E-2,-1.3264395E-1,4.379478E0,-5.279714E-3,1.859E1,-5.6894448E-2,6.1148535E-2,1.031703E2,3.5709625E2,-6.254876E-2,-2.8379822E-2,-5.957622E-2,1.028143E2,5.272976E-1,5.5711996E-2,5.271453E-1,3.9885303E1,-5.8072675E-2,-1.0735836E-2,3.453092E-2,3.979493E0,1.5165603E0,1.3765501E1,-1.0753308E-1,6.05814E5,-4.3144394E-2,1.3495336E-2,-4.7759343E-2,4.630589E-2,1.2234067E-2,8.80647E-2,1.0373721E-1,5.2888095E-3,-3.552504E-2,1.8421149E-2],"split_indices":[3,16,10,31,14,26,29,0,9,0,0,4,32,0,0,0,4,35,0,20,34,0,0,0,29,29,10,26,7,0,0,0,0,0,0,0,0,0,0],"split_type":[0,0,0,0,0,0,0,0,0,0,0,0,0,0,0,0,0,0,0,0,0,0,0,0,0,0,0,0,0,0,0,0,0,0,0,0,0,0,0],"sum_hessian":[2.191403E2,4.351268E1,1.7562762E2,3.58166E1,7.696079E0,1.6208801E2,1.3539606E1,3.5845933E0,3.223201E1,3.0460014E0,4.6500773E0,5.209277E1,1.0999524E2,1.0481055E1,3.0585518E0,2.3657824E1,8.574184E0,4.7354614E1,4.7381544E0,2.892366E1,8.107159E1,4.5018797E0,4.0723047E0,3.7007742E0,4.3653843E1,9.767005E0,1.9156654E1,3.431937E1,4.6752213E1,3.9341534E1,4.312308E0,5.6262937E0,4.140711E0,8.957827E0,1.0198829E1,3.8915954E0,3.0427774E1,3.302398E1,1.3728233E1],"tree_param":{"num_deleted":"0","num_feature":"41","num_nodes":"39","size_leaf_vector":"1"}},{"base_weights":[9.692407E-2,7.149358E-2,6.2633E-2,8.1598856E-2,-6.959949E-2,1.2470634E-1,-2.7934083E-1,1.8936518E-1,-1.0805683E-1,1.9922389E-1,-4.9735314E-1,-3.3926025E-1,2.3916812E-1,3.319297E-1,-4.1231573E-1,8.0198325E-2,-1.9524058E-2,-6.555131E-2,-1.8312238E-1,4.7377963E-2,-5.7525843E-2,2.6988296E-2,-6.117324E-2,5.4705232E-2,-5.124552E-2,-5.5163432E-2,4.2700823E-2,-4.7896378E-2,8.557482E-3],"categories":[],"categories_nodes":[],"categories_segments":[],"categories_sizes":[],"default_left":[0,0,0,0,0,0,0,0,0,0,0,0,0,0,0,0,0,0,0,0,0,0,0,0,0,0,0,0,0],"id":32,"left_children":[1,-1,3,5,-1,7,9,11,13,15,17,19,21,23,25,-1,-1,-1,27,-1,-1,-1,-1,-1,-1,-1,-1,-1,-1],"loss_changes":[5.6977186E0,0E0,3.665902E0,3.9178562E0,0E0,3.410661E0,2.8285625E0,4.6631627E0,6.560848E0,2.0483172E0,8.253703E-1,2.939549E0,4.2206993E0,3.644509E0,3.433694E0,0E0,0E0,0E0,5.6463253E-1,0E0,0E0,0E0,0E0,0E0,0E0,0E0,0E0,0E0,0E0],"parents":[2147483647,0,0,2,2,3,3,5,5,6,6,7,7,8,8,9,9,10,10,11,11,12,12,13,13,14,14,18,18],"right_children":[2,-1,4,6,-1,8,10,12,14,16,18,20,22,24,26,-1,-1,-1,28,-1,-1,-1,-1,-1,-1,-1,-1,-1,-1],"split_conditions":[3.6138977E2,7.149358E-2,5.7752984E7,4.9097647E2,-6.959949E-2,1.031058E2,-7.196277E0,4.56593E7,3.528022E2,6.829052E0,1.873E1,3.6306458E2,7.2E-1,3.334228E0,-2.1807254E8,8.0198325E-2,-1.9524058E-2,-6.555131E-2,-1.3748164E0,4.7377963E-2,-5.7525843E-2,2.6988296E-2,-6.117324E-2,5.4705232E-2,-5.124552E-2,-5.5163432E-2,4.2700823E-2,-4.7896378E-2,8.557482E-3],"split_indices":[3,0,16,3,0,4,27,16,18,28,9,32,31,19,8,0,0,0,19,0,0,0,0,0,0,0,0,0,0],"split_type":[0,0,0,0,0,0,0,0,0,0,0,0,0,0,0,0,0,0,0,0,0,0,0,0,0,0,0,0,0],"sum_hessian":[2.7263864E2,1.4074759E1,2.5856387E2,2.5247305E2,6.090818E0,2.2584286E2,2.6630198E1,1.7709598E2,4.8746883E1,8.193766E0,1.8436432E1,1.502512E1,1.6207086E2,1.9790388E1,2.8956495E1,3.3005607E0,4.893205E0,1.197984E1,6.4565916E0,3.2621531E0,1.1762967E1,1.5660376E2,5.467094E0,1.589459E1,3.8957977E0,2.4965857E1,3.9906394E0,3.2129629E0,3.243629E0],"tree_param":{"num_deleted":"0","num_feature":"41","num_nodes":"29","size_leaf_vector":"1"}},{"base_weights":[2.8924122E-2,-2.4450651E-1,9.242037E-2,4.0480442E-2,-3.3650625E-1,4.99963E-1,3.752201E-2,-5.5258065E-1,-5.237712E-2,6.531667E-1,-0E0,7.7337004E-2,-4.5576707E-1,-6.1783314E-2,-5.1680957E-3,-3.304735E-1,4.0415728E-1,2.8472275E-1,8.9650266E-2,1.2783794E-2,3.931727E-1,-6.2347125E-2,7.699241E-3,2.178481E-2,-6.1846E-2,8.885414E-2,-1.5988356E-2,7.430214E-2,-2.397301E-2,-4.49942E-2,4.3676528E-1,1.8689825E-1,7.963885E-2,4.451299E-3,-4.5754053E-2,-3.2734076E-4,8.613903E-2,7.852157E-2,1.3540158E-3],"categories":[],"categories_nodes":[],"categories_segments":[],"categories_sizes":[],"default_left":[0,0,0,0,0,0,0,0,0,0,0,0,0,0,0,0,0,0,0,0,0,0,0,0,0,0,0,0,0,0,0,0,0,0,0,0,0,0,0],"id":33,"left_children":[1,3,5,-1,7,9,11,13,15,17,-1,19,21,-1,-1,23,25,27,-1,29,31,-1,-1,-1,-1,-1,-1,-1,-1,33,35,37,-1,-1,-1,-1,-1,-1,-1],"loss_changes":[4.5961165E0,2.9793112E0,4.7728004E0,0E0,2.6240644E0,1.9720998E0,3.7074597E0,7.356949E-1,2.4461482E0,1.604805E0,0E0,3.5586376E0,1.3152597E0,0E0,0E0,1.9698023E0,2.0499883E0,2.0070667E0,0E0,3.6412706E0,2.3567371E0,0E0,0E0,0E0,0E0,0E0,0E0,0E0,0E0,4.81493E0,3.4199693E0,1.987386E0,0E0,0E0,0E0,0E0,0E0,0E0,0E0],"parents":[2147483647,0,0,1,1,2,2,4,4,5,5,6,6,7,7,8,8,9,9,11,11,12,12,15,15,16,16,17,17,19,19,20,20,29,29,30,30,31,31],"right_children":[2,4,6,-1,8,10,12,14,16,18,-1,20,22,-1,-1,24,26,28,-1,30,32,-1,-1,-1,-1,-1,-1,-1,-1,34,36,38,-1,-1,-1,-1,-1,-1,-1],"split_conditions":[3.5104282E2,4.3565988E7,3.7062802E0,4.0480442E-2,3.6164243E-2,1.5654742E0,2.969E1,3.2078767E0,4.91E0,-1.2569025E0,-0E0,1.031058E2,-1.4848011E8,-6.1783314E-2,-5.1680957E-3,4.559161E7,1.3283841E-1,4.86704E7,8.9650266E-2,5.382829E2,-5.70584E-1,-6.2347125E-2,7.699241E-3,2.178481E-2,-6.1846E-2,8.885414E-2,-1.5988356E-2,7.430214E-2,-2.397301E-2,2.168978E1,5.36895E-1,1.5266871E1,7.963885E-2,4.451299E-3,-4.5754053E-2,-3.2734076E-4,8.613903E-2,7.852157E-2,1.3540158E-3],"split_indices":[18,16,28,0,26,6,9,27,22,6,0,4,8,0,0,16,26,16,0,18,6,0,0,0,0,0,0,0,0,21,20,21,0,0,0,0,0,0,0],"split_type":[0,0,0,0,0,0,0,0,0,0,0,0,0,0,0,0,0,0,0,0,0,0,0,0,0,0,0,0,0,0,0,0,0,0,0,0,0,0,0],"sum_hessian":[2.6537134E2,4.966058E1,2.1571077E2,5.985992E0,4.3674587E1,2.5295465E1,1.904153E2,2.4554758E1,1.9119827E1,1.9401886E1,5.8935795E0,1.764597E2,1.3955604E1,2.1527388E1,3.027371E0,1.203525E1,7.084578E0,7.966888E0,1.14349985E1,1.468632E2,2.9596497E1,1.0744182E1,3.2114217E0,4.0332065E0,8.002044E0,3.8758533E0,3.208725E0,4.331105E0,3.6357825E0,1.2912082E2,1.7742386E1,1.9840818E1,9.755677E0,1.05975E2,2.3145819E1,8.6461315E0,9.096254E0,4.248393E0,1.5592426E1],