{"learner":{"attributes":{"scikit_learn":"{\"_estimator_type\": \"classifier\"}"},"feature_names":["CSCICP03USM665S","RSXFS","HOUST","DFF","INDPRO","upper_shadow","BAMLH0A0HYM2","sma_10","VIXCLS","atr","ICSA","lower_shadow","bb_position","candle_body","roc_10","sma_200","CPIAUCSL","macd","inflation_yoy","macd_signal","obv","volume_sma_20","volume_roc_10","macd_hist","ad_line","rsi_14","DGS10","UMCSENT","candle_range","volume_ratio","T10Y2Y","DGS2","UNRATE","higher_highs","price_volume_correlation","candle_direction","price_above_sma50","gdp_growth_yoy","lower_lows","price_above_sma20","is_doji"],"feature_types":["float","float","float","float","float","float","float","float","float","float","float","float","float","float","float","float","float","float","float","float","float","float","float","float","float","float","float","float","float","float","float","float","float","float","float","int","int","float","float","int","int"],"gradient_booster":{"model":{"cats":{"enc":[],"feature_segments":[],"sorted_idx":[]},"gbtree_model_param":{"num_parallel_tree":"1","num_trees":"900"},"iteration_indptr":[0,3,6,9,12,15,18,21,24,27,30,33,36,39,42,45,48,51,54,57,60,63,66,69,72,75,78,81,84,87,90,93,96,99,102,105,108,111,114,117,120,123,126,129,132,135,138,141,144,147,150,153,156,159,162,165,168,171,174,177,180,183,186,189,192,195,198,201,204,207,210,213,216,219,222,225,228,231,234,237,240,243,246,249,252,255,258,261,264,267,270,273,276,279,282,285,288,291,294,297,300,303,306,309,312,315,318,321,324,327,330,333,336,339,342,345,348,351,354,357,360,363,366,369,372,375,378,381,384,387,390,393,396,399,402,405,408,411,414,417,420,423,426,429,432,435,438,441,444,447,450,453,456,459,462,465,468,471,474,477,480,483,486,489,492,495,498,501,504,507,510,513,516,519,522,525,528,531,534,537,540,543,546,549,552,555,558,561,564,567,570,573,576,579,582,585,588,591,594,597,600,603,606,609,612,615,618,621,624,627,630,633,636,639,642,645,648,651,654,657,660,663,666,669,672,675,678,681,684,687,690,693,696,699,702,705,708,711,714,717,720,723,726,729,732,735,738,741,744,747,750,753,756,759,762,765,768,771,774,777,780,783,786,789,792,795,798,801,804,807,810,813,816,819,822,825,828,831,834,837,840,843,846,849,852,855,858,861,864,867,870,873,876,879,882,885,888,891,894,897,900],"tree_info":[0,1,2,0,1,2,0,1,2,0,1,2,0,1,2,0,1,2,0,1,2,0,1,2,0,1,2,0,1,2,0,1,2,0,1,2,0,1,2,0,1,2,0,1,2,0,1,2,0,1,2,0,1,2,0,1,2,0,1,2,0,1,2,0,1,2,0,1,2,0,1,2,0,1,2,0,1,2,0,1,2,0,1,2,0,1,2,0,1,2,0,1,2,0,1,2,0,1,2,0,1,2,0,1,2,0,1,2,0,1,2,0,1,2,0,1,2,0,1,2,0,1,2,0,1,2,0,1,2,0,1,2,0,1,2,0,1,2,0,1,2,0,1,2,0,1,2,0,1,2,0,1,2,0,1,2,0,1,2,0,1,2,0,1,2,0,1,2,0,1,2,0,1,2,0,1,2,0,1,2,0,1,2,0,1,2,0,1,2,0,1,2,0,1,2,0,1,2,0,1,2,0,1,2,0,1,2,0,1,2,0,1,2,0,1,2,0,1,2,0,1,2,0,1,2,0,1,2,0,1,2,0,1,2,0,1,2,0,1,2,0,1,2,0,1,2,0,1,2,0,1,2,0,1,2,0,1,2,0,1,2,0,1,2,0,1,2,0,1,2,0,1,2,0,1,2,0,1,2,0,1,2,0,1,2,0,1,2,0,1,2,0,1,2,0,1,2,0,1,2,0,1,2,0,1,2,0,1,2,0,1,2,0,1,2,0,1,2,0,1,2,0,1,2,0,1,2,0,1,2,0,1,2,0,1,2,0,1,2,0,1,2,0,1,2,0,1,2,0,1,2,0,1,2,0,1,2,0,1,2,0,1,2,0,1,2,0,1,2,0,1,2,0,1,2,0,1,2,0,1,2,0,1,2,0,1,2,0,1,2,0,1,2,0,1,2,0,1,2,0,1,2,0,1,2,0,1,2,0,1,2,0,1,2,0,1,2,0,1,2,0,1,2,0,1,2,0,1,2,0,1,2,0,1,2,0,1,2,0,1,2,0,1,2,0,1,2,0,1,2,0,1,2,0,1,2,0,1,2,0,1,2,0,1,2,0,1,2,0,1,2,0,1,2,0,1,2,0,1,2,0,1,2,0,1,2,0,1,2,0,1,2,0,1,2,0,1,2,0,1,2,0,1,2,0,1,2,0,1,2,0,1,2,0,1,2,0,1,2,0,1,2,0,1,2,0,1,2,0,1,2,0,1,2,0,1,2,0,1,2,0,1,2,0,1,2,0,1,2,0,1,2,0,1,2,0,1,2,0,1,2,0,1,2,0,1,2,0,1,2,0,1,2,0,1,2,0,1,2,0,1,2,0,1,2,0,1,2,0,1,2,0,1,2,0,1,2,0,1,2,0,1,2,0,1,2,0,1,2,0,1,2,0,1,2,0,1,2,0,1,2,0,1,2,0,1,2,0,1,2,0,1,2,0,1,2,0,1,2,0,1,2,0,1,2,0,1,2,0,1,2,0,1,2,0,1,2,0,1,2,0,1,2,0,1,2,0,1,2,0,1,2,0,1,2,0,1,2,0,1,2,0,1,2,0,1,2,0,1,2,0,1,2,0,1,2,0,1,2,0,1,2,0,1,2,0,1,2,0,1,2,0,1,2,0,1,2,0,1,2,0,1,2,0,1,2,0,1,2,0,1,2,0,1,2,0,1,2,0,1,2,0,1,2,0,1,2,0,1,2,0,1,2,0,1,2,0,1,2,0,1,2,0,1,2,0,1,2,0,1,2,0,1,2,0,1,2,0,1,2,0,1,2,0,1,2,0,1,2,0,1,2,0,1,2,0,1,2,0,1,2,0,1,2,0,1,2,0,1,2,0,1,2,0,1,2,0,1,2,0,1,2,0,1,2,0,1,2,0,1,2,0,1,2,0,1,2,0,1,2,0,1,2,0,1,2,0,1,2,0,1,2,0,1,2,0,1,2,0,1,2,0,1,2,0,1,2,0,1,2,0,1,2,0,1,2,0,1,2,0,1,2,0,1,2,0,1,2,0,1,2,0,1,2,0,1,2,0,1,2],"trees":[{"base_weights":[3.2778148E-2,-3.3234823E-2,4.989908E-1,-1.3291436E-1,3.3440763E-1,-1.8079501E-1,1.198981E0,-2.507746E-1,4.1355994E-2,4.261848E-2,6.863417E-1,-4.491095E-1,7.0742E-2,1.4778417E-1,6.696978E-1,-3.661721E-1,1.6948807E-1,-6.743044E-2,7.3385185E-1,-6.262614E-2,7.0742E-2,1.249821E0,3.3191538E-1,-6.408262E-2,1.765482E-2,1.1108475E-1,1.765482E-2,-4.1197023E-1,3.4978E-2,1.1581782E-1,-0E0,5.2356803E-1,-2.0339964E-1,-7.2598294E-3,1.0755931E0,4.286622E-1,-2.4918254E-1,7.9941444E-2,1.4576058E-1,-3.1397566E-2,6.648943E-1,7.4454765E-3,-4.9195375E-2,-4.133762E-2,3.224004E-2,-3.8403142E-2,8.375663E-2,-3.3434592E-2,7.242426E-2,1.4222807E-1,7.849479E-2,-1.54952705E-2,1.1108475E-1,-7.2019026E-2,-1.8530323E-3,3.533385E-2,1.1581782E-1],"categories":[],"categories_nodes":[],"categories_segments":[],"categories_sizes":[],"default_left":[0,0,0,0,0,0,0,0,0,0,0,0,0,0,0,0,0,0,0,0,0,0,0,0,0,0,0,0,0,0,0,0,0,0,0,0,0,0,0,0,0,0,0,0,0,0,0,0,0,0,0,0,0,0,0,0,0],"id":0,"left_children":[1,3,5,7,9,11,13,15,17,19,21,23,-1,-1,25,27,29,31,33,35,-1,37,39,-1,-1,-1,-1,41,-1,-1,43,45,47,-1,49,51,53,-1,-1,-1,55,-1,-1,-1,-1,-1,-1,-1,-1,-1,-1,-1,-1,-1,-1,-1,-1],"loss_changes":[8.73659E0,9.043267E0,1.6877674E1,4.0222063E0,5.3197393E0,4.266386E0,2.2592487E0,5.677693E0,5.9716463E0,2.0970724E0,4.524413E0,1.7222888E0,0E0,0E0,1.227001E0,3.0258036E0,4.1854486E0,5.4150105E0,3.075232E0,2.2829306E0,0E0,4.9898624E-1,3.2316556E0,0E0,0E0,0E0,0E0,3.4037027E0,0E0,0E0,2.8695297E0,3.6523242E0,6.69147E0,0E0,4.3899727E-1,2.8067122E0,1.9152063E0,0E0,0E0,0E0,1.3259254E0,0E0,0E0,0E0,0E0,0E0,0E0,0E0,0E0,0E0,0E0,0E0,0E0,0E0,0E0,0E0,0E0],"parents":[2147483647,0,0,1,1,2,2,3,3,4,4,5,5,6,6,7,7,8,8,9,9,10,10,11,11,14,14,15,15,16,16,17,17,18,18,19,19,21,21,22,22,27,27,30,30,31,31,32,32,34,34,35,35,36,36,40,40],"right_children":[2,4,6,8,10,12,14,16,18,20,22,24,-1,-1,26,28,30,32,34,36,-1,38,40,-1,-1,-1,-1,42,-1,-1,44,46,48,-1,50,52,54,-1,-1,-1,56,-1,-1,-1,-1,-1,-1,-1,-1,-1,-1,-1,-1,-1,-1,-1,-1],"split_conditions":[7.532258E0,2.7844408E0,1.7701084E1,2.376673E0,4.25E0,1.1789409E8,-7.601942E7,4.1E0,6.5111536E-1,3.825933E0,4.31E0,1.1959084E1,7.0742E-2,1.4778417E-1,9.891297E1,4.9997538E-1,4.1366803E2,1.0980241E1,3.2819521E0,-4.5539207E0,7.0742E-2,1.359E1,5.95676E5,-6.408262E-2,1.765482E-2,1.1108475E-1,1.765482E-2,4.6893404E7,3.4978E-2,1.1581782E-1,4.021138E1,-9.928902E-1,4.28E0,-7.2598294E-3,1.0359887E0,-6.360349E0,3.6177284E-1,7.9941444E-2,1.4576058E-1,-3.1397566E-2,1.537E1,7.4454765E-3,-4.9195375E-2,-4.133762E-2,3.224004E-2,-3.8403142E-2,8.375663E-2,-3.3434592E-2,7.242426E-2,1.4222807E-1,7.849479E-2,-1.54952705E-2,1.1108475E-1,-7.2019026E-2,-1.8530323E-3,3.533385E-2,1.1581782E-1],"split_indices":[19,13,9,19,26,24,24,32,22,13,26,17,0,0,0,18,15,28,19,17,0,8,1,0,0,0,0,21,0,0,25,23,26,0,29,19,12,0,0,0,8,0,0,0,0,0,0,0,0,0,0,0,0,0,0,0,0],"split_type":[0,0,0,0,0,0,0,0,0,0,0,0,0,0,0,0,0,0,0,0,0,0,0,0,0,0,0,0,0,0,0,0,0,0,0,0,0,0,0,0,0,0,0,0,0,0,0,0,0,0,0,0,0,0,0,0,0],"sum_hessian":[2.8220874E2,2.470993E2,3.5109432E1,1.9465736E2,5.2441936E1,1.7776928E1,1.7332504E1,1.1643888E2,7.821848E1,2.8887508E1,2.355443E1,1.3777119E1,3.9998088E0,1.111058E1,6.221925E0,9.155118E1,2.48877E1,6.755232E1,1.0666157E1,2.48877E1,3.9998088E0,8.888464E0,1.4665966E1,1.0666157E1,3.1109624E0,3.1109624E0,3.1109624E0,8.62181E1,5.3330784E0,3.5553856E0,2.1332314E1,1.244385E1,5.5108475E1,3.1109624E0,7.5551944E0,6.666348E0,1.8221352E1,3.1109624E0,5.7775016E0,4.888655E0,9.77731E0,1.1999426E1,7.421867E1,9.332888E0,1.1999426E1,3.1109624E0,9.332888E0,4.8442127E1,6.666348E0,3.1109624E0,4.444232E0,3.5553856E0,3.1109624E0,5.7775016E0,1.244385E1,6.221925E0,3.5553856E0],"tree_param":{"num_deleted":"0","num_feature":"41","num_nodes":"57","size_leaf_vector":"1"}},{"base_weights":[-1.4361185E-1,-2.261463E-1,4.4181293E-1,1.01346806E-1,-2.4557078E-1,6.8832743E-1,-0E0,-2.7449822E-1,5.2131975E-1,-8.57247E-3,8.447633E-1,-3.2098675E-1,7.242068E-2,8.264976E-2,-2.9489145E-1,1.0844477E-1,-0E0,6.1460435E-1,1.6003482E-1,-4.6543613E-2,-8.57247E-3,-3.1846756E-1,1.682122E-1,6.362156E-3,1.0793414E0,-3.505836E-2,7.341365E-3,6.02757E-2,-6.642472E-2,1.6003482E-1,4.3494556E-2],"categories":[],"categories_nodes":[],"categories_segments":[],"categories_sizes":[],"default_left":[0,0,0,0,0,0,0,0,0,0,0,0,0,0,0,0,0,0,0,0,0,0,0,0,0,0,0,0,0,0,0],"id":1,"left_children":[1,3,5,-1,7,9,11,13,15,-1,17,19,-1,-1,21,-1,-1,23,-1,-1,-1,25,27,-1,29,-1,-1,-1,-1,-1,-1],"loss_changes":[1.2543987E1,5.4371653E0,3.544755E0,0E0,4.9723053E0,2.5851126E0,2.6449437E0,4.8352127E0,2.3650715E0,0E0,2.6895742E0,2.1524483E-1,0E0,0E0,2.3443737E0,0E0,0E0,3.342929E0,0E0,0E0,0E0,2.5824604E0,3.7132444E0,0E0,2.1555023E0,0E0,0E0,0E0,0E0,0E0,0E0],"parents":[2147483647,0,0,1,1,2,2,4,4,5,5,6,6,7,7,8,8,10,10,11,11,14,14,17,17,21,21,22,22,24,24],"right_children":[2,4,6,-1,8,10,12,14,16,-1,18,20,-1,-1,22,-1,-1,24,-1,-1,-1,26,28,-1,30,-1,-1,-1,-1,-1,-1],"split_conditions":[1.0707284E9,-1.8990313E1,2.11E5,1.01346806E-1,3.113E1,-2.9511607E-1,9.03479E-1,-6.0264784E-1,4.18E0,-8.57247E-3,3.5778278E-1,5.7982035E0,7.242068E-2,8.264976E-2,1.9989254E1,1.0844477E-1,-0E0,1.6359041E1,1.6003482E-1,-4.6543613E-2,-8.57247E-3,4.98E0,-2E-1,6.362156E-3,2.415E1,-3.505836E-2,7.341365E-3,6.02757E-2,-6.642472E-2,1.6003482E-1,4.3494556E-2],"split_indices":[20,17,10,0,8,34,12,22,6,0,23,5,0,0,9,0,0,9,0,0,0,31,30,0,8,0,0,0,0,0,0],"split_type":[0,0,0,0,0,0,0,0,0,0,0,0,0,0,0,0,0,0,0,0,0,0,0,0,0,0,0,0,0,0,0],"sum_hessian":[2.5975424E2,2.2786197E2,3.1892282E1,3.3570824E0,2.2450488E2,2.056213E1,1.13301525E1,2.1653181E2,7.9730706E0,3.3570824E0,1.7205048E1,7.9730706E0,3.3570824E0,3.7767177E0,2.127551E2,3.7767177E0,4.196353E0,1.3428329E1,3.7767177E0,4.6159883E0,3.3570824E0,2.0268385E2,1.0071247E1,6.2945294E0,7.1338E0,1.8757698E2,1.5106871E1,6.7141647E0,3.3570824E0,3.7767177E0,3.3570824E0],"tree_param":{"num_deleted":"0","num_feature":"41","num_nodes":"31","size_leaf_vector":"1"}},{"base_weights":[1.5718335E-1,-1.376844E-1,2.599484E-1,2.6174366E-2,-6.2410057E-1,4.4920737E-1,3.1063307E-2,-3.3988783E-1,3.6659792E-1,-7.7689625E-2,-2.3004651E-2,5.76718E-1,-8.266287E-2,1.6076422E-1,-5.5476034E-1,5.9284415E-2,-5.5476034E-1,6.8711585E-1,-2.647621E-1,6.390086E-1,-4.0621307E-2,-4.086104E-1,3.786346E-1,2.839802E-1,-4.7135806E-1,4.8127095E-3,-7.7642895E-2,6.0612153E-2,-3.7198555E-2,-2.9638132E-1,-7.71026E-2,9.696123E-1,-4.8124906E-2,-6.1160218E-2,3.9664533E-2,9.88108E-1,4.1095513E-1,2.5219018E-2,-6.704918E-2,1.0731565E-1,-1.8011114E-2,4.686575E-1,-4.2123553E-1,3.9664533E-2,-7.7192426E-2,-7.482799E-2,1.39086535E-2,3.571373E-2,1.2472401E-1,5.9225213E-2,1.2988128E-1,-1.5730036E-2,6.1579287E-2,1.4939864E-2,7.717962E-2,-6.758751E-2,2.5219018E-2],"categories":[],"categories_nodes":[],"categories_segments":[],"categories_sizes":[],"default_left":[0,0,0,0,0,0,0,0,0,0,0,0,0,0,0,0,0,0,0,0,0,0,0,0,0,0,0,0,0,0,0,0,0,0,0,0,0,0,0,0,0,0,0,0,0,0,0,0,0,0,0,0,0,0,0,0,0],"id":2,"left_children":[1,3,5,7,9,11,13,15,17,-1,-1,19,21,23,25,27,29,31,33,35,-1,37,39,41,43,-1,-1,-1,-1,45,-1,47,-1,-1,-1,49,51,-1,-1,-1,-1,53,55,-1,-1,-1,-1,-1,-1,-1,-1,-1,-1,-1,-1,-1,-1],"loss_changes":[8.876102E0,6.069642E0,9.35576E0,7.034657E0,1.0346222E0,8.097483E0,7.462638E0,2.3731875E0,6.0050898E0,0E0,0E0,5.916588E0,3.4572473E0,6.3003044E0,2.4498677E0,2.261407E0,8.6274004E-1,6.57045E0,2.3073847E0,7.004795E0,0E0,2.408156E0,3.7541096E0,8.87369E0,3.4888911E0,0E0,0E0,0E0,0E0,1.7370667E0,0E0,2.4986439E0,0E0,0E0,0E0,4.0901184E0,6.4499836E0,0E0,0E0,0E0,0E0,5.122999E0,2.4671943E0,0E0,0E0,0E0,0E0,0E0,0E0,0E0,0E0,0E0,0E0,0E0,0E0,0E0,0E0],"parents":[2147483647,0,0,1,1,2,2,3,3,4,4,5,5,6,6,7,7,8,8,11,11,12,12,13,13,14,14,15,15,16,16,17,17,18,18,19,19,21,21,22,22,23,23,24,24,29,29,31,31,35,35,36,36,41,41,42,42],"right_children":[2,4,6,8,10,12,14,16,18,-1,-1,20,22,24,26,28,30,32,34,36,-1,38,40,42,44,-1,-1,-1,-1,46,-1,48,-1,-1,-1,50,52,-1,-1,-1,-1,54,56,-1,-1,-1,-1,-1,-1,-1,-1,-1,-1,-1,-1,-1,-1],"split_conditions":[1.357E3,5.1520603E1,6.226927E8,6.89957E0,1.849E1,2.6462262E0,5.91964E5,1.448E1,-2.5595486E-1,-7.7689625E-2,-2.3004651E-2,1.9743574E1,-1.1E-1,1.7955347E8,-4.642231E0,2.22E5,1.2292305E-1,4.2957816E2,7.213597E8,1.488E3,-4.0621307E-2,-7E-1,7E-2,1.1090879E9,2.58E0,4.8127095E-3,-7.7642895E-2,6.0612153E-2,-3.7198555E-2,5.289245E-2,-7.71026E-2,-8.358392E7,-4.8124906E-2,-6.1160218E-2,3.9664533E-2,1.6138453E1,-5.8610772E7,2.5219018E-2,-6.704918E-2,1.0731565E-1,-1.8011114E-2,4.46E0,4.768348E7,3.9664533E-2,-7.7192426E-2,-7.482799E-2,1.39086535E-2,3.571373E-2,1.2472401E-1,5.9225213E-2,1.2988128E-1,-1.5730036E-2,6.1579287E-2,1.4939864E-2,7.717962E-2,-6.758751E-2,2.5219018E-2],"split_indices":[2,25,20,5,8,23,1,8,14,0,0,9,30,24,14,10,12,7,20,2,0,30,30,20,31,0,0,0,0,12,0,24,0,0,0,9,24,0,0,0,0,6,21,0,0,0,0,0,0,0,0,0,0,0,0,0,0],"split_type":[0,0,0,0,0,0,0,0,0,0,0,0,0,0,0,0,0,0,0,0,0,0,0,0,0,0,0,0,0,0,0,0,0,0,0,0,0,0,0,0,0,0,0,0,0,0,0,0,0,0,0,0,0,0,0,0,0],"sum_hessian":[2.922987E2,7.528202E1,2.170167E2,5.6229164E1,1.9052856E1,1.1849947E2,9.851721E1,2.6952822E1,2.927634E1,1.3476411E1,5.576446E0,9.572899E1,2.2770487E1,8.085847E1,1.7658745E1,9.294077E0,1.7658745E1,1.9517561E1,9.7587805E0,9.015254E1,5.576446E0,1.3476411E1,9.294077E0,6.7846756E1,1.3011707E1,4.6470385E0,1.3011707E1,4.1823344E0,5.111742E0,8.364669E0,9.294077E0,1.5799931E1,3.7176306E0,6.5058537E0,3.2529268E0,3.531749E1,5.4835052E1,3.7176306E0,9.7587805E0,4.1823344E0,5.111742E0,5.3905643E1,1.3941114E1,3.2529268E0,9.7587805E0,4.1823344E0,4.1823344E0,5.111742E0,1.0688188E1,1.5799931E1,1.9517561E1,1.4405819E1,4.0429234E1,2.648812E1,2.7417526E1,1.0223484E1,3.7176306E0],"tree_param":{"num_deleted":"0","num_feature":"41","num_nodes":"57","size_leaf_vector":"1"}},{"base_weights":[8.812564E-3,-1.1214693E-1,2.9845506E-1,-2.4703744E-1,5.6339458E-2,1.8731102E-1,1.1149435E0,5.433627E-1,-3.1185615E-1,-4.782948E-2,6.023423E-1,1.24352485E-1,1.3578564E-1,1.3917194E-1,7.3805586E-2,-3.6203157E-2,1.0741427E-1,4.029091E-1,-3.62542E-1,-1.1502127E-1,7.101258E-2,-3.9454695E-2,8.8772506E-1,5.891652E-1,-7.137211E-2,-3.840795E-2,1.0930582E-1,-7.308212E-2,-2.7770582E-1,4.8419288E-1,-2.1206221E-1,3.2615792E-2,1.3663836E-1,9.004671E-3,9.053241E-1,-1.7146413E-1,8.0249004E-2,2.0733846E-2,-3.4316134E-2,1.9976876E-3,1.3370429E-1,2.7974045E-2,-3.1732112E-2,-7.063531E-2,8.1289284E-2,1.3678366E-1,3.346024E-2,-2.6624316E-2,4.977589E-2],"categories":[],"categories_nodes":[],"categories_segments":[],"categories_sizes":[],"default_left":[0,0,0,0,0,0,0,0,0,0,0,0,0,0,0,0,0,0,0,0,0,0,0,0,0,0,0,0,0,0,0,0,0,0,0,0,0,0,0,0,0,0,0,0,0,0,0,0,0],"id":3,"left_children":[1,3,5,7,9,11,13,15,17,19,21,23,-1,-1,-1,-1,-1,25,27,29,-1,-1,31,33,35,-1,-1,-1,37,39,41,-1,-1,43,45,47,-1,-1,-1,-1,-1,-1,-1,-1,-1,-1,-1,-1,-1],"loss_changes":[1.0115813E1,4.6355095E0,7.5755677E0,5.789394E0,5.179471E0,5.374677E0,7.3511314E-1,4.1917076E0,3.8047705E0,3.7964225E0,4.2342935E0,6.5630226E0,0E0,0E0,0E0,0E0,0E0,3.8342583E0,2.9400206E0,4.0306115E0,0E0,0E0,2.8637476E0,3.824923E0,4.3475504E0,0E0,0E0,0E0,2.5611038E0,3.6577435E0,3.124796E0,0E0,0E0,4.5222363E0,3.4030914E0,2.862663E0,0E0,0E0,0E0,0E0,0E0,0E0,0E0,0E0,0E0,0E0,0E0,0E0,0E0],"parents":[2147483647,0,0,1,1,2,2,3,3,4,4,5,5,6,6,7,7,8,8,9,9,10,10,11,11,17,17,18,18,19,19,22,22,23,23,24,24,28,28,29,29,30,30,33,33,34,34,35,35],"right_children":[2,4,6,8,10,12,14,16,18,20,22,24,-1,-1,-1,-1,-1,26,28,30,-1,-1,32,34,36,-1,-1,-1,38,40,42,-1,-1,44,46,48,-1,-1,-1,-1,-1,-1,-1,-1,-1,-1,-1,-1,-1],"split_conditions":[2.4302871E0,2.376673E0,7E-2,-1.0114546E1,6.720123E-1,7.1968155E1,9.550578E-1,7.360559E-2,1.295E3,4.28E0,1.44E1,1.352E3,1.3578564E-1,1.3917194E-1,7.3805586E-2,-3.6203157E-2,1.0741427E-1,1.651012E0,3.2863842E1,1.0168599E1,7.101258E-2,-3.9454695E-2,5.80943E5,3.14E0,1.0695921E1,-3.840795E-2,1.0930582E-1,-7.308212E-2,2.3654804E-1,6.68754E8,1.357E3,3.2615792E-2,1.3663836E-1,4.0770468E2,3.27E0,1.552E3,8.0249004E-2,2.0733846E-2,-3.4316134E-2,1.9976876E-3,1.3370429E-1,2.7974045E-2,-3.1732112E-2,-7.063531E-2,8.1289284E-2,1.3678366E-1,3.346024E-2,-2.6624316E-2,4.977589E-2],"split_indices":[13,19,30,14,22,25,29,12,2,26,8,2,0,0,0,0,0,13,25,28,0,0,1,6,19,0,0,0,12,20,2,0,0,15,6,2,0,0,0,0,0,0,0,0,0,0,0,0,0],"split_type":[0,0,0,0,0,0,0,0,0,0,0,0,0,0,0,0,0,0,0,0,0,0,0,0,0,0,0,0,0,0,0,0,0,0,0,0,0,0,0,0,0,0,0,0,0,0,0,0,0],"sum_hessian":[2.880071E2,2.029626E2,8.504451E1,1.1302304E2,8.993956E1,7.507094E1,9.973573E0,8.393352E0,1.0462969E2,7.5452484E1,1.448708E1,7.142534E1,3.6456034E0,5.442301E0,4.531272E0,3.044128E0,5.3492236E0,6.7516065E0,9.787808E1,6.9507484E1,5.944995E0,3.1377478E0,1.1349332E1,2.1255953E1,5.016938E1,3.1075115E0,3.644095E0,1.7962324E1,7.991576E1,9.488413E0,6.0019073E1,5.395883E0,5.9534492E0,7.64546E0,1.3610494E1,4.518833E1,4.9810505E0,9.294718E0,7.062104E1,6.2863026E0,3.2021103E0,1.0384347E1,4.9634727E1,3.9860883E0,3.6593719E0,7.3440194E0,6.266474E0,3.9766083E1,5.4222474E0],"tree_param":{"num_deleted":"0","num_feature":"41","num_nodes":"49","size_leaf_vector":"1"}},{"base_weights":[-1.6047662E-1,-2.22496E-1,4.3647704E-1,7.0541024E-2,-2.4199149E-1,6.385914E-1,-1.0984147E-1,-2.557592E-1,5.519232E-2,-2.0622835E-2,8.991332E-1,2.0639982E-2,-4.115857E-2,3.7380376E-1,-2.7400923E-1,2.7457599E-2,1.1238213E0,-6.451521E-3,8.728586E-2,-3.2207245E-1,-6.1751243E-2,1.4521001E-1,6.347424E-2,-3.7681762E-2,-9.841335E-3,-1.6081652E-2,1.0253896E-1],"categories":[],"categories_nodes":[],"categories_segments":[],"categories_sizes":[],"default_left":[0,0,0,0,0,0,0,0,0,0,0,0,0,0,0,0,0,0,0,0,0,0,0,0,0,0,0],"id":4,"left_children":[1,3,5,-1,7,9,11,13,-1,-1,15,-1,-1,17,19,-1,21,-1,-1,23,25,-1,-1,-1,-1,-1,-1],"loss_changes":[9.773155E0,4.3057604E0,2.7934184E0,0E0,2.5518942E0,4.09802E0,6.623497E-1,2.655198E0,0E0,0E0,1.7986622E0,0E0,0E0,1.4859312E0,2.2527542E0,0E0,1.3320913E0,0E0,0E0,2.1878529E0,4.454253E0,0E0,0E0,0E0,0E0,0E0,0E0],"parents":[2147483647,0,0,1,1,2,2,4,4,5,5,6,6,7,7,10,10,13,13,14,14,16,16,19,19,20,20],"right_children":[2,4,6,-1,8,10,12,14,-1,-1,16,-1,-1,18,20,-1,22,-1,-1,24,26,-1,-1,-1,-1,-1,-1],"split_conditions":[1.1090879E9,-1.6132753E1,1.5705826E1,7.0541024E-2,4.2588065E2,1.5526188E1,4.36E0,-2.7522577E-2,5.519232E-2,-2.0622835E-2,4.224744E0,2.0639982E-2,-4.115857E-2,2.9360944E8,4E0,2.7457599E-2,4.8129228E7,-6.451521E-3,8.728586E-2,8.000891E-1,3.018E1,1.4521001E-1,6.347424E-2,-3.7681762E-2,-9.841335E-3,-1.6081652E-2,1.0253896E-1],"split_indices":[20,17,28,0,15,9,31,12,0,0,11,0,0,20,33,0,21,0,0,12,8,0,0,0,0,0,0],"split_type":[0,0,0,0,0,0,0,0,0,0,0,0,0,0,0,0,0,0,0,0,0,0,0,0,0,0,0],"sum_hessian":[2.6419315E2,2.3953712E2,2.4656008E1,4.751208E0,2.3478592E2,1.8118935E1,6.537073E0,2.3097421E2,3.8117085E0,4.185211E0,1.3933723E1,3.0454738E0,3.4915996E0,6.297697E0,2.2467651E2,3.863038E0,1.0070685E1,3.2925498E0,3.0051472E0,1.8276808E2,4.190844E1,5.785786E0,4.2848997E0,1.4641452E2,3.6353558E1,3.8570873E1,3.3375642E0],"tree_param":{"num_deleted":"0","num_feature":"41","num_nodes":"27","size_leaf_vector":"1"}},{"base_weights":[1.440767E-1,-1.1489152E-1,2.6044556E-1,-4.0711096E-1,4.1906226E-2,3.7904188E-1,-7.5816214E-2,-6.942409E-1,-1.5743107E-1,-1.6440961E-1,2.7888876E-1,4.103143E-1,-5.3391427E-2,4.3386114E-1,-3.7821645E-1,-7.574542E-2,-4.124552E-2,4.9017236E-2,-5.0138E-1,7.149697E-2,-2.8717193E-1,1.11075975E-1,-0E0,3.630256E-1,9.954681E-1,1.0015866E0,-1.6406278E-1,4.1974756E-1,-5.924059E-1,-7.310305E-2,-1.6929848E-2,-5.182633E-1,-0E0,1.1979593E-1,-2.692337E-1,2.4108869E-1,6.1701614E-1,5.5044144E-2,1.2542714E-1,3.837883E-2,1.2623322E-1,6.1641555E-2,-7.634983E-2,9.577245E-2,-1.791128E-2,-3.3772767E-1,-7.7032186E-2,-2.971693E-2,-7.501214E-2,-3.250305E-2,7.743936E-2,1.1737416E-2,-5.6459405E-2,5.97847E-2,1.2264534E-2,1.1339649E-1,3.937659E-2,2.4592867E-2,-7.481404E-2],"categories":[],"categories_nodes":[],"categories_segments":[],"categories_sizes":[],"default_left":[0,0,0,0,0,0,0,0,0,0,0,0,0,0,0,0,0,0,0,0,0,0,0,0,0,0,0,0,0,0,0,0,0,0,0,0,0,0,0,0,0,0,0,0,0,0,0,0,0,0,0,0,0,0,0,0,0,0,0],"id":5,"left_children":[1,3,5,7,9,11,13,15,17,19,21,23,-1,25,27,-1,-1,-1,29,-1,31,-1,33,35,37,39,41,43,45,-1,-1,47,49,-1,51,53,55,-1,-1,-1,-1,-1,-1,-1,-1,57,-1,-1,-1,-1,-1,-1,-1,-1,-1,-1,-1,-1,-1],"loss_changes":[9.16243E0,4.340011E0,8.394696E0,2.2709217E0,2.9969866E0,4.441658E0,8.415547E0,1.2147236E-1,4.029692E0,3.4787736E0,6.693819E0,3.9858685E0,0E0,6.9672823E0,5.9218826E0,0E0,0E0,0E0,8.0440855E-1,0E0,1.8721745E0,0E0,6.9274E0,4.2147827E0,1.0196648E0,1.4746199E0,4.6714287E0,2.4274497E0,1.0984488E0,0E0,0E0,6.8088484E-1,3.2653766E0,0E0,2.0693898E0,3.9168758E0,4.9805756E0,0E0,0E0,0E0,0E0,0E0,0E0,0E0,0E0,2.8524065E0,0E0,0E0,0E0,0E0,0E0,0E0,0E0,0E0,0E0,0E0,0E0,0E0,0E0],"parents":[2147483647,0,0,1,1,2,2,3,3,4,4,5,5,6,6,7,7,8,8,9,9,10,10,11,11,13,13,14,14,18,18,20,20,22,22,23,23,24,24,25,25,26,26,27,27,28,28,31,31,32,32,34,34,35,35,36,36,45,45],"right_children":[2,4,6,8,10,12,14,16,18,20,22,24,-1,26,28,-1,-1,-1,30,-1,32,-1,34,36,38,40,42,44,46,-1,-1,48,50,-1,52,54,56,-1,-1,-1,-1,-1,-1,-1,-1,58,-1,-1,-1,-1,-1,-1,-1,-1,-1,-1,-1,-1,-1],"split_conditions":[1.368E3,-7.310575E7,5.9461923E0,7.3666577E0,5.07E0,1.1632904E9,-4.1E-1,2.39E5,4.2268624E8,3.2520554E2,2.5387713E-1,4.96E0,-5.3391427E-2,7.76795E-1,9.622865E1,-7.574542E-2,-4.124552E-2,4.9017236E-2,-9.1142264E7,7.149697E-2,6.543218E0,1.11075975E-1,4.2268624E8,4.55E0,-2.4337876E-1,-3.3815718E-1,1.344E1,8.350535E-1,-3.6345273E-2,-7.310305E-2,-1.6929848E-2,4.44E0,6.6602855E0,1.1979593E-1,2.22E5,2.6123785E2,4.6987522E1,5.5044144E-2,1.2542714E-1,3.837883E-2,1.2623322E-1,6.1641555E-2,-7.634983E-2,9.577245E-2,-1.791128E-2,7.0649996E0,-7.7032186E-2,-2.971693E-2,-7.501214E-2,-3.250305E-2,7.743936E-2,1.1737416E-2,-5.6459405E-2,5.97847E-2,1.2264534E-2,1.1339649E-1,3.937659E-2,2.4592867E-2,-7.481404E-2],"split_indices":[2,24,17,5,3,20,30,10,20,7,12,6,0,12,0,0,0,0,24,0,11,0,20,31,22,22,8,12,22,0,0,6,5,0,10,7,25,0,0,0,0,0,0,0,0,17,0,0,0,0,0,0,0,0,0,0,0,0,0],"split_type":[0,0,0,0,0,0,0,0,0,0,0,0,0,0,0,0,0,0,0,0,0,0,0,0,0,0,0,0,0,0,0,0,0,0,0,0,0,0,0,0,0,0,0,0,0,0,0,0,0,0,0,0,0,0,0,0,0,0,0],"sum_hessian":[3.033554E2,9.378575E1,2.0956964E2,3.2917145E1,6.0868607E1,1.5513846E2,5.4431183E1,1.5041254E1,1.787589E1,3.233049E1,2.8538116E1,1.5015948E2,4.978974E0,2.0129673E1,3.430151E1,1.18575535E1,3.1837008E0,6.085177E0,1.1790713E1,3.8016033E0,2.8528889E1,7.1307945E0,2.1407322E1,1.3923988E2,1.0919609E1,1.0376745E1,9.752928E0,7.1396947E0,2.7161816E1,6.721325E0,5.0693884E0,1.5660178E1,1.28687105E1,3.834447E0,1.7572876E1,9.447332E1,4.4766556E1,4.2722754E0,6.647334E0,3.266933E0,7.109812E0,4.1629796E0,5.589948E0,3.8174272E0,3.3222673E0,1.1521385E1,1.564043E1,8.353736E0,7.306442E0,9.1537695E0,3.7149405E0,7.490274E0,1.0082602E1,2.3236021E1,7.1237305E1,1.3243834E1,3.1522722E1,4.6726847E0,6.8487005E0],"tree_param":{"num_deleted":"0","num_feature":"41","num_nodes":"59","size_leaf_vector":"1"}},{"base_weights":[-0E0,-1.0046105E-1,3.192701E-1,-1.925591E-1,2.385035E-1,7.748459E-2,7.518735E-1,-2.2154377E-1,1.0356271E-1,4.3381298E-1,-3.6456072E-1,-5.816534E-2,1.0112262E-1,1.0503058E0,1.7095107E-1,-1.8222213E-2,-3.120357E-1,-0E0,6.9405234E-1,7.502319E-3,-5.8461886E-2,-1.6454734E-1,1.0210484E-1,1.2977664E-1,5.201737E-2,-5.083087E-2,1.1569931E-1,-3.0767947E-1,4.070359E-1,-3.805587E-1,8.4140494E-2,-3.1765494E-1,8.2483046E-2,-2.2937438E-2,9.129211E-1,-4.5336282E-1,3.019406E-1,-4.246906E-2,4.1783962E-2,-3.6953505E-2,7.141744E-2,-4.8487086E-2,-1.4762121E-2,-1.2225462E-2,8.251358E-2,1.6135985E-2,-5.7231784E-2,2.6944304E-2,1.07549466E-1,-7.191097E-2,-1.4387794E-2,7.4103884E-2,-3.3196848E-2],"categories":[],"categories_nodes":[],"categories_segments":[],"categories_sizes":[],"default_left":[0,0,0,0,0,0,0,0,0,0,0,0,0,0,0,0,0,0,0,0,0,0,0,0,0,0,0,0,0,0,0,0,0,0,0,0,0,0,0,0,0,0,0,0,0,0,0,0,0,0,0,0,0],"id":6,"left_children":[1,3,5,7,9,11,13,15,-1,17,19,21,-1,23,25,27,29,31,33,-1,-1,35,-1,-1,-1,-1,-1,37,39,41,43,45,-1,-1,47,49,51,-1,-1,-1,-1,-1,-1,-1,-1,-1,-1,-1,-1,-1,-1,-1,-1],"loss_changes":[8.970431E0,6.660946E0,6.9064083E0,5.924565E0,5.3701086E0,5.567895E0,3.989048E0,2.9903917E0,0E0,3.8427625E0,1.122845E0,4.257855E0,0E0,1.797369E0,5.693711E0,6.28861E0,3.1110458E0,3.499579E0,4.4228935E0,0E0,0E0,4.673621E0,0E0,0E0,0E0,0E0,0E0,2.6146348E0,4.9706903E0,2.2841568E0,2.6171129E0,1.2074354E0,0E0,0E0,1.661088E0,1.6687145E0,3.714744E0,0E0,0E0,0E0,0E0,0E0,0E0,0E0,0E0,0E0,0E0,0E0,0E0,0E0,0E0,0E0,0E0],"parents":[2147483647,0,0,1,1,2,2,3,3,4,4,5,5,6,6,7,7,9,9,10,10,11,11,13,13,14,14,15,15,16,16,17,17,18,18,21,21,27,27,28,28,29,29,30,30,31,31,34,34,35,35,36,36],"right_children":[2,4,6,8,10,12,14,16,-1,18,20,22,-1,24,26,28,30,32,34,-1,-1,36,-1,-1,-1,-1,-1,38,40,42,44,46,-1,-1,48,50,52,-1,-1,-1,-1,-1,-1,-1,-1,-1,-1,-1,-1,-1,-1,-1,-1],"split_conditions":[5.9461923E0,4.107049E2,1.7704092E1,1.2952328E0,8.797953E0,9.9431026E-1,-2.3E-1,-5.2E-1,1.0356271E-1,4.2E0,3.1608849E1,1.1516148E1,1.0112262E-1,4.75E0,4.2421854E2,-7E-1,1.8985903E1,-5.182348E-1,-1.0511217E1,7.502319E-3,-5.8461886E-2,9.07689E-2,1.0210484E-1,1.2977664E-1,5.201737E-2,-5.083087E-2,1.1569931E-1,9.7937E1,1.3791241E-1,2.8264291E0,5.5394128E-2,3.9669704E0,8.2483046E-2,-2.2937438E-2,9.531703E-1,1.8819544E0,6.364747E0,-4.246906E-2,4.1783962E-2,-3.6953505E-2,7.141744E-2,-4.8487086E-2,-1.4762121E-2,-1.2225462E-2,8.251358E-2,1.6135985E-2,-5.7231784E-2,2.6944304E-2,1.07549466E-1,-7.191097E-2,-1.4387794E-2,7.4103884E-2,-3.3196848E-2],"split_indices":[17,15,9,18,5,12,30,30,0,26,25,19,0,31,15,30,9,17,19,0,0,18,0,0,0,0,0,0,12,19,18,5,0,0,13,13,19,0,0,0,0,0,0,0,0,0,0,0,0,0,0,0,0],"split_type":[0,0,0,0,0,0,0,0,0,0,0,0,0,0,0,0,0,0,0,0,0,0,0,0,0,0,0,0,0,0,0,0,0,0,0,0,0,0,0,0,0,0,0,0,0,0,0,0,0,0,0,0,0],"sum_hessian":[2.8004623E2,2.1326901E2,6.677721E1,1.6796928E2,4.529973E1,4.3059807E1,2.37174E1,1.6425629E2,3.7129972E0,3.436432E1,1.0935408E1,3.7586132E1,5.4736757E0,1.5501173E1,8.216227E0,5.0966827E1,1.1328946E2,1.3022456E1,2.1341864E1,3.5184677E0,7.4169397E0,3.437507E1,3.2110615E0,1.034077E1,5.160404E0,4.8335495E0,3.3826776E0,3.0481804E1,2.0485023E1,9.6802734E1,1.6486727E1,9.385452E0,3.6370044E0,4.0007315E0,1.7341133E1,2.1364748E1,1.3010322E1,2.6402868E1,4.078935E0,5.7077117E0,1.4777311E1,6.649019E1,3.0312548E1,1.2854743E1,3.6319828E0,3.134151E0,6.251301E0,3.6752121E0,1.366592E1,1.1249561E1,1.0115187E1,7.769423E0,5.2408986E0],"tree_param":{"num_deleted":"0","num_feature":"41","num_nodes":"53","size_leaf_vector":"1"}},{"base_weights":[-1.4951177E-1,-3.648526E-2,-2.933942E-1,-2.804404E-1,9.152152E-2,-3.2678694E-1,8.767935E-2,6.9842875E-2,-3.5452947E-1,6.623022E-1,6.0457652E-3,-3.7340203E-1,2.128194E-1,-6.3510215E-1,-1.5928392E-1,1.3333227E-1,2.7749112E-1,9.031365E-2,-4.822432E-2,4.6938654E-2,-4.103369E-1,-4.158487E-2,7.918453E-2,-6.8385825E-2,-3.592083E-2,3.3674005E-2,-2.9059193E-1,-1.3378883E-2,6.552332E-2,6.728304E-2,-9.900327E-2,-4.7073424E-1,-2.2136558E-2,9.945615E-3,-4.4328406E-2,2.4634888E-2,-1.9875942E-2,2.2955194E-2,-5.0824285E-2,7.504871E-2,-2.8938895E-2],"categories":[],"categories_nodes":[],"categories_segments":[],"categories_sizes":[],"default_left":[0,0,0,0,0,0,0,0,0,0,0,0,0,0,0,0,0,0,0,0,0,0,0,0,0,0,0,0,0,0,0,0,0,0,0,0,0,0,0,0,0],"id":7,"left_children":[1,3,5,7,9,11,-1,-1,13,15,17,19,21,23,25,-1,27,-1,29,-1,31,-1,-1,-1,-1,-1,33,-1,-1,-1,35,37,39,-1,-1,-1,-1,-1,-1,-1,-1],"loss_changes":[4.18702E0,4.576666E0,4.4200335E0,3.6523013E0,4.590877E0,2.8107338E0,0E0,0E0,2.4906902E0,2.9734097E0,4.1450534E0,3.1942015E0,3.2384467E0,1.2783384E-1,1.836528E0,0E0,1.3079455E0,0E0,2.8247094E0,0E0,2.2488499E0,0E0,0E0,0E0,0E0,0E0,1.3755777E0,0E0,0E0,0E0,2.5351398E0,2.2625275E0,2.769456E0,0E0,0E0,0E0,0E0,0E0,0E0,0E0,0E0],"parents":[2147483647,0,0,1,1,2,2,3,3,4,4,5,5,8,8,9,9,10,10,11,11,12,12,13,13,14,14,16,16,18,18,20,20,26,26,30,30,31,31,32,32],"right_children":[2,4,6,8,10,12,-1,-1,14,16,18,20,22,24,26,-1,28,-1,30,-1,32,-1,-1,-1,-1,-1,34,-1,-1,-1,36,38,40,-1,-1,-1,-1,-1,-1,-1,-1],"split_conditions":[3.7743665E2,1.1773652E1,4.2588065E2,4.5574036E7,1.2471115E1,1.1335669E1,8.767935E-2,6.9842875E-2,3.787615E0,4.7939405E0,-5.6575704E-1,1.3923085E-1,1.8529234E1,5.22329E0,2.34E0,1.3333227E-1,-1.06101455E-2,9.031365E-2,2.76E0,4.6938654E-2,1.0240529E1,-4.158487E-2,7.918453E-2,-6.8385825E-2,-3.592083E-2,3.3674005E-2,4.1931667E0,-1.3378883E-2,6.552332E-2,6.728304E-2,4.702154E7,-1.00826216E8,6.79E1,9.945615E-3,-4.4328406E-2,2.4634888E-2,-1.9875942E-2,2.2955194E-2,-5.0824285E-2,7.504871E-2,-2.8938895E-2],"split_indices":[7,28,15,21,28,5,0,0,5,5,22,13,9,14,26,0,22,0,26,0,11,0,0,0,0,0,5,0,0,0,21,24,27,0,0,0,0,0,0,0,0],"split_type":[0,0,0,0,0,0,0,0,0,0,0,0,0,0,0,0,0,0,0,0,0,0,0,0,0,0,0,0,0,0,0,0,0,0,0,0,0,0,0,0,0],"sum_hessian":[2.594585E2,1.4576978E2,1.1368873E2,5.0392994E1,9.537678E1,1.1068765E2,3.0010767E0,3.391527E0,4.700147E1,1.2182309E1,8.3194466E1,1.02084946E2,8.60271E0,1.8983805E1,2.8017662E1,4.255448E0,7.926861E0,4.7616887E0,7.843278E1,4.1231728E0,9.796177E1,4.0552573E0,4.547453E0,1.5699123E1,3.2846823E0,5.672276E0,2.2345387E1,3.6991413E0,4.22772E0,4.9499383E0,7.348284E1,8.453129E1,1.3430478E1,6.112111E0,1.6233276E1,1.6211123E1,5.7271717E1,4.135903E0,8.0395386E1,3.3090522E0,1.0121426E1],"tree_param":{"num_deleted":"0","num_feature":"41","num_nodes":"41","size_leaf_vector":"1"}},{"base_weights":[1.2025707E-1,1.7398396E-1,-3.4566587E-1,2.2532108E-1,-3.1576705E-1,4.583628E-2,-4.6499875E-1,2.5217408E-1,-6.1626423E-2,2.3519835E-2,-4.8966855E-1,-5.799056E-1,1.2828276E-2,5.3047676E-2,3.620322E-1,-7.33567E-2,-1.9812858E-1,-7.013623E-1,1.2529249E-2,-3.5643056E-1,1.8802173E-1,7.281463E-1,2.121608E-1,-5.4910865E-2,3.918203E-2,-4.09986E-2,-7.496596E-2,8.13905E-3,-5.692477E-2,1.0841433E-2,1.0248017E-1,1.06452726E-1,2.6238073E-2,8.4439114E-2,1.3322177E-2],"categories":[],"categories_nodes":[],"categories_segments":[],"categories_sizes":[],"default_left":[0,0,0,0,0,0,0,0,0,0,0,0,0,0,0,0,0,0,0,0,0,0,0,0,0,0,0,0,0,0,0,0,0,0,0],"id":8,"left_children":[1,3,5,7,9,-1,11,13,-1,-1,15,17,-1,19,21,-1,23,25,-1,27,29,31,33,-1,-1,-1,-1,-1,-1,-1,-1,-1,-1,-1,-1],"loss_changes":[7.4275045E0,6.703413E0,2.9545496E0,5.43985E0,2.4476514E0,0E0,1.8777299E0,5.083106E0,0E0,0E0,1.2642493E0,2.0010571E0,0E0,4.6193285E0,8.158686E0,0E0,1.9241028E0,1.2638283E-1,0E0,1.9743567E0,4.088649E0,6.6598835E0,5.2437553E0,0E0,0E0,0E0,0E0,0E0,0E0,0E0,0E0,0E0,0E0,0E0,0E0],"parents":[2147483647,0,0,1,1,2,2,3,3,4,4,6,6,7,7,10,10,11,11,13,13,14,14,16,16,17,17,19,19,20,20,21,21,22,22],"right_children":[2,4,6,8,10,-1,12,14,-1,-1,16,18,-1,20,22,-1,24,26,-1,28,30,32,34,-1,-1,-1,-1,-1,-1,-1,-1,-1,-1,-1,-1],"split_conditions":[1.9263773E1,1.1090879E9,4.2268624E8,4.2421854E2,4.8447645E-1,4.583628E-2,4.82E0,-5.8801496E7,-6.1626423E-2,2.3519835E-2,7.236292E0,1.2595854E0,1.2828276E-2,3.83E0,4.6316486E1,-7.33567E-2,4.9138376E7,4.813317E-1,1.2529249E-2,1.2939266E1,2.049E1,0E0,5.82E1,-5.4910865E-2,3.918203E-2,-4.09986E-2,-7.496596E-2,8.13905E-3,-5.692477E-2,1.0841433E-2,1.0248017E-1,1.06452726E-1,2.6238073E-2,8.4439114E-2,1.3322177E-2],"split_indices":[9,20,20,15,13,0,31,24,0,0,5,29,0,26,25,0,21,13,0,28,8,30,27,0,0,0,0,0,0,0,0,0,0,0,0],"split_type":[0,0,0,0,0,0,0,0,0,0,0,0,0,0,0,0,0,0,0,0,0,0,0,0,0,0,0,0,0,0,0,0,0,0,0],"sum_hessian":[2.9705902E2,2.6659454E2,3.046448E1,2.4153438E2,2.5060156E1,3.792134E0,2.6672346E1,2.3424892E2,7.285469E0,5.8657236E0,1.9194433E1,2.2487726E1,4.18462E0,8.366256E1,1.5058635E2,1.01818285E1,9.012605E0,1.930514E1,3.1825871E0,2.051627E1,6.3146294E1,4.3432922E1,1.07153435E2,5.7613916E0,3.2512133E0,3.174264E0,1.6130875E1,6.577168E0,1.3939101E1,5.7872986E1,5.273308E0,2.5019974E1,1.8412947E1,1.1645668E1,9.550777E1],"tree_param":{"num_deleted":"0","num_feature":"41","num_nodes":"35","size_leaf_vector":"1"}},{"base_weights":[9.364713E-3,-1.0203417E-1,2.1817933E-1,5.048391E-1,-1.3820238E-1,7.247142E-2,7.013746E-1,1.271702E-1,-1.6638627E-2,-1.6020958E-1,9.205481E-2,2.0590076E-1,-5.631601E-1,-2.2236777E-2,9.0716076E-1,-4.6134287E-1,-9.2198014E-2,-4.3711495E-2,4.30632E-1,-7.059836E-2,-7.2028614E-3,1.0656744E0,5.4493126E-2,-5.6888133E-1,4.248801E-2,-1.2229572E-1,7.721163E-2,1.926552E-1,-6.1124515E-2,1.19451866E-1,7.6849425E-1,1.19291864E-1,6.562514E-2,-3.1067653E-2,-7.108812E-2,1.6092462E-2,-2.0782357E-2,5.1867183E-2,-2.6950179E-2,4.013162E-2,-3.1128427E-2,1.1845894E-1,4.671482E-2],"categories":[],"categories_nodes":[],"categories_segments":[],"categories_sizes":[],"default_left":[0,0,0,0,0,0,0,0,0,0,0,0,0,0,0,0,0,0,0,0,0,0,0,0,0,0,0,0,0,0,0,0,0,0,0,0,0,0,0,0,0,0,0],"id":9,"left_children":[1,3,5,7,9,11,13,-1,-1,15,-1,17,19,-1,21,23,25,27,29,-1,-1,31,-1,33,-1,35,-1,37,-1,39,41,-1,-1,-1,-1,-1,-1,-1,-1,-1,-1,-1,-1],"loss_changes":[6.5175385E0,3.9668436E0,6.789792E0,5.334182E0,3.9479918E0,6.3592863E0,4.3551636E0,0E0,0E0,3.3963819E0,0E0,3.5415356E0,8.2584715E-1,0E0,8.410082E-1,2.9733186E0,3.535706E0,4.004023E0,3.3780446E0,0E0,0E0,3.904295E-1,0E0,8.878937E-1,0E0,3.244348E0,0E0,3.1640327E0,0E0,2.144108E0,1.7454567E0,0E0,0E0,0E0,0E0,0E0,0E0,0E0,0E0,0E0,0E0,0E0,0E0],"parents":[2147483647,0,0,1,1,2,2,3,3,4,4,5,5,6,6,9,9,11,11,12,12,14,14,15,15,16,16,17,17,18,18,21,21,23,23,25,25,27,27,29,29,30,30],"right_children":[2,4,6,8,10,12,14,-1,-1,16,-1,18,20,-1,22,24,26,28,30,-1,-1,32,-1,34,-1,36,-1,38,-1,40,42,-1,-1,-1,-1,-1,-1,-1,-1,-1,-1,-1,-1],"split_conditions":[3.910375E2,-9.904659E0,6.7773786E8,4E0,1.2952328E0,7.9E1,-1.2616395E0,1.271702E-1,-1.6638627E-2,2.5029234E8,9.205481E-2,4.3864858E8,2.8105232E-1,-2.2236777E-2,3.347751E-2,5.3690588E7,5E0,1.8792257E1,1.0164067E0,-7.059836E-2,-7.2028614E-3,4.92E0,5.4493126E-2,8.371355E-2,4.248801E-2,1.08768635E1,7.721163E-2,-5.8801496E7,-6.1124515E-2,5.619678E8,1.5677523E1,1.19291864E-1,6.562514E-2,-3.1067653E-2,-7.108812E-2,1.6092462E-2,-2.0782357E-2,5.1867183E-2,-2.6950179E-2,4.013162E-2,-3.1128427E-2,1.1845894E-1,4.671482E-2],"split_indices":[7,14,20,38,18,27,19,0,0,20,0,20,23,0,18,21,31,9,29,0,0,31,0,23,0,28,0,24,0,20,28,0,0,0,0,0,0,0,0,0,0,0,0],"split_type":[0,0,0,0,0,0,0,0,0,0,0,0,0,0,0,0,0,0,0,0,0,0,0,0,0,0,0,0,0,0,0,0,0,0,0,0,0,0,0,0,0,0,0],"sum_hessian":[2.7948807E2,1.819782E2,9.750988E1,1.000707E1,1.7197113E2,7.516559E1,2.234429E1,4.698565E0,5.3085046E0,1.6864499E2,3.3261359E0,6.2310535E1,1.2855058E1,3.9808543E0,1.8363436E1,3.0693848E1,1.3795114E2,2.9348406E1,3.2962128E1,9.767317E0,3.0877407E0,1.2446508E1,5.9169273E0,2.750492E1,3.188929E0,1.3350374E2,4.447404E0,2.0641483E1,8.706923E0,1.7383135E1,1.5578994E1,9.163104E0,3.2834053E0,1.0122225E1,1.7382694E1,3.0673368E1,1.0283037E2,1.2223137E1,8.418346E0,1.0651812E1,6.7313223E0,6.281134E0,9.297859E0],"tree_param":{"num_deleted":"0","num_feature":"41","num_nodes":"43","size_leaf_vector":"1"}},{"base_weights":[-1.3307495E-1,-1.8123455E-1,3.398326E-1,-2.0670487E-1,4.2709926E-1,-4.7726315E-2,5.3965646E-1,3.730391E-1,-2.3319349E-1,-3.8082864E-2,9.367368E-2,1.1177136E-1,2.9745504E-1,8.508091E-2,-0E0,1.896344E-1,-2.5789207E-1,7.5049317E-1,-3.6347542E-2,6.628424E-1,-4.7354896E-2,-3.12013E-1,-2.0961845E-3,2.8580863E-3,1.313003E-1,4.6691904E-3,1.3088603E-1,-3.2801766E-2,4.809165E-2,-1.8384201E-2,3.0152192E-2],"categories":[],"categories_nodes":[],"categories_segments":[],"categories_sizes":[],"default_left":[0,0,0,0,0,0,0,0,0,0,0,0,0,0,0,0,0,0,0,0,0,0,0,0,0,0,0,0,0,0,0],"id":10,"left_children":[1,3,5,7,9,-1,11,13,15,-1,-1,-1,17,-1,-1,19,21,23,-1,25,-1,27,29,-1,-1,-1,-1,-1,-1,-1,-1],"loss_changes":[6.0746202E0,3.74752E0,4.0378E0,3.5756636E0,4.0558724E0,0E0,2.6055374E0,1.7873405E0,2.3428955E0,0E0,0E0,0E0,4.3336806E0,0E0,0E0,3.8644311E0,2.891942E0,3.345796E0,0E0,2.7331696E0,0E0,2.2082596E0,2.0520427E0,0E0,0E0,0E0,0E0,0E0,0E0,0E0,0E0],"parents":[2147483647,0,0,1,1,2,2,3,3,4,4,6,6,7,7,8,8,12,12,15,15,16,16,17,17,19,19,21,21,22,22],"right_children":[2,4,6,8,10,-1,12,14,16,-1,-1,-1,18,-1,-1,20,22,24,-1,26,-1,28,30,-1,-1,-1,-1,-1,-1,-1,-1],"split_conditions":[1.1090879E9,1.9989254E1,-2.964092E-1,-7.022057E6,-1.8005624E0,-4.7726315E-2,-1.3625841E-1,6.5494984E-2,5.2073663E-1,-3.8082864E-2,9.367368E-2,1.1177136E-1,4.36E0,8.508091E-2,-0E0,5.6084587E1,1.584E3,1.6127134E1,-3.6347542E-2,2.6104233E0,-4.7354896E-2,4.84E0,1.16417055E1,2.8580863E-3,1.313003E-1,4.6691904E-3,1.3088603E-1,-3.2801766E-2,4.809165E-2,-1.8384201E-2,3.0152192E-2],"split_indices":[20,9,34,20,23,0,34,34,29,0,0,0,31,0,0,25,2,9,0,19,0,26,9,0,0,0,0,0,0,0,0],"split_type":[0,0,0,0,0,0,0,0,0,0,0,0,0,0,0,0,0,0,0,0,0,0,0,0,0,0,0,0,0,0,0],"sum_hessian":[2.670487E2,2.4261465E2,2.4434065E1,2.3308598E2,9.528668E0,4.675655E0,1.9758411E1,9.962302E0,2.2312367E2,3.6195912E0,5.9090776E0,5.605506E0,1.41529045E1,4.3035054E0,5.6587973E0,1.2053682E1,2.1106999E2,8.478811E0,5.6740932E0,7.1224017E0,4.93128E0,1.7386992E2,3.7200077E1,3.8371527E0,4.641659E0,3.7795832E0,3.3428185E0,1.7061102E2,3.2588985E0,2.3501116E1,1.3698959E1],"tree_param":{"num_deleted":"0","num_feature":"41","num_nodes":"31","size_leaf_vector":"1"}},{"base_weights":[9.511454E-2,1.2787388E-1,-4.4773662E-1,-1.0417922E-1,1.9425017E-1,6.176436E-3,-6.5692656E-2,-4.1240135E-1,1.2744729E-1,1.0170819E-1,1.7016736E-1,3.8589474E-2,-5.328237E-1,3.958212E-1,-2.988401E-1,-6.332763E-2,2.0092978E-1,9.33561E-4,-6.8934906E-1,8.433955E-1,3.801645E-2,-6.338098E-1,5.1704068E-2,4.608869E-1,1.07222944E-1,-7.428963E-2,-3.8832005E-2,1.101254E-1,3.3937354E-2,9.344295E-2,-3.816838E-2,-7.352289E-2,-3.7928697E-2,-3.8607076E-2,5.689902E-2,1.8507164E-2,-2.8964901E-2],"categories":[],"categories_nodes":[],"categories_segments":[],"categories_sizes":[],"default_left":[0,0,0,0,0,0,0,0,0,0,0,0,0,0,0,0,0,0,0,0,0,0,0,0,0,0,0,0,0,0,0,0,0,0,0,0,0],"id":11,"left_children":[1,3,5,7,9,-1,-1,11,13,-1,15,-1,17,19,21,-1,23,-1,25,27,29,31,-1,33,35,-1,-1,-1,-1,-1,-1,-1,-1,-1,-1,-1,-1],"loss_changes":[5.0996895E0,4.2019796E0,1.7958643E0,4.33499E0,4.0638285E0,0E0,0E0,2.5403447E0,3.9443579E0,0E0,5.0647445E0,0E0,2.0029697E0,3.3083436E0,3.6410756E0,0E0,4.7796736E0,0E0,1.454668E-1,1.0275712E0,4.615595E0,1.0489869E-1,0E0,4.833084E0,4.521159E0,0E0,0E0,0E0,0E0,0E0,0E0,0E0,0E0,0E0,0E0,0E0,0E0],"parents":[2147483647,0,0,1,1,2,2,3,3,4,4,7,7,8,8,10,10,12,12,13,13,14,14,16,16,18,18,19,19,20,20,21,21,23,23,24,24],"right_children":[2,4,6,8,10,-1,-1,12,14,-1,16,-1,18,20,22,-1,24,-1,26,28,30,32,-1,34,36,-1,-1,-1,-1,-1,-1,-1,-1,-1,-1,-1,-1],"split_conditions":[1.9780676E1,1.357E3,-5.083127E0,6.89957E0,-1.17825165E1,6.176436E-3,-6.5692656E-2,2.7932164E-1,-2.5595486E-1,1.0170819E-1,-9.61761E0,3.8589474E-2,8.096782E-1,1.461E1,8.476211E0,-6.332763E-2,-8.839394E-1,9.33561E-4,1.94E1,-2.8557746E0,3.8307278E2,3E0,5.1704068E-2,1.368E3,3.3948398E-1,-7.428963E-2,-3.8832005E-2,1.101254E-1,3.3937354E-2,9.344295E-2,-3.816838E-2,-7.352289E-2,-3.7928697E-2,-3.8607076E-2,5.689902E-2,1.8507164E-2,-2.8964901E-2],"split_indices":[9,2,14,5,19,0,0,13,14,0,17,0,29,8,11,0,23,0,8,14,7,38,0,2,18,0,0,0,0,0,0,0,0,0,0,0,0],"split_type":[0,0,0,0,0,0,0,0,0,0,0,0,0,0,0,0,0,0,0,0,0,0,0,0,0,0,0,0,0,0,0,0,0,0,0,0,0],"sum_hessian":[2.881427E2,2.7198965E2,1.6153057E1,6.0147835E1,2.1184181E2,4.583053E0,1.1570004E1,2.5958675E1,3.418916E1,5.788598E0,2.060532E2,3.2648275E0,2.2693848E1,2.1128937E1,1.3060225E1,7.406375E0,1.9864684E2,4.962012E0,1.7731836E1,9.202469E0,1.1926467E1,9.361592E0,3.6986322E0,5.2246902E1,1.4639993E2,1.4647374E1,3.0844612E0,5.878248E0,3.32422E0,3.840147E0,8.086321E0,6.278184E0,3.0834084E0,5.780013E0,4.646689E1,1.2264731E2,2.3752628E1],"tree_param":{"num_deleted":"0","num_feature":"41","num_nodes":"37","size_leaf_vector":"1"}},{"base_weights":[-0E0,-1.8601893E-1,1.4659105E-1,1.0782589E-1,-2.903293E-1,9.3366987E-1,9.833042E-2,-1.9411793E-1,6.326769E-1,-3.397744E-1,5.948313E-2,1.1773979E-1,4.369438E-2,4.591137E-2,8.6800086E-1,-5.9190094E-2,6.1858714E-2,9.544311E-1,-0E0,6.236556E-3,-4.5080945E-1,-4.223523E-2,3.7314367E-1,4.020525E-2,1.1952328E-1,6.0407598E-2,-3.934292E-1,1.2257742E-1,4.6704106E-2,9.0826654E-1,-3.800561E-1,-5.12247E-1,2.4342556E-2,-8.3865374E-2,1.0257273E-1,7.004097E-1,1.2313851E-1,-6.31991E-3,-6.735851E-2,4.4444375E-2,1.3049735E-1,-5.3675767E-2,1.8988987E-2,-5.5232894E-2,1.872011E-2,8.059708E-2,-6.890676E-2,-2.8251646E-2,1.058795E-2,2.9407148E-3,9.4977364E-2,5.5116277E-2,-2.2881445E-2],"categories":[],"categories_nodes":[],"categories_segments":[],"categories_sizes":[],"default_left":[0,0,0,0,0,0,0,0,0,0,0,0,0,0,0,0,0,0,0,0,0,0,0,0,0,0,0,0,0,0,0,0,0,0,0,0,0,0,0,0,0,0,0,0,0,0,0,0,0,0,0,0,0],"id":12,"left_children":[1,3,5,7,9,11,13,15,17,19,-1,-1,-1,21,23,-1,25,27,-1,29,31,33,35,-1,-1,-1,37,-1,-1,39,41,43,45,47,-1,49,51,-1,-1,-1,-1,-1,-1,-1,-1,-1,-1,-1,-1,-1,-1,-1,-1],"loss_changes":[7.770997E0,3.873159E0,5.937566E0,5.245276E0,4.065956E0,8.852215E-1,5.968619E0,2.1686401E0,2.541411E0,3.436037E0,0E0,0E0,0E0,4.1001587E0,1.2340813E0,0E0,3.1449347E0,8.4573984E-1,0E0,7.5177636E0,2.007266E0,4.8442965E0,2.3767104E0,0E0,0E0,0E0,5.4991865E-1,0E0,0E0,9.63264E-1,1.3777013E0,1.7166481E0,4.297154E0,4.0503125E0,0E0,2.052318E0,2.6650352E0,0E0,0E0,0E0,0E0,0E0,0E0,0E0,0E0,0E0,0E0,0E0,0E0,0E0,0E0,0E0,0E0],"parents":[2147483647,0,0,1,1,2,2,3,3,4,4,5,5,6,6,7,7,8,8,9,9,13,13,14,14,16,16,17,17,19,19,20,20,21,21,22,22,26,26,29,29,30,30,31,31,32,32,33,33,35,35,36,36],"right_children":[2,4,6,8,10,12,14,16,18,20,-1,-1,-1,22,24,-1,26,28,-1,30,32,34,36,-1,-1,-1,38,-1,-1,40,42,44,46,48,-1,50,52,-1,-1,-1,-1,-1,-1,-1,-1,-1,-1,-1,-1,-1,-1,-1,-1],"split_conditions":[3.678511E2,3.9669704E0,2.91E0,1.4874166E8,1.7181187E1,4E0,7.1968155E1,-7.78605E-1,-1.8174922E-1,4.768348E7,5.948313E-2,1.1773979E-1,4.369438E-2,1.030951E2,1.0408393E0,-5.9190094E-2,5.1324464E7,3.347751E-2,-0E0,3.6E0,6.5111536E-1,4.602313E2,-1.5372257E-1,4.020525E-2,1.1952328E-1,6.0407598E-2,3.25E0,1.2257742E-1,4.6704106E-2,2.7096173E-1,1.6581511E-2,1.13956995E1,4.34E0,2.0023155E0,1.0257273E-1,3.338386E1,6.89957E0,-6.31991E-3,-6.735851E-2,4.4444375E-2,1.3049735E-1,-5.3675767E-2,1.8988987E-2,-5.5232894E-2,1.872011E-2,8.059708E-2,-6.890676E-2,-2.8251646E-2,1.058795E-2,2.9407148E-3,9.4977364E-2,5.5116277E-2,-2.2881445E-2],"split_indices":[7,5,6,24,9,38,25,23,23,21,0,0,0,4,29,0,21,18,0,32,22,7,34,0,0,0,6,0,0,12,34,17,6,13,0,25,5,0,0,0,0,0,0,0,0,0,0,0,0,0,0,0,0],"split_type":[0,0,0,0,0,0,0,0,0,0,0,0,0,0,0,0,0,0,0,0,0,0,0,0,0,0,0,0,0,0,0,0,0,0,0,0,0,0,0,0,0,0,0,0,0,0,0,0,0,0,0,0,0],"sum_hessian":[2.8473773E2,1.25565384E2,1.5917233E2,3.2644104E1,9.292128E1,8.970264E0,1.5020207E2,2.0641596E1,1.2002508E1,8.817065E1,4.750629E0,5.790632E0,3.1796322E0,1.4084557E2,9.356514E0,8.1837015E0,1.2457893E1,8.007904E0,3.9946039E0,2.1224363E1,6.694628E1,1.1078491E2,3.0060646E1,4.0781126E0,5.2784014E0,5.771448E0,6.686445E0,4.9149494E0,3.092955E0,6.401051E0,1.4823313E1,5.9460625E1,7.48566E0,1.0680726E2,3.9776602E0,1.2767442E1,1.7293205E1,3.2890377E0,3.3974075E0,3.1648605E0,3.2361906E0,1.1768851E1,3.0544617E0,5.6393024E1,3.067601E0,3.6327426E0,3.8529172E0,5.241263E1,5.4394627E1,3.5981498E0,9.1692915E0,7.9059663E0,9.3872385E0],"tree_param":{"num_deleted":"0","num_feature":"41","num_nodes":"53","size_leaf_vector":"1"}},{"base_weights":[-1.1126654E-1,5.6762487E-1,-1.3035443E-1,1.1029201E-1,-4.8929723E-3,2.939335E-1,-1.6591099E-1,1.0643112E-1,4.828404E-2,-1.987791E-1,1.8569975E-1,4.8275706E-1,-4.9764935E-2,-2.2376545E-1,2.9936898E-1,-1.4986083E-1,6.9521576E-1,1.20136514E-1,-5.0563845E-3,-3.5271135E-1,-1.3504578E-1,-2.4993459E-2,8.5507564E-2,4.2209275E-2,-5.2035134E-2,-2.6882112E-3,1.1744898E-1,-1.8152243E-2,-5.2339513E-2,-1.8561803E-2,4.1155964E-2],"categories":[],"categories_nodes":[],"categories_segments":[],"categories_sizes":[],"default_left":[0,0,0,0,0,0,0,0,0,0,0,0,0,0,0,0,0,0,0,0,0,0,0,0,0,0,0,0,0,0,0],"id":13,"left_children":[1,3,5,-1,-1,7,9,-1,11,13,15,17,-1,19,21,23,25,-1,-1,27,29,-1,-1,-1,-1,-1,-1,-1,-1,-1,-1],"loss_changes":[3.2245717E0,2.3408957E0,3.6879334E0,0E0,0E0,3.434062E0,2.620543E0,0E0,3.444889E0,2.579155E0,3.3372536E0,3.2588902E0,0E0,2.2073545E0,3.058691E0,2.4694004E0,2.7951486E0,0E0,0E0,2.2584686E0,3.2385826E0,0E0,0E0,0E0,0E0,0E0,0E0,0E0,0E0,0E0,0E0],"parents":[2147483647,0,0,1,1,2,2,5,5,6,6,8,8,9,9,10,10,11,11,13,13,14,14,15,15,16,16,19,19,20,20],"right_children":[2,4,6,-1,-1,8,10,-1,12,14,16,18,-1,20,22,24,26,-1,-1,28,30,-1,-1,-1,-1,-1,-1,-1,-1,-1,-1],"split_conditions":[-6.002714E-1,2.17E5,2.828932E1,1.1029201E-1,-4.8929723E-3,-1.504179E-1,1.712E3,1.0643112E-1,1.028003E2,1.9989254E1,1.0980241E1,1.5674491E1,-4.9764935E-2,5.0231003E1,-1.3497308E0,8.319732E-1,1.735E3,1.20136514E-1,-5.0563845E-3,1.368E3,1.0347274E1,-2.4993459E-2,8.5507564E-2,4.2209275E-2,-5.2035134E-2,-2.6882112E-3,1.1744898E-1,-1.8152243E-2,-5.2339513E-2,-1.8561803E-2,4.1155964E-2],"split_indices":[22,10,25,0,0,34,2,0,4,9,28,9,0,25,23,13,2,0,0,2,5,0,0,0,0,0,0,0,0,0,0],"split_type":[0,0,0,0,0,0,0,0,0,0,0,0,0,0,0,0,0,0,0,0,0,0,0,0,0,0,0,0,0,0,0],"sum_hessian":[2.5153957E2,6.6570864E0,2.4488248E2,3.6079538E0,3.0491328E0,1.8661394E1,2.2622108E2,4.332852E0,1.4328542E1,2.0718185E2,1.903922E1,8.087204E0,6.2413373E0,1.9752989E2,9.651972E0,1.1403408E1,7.6358128E0,3.4716592E0,4.615545E0,7.993174E1,1.1759815E2,4.7911253E0,4.8608465E0,4.371288E0,7.03212E0,3.000641E0,4.635172E0,4.030234E1,3.9629395E1,1.078672E2,9.730947E0],"tree_param":{"num_deleted":"0","num_feature":"41","num_nodes":"31","size_leaf_vector":"1"}},{"base_weights":[8.85835E-2,4.3475884E-1,2.2421341E-2,6.81619E-1,-9.73758E-2,4.634283E-1,-2.7300812E-2,5.0197726E-1,1.1290278E-1,8.0026075E-2,-5.448041E-1,6.8903005E-1,-9.919013E-2,3.6543585E-2,-3.6314353E-1,4.0835172E-2,8.30275E-1,-7.3381096E-2,-1.0357769E-2,1.6714357E-1,1.0694958E-1,-7.282166E-2,4.0440496E-2,3.8408983E-1,-5.6508295E-2,-7.222897E-2,-1.7967097E-1,4.208378E-2,-3.969063E-2,2.4830382E-2,1.01858675E-1,-1.4150168E-2,5.867488E-2,5.303714E-1,-7.200035E-2,8.427841E-2,-2.8467572E-1,-3.3238986E-1,3.615118E-2,-3.2280937E-2,6.522413E-2,1.9676305E-2,-2.5272487E-2,-3.5390843E-2,5.154064E-2,-5.378638E-2,3.578598E-2],"categories":[],"categories_nodes":[],"categories_segments":[],"categories_sizes":[],"default_left":[0,0,0,0,0,0,0,0,0,0,0,0,0,0,0,0,0,0,0,0,0,0,0,0,0,0,0,0,0,0,0,0,0,0,0,0,0,0,0,0,0,0,0,0,0,0,0],"id":14,"left_children":[1,3,5,7,9,11,13,15,-1,-1,17,19,21,23,25,27,29,-1,-1,31,-1,-1,-1,33,35,-1,37,-1,-1,-1,-1,-1,-1,39,-1,41,43,45,-1,-1,-1,-1,-1,-1,-1,-1,-1],"loss_changes":[6.6289935E0,6.1760397E0,5.4182377E0,2.3456411E0,5.9224133E0,3.243874E0,4.7535005E0,3.4087706E0,0E0,0E0,7.379954E-1,3.4347992E0,2.3194609E0,6.0110264E0,2.230688E0,1.6565872E0,1.3132553E0,0E0,0E0,1.0660579E0,0E0,0E0,0E0,6.361106E0,4.7003126E0,0E0,1.9728557E0,0E0,0E0,0E0,0E0,0E0,0E0,3.6734705E0,0E0,3.4058561E0,3.0963674E0,2.6932788E0,0E0,0E0,0E0,0E0,0E0,0E0,0E0,0E0,0E0],"parents":[2147483647,0,0,1,1,2,2,3,3,4,4,5,5,6,6,7,7,10,10,11,11,12,12,13,13,14,14,15,15,16,16,19,19,23,23,24,24,26,26,33,33,35,35,36,36,37,37],"right_children":[2,4,6,8,10,12,14,16,-1,-1,18,20,22,24,26,28,30,-1,-1,32,-1,-1,-1,34,36,-1,38,-1,-1,-1,-1,-1,-1,40,-1,42,44,46,-1,-1,-1,-1,-1,-1,-1,-1,-1],"split_conditions":[2.402053E8,6.16833E5,2.7932164E-1,1.6101633E1,7E-2,5.9461923E0,1.8985903E1,1.78E1,1.1290278E-1,8.0026075E-2,1.7413982E1,1.0462873E-1,4.26E0,1.448E1,6.325553E0,1.615E1,3.2672226E0,-7.3381096E-2,-1.0357769E-2,6.3336275E8,1.0694958E-1,-7.282166E-2,4.0440496E-2,6.837324E1,1.6148169E1,-7.222897E-2,-2.3E-1,4.208378E-2,-3.969063E-2,2.4830382E-2,1.01858675E-1,-1.4150168E-2,5.867488E-2,3.558937E0,-7.200035E-2,5.0940595E0,5.01E0,4.42E0,3.615118E-2,-3.2280937E-2,6.522413E-2,1.9676305E-2,-2.5272487E-2,-3.5390843E-2,5.154064E-2,-5.378638E-2,3.578598E-2],"split_indices":[20,1,13,9,30,17,9,8,0,0,9,13,6,8,5,8,11,0,0,20,0,0,0,25,9,0,30,0,0,0,0,0,0,11,0,17,6,26,0,0,0,0,0,0,0,0,0],"split_type":[0,0,0,0,0,0,0,0,0,0,0,0,0,0,0,0,0,0,0,0,0,0,0,0,0,0,0,0,0,0,0,0,0,0,0,0,0,0,0,0,0,0,0,0,0,0,0],"sum_hessian":[2.913675E2,4.641984E1,2.4494765E2,3.1818771E1,1.46010685E1,2.4938309E1,2.2000934E2,2.3013996E1,8.804776E0,4.7563863E0,9.844682E0,1.791138E1,7.026929E0,1.8469063E2,3.531871E1,9.744068E0,1.3269927E1,6.687167E0,3.1575146E0,7.723623E0,1.01877575E1,3.1928272E0,3.8341017E0,3.9166546E1,1.4552408E2,1.1658523E1,2.3660189E1,5.3403907E0,4.4036775E0,3.430616E0,9.839312E0,4.351089E0,3.3725336E0,3.4710304E1,4.4562416E0,8.976249E1,5.576159E1,1.8627087E1,5.0331025E0,4.215213E0,3.049509E1,6.755305E1,2.2209446E1,5.148706E1,4.274527E0,1.4482793E1,4.1442943E0],"tree_param":{"num_deleted":"0","num_feature":"41","num_nodes":"47","size_leaf_vector":"1"}},{"base_weights":[-3.6859763E-4,-4.900852E-2,4.6779788E-1,-7.3008135E-2,8.675544E-2,-5.074166E-2,6.971691E-1,-6.849291E-2,-4.476436E-2,1.1258103E-1,4.7735605E-1,-6.920045E-2,6.5037984E-1,-3.129425E-2,9.069712E-1,-9.925315E-3,-4.5361343E-1,5.496488E-4,1.1120456E-1,-4.117534E-2,3.007237E-2,5.7106763E-2,1.1232974E-1,-4.1846376E-2,3.9867833E-3,-5.2399278E-2,1.0726295E-2],"categories":[],"categories_nodes":[],"categories_segments":[],"categories_sizes":[],"default_left":[0,0,0,0,0,0,0,0,0,0,0,0,0,0,0,0,0,0,0,0,0,0,0,0,0,0,0],"id":15,"left_children":[1,3,5,7,-1,-1,9,-1,11,-1,13,15,17,19,21,23,25,-1,-1,-1,-1,-1,-1,-1,-1,-1,-1],"loss_changes":[6.2888184E0,5.4709625E0,5.863854E0,4.172183E0,0E0,0E0,1.7788477E0,0E0,3.9420114E0,0E0,3.2173367E0,5.1362157E0,2.227276E0,8.498755E-1,3.3808756E-1,4.0551834E0,1.2378621E0,0E0,0E0,0E0,0E0,0E0,0E0,0E0,0E0,0E0,0E0],"parents":[2147483647,0,0,1,1,2,2,3,3,6,6,8,8,10,10,11,11,12,12,13,13,14,14,15,15,16,16],"right_children":[2,4,6,8,-1,-1,10,-1,12,-1,14,16,18,20,22,24,26,-1,-1,-1,-1,-1,-1,-1,-1,-1,-1],"split_conditions":[4.330449E2,4.2245303E2,4.0954618E8,-1.17825165E1,8.675544E-2,-5.074166E-2,-3.4E-1,-6.849291E-2,6.16833E5,1.1258103E-1,1.2532759E0,7.01E1,2.4738957E-1,1.543E1,4.605034E0,2.5029234E8,7.2523283E8,5.496488E-4,1.1120456E-1,-4.117534E-2,3.007237E-2,5.7106763E-2,1.1232974E-1,-4.1846376E-2,3.9867833E-3,-5.2399278E-2,1.0726295E-2],"split_indices":[7,15,20,19,0,0,30,0,1,0,14,27,12,8,14,20,20,0,0,0,0,0,0,0,0,0,0],"split_type":[0,0,0,0,0,0,0,0,0,0,0,0,0,0,0,0,0,0,0,0,0,0,0,0,0,0,0],"sum_hessian":[2.77808E2,2.5193634E2,2.587167E1,2.4570387E2,6.232462E0,4.820256E0,2.1051413E1,1.05815525E1,2.3512233E2,6.8420796E0,1.4209333E1,2.2736382E2,7.758516E0,6.4420757E0,7.7672577E0,1.9730309E2,3.0060722E1,3.369536E0,4.38898E0,3.1312041E0,3.3108716E0,3.366353E0,4.4009047E0,2.1572756E1,1.7573033E2,2.687348E1,3.1872437E0],"tree_param":{"num_deleted":"0","num_feature":"41","num_nodes":"27","size_leaf_vector":"1"}},{"base_weights":[-1.2522899E-1,-1.7363793E-1,1.9922787E-1,-7.312614E-2,-3.6410335E-1,-3.5627127E-2,7.207576E-1,-4.6760646E-1,8.712885E-3,-4.577403E-1,-8.147018E-2,3.1615704E-1,-3.1205535E-1,1.2420978E-1,3.6780503E-1,-6.027205E-1,-2.027216E-1,-3.5029024E-2,7.379651E-1,1.7478831E-2,-5.156881E-1,6.591834E-2,-2.684704E-1,-3.7894927E-2,7.126709E-2,1.0887069E-2,-6.852966E-2,8.092196E-2,-6.1780135E-3,-6.6318415E-2,-3.051351E-2,4.7071256E-2,-6.3772224E-2,1.3647148E-1,-2.2500974E-1,1.13920346E-1,2.0989576E-2,-5.0686978E-2,-5.8064437E-1,2.7156373E-2,-5.5653834E-1,-4.711599E-3,4.753433E-2,-3.2286007E-2,3.279283E-2,4.449659E-2,-6.1984163E-2,-2.1163084E-2,-6.200282E-2,-6.492161E-2,-3.0269066E-2],"categories":[],"categories_nodes":[],"categories_segments":[],"categories_sizes":[],"default_left":[0,0,0,0,0,0,0,0,0,0,0,0,0,0,0,0,0,0,0,0,0,0,0,0,0,0,0,0,0,0,0,0,0,0,0,0,0,0,0,0,0,0,0,0,0,0,0,0,0,0,0],"id":16,"left_children":[1,3,5,7,9,11,13,15,17,19,21,23,25,-1,27,29,31,33,35,-1,37,-1,39,-1,-1,-1,-1,-1,-1,-1,-1,-1,-1,41,43,-1,-1,45,47,-1,49,-1,-1,-1,-1,-1,-1,-1,-1,-1,-1],"loss_changes":[3.8505595E0,4.042752E0,3.941486E0,4.5752234E0,1.885252E0,2.1245806E0,1.6239128E0,7.774563E-1,3.7753704E0,2.0538225E0,2.5626612E0,2.6681232E0,2.01158E0,0E0,1.253271E0,1.6723967E-1,2.5701072E0,3.5785758E0,1.2612104E0,0E0,1.456954E0,0E0,2.3887577E0,0E0,0E0,0E0,0E0,0E0,0E0,0E0,0E0,0E0,0E0,3.6109416E0,2.8370767E0,0E0,0E0,1.8727057E0,5.438242E-1,0E0,1.2005162E-1,0E0,0E0,0E0,0E0,0E0,0E0,0E0,0E0,0E0,0E0],"parents":[2147483647,0,0,1,1,2,2,3,3,4,4,5,5,6,6,7,7,8,8,9,9,10,10,11,11,12,12,14,14,15,15,16,16,17,17,18,18,20,20,22,22,33,33,34,34,37,37,38,38,40,40],"right_children":[2,4,6,8,10,12,14,16,18,20,22,24,26,-1,28,30,32,34,36,-1,38,-1,40,-1,-1,-1,-1,-1,-1,-1,-1,-1,-1,42,44,-1,-1,46,48,-1,50,-1,-1,-1,-1,-1,-1,-1,-1,-1,-1],"split_conditions":[1.0626783E9,2.218842E0,1.6504602E1,1.0359859E1,8.027311E-1,3.58E0,-5.3E-1,2.8759712E-1,3.096E1,2.5066664E1,-4.7E-1,-3.9727497E-1,5.4931874E0,1.2420978E-1,5.357354E-1,1.5230976E1,4.08E0,7.8335375E-1,1.2597612E1,1.7478831E-2,2.479916E0,6.591834E-2,5.2899837E0,-3.7894927E-2,7.126709E-2,1.0887069E-2,-6.852966E-2,8.092196E-2,-6.1780135E-3,-6.6318415E-2,-3.051351E-2,4.7071256E-2,-6.3772224E-2,4.668521E1,1.8349003E0,1.13920346E-1,2.0989576E-2,-1.4394157E-1,2E0,2.7156373E-2,7.6791987E0,-4.711599E-3,4.753433E-2,-3.2286007E-2,3.279283E-2,4.449659E-2,-6.1984163E-2,-2.1163084E-2,-6.200282E-2,-6.492161E-2,-3.0269066E-2],"split_indices":[20,13,9,28,12,26,30,22,8,25,30,22,11,0,12,9,6,17,28,0,11,0,5,0,0,0,0,0,0,0,0,0,0,25,13,0,0,22,38,0,17,0,0,0,0,0,0,0,0,0,0],"split_type":[0,0,0,0,0,0,0,0,0,0,0,0,0,0,0,0,0,0,0,0,0,0,0,0,0,0,0,0,0,0,0,0,0,0,0,0,0,0,0,0,0,0,0,0,0,0,0,0,0,0,0],"sum_hessian":[2.4499799E2,2.1349869E2,3.1499302E1,1.4018443E2,7.331425E1,2.1650904E1,9.848399E0,2.4214808E1,1.15969635E2,5.475728E1,1.8556973E1,9.361402E0,1.2289503E1,3.7597284E0,6.0886703E0,1.5700924E1,8.513884E0,1.0936763E2,6.6020045E0,4.4337215E0,5.0323555E1,3.5820909E0,1.4974882E1,3.3103838E0,6.0510173E0,5.683168E0,6.6063347E0,3.0742133E0,3.014457E0,1.2668114E1,3.0328107E0,3.247799E0,5.266084E0,5.721761E1,5.2150017E1,3.578151E0,3.0238538E0,6.378614E0,4.3944942E1,5.0904756E0,9.884407E0,3.69763E1,2.024131E1,4.4497932E1,7.6520863E0,3.3272088E0,3.0514054E0,4.5441556E0,3.9400787E1,6.8381605E0,3.046246E0],"tree_param":{"num_deleted":"0","num_feature":"41","num_nodes":"51","size_leaf_vector":"1"}},{"base_weights":[1.1188829E-1,-1.513552E-1,1.9224012E-1,9.236938E-2,-3.375585E-1,2.3966862E-1,-4.6821564E-1,8.631298E-1,-1.8474874E-1,-4.747733E-1,1.3472992E-1,3.548559E-1,5.272665E-2,2.0561311E-2,-6.49173E-1,1.1478193E-1,4.552011E-2,2.7602032E-1,-5.009248E-1,-0E0,-6.006685E-1,8.582388E-2,-3.2579463E-2,2.601173E-1,8.857307E-1,5.1080495E-1,-3.710984E-2,-7.28694E-2,-3.7511528E-2,8.1636176E-2,-6.519438E-3,-7.0647515E-2,8.612662E-3,-3.9430127E-2,3.727591E-2,-2.8389567E-1,-7.131057E-2,1.757912E-1,6.790699E-1,5.222852E-1,1.0858615E-1,1.2131533E-1,1.0371949E-1,-1.2566212E-1,4.3828723E-1,-6.7699805E-2,1.1475683E-2,7.606201E-3,6.9840424E-2,1.4995913E-2,9.7948514E-2,-1.4107195E-2,1.0814511E-1,-3.1019E-2,5.6374233E-2,-1.67124E-3,-6.9056325E-2,8.983151E-2,-1.7147457E-2],"categories":[],"categories_nodes":[],"categories_segments":[],"categories_sizes":[],"default_left":[0,0,0,0,0,0,0,0,0,0,0,0,0,0,0,0,0,0,0,0,0,0,0,0,0,0,0,0,0,0,0,0,0,0,0,0,0,0,0,0,0,0,0,0,0,0,0,0,0,0,0,0,0,0,0,0,0,0,0],"id":17,"left_children":[1,3,5,7,9,11,13,15,17,19,21,23,25,-1,27,-1,-1,29,31,33,35,-1,-1,37,39,41,43,-1,-1,-1,-1,-1,-1,-1,-1,45,-1,47,49,51,-1,53,-1,55,57,-1,-1,-1,-1,-1,-1,-1,-1,-1,-1,-1,-1,-1,-1],"loss_changes":[6.1991825E0,3.123856E0,7.0244703E0,6.362207E0,2.5633054E0,4.474595E0,1.8796744E0,7.033472E-1,3.184243E0,1.8108535E0,2.972703E0,6.3730507E0,3.3589969E0,0E0,1.2206125E-1,0E0,0E0,1.6898342E0,1.6342578E0,9.659225E-1,7.342081E-1,0E0,0E0,3.794012E0,1.193696E0,2.6139808E0,2.8011177E0,0E0,0E0,0E0,0E0,0E0,0E0,0E0,0E0,1.1110475E0,0E0,4.7136836E0,2.7688599E0,2.8021712E0,0E0,1.5529698E0,0E0,3.427708E0,3.002297E0,0E0,0E0,0E0,0E0,0E0,0E0,0E0,0E0,0E0,0E0,0E0,0E0,0E0,0E0],"parents":[2147483647,0,0,1,1,2,2,3,3,4,4,5,5,6,6,7,7,8,8,9,9,10,10,11,11,12,12,14,14,17,17,18,18,19,19,20,20,23,23,24,24,25,25,26,26,35,35,37,37,38,38,39,39,41,41,43,43,44,44],"right_children":[2,4,6,8,10,12,14,16,18,20,22,24,26,-1,28,-1,-1,30,32,34,36,-1,-1,38,40,42,44,-1,-1,-1,-1,-1,-1,-1,-1,46,-1,48,50,52,-1,54,-1,56,58,-1,-1,-1,-1,-1,-1,-1,-1,-1,-1,-1,-1,-1,-1],"split_conditions":[1.357E3,1.461E1,1.1090879E9,3.109877E-1,1.071855E9,7.510218E-1,3.8350567E-1,4.8736252E7,2.22E5,7.360559E-2,6.205764E-1,6.1398533E1,2.5029234E8,2.0561311E-2,8.263043E0,1.1478193E-1,4.552011E-2,5.2023152E8,1.1845109E-1,2.5029234E8,1.7413982E1,8.582388E-2,-3.2579463E-2,2.28E5,2.2903762E0,1.667248E0,4.87E0,-7.28694E-2,-3.7511528E-2,8.1636176E-2,-6.519438E-3,-7.0647515E-2,8.612662E-3,-3.9430127E-2,3.727591E-2,5.3501062E0,-7.131057E-2,3.0824786E-1,-5.640603E7,7.403416E0,1.0858615E-1,1.694E1,1.0371949E-1,4.31E0,9.375282E-1,-6.7699805E-2,1.1475683E-2,7.606201E-3,6.9840424E-2,1.4995913E-2,9.7948514E-2,-1.4107195E-2,1.0814511E-1,-3.1019E-2,5.6374233E-2,-1.67124E-3,-6.9056325E-2,8.983151E-2,-1.7147457E-2],"split_indices":[2,8,20,12,20,12,12,21,10,12,12,25,20,0,5,0,0,20,34,20,9,0,0,10,14,13,6,0,0,0,0,0,0,0,0,11,0,34,24,17,0,8,0,6,12,0,0,0,0,0,0,0,0,0,0,0,0,0,0],"split_type":[0,0,0,0,0,0,0,0,0,0,0,0,0,0,0,0,0,0,0,0,0,0,0,0,0,0,0,0,0,0,0,0,0,0,0,0,0,0,0,0,0,0,0,0,0,0,0,0,0,0,0,0,0,0,0,0,0,0,0],"sum_hessian":[2.9264563E2,6.812524E1,2.245204E2,2.9294512E1,3.8830727E1,2.0967816E2,1.4842236E1,7.786626E0,2.1507885E1,3.0252594E1,8.578131E0,1.2935146E2,8.032671E1,3.0222132E0,1.1820022E1,4.334855E0,3.451771E0,8.629045E0,1.287884E1,6.371E0,2.3881596E1,3.3872933E0,5.1908374E0,1.1004963E2,1.930182E1,1.3276103E1,6.7050606E1,8.7502575E0,3.0697641E0,3.3994908E0,5.2295537E0,9.64999E0,3.2288501E0,3.1005478E0,3.270452E0,6.5814247E0,1.730017E1,9.192731E1,1.8122328E1,7.159865E0,1.2141955E1,7.810173E0,5.46593E0,5.6761547E1,1.0289063E1,3.4049263E0,3.1764984E0,7.7453E1,1.4474301E1,6.737897E0,1.1384431E1,3.2272284E0,3.9326363E0,3.854595E0,3.955578E0,4.7818924E1,8.942622E0,5.9310937E0,4.3579693E0],"tree_param":{"num_deleted":"0","num_feature":"41","num_nodes":"59","size_leaf_vector":"1"}},{"base_weights":[4.7027513E-2,-3.3468422E-1,1.0068483E-1,5.7761174E-2,-4.4709426E-1,-8.883148E-2,2.1680795E-1,-6.257194E-1,-2.471355E-1,-1.4586386E-1,4.9768052E-1,7.089729E-2,4.760281E-1,-3.460877E-2,-6.8606935E-2,3.2005467E-2,-4.509186E-1,-3.6353117E-1,3.7878092E-2,8.707632E-2,1.9746186E-2,2.1070974E-2,9.416621E-2,-4.9655523E-2,5.7877254E-1,-6.917577E-2,1.280835E-2,4.7954235E-2,-5.259324E-1,-4.4928953E-2,9.586736E-2,1.0120209E-1,-2.0395119E-2,1.1213645E-1,6.967451E-1,5.188035E-2,-4.8774753E-2,-6.1387014E-2,5.657848E-3,1.46209225E-2,-3.8720958E-2,6.764527E-2,-8.697742E-3,-6.8011485E-2,6.0691066E-2,9.238867E-2,4.5064244E-2],"categories":[],"categories_nodes":[],"categories_segments":[],"categories_sizes":[],"default_left":[0,0,0,0,0,0,0,0,0,0,0,0,0,0,0,0,0,0,0,0,0,0,0,0,0,0,0,0,0,0,0,0,0,0,0,0,0,0,0,0,0,0,0,0,0,0,0],"id":18,"left_children":[1,3,5,-1,7,9,11,13,15,17,19,21,23,-1,-1,-1,25,27,29,-1,-1,31,-1,-1,33,-1,-1,35,37,39,-1,-1,41,43,45,-1,-1,-1,-1,-1,-1,-1,-1,-1,-1,-1,-1],"loss_changes":[5.680617E0,3.5093958E0,5.3918242E0,0E0,9.869952E-1,3.068714E0,5.6856885E0,1.3942719E-1,1.7410207E0,3.417612E0,7.800375E-1,4.1332846E0,5.4758844E0,0E0,0E0,0E0,1.6099465E0,2.6555204E0,3.5816152E0,0E0,0E0,3.9005806E0,0E0,0E0,2.6289825E0,0E0,0E0,2.7902677E0,1.500432E0,2.7737179E0,0E0,0E0,4.064727E0,4.0527644E0,2.013033E0,0E0,0E0,0E0,0E0,0E0,0E0,0E0,0E0,0E0,0E0,0E0,0E0],"parents":[2147483647,0,0,1,1,2,2,4,4,5,5,6,6,7,7,8,8,9,9,10,10,11,11,12,12,16,16,17,17,18,18,21,21,24,24,27,27,28,28,29,29,32,32,33,33,34,34],"right_children":[2,4,6,-1,8,10,12,14,16,18,20,22,24,-1,-1,-1,26,28,30,-1,-1,32,-1,-1,34,-1,-1,36,38,40,-1,-1,42,44,46,-1,-1,-1,-1,-1,-1,-1,-1,-1,-1,-1,-1],"split_conditions":[3.5567915E-1,3.8631773E0,4.8448547E8,5.7761174E-2,2.4460852E0,6.22396E5,5.91964E5,2.2719942E-1,3.3093407E0,9.495555E-1,1.6852864E0,1.1959084E1,1.600151E-1,-3.460877E-2,-6.8606935E-2,3.2005467E-2,8.797953E0,2.1440247E-1,7.061699E1,8.707632E-2,1.9746186E-2,1.0753576E1,9.416621E-2,-4.9655523E-2,-1.4145256E0,-6.917577E-2,1.280835E-2,-5.85002E0,3.2570224E0,6.628554E-1,9.586736E-2,1.0120209E-1,-5.907585E0,3.14E0,5.841883E1,5.188035E-2,-4.8774753E-2,-6.1387014E-2,5.657848E-3,1.46209225E-2,-3.8720958E-2,6.764527E-2,-8.697742E-3,-6.8011485E-2,6.0691066E-2,9.238867E-2,4.5064244E-2],"split_indices":[13,5,20,0,19,1,1,12,19,29,13,17,12,0,0,0,5,12,25,0,0,9,0,0,17,0,0,17,19,23,0,0,17,6,25,0,0,0,0,0,0,0,0,0,0,0,0],"split_type":[0,0,0,0,0,0,0,0,0,0,0,0,0,0,0,0,0,0,0,0,0,0,0,0,0,0,0,0,0,0,0,0,0,0,0,0,0,0,0,0,0,0,0,0,0,0,0],"sum_hessian":[2.782298E2,3.3996357E1,2.4423346E2,3.5864058E0,3.0409952E1,9.247459E1,1.5175887E2,1.5685188E1,1.4724764E1,8.4503136E1,7.97145E0,9.743018E1,5.4328682E1,3.1979463E0,1.2487242E1,3.747252E0,1.0977512E1,3.8884983E1,4.5618153E1,3.3211334E0,4.650316E0,9.236235E1,5.067835E0,5.061331E0,4.9267353E1,7.860945E0,3.1165671E0,1.0849552E1,2.8035433E1,4.184184E1,3.7763133E0,3.7125053E0,8.864984E1,1.0152442E1,3.911491E1,5.8753247E0,4.9742274E0,2.4502708E1,3.5327234E0,2.669808E1,1.514376E1,7.520693E0,8.112915E1,3.8108275E0,6.3416142E0,1.998652E1,1.912839E1],"tree_param":{"num_deleted":"0","num_feature":"41","num_nodes":"47","size_leaf_vector":"1"}},{"base_weights":[-1.3207808E-1,-2.0265156E-1,2.517578E-1,8.959177E-2,-2.5960642E-1,3.3855906E-1,-4.075345E-2,7.652444E-2,-3.3464592E-2,-1.8148467E-1,-4.7461802E-1,7.210699E-1,1.3999763E-1,7.768465E-2,-6.1548825E-2,-5.4117635E-2,-3.9362553E-1,-5.605036E-1,-1.0220206E-1,3.0820994E-2,1.1008257E-1,8.7457046E-2,-2.3463529E-2,-2.7377227E-1,3.3332375E-1,3.53123E-1,-1.294942E-1,-2.0135252E-1,-5.720256E-1,-9.794283E-3,-6.065281E-1,-4.4861194E-2,3.7117485E-2,1.873043E-1,-4.0288955E-1,-6.618981E-2,1.4062287E-2,8.068343E-2,-2.117957E-2,-3.472347E-2,6.6129304E-2,1.3486375E-2,-2.7509553E-2,2.6442608E-2,-3.7652176E-2,-6.479981E-2,-2.925474E-2,-6.3310035E-2,-2.9522482E-2,4.5610573E-2,-4.1500278E-2,-6.583824E-2,-4.898545E-3],"categories":[],"categories_nodes":[],"categories_segments":[],"categories_sizes":[],"default_left":[0,0,0,0,0,0,0,0,0,0,0,0,0,0,0,0,0,0,0,0,0,0,0,0,0,0,0,0,0,0,0,0,0,0,0,0,0,0,0,0,0,0,0,0,0,0,0,0,0,0,0,0,0],"id":19,"left_children":[1,3,5,7,9,11,-1,-1,13,15,17,19,21,23,-1,25,27,29,31,-1,-1,-1,33,35,37,39,41,43,45,-1,47,-1,-1,49,51,-1,-1,-1,-1,-1,-1,-1,-1,-1,-1,-1,-1,-1,-1,-1,-1,-1,-1],"loss_changes":[6.6319127E0,3.465928E0,2.1727505E0,2.8661416E0,2.8418818E0,2.4582095E0,0E0,0E0,1.8932892E0,3.407392E0,1.3949842E0,1.5962815E0,2.781096E0,2.149649E0,0E0,2.446922E0,1.5456195E0,7.119274E-1,1.4896576E0,0E0,0E0,0E0,1.4955988E0,1.652816E0,3.6808996E0,2.72203E0,2.6363883E0,1.9269081E0,4.0491056E-1,0E0,1.6527748E-1,0E0,0E0,1.9153285E0,5.3636587E-1,0E0,0E0,0E0,0E0,0E0,0E0,0E0,0E0,0E0,0E0,0E0,0E0,0E0,0E0,0E0,0E0,0E0,0E0],"parents":[2147483647,0,0,1,1,2,2,3,3,4,4,5,5,8,8,9,9,10,10,11,11,12,12,13,13,15,15,16,16,17,17,18,18,22,22,23,23,24,24,25,25,26,26,27,27,28,28,30,30,33,33,34,34],"right_children":[2,4,6,8,10,12,-1,-1,14,16,18,20,22,24,-1,26,28,30,32,-1,-1,-1,34,36,38,40,42,44,46,-1,48,-1,-1,50,52,-1,-1,-1,-1,-1,-1,-1,-1,-1,-1,-1,-1,-1,-1,-1,-1,-1,-1],"split_conditions":[1.03011475E9,3.338386E1,-2.1E-1,-1.8132001E-1,7.111254E8,3.6E0,-4.075345E-2,7.652444E-2,7.4E1,2.1754003E0,6.7938835E1,3.347751E-2,4.537272E7,1.2442279E-1,-6.1548825E-2,3.9393964E0,4.18E0,-6.726303E0,1.391E3,3.0820994E-2,1.1008257E-1,8.7457046E-2,7.9056044E0,1.7344799E0,5.031096E7,3.7446349E0,1.377E3,4.4989815E0,5.0787148E7,-9.794283E-3,4.2512225E2,-4.4861194E-2,3.7117485E-2,1.1665079E9,5.1334496E1,-6.618981E-2,1.4062287E-2,8.068343E-2,-2.117957E-2,-3.472347E-2,6.6129304E-2,1.3486375E-2,-2.7509553E-2,2.6442608E-2,-3.7652176E-2,-6.479981E-2,-2.925474E-2,-6.3310035E-2,-2.9522482E-2,4.5610573E-2,-4.1500278E-2,-6.583824E-2,-4.898545E-3],"split_indices":[20,25,30,34,20,26,0,0,27,13,25,18,21,12,0,11,26,17,2,0,0,0,5,13,21,5,2,11,21,0,7,0,0,20,25,0,0,0,0,0,0,0,0,0,0,0,0,0,0,0,0,0,0],"split_type":[0,0,0,0,0,0,0,0,0,0,0,0,0,0,0,0,0,0,0,0,0,0,0,0,0,0,0,0,0,0,0,0,0,0,0,0,0,0,0,0,0,0,0,0,0,0,0,0,0,0,0,0,0],"sum_hessian":[2.4471564E2,2.0696925E2,3.7746395E1,3.346135E1,1.735079E2,3.353196E1,4.2144337E0,5.200159E0,2.826119E1,1.2774342E2,4.576447E1,1.1196376E1,2.2335585E1,2.3658045E1,4.6031466E0,8.01932E1,4.7550224E1,3.6928986E1,8.835485E0,5.5773373E0,5.619039E0,4.097718E0,1.8237867E1,9.794345E0,1.38637E1,1.2260056E1,6.793314E1,2.3257528E1,2.4292698E1,3.5668256E0,3.336216E1,5.2269583E0,3.6085272E0,1.1587944E1,6.649923E0,5.151241E0,4.643104E0,7.491632E0,6.3720675E0,3.6432068E0,8.616848E0,2.388586E1,4.4047287E1,6.1862717E0,1.7071257E1,1.8715473E1,5.577224E0,3.034718E1,3.0149798E0,8.143785E0,3.4441586E0,3.647848E0,3.002075E0],"tree_param":{"num_deleted":"0","num_feature":"41","num_nodes":"53","size_leaf_vector":"1"}},{"base_weights":[8.309644E-2,1.1188068E-1,-6.0801464E-1,3.04371E-1,1.8831452E-2,-6.890611E-2,-3.4045067E-2,1.3416058E-1,5.995517E-1,-2.6567703E-1,7.8845024E-2,9.227799E-2,-2.1894699E-2,-0E0,6.9206357E-1,1.686331E-1,-5.308442E-1,1.165046E-1,-5.4103446E-1,-1.8191515E-1,3.9282322E-1,8.0533296E-1,-3.971152E-3,7.49955E-2,-4.1840076E-1,-0E0,-6.476531E-1,4.8671346E-2,5.384721E-1,-1.1499298E-2,-7.451879E-2,3.6644682E-2,-3.0165434E-2,7.716203E-2,-7.621763E-2,1.1546738E-2,9.219693E-2,-9.865752E-3,-6.974374E-2,-1.9010572E-2,-7.461295E-2,-1.7738383E-3,3.8748376E-2,5.5948202E-3,8.644564E-2],"categories":[],"categories_nodes":[],"categories_segments":[],"categories_sizes":[],"default_left":[0,0,0,0,0,0,0,0,0,0,0,0,0,0,0,0,0,0,0,0,0,0,0,0,0,0,0,0,0,0,0,0,0,0,0,0,0,0,0,0,0,0,0,0,0],"id":20,"left_children":[1,3,5,7,9,-1,-1,11,13,15,17,-1,19,-1,21,23,25,27,29,31,33,35,-1,-1,37,-1,39,41,43,-1,-1,-1,-1,-1,-1,-1,-1,-1,-1,-1,-1,-1,-1,-1,-1],"loss_changes":[5.9335346E0,5.136855E0,1.3139772E-1,4.626381E0,3.3134816E0,0E0,0E0,7.4484806E0,1.9356279E0,3.92694E0,3.7322686E0,0E0,3.297062E0,0E0,2.5314617E0,4.4021387E0,1.3720021E0,4.3013315E0,6.9787955E-1,2.384327E0,6.0749874E0,1.9564915E0,0E0,0E0,4.7585392E-1,0E0,6.781397E-1,2.9992082E0,3.189682E0,0E0,0E0,0E0,0E0,0E0,0E0,0E0,0E0,0E0,0E0,0E0,0E0,0E0,0E0,0E0,0E0],"parents":[2147483647,0,0,1,1,2,2,3,3,4,4,7,7,8,8,9,9,10,10,12,12,14,14,15,15,16,16,17,17,18,18,19,19,20,20,21,21,24,24,26,26,27,27,28,28],"right_children":[2,4,6,8,10,-1,-1,12,14,16,18,-1,20,-1,22,24,26,28,30,32,34,36,-1,-1,38,-1,40,42,44,-1,-1,-1,-1,-1,-1,-1,-1,-1,-1,-1,-1,-1,-1,-1,-1],"split_conditions":[4.2421854E2,4.3624704E8,5.571783E7,1.78E1,4.6425012E7,-6.890611E-2,-3.4045067E-2,1.357E1,8.294294E0,-4.1921598E-1,1.1959084E1,9.227799E-2,2.2650022E-2,-0E0,4.44E0,-7.1E-1,-2.7031133E-1,1E0,-7.750316E7,7.2928196E-1,4.64E0,-2.1594636E0,-3.971152E-3,7.49955E-2,3.82E0,-0E0,1.301E1,4.84E0,1.974E1,-1.1499298E-2,-7.451879E-2,3.6644682E-2,-3.0165434E-2,7.716203E-2,-7.621763E-2,1.1546738E-2,9.219693E-2,-9.865752E-3,-6.974374E-2,-1.9010572E-2,-7.461295E-2,-1.7738383E-3,3.8748376E-2,5.5948202E-3,8.644564E-2],"split_indices":[15,20,21,8,21,0,0,8,28,14,17,0,19,0,6,30,34,40,24,29,26,23,0,0,6,0,8,6,8,0,0,0,0,0,0,0,0,0,0,0,0,0,0,0,0],"split_type":[0,0,0,0,0,0,0,0,0,0,0,0,0,0,0,0,0,0,0,0,0,0,0,0,0,0,0,0,0,0,0,0,0,0,0,0,0,0,0,0,0,0,0,0,0],"sum_hessian":[3.0032285E2,2.8853412E2,1.1788718E1,9.360085E1,1.9493327E2,8.6402645E0,3.1484535E0,5.967475E1,3.39261E1,3.3606194E1,1.6132707E2,9.882649E0,4.9792103E1,4.4475055E0,2.9478598E1,1.2610721E1,2.0995472E1,1.5231593E2,9.011134E0,3.614333E1,1.3648773E1,2.563693E1,3.8416665E0,6.4078326E0,6.202888E0,3.65231E0,1.7343163E1,1.3152173E2,2.0794214E1,3.1285064E0,5.8826275E0,6.2911167E0,2.9852211E1,1.0368171E1,3.2806027E0,3.8603835E0,2.1776546E1,3.1206832E0,3.082205E0,3.303367E0,1.4039796E1,1.09799774E2,2.172195E1,8.55499E0,1.22392235E1],"tree_param":{"num_deleted":"0","num_feature":"41","num_nodes":"45","size_leaf_vector":"1"}},{"base_weights":[-7.0896824E-3,-9.312922E-2,2.8256243E-1,-1.2596245E-1,5.6395286E-1,2.2636667E-1,9.8652504E-2,-2.2256765E-1,3.1381566E-2,1.8884538E-1,1.1071662E-1,-2.9754974E-2,4.1486952E-1,-3.1950042E-1,5.8316976E-2,4.396446E-1,-9.60719E-2,7.4530326E-2,-3.591492E-2,-4.0984827E-1,2.106463E-1,5.7592887E-1,-2.68271E-1,-4.988034E-1,-1.6703008E-1,-1.8725802E-1,3.2245806E-1,-3.650338E-2,6.036638E-1,-1.9692117E-1,7.50499E-2,-6.928995E-2,1.8751202E-2,-0E0,9.5242254E-2,3.1068906E-1,8.434624E-1,1.674952E-2,-6.820025E-2,-0E0,-5.692917E-2,-2.5867267E-2,3.2242008E-2,3.319291E-2,-4.7777213E-2,5.3802084E-2,-4.3643616E-2,9.40257E-3,9.7751856E-2,6.3703896E-4,-4.0217724E-2,-3.2826692E-2,6.074218E-2,-1.8647177E-2,6.0126007E-2,9.874886E-2,3.3706177E-2],"categories":[],"categories_nodes":[],"categories_segments":[],"categories_sizes":[],"default_left":[0,0,0,0,0,0,0,0,0,0,0,0,0,0,0,0,0,0,0,0,0,0,0,0,0,0,0,0,0,0,0,0,0,0,0,0,0,0,0,0,0,0,0,0,0,0,0,0,0,0,0,0,0,0,0,0,0],"id":21,"left_children":[1,3,5,7,9,11,-1,13,15,17,-1,19,21,23,25,27,29,-1,-1,31,33,35,37,39,41,43,45,-1,47,49,-1,-1,-1,51,-1,53,55,-1,-1,-1,-1,-1,-1,-1,-1,-1,-1,-1,-1,-1,-1,-1,-1,-1,-1,-1,-1],"loss_changes":[6.917611E0,4.598558E0,2.3675456E0,3.1336508E0,1.9071314E0,2.890491E0,0E0,3.494825E0,4.077643E0,1.9568477E0,0E0,2.3039472E0,3.8140388E0,2.5206852E0,2.1269405E0,2.510278E0,5.0009394E0,0E0,0E0,1.7278064E0,2.3762028E0,1.8354588E0,1.231714E0,1.4916859E0,2.3237581E0,2.54974E0,2.632298E0,0E0,2.8657212E0,2.2492633E0,0E0,0E0,0E0,2.3900886E0,0E0,2.1237955E0,8.279877E-1,0E0,0E0,0E0,0E0,0E0,0E0,0E0,0E0,0E0,0E0,0E0,0E0,0E0,0E0,0E0,0E0,0E0,0E0,0E0,0E0],"parents":[2147483647,0,0,1,1,2,2,3,3,4,4,5,5,7,7,8,8,9,9,11,11,12,12,13,13,14,14,15,15,16,16,19,19,20,20,21,21,22,22,23,23,24,24,25,25,26,26,28,28,29,29,33,33,35,35,36,36],"right_children":[2,4,6,8,10,12,-1,14,16,18,-1,20,22,24,26,28,30,-1,-1,32,34,36,38,40,42,44,46,-1,48,50,-1,-1,-1,52,-1,54,56,-1,-1,-1,-1,-1,-1,-1,-1,-1,-1,-1,-1,-1,-1,-1,-1,-1,-1,-1,-1],"split_conditions":[2.7844408E0,1.5076799E0,1.0695921E1,6.9739264E8,7.442925E-1,4.09E0,9.8652504E-2,4.1E0,1.89E1,5.0602604E1,1.1071662E-1,-8.5936256E-2,4.94E0,1.488E3,5.0919356E7,-8.4E-1,1.7955347E8,7.4530326E-2,-3.591492E-2,7.6175546E8,7.669744E0,1.404E1,1.6024706E1,-1.08748344E8,4.27E0,4.8292994E0,1.897E1,-3.650338E-2,-5.395177E-1,2.268E1,7.50499E-2,-6.928995E-2,1.8751202E-2,1.0938877E-1,9.5242254E-2,-1.4697084E0,5.755946E-1,1.674952E-2,-6.820025E-2,-0E0,-5.692917E-2,-2.5867267E-2,3.2242008E-2,3.319291E-2,-4.7777213E-2,5.3802084E-2,-4.3643616E-2,9.40257E-3,9.7751856E-2,6.3703896E-4,-4.0217724E-2,-3.2826692E-2,6.074218E-2,-1.8647177E-2,6.0126007E-2,9.874886E-2,3.3706177E-2],"split_indices":[13,29,19,20,12,26,0,32,8,25,0,22,31,2,21,30,24,0,0,20,5,8,9,24,26,11,8,0,19,8,0,0,0,34,0,17,22,0,0,0,0,0,0,0,0,0,0,0,0,0,0,0,0,0,0,0,0],"split_type":[0,0,0,0,0,0,0,0,0,0,0,0,0,0,0,0,0,0,0,0,0,0,0,0,0,0,0,0,0,0,0,0,0,0,0,0,0,0,0,0,0,0,0,0,0,0,0,0,0,0,0,0,0,0,0,0,0],"sum_hessian":[2.781302E2,2.147523E2,6.3377872E1,2.0475412E2,9.998187E0,5.8946514E1,4.43136E0,1.272314E2,7.752272E1,6.102828E0,3.8953586E0,2.4801737E1,3.4144775E1,9.484339E1,3.2388012E1,1.8571987E1,5.895073E1,3.1007092E0,3.0021188E0,9.742912E0,1.5058824E1,2.7761673E1,6.3831034E0,4.31806E1,5.1662792E1,1.660276E1,1.57852545E1,3.0206134E0,1.55513735E1,5.284977E1,6.1009607E0,6.71331E0,3.029603E0,1.1797785E1,3.2610393E0,1.4236825E1,1.3524848E1,3.0200372E0,3.3630662E0,5.451625E0,3.7728973E1,4.3726994E1,7.9357967E0,5.8283153E0,1.0774444E1,1.2418634E1,3.3666196E0,6.746793E0,8.804581E0,2.6355862E1,2.6493908E1,7.6971393E0,4.100645E0,5.137812E0,9.099012E0,1.0302285E1,3.2225623E0],"tree_param":{"num_deleted":"0","num_feature":"41","num_nodes":"57","size_leaf_vector":"1"}},{"base_weights":[-1.3193768E-1,5.4105926E-1,-1.5343939E-1,-6.7897947E-3,9.996878E-2,-3.926029E-1,-9.325868E-2,-4.6427578E-1,2.9433118E-2,7.533415E-2,-2.3319721E-1,-5.23094E-1,-0E0,4.219927E-2,-3.291374E-2,-4.040159E-2,4.4283578E-1,-9.390251E-2,-4.5422676E-1,-0E0,-5.9732836E-1,8.870391E-2,-4.1838175E-1,1.1056746E0,3.3523683E-2,2.072184E-1,-2.2921199E-1,-5.4334575E-1,5.5193942E-2,-6.5857075E-2,-5.7008076E-3,1.8148078E-3,9.642718E-2,-5.8005292E-2,2.7435306E-2,1.4323665E-1,7.0582084E-2,-4.8380457E-2,4.366174E-2,7.5896524E-2,-2.7228557E-3,-5.462071E-2,-3.7186034E-3,-6.2167134E-2,2.2136187E-2],"categories":[],"categories_nodes":[],"categories_segments":[],"categories_sizes":[],"default_left":[0,0,0,0,0,0,0,0,0,0,0,0,0,0,0,0,0,0,0,0,0,0,0,0,0,0,0,0,0,0,0,0,0,0,0,0,0,0,0,0,0,0,0,0,0],"id":22,"left_children":[1,3,5,-1,-1,7,9,11,13,15,17,19,-1,-1,-1,21,23,25,27,-1,29,31,33,35,37,39,41,43,-1,-1,-1,-1,-1,-1,-1,-1,-1,-1,-1,-1,-1,-1,-1,-1,-1],"loss_changes":[3.4950905E0,2.172563E0,3.3490372E0,0E0,0E0,1.4708848E0,4.4829397E0,1.1497707E0,9.712637E-1,3.6827688E0,3.1359105E0,1.4070692E0,0E0,0E0,0E0,3.2077436E0,5.5027976E0,2.6170373E0,3.5991154E0,0E0,9.7161007E-1,2.885199E0,1.9234393E0,7.0559597E-1,2.728095E0,2.6215107E0,2.6469142E0,2.252905E0,0E0,0E0,0E0,0E0,0E0,0E0,0E0,0E0,0E0,0E0,0E0,0E0,0E0,0E0,0E0,0E0,0E0],"parents":[2147483647,0,0,1,1,2,2,5,5,6,6,7,7,8,8,9,9,10,10,11,11,15,15,16,16,17,17,18,18,20,20,21,21,22,22,23,23,24,24,25,25,26,26,27,27],"right_children":[2,4,6,-1,-1,8,10,12,14,16,18,20,-1,-1,-1,22,24,26,28,-1,30,32,34,36,38,40,42,44,-1,-1,-1,-1,-1,-1,-1,-1,-1,-1,-1,-1,-1,-1,-1,-1,-1],"split_conditions":[-1.3832617E1,1.537E1,4.0661297E0,-6.7897947E-3,9.996878E-2,5.256038E-1,3.6097824E2,4.32E0,1.0340041E0,4.33E0,1.385E3,3.4103353E0,-0E0,4.219927E-2,-3.291374E-2,4.91E0,9.238798E-1,6.449327E0,8.881211E0,-0E0,1.9128256E1,1.0597076E1,1.0137807E1,3.2570224E0,4.009848E-2,4.2E0,-1.6316956E0,1.9093079E1,5.5193942E-2,-6.5857075E-2,-5.7008076E-3,1.8148078E-3,9.642718E-2,-5.8005292E-2,2.7435306E-2,1.4323665E-1,7.0582084E-2,-4.8380457E-2,4.366174E-2,7.5896524E-2,-2.7228557E-3,-5.462071E-2,-3.7186034E-3,-6.2167134E-2,2.2136187E-2],"split_indices":[17,8,5,0,0,18,15,26,18,31,2,11,0,0,0,6,29,5,17,0,9,19,14,19,14,26,23,9,0,0,0,0,0,0,0,0,0,0,0,0,0,0,0,0,0],"split_type":[0,0,0,0,0,0,0,0,0,0,0,0,0,0,0,0,0,0,0,0,0,0,0,0,0,0,0,0,0,0,0,0,0,0,0,0,0,0,0,0,0,0,0,0,0],"sum_hessian":[2.435358E2,7.3210764E0,2.3621472E2,3.0880213E0,4.233055E0,4.704393E1,1.8917079E2,4.0408443E1,6.635485E0,8.549777E1,1.0367302E2,3.601279E1,4.395653E0,3.292302E0,3.343183E0,6.4881744E1,2.0616034E1,6.3959877E1,3.9713146E1,4.474676E0,3.1538115E1,4.8222504E1,1.665924E1,7.7123055E0,1.2903728E1,1.9584307E1,4.4375572E1,3.6615402E1,3.0977437E0,2.8141468E1,3.396647E0,4.4826534E1,3.3959692E0,1.3637198E1,3.0220418E0,3.96471E0,3.7475955E0,5.5337014E0,7.3700266E0,5.9006176E0,1.3683688E1,1.6474453E1,2.7901117E1,3.334908E1,3.2663233E0],"tree_param":{"num_deleted":"0","num_feature":"41","num_nodes":"45","size_leaf_vector":"1"}},{"base_weights":[6.619223E-2,2.4412116E-2,4.6151137E-1,1.9905575E-1,-8.0096446E-2,5.700524E-1,-1.9648196E-2,8.1293136E-1,1.2092296E-1,-9.272703E-3,-4.0610746E-1,7.0284927E-1,-1.1268817E-2,5.6400966E-2,9.446233E-2,5.427092E-1,-2.7126538E-2,-3.509348E-1,9.078274E-2,-0E0,-5.138125E-1,-0E0,8.380059E-1,-4.168525E-2,7.856072E-1,9.87347E-2,-4.2742422E-1,4.0517785E-2,-5.933367E-1,1.5478586E-1,-3.7376437E-1,-3.7996765E-2,3.691077E-2,-0E0,-6.5867853E-1,9.2530414E-2,4.4337686E-2,-3.0008836E-2,1.8680546E-2,1.8720914E-2,9.302577E-2,8.1319116E-2,-2.0878145E-3,-4.839615E-3,-6.1950605E-2,-2.9392889E-2,3.58819E-2,-2.2426382E-2,-7.682026E-2,5.247447E-3,6.2602215E-2,3.2989513E-2,-6.290098E-2,-7.1088575E-2,-3.7787374E-2],"categories":[],"categories_nodes":[],"categories_segments":[],"categories_sizes":[],"default_left":[0,0,0,0,0,0,0,0,0,0,0,0,0,0,0,0,0,0,0,0,0,0,0,0,0,0,0,0,0,0,0,0,0,0,0,0,0,0,0,0,0,0,0,0,0,0,0,0,0,0,0,0,0,0,0],"id":23,"left_children":[1,3,5,7,9,11,-1,13,15,17,19,21,-1,-1,-1,23,25,27,29,31,33,-1,35,37,39,41,43,45,47,49,51,-1,-1,-1,53,-1,-1,-1,-1,-1,-1,-1,-1,-1,-1,-1,-1,-1,-1,-1,-1,-1,-1,-1,-1],"loss_changes":[4.92647E0,4.9929748E0,2.088583E0,4.8143067E0,3.8924258E0,2.3041592E0,0E0,1.7001867E-1,5.7487707E0,4.826743E0,1.2921162E0,1.9860744E0,0E0,0E0,0E0,3.4671168E0,3.4345315E0,3.0975425E0,3.2070043E0,9.2949563E-1,1.7388887E0,0E0,4.234562E-1,4.293371E-1,1.3417454E0,4.4558935E0,1.1197977E0,1.314422E0,1.1709852E0,4.5349765E0,2.3795984E0,0E0,0E0,0E0,1.347351E-1,0E0,0E0,0E0,0E0,0E0,0E0,0E0,0E0,0E0,0E0,0E0,0E0,0E0,0E0,0E0,0E0,0E0,0E0,0E0,0E0],"parents":[2147483647,0,0,1,1,2,2,3,3,4,4,5,5,7,7,8,8,9,9,10,10,11,11,15,15,16,16,17,17,18,18,19,19,20,20,22,22,23,23,24,24,25,25,26,26,27,27,28,28,29,29,30,30,34,34],"right_children":[2,4,6,8,10,12,-1,14,16,18,20,22,-1,-1,-1,24,26,28,30,32,34,-1,36,38,40,42,44,46,48,50,52,-1,-1,-1,54,-1,-1,-1,-1,-1,-1,-1,-1,-1,-1,-1,-1,-1,-1,-1,-1,-1,-1,-1,-1],"split_conditions":[4.93E0,4.3624704E8,1.1090879E9,1.357E1,1.9022907E1,9.071584E-1,-1.9648196E-2,1.292E1,3.92E0,3.22E0,3.11E0,2.303E1,-1.1268817E-2,5.6400966E-2,9.446233E-2,1.1238842E0,4.1934113E2,5.5583226E8,6.837324E1,1.7853693E1,5.0199997E8,-0E0,3.096E1,4.6810724E7,2.7421388E-1,-1.17825165E1,-6.89742E7,1.735E3,6.7532E-1,8.954506E0,3.450487E2,-3.7996765E-2,3.691077E-2,-0E0,4.3837952E2,9.2530414E-2,4.4337686E-2,-3.0008836E-2,1.8680546E-2,1.8720914E-2,9.302577E-2,8.1319116E-2,-2.0878145E-3,-4.839615E-3,-6.1950605E-2,-2.9392889E-2,3.58819E-2,-2.2426382E-2,-7.682026E-2,5.247447E-3,6.2602215E-2,3.2989513E-2,-6.290098E-2,-7.1088575E-2,-3.7787374E-2],"split_indices":[6,20,20,8,9,12,0,8,31,31,6,8,0,0,0,13,15,20,25,28,20,0,8,24,12,19,24,2,12,11,15,0,0,0,7,0,0,0,0,0,0,0,0,0,0,0,0,0,0,0,0,0,0,0,0],"split_type":[0,0,0,0,0,0,0,0,0,0,0,0,0,0,0,0,0,0,0,0,0,0,0,0,0,0,0,0,0,0,0,0,0,0,0,0,0,0,0,0,0,0,0,0,0,0,0,0,0,0,0,0,0,0,0],"sum_hessian":[3.011863E2,2.7272223E2,2.8464075E1,1.0242568E2,1.7029655E2,2.45755E1,3.888575E0,1.1313915E1,9.111177E1,1.4023994E2,3.0056618E1,2.0693937E1,3.881563E0,4.360121E0,6.9537945E0,2.3778055E1,6.733371E1,3.1935976E1,1.0830396E2,6.4234095E0,2.363321E1,3.3384025E0,1.7355536E1,6.884826E0,1.6893229E1,5.109423E1,1.6239481E1,1.2087206E1,1.984877E1,9.5437035E1,1.2866923E1,3.2336574E0,3.189752E0,5.2835236E0,1.8349686E1,1.3894069E1,3.4614656E0,3.4216065E0,3.4632196E0,3.4678729E0,1.3425357E1,7.3640985E0,4.3730133E1,5.679042E0,1.0560439E1,5.744652E0,6.342554E0,6.6382213E0,1.3210549E1,7.8678314E1,1.675872E1,3.3129027E0,9.554021E0,1.5043516E1,3.3061695E0],"tree_param":{"num_deleted":"0","num_feature":"41","num_nodes":"55","size_leaf_vector":"1"}},{"base_weights":[-1.9357243E-3,-8.858398E-2,2.6146066E-1,8.097366E-2,-1.8121569E-1,1.179399E-1,7.6010627E-1,1.9113371E-3,1.0033091E-1,4.0096134E-1,-2.2172971E-1,-4.3484622E-1,2.4501066E-1,-0E0,9.6994445E-2,3.5493922E-1,-1.795142E-1,8.221185E-3,8.3118014E-2,4.259628E-1,-2.6394773E-1,-6.9619656E-2,4.962547E-3,6.255429E-1,-8.285475E-2,5.889197E-1,-3.864935E-2,-5.7336843E-1,1.04468025E-1,-6.251027E-3,8.249929E-2,-5.672558E-1,-2.0912462E-1,9.3601996E-1,1.6680528E-1,-3.0515212E-1,4.9983957E-1,2.3465302E-2,9.256971E-2,-2.2452153E-2,-6.740146E-2,-4.162078E-2,4.2343732E-2,-6.766751E-2,-5.244709E-3,-1.3405697E-2,-4.922908E-2,5.3063508E-2,1.1178239E-1,6.348115E-2,-4.3442257E-2,-4.805223E-2,3.826348E-2,8.443256E-2,1.1863623E-2],"categories":[],"categories_nodes":[],"categories_segments":[],"categories_sizes":[],"default_left":[0,0,0,0,0,0,0,0,0,0,0,0,0,0,0,0,0,0,0,0,0,0,0,0,0,0,0,0,0,0,0,0,0,0,0,0,0,0,0,0,0,0,0,0,0,0,0,0,0,0,0,0,0,0,0],"id":24,"left_children":[1,3,5,7,9,11,13,15,-1,17,19,21,23,-1,-1,25,27,-1,-1,29,31,-1,-1,33,35,37,-1,39,41,-1,-1,43,45,47,49,51,53,-1,-1,-1,-1,-1,-1,-1,-1,-1,-1,-1,-1,-1,-1,-1,-1,-1,-1],"loss_changes":[6.167333E0,3.2185838E0,4.6833005E0,5.1371393E0,3.115254E0,3.6540537E0,2.32658E0,4.2739816E0,0E0,1.0665375E0,3.3876042E0,1.2879528E0,5.374954E0,0E0,0E0,3.9890547E0,4.9418416E0,0E0,0E0,1.5404421E0,1.8507366E0,0E0,0E0,2.7043457E0,2.9534054E0,1.9420524E0,0E0,5.437007E-1,4.225994E0,0E0,0E0,9.1068316E-1,2.0406675E0,6.3806534E-1,2.3752842E0,2.0441947E0,7.1036756E-1,0E0,0E0,0E0,0E0,0E0,0E0,0E0,0E0,0E0,0E0,0E0,0E0,0E0,0E0,0E0,0E0,0E0,0E0],"parents":[2147483647,0,0,1,1,2,2,3,3,4,4,5,5,6,6,7,7,9,9,10,10,11,11,12,12,15,15,16,16,19,19,20,20,23,23,24,24,25,25,27,27,28,28,31,31,32,32,33,33,34,34,35,35,36,36],"right_children":[2,4,6,8,10,12,14,16,-1,18,20,22,24,-1,-1,26,28,-1,-1,30,32,-1,-1,34,36,38,-1,40,42,-1,-1,44,46,48,50,52,54,-1,-1,-1,-1,-1,-1,-1,-1,-1,-1,-1,-1,-1,-1,-1,-1,-1,-1],"split_conditions":[6.0115113E0,1.368E3,4.2882715E2,4.62E0,3.06E0,3.9E0,3.75E0,-7.367762E7,1.0033091E-1,-6.454665E0,2.0869355E0,4.08E0,4.5E0,-0E0,9.6994445E-2,1.1474608E0,4.1112347E2,8.221185E-3,8.3118014E-2,3.85267E8,-7.1E-1,-6.9619656E-2,4.962547E-3,-3.8787332E7,8.9580685E-1,4.8448547E8,-3.864935E-2,2E0,3.0370626E-1,-6.251027E-3,8.249929E-2,-1.794056E7,4.71E0,-8.669596E7,2.94E0,1.1959084E1,1.149705E0,2.3465302E-2,9.256971E-2,-2.2452153E-2,-6.740146E-2,-4.162078E-2,4.2343732E-2,-6.766751E-2,-5.244709E-3,-1.3405697E-2,-4.922908E-2,5.3063508E-2,1.1178239E-1,6.348115E-2,-4.3442257E-2,-4.805223E-2,3.826348E-2,8.443256E-2,1.1863623E-2],"split_indices":[17,2,7,6,6,6,26,24,0,17,5,26,6,0,0,29,7,0,0,20,30,0,0,24,12,20,0,33,12,0,0,24,6,24,26,17,29,0,0,0,0,0,0,0,0,0,0,0,0,0,0,0,0,0,0],"split_type":[0,0,0,0,0,0,0,0,0,0,0,0,0,0,0,0,0,0,0,0,0,0,0,0,0,0,0,0,0,0,0,0,0,0,0,0,0,0,0,0,0,0,0,0,0,0,0,0,0,0,0,0,0,0,0],"sum_hessian":[2.707824E2,2.0408994E2,6.669247E1,7.172818E1,1.3236176E2,5.2038795E1,1.4653674E1,6.6257256E1,5.470925E0,8.393347E0,1.2396841E2,9.534112E0,4.2504684E1,3.2201114E0,1.1433562E1,2.2646326E1,4.3610928E1,5.0232015E0,3.3701458E0,7.385486E0,1.1658292E2,6.2988687E0,3.2352436E0,1.977145E1,2.2733234E1,1.7332119E1,5.314206E0,1.8375803E1,2.5235123E1,3.2458284E0,4.1396575E0,1.7424322E1,9.91586E1,1.1599074E1,8.172375E0,1.6614185E1,6.1190495E0,8.674135E0,8.657985E0,4.4093494E0,1.39664545E1,9.455788E0,1.5779335E1,1.4183931E1,3.2403908E0,7.87756E1,2.0383003E1,3.8829088E0,7.7161655E0,4.685692E0,3.4866834E0,1.3378498E1,3.2356868E0,3.0127082E0,3.1063416E0],"tree_param":{"num_deleted":"0","num_feature":"41","num_nodes":"55","size_leaf_vector":"1"}},{"base_weights":[-1.07017465E-1,-8.676813E-2,-6.435477E-2,-1.3134341E-1,1.22811E-1,1.0734913E-1,-1.8866645E-1,5.191967E-1,-1.7157269E-1,-1.2117923E-3,7.407631E-2,-1.08664304E-1,-4.0120658E-1,1.5044497E-1,1.1723266E0,5.0253756E-2,-2.822312E-1,6.031069E-1,-1.5962341E-1,2.6309103E-1,-1.7129147E-1,1.2419307E-2,-4.5079926E-1,-1.9161355E-1,1.0148231E-1,8.091769E-2,1.4840077E-1,-4.354048E-1,4.905679E-2,1.3511809E-2,1.04625784E-1,-3.4681436E-2,2.846151E-2,-1.5078963E-3,1.0003197E-1,5.5257328E-2,-2.0768812E-2,-1.69074E-2,-6.178507E-2,2.0799093E-2,-6.2294025E-2,-5.1948648E-2,-9.044123E-4],"categories":[],"categories_nodes":[],"categories_segments":[],"categories_sizes":[],"default_left":[0,0,0,0,0,0,0,0,0,0,0,0,0,0,0,0,0,0,0,0,0,0,0,0,0,0,0,0,0,0,0,0,0,0,0,0,0,0,0,0,0,0,0],"id":25,"left_children":[1,3,-1,5,7,9,11,13,15,17,-1,19,21,23,25,-1,27,29,31,33,35,-1,37,39,-1,-1,-1,41,-1,-1,-1,-1,-1,-1,-1,-1,-1,-1,-1,-1,-1,-1,-1],"loss_changes":[2.5986779E0,2.2236447E0,0E0,2.6988256E0,4.8697586E0,2.6718438E0,2.6452522E0,4.135936E0,1.7573316E0,3.049355E0,0E0,2.692997E0,1.1601024E0,3.5274613E0,3.64686E-1,0E0,2.444601E0,1.2325103E0,2.1561685E0,3.4867864E0,2.5972457E0,0E0,1.7715816E0,1.4854684E0,0E0,0E0,0E0,5.6632423E-1,0E0,0E0,0E0,0E0,0E0,0E0,0E0,0E0,0E0,0E0,0E0,0E0,0E0,0E0,0E0],"parents":[2147483647,0,0,1,1,3,3,4,4,5,5,6,6,7,7,8,8,9,9,11,11,12,12,13,13,14,14,16,16,17,17,18,18,19,19,20,20,22,22,23,23,27,27],"right_children":[2,4,-1,6,8,10,12,14,16,18,-1,20,22,24,26,-1,28,30,32,34,36,-1,38,40,-1,-1,-1,42,-1,-1,-1,-1,-1,-1,-1,-1,-1,-1,-1,-1,-1,-1,-1],"split_conditions":[3.943014E0,4E0,-6.435477E-2,4.6335468E7,-1.5368399E-1,9.683259E7,1.6968158E-1,-2.7788994E-1,-5.1326543E-1,-4.2248908E-1,7.407631E-2,-4.674735E0,1.56E0,2.02E1,1E0,5.0253756E-2,1.8018535E-1,-5.047099E-1,4.32E0,4.109363E-1,5.2073663E-1,1.2419307E-2,1.377E3,-2.0277321E0,1.0148231E-1,8.091769E-2,1.4840077E-1,3.583139E0,4.905679E-2,1.3511809E-2,1.04625784E-1,-3.4681436E-2,2.846151E-2,-1.5078963E-3,1.0003197E-1,5.5257328E-2,-2.0768812E-2,-1.69074E-2,-6.178507E-2,2.0799093E-2,-6.2294025E-2,-5.1948648E-2,-9.044123E-4],"split_indices":[23,33,0,21,22,24,18,22,23,22,0,19,31,8,35,0,18,22,26,22,29,0,2,19,0,0,0,23,0,0,0,0,0,0,0,0,0,0,0,0,0,0,0],"split_type":[0,0,0,0,0,0,0,0,0,0,0,0,0,0,0,0,0,0,0,0,0,0,0,0,0,0,0,0,0,0,0,0,0,0,0,0,0,0,0,0,0,0,0],"sum_hessian":[2.4632849E2,2.376614E2,8.667092E0,1.9640302E2,4.1258385E1,3.767847E1,1.5872455E2,1.7695217E1,2.3563168E1,3.211603E1,5.562438E0,1.1576944E2,4.29551E1,1.1486294E1,6.2089233E0,3.1452293E0,2.0417938E1,6.4807744E0,2.5635258E1,1.6414719E1,9.935473E1,3.5179572E0,3.9437145E1,8.202484E0,3.2838097E0,3.1819677E0,3.0269556E0,1.7184853E1,3.2330863E0,3.3252726E0,3.1555018E0,1.8209337E1,7.425921E0,1.1890517E1,4.5242004E0,4.557064E0,9.479766E1,1.4977702E1,2.4459442E1,4.1643453E0,4.0381393E0,1.4139957E1,3.0448956E0],"tree_param":{"num_deleted":"0","num_feature":"41","num_nodes":"43","size_leaf_vector":"1"}},{"base_weights":[3.4598798E-2,2.3430555E-1,-4.1951276E-2,6.00784E-3,5.1001954E-1,-6.361034E-2,-1.2997596E-2,3.6165658E-1,-3.494883E-1,7.2486155E-2,7.2434765E-1,2.1340592E-1,-7.908945E-2,6.923462E-1,-0E0,-6.1192477E-1,2.5546366E-1,7.176473E-2,-2.4014111E-1,9.464298E-2,1.6989681E-1,9.6092306E-2,4.7411367E-2,-1.4134245E-2,-4.5408756E-1,2.9455015E-2,8.8315986E-2,4.3302234E-2,-4.346453E-2,-7.265167E-2,-1.9338204E-2,9.064383E-2,-4.1072667E-2,-6.03096E-2,2.2895664E-2,7.046808E-2,-4.6049703E-2,2.5026482E-1,-4.2759264E-1,1.8890046E-1,-1.4881337E-1,2.0889202E-2,-6.3515496E-1,4.5119237E-2,-4.476226E-2,5.4616057E-3,-6.923762E-2,4.6557054E-2,-2.7950857E-2,-2.345427E-2,3.748246E-2,-7.343113E-2,-1.2281385E-2],"categories":[],"categories_nodes":[],"categories_segments":[],"categories_sizes":[],"default_left":[0,0,0,0,0,0,0,0,0,0,0,0,0,0,0,0,0,0,0,0,0,0,0,0,0,0,0,0,0,0,0,0,0,0,0,0,0,0,0,0,0,0,0,0,0,0,0,0,0,0,0,0,0],"id":26,"left_children":[1,3,5,7,9,-1,11,13,15,17,19,21,23,25,27,29,31,-1,33,-1,35,-1,37,39,41,-1,-1,-1,-1,-1,-1,-1,-1,-1,-1,-1,-1,43,45,47,49,-1,51,-1,-1,-1,-1,-1,-1,-1,-1,-1,-1],"loss_changes":[4.409383E0,4.979511E0,3.4999588E0,5.5801992E0,3.2916737E0,0E0,2.9495835E0,2.6070144E0,3.5326312E0,2.5061994E0,2.827961E0,5.404345E0,3.6939607E0,7.2880507E-1,2.0518494E0,6.3440895E-1,2.9446363E0,0E0,1.4343188E0,0E0,2.4556923E0,0E0,3.5147352E0,3.5878732E0,2.7505598E0,0E0,0E0,0E0,0E0,0E0,0E0,0E0,0E0,0E0,0E0,0E0,0E0,3.6414928E0,1.4499676E0,6.782402E0,3.5529335E0,0E0,8.082762E-1,0E0,0E0,0E0,0E0,0E0,0E0,0E0,0E0,0E0,0E0],"parents":[2147483647,0,0,1,1,2,2,3,3,4,4,6,6,7,7,8,8,9,9,10,10,11,11,12,12,13,13,14,14,15,15,16,16,18,18,20,20,22,22,23,23,24,24,37,37,38,38,39,39,40,40,42,42],"right_children":[2,4,6,8,10,-1,12,14,16,18,20,22,24,26,28,30,32,-1,34,-1,36,-1,38,40,42,-1,-1,-1,-1,-1,-1,-1,-1,-1,-1,-1,-1,44,46,48,50,-1,52,-1,-1,-1,-1,-1,-1,-1,-1,-1,-1],"split_conditions":[3.385737E2,2.96E0,-5.512008E-1,2.6239413E2,-7.979226E0,-6.361034E-2,2.9360944E8,7.974254E-1,3.018E1,-1.2169395E1,7.1752315E0,4.06E0,8.8073635E-1,-3.0753872E-1,3.1299974E8,8.212637E8,6.1493195E1,7.176473E-2,-6.1860268E7,9.464298E-2,8.5586154E-1,9.6092306E-2,7E-2,1.448E1,-2.6659906E-1,2.9455015E-2,8.8315986E-2,4.3302234E-2,-4.346453E-2,-7.265167E-2,-1.9338204E-2,9.064383E-2,-4.1072667E-2,-6.03096E-2,2.2895664E-2,7.046808E-2,-4.6049703E-2,5.057936E7,-7.14821E5,1.8985903E1,6.3399837E1,2.0889202E-2,1.97908E1,4.5119237E-2,-4.476226E-2,5.4616057E-3,-6.923762E-2,4.6557054E-2,-2.7950857E-2,-2.345427E-2,3.748246E-2,-7.343113E-2,-1.2281385E-2],"split_indices":[7,31,22,7,19,0,20,12,8,19,17,31,12,22,20,20,25,0,24,0,12,0,30,8,22,0,0,0,0,0,0,0,0,0,0,0,0,21,20,9,25,0,28,0,0,0,0,0,0,0,0,0,0],"split_type":[0,0,0,0,0,0,0,0,0,0,0,0,0,0,0,0,0,0,0,0,0,0,0,0,0,0,0,0,0,0,0,0,0,0,0,0,0,0,0,0,0,0,0,0,0,0,0,0,0,0,0,0,0],"sum_hessian":[2.870068E2,7.983375E1,2.0717307E2,4.3926468E1,3.590728E1,9.368727E0,1.9780435E2,2.2098274E1,2.1828196E1,1.2003502E1,2.3903776E1,4.4303345E1,1.5350099E2,1.1395828E1,1.0702446E1,1.5338356E1,6.4898396E0,3.9801276E0,8.023374E0,1.6888235E1,7.015542E0,7.8538923E0,3.6449455E1,1.3115369E2,2.2347315E1,3.9466145E0,7.4492135E0,5.44101E0,5.2614355E0,1.1796195E1,3.5421607E0,3.3400855E0,3.149754E0,4.6275277E0,3.3958464E0,3.8750527E0,3.140489E0,2.5722385E1,1.0727069E1,5.1991474E1,7.916221E1,4.6722374E0,1.7675077E1,2.0110924E1,5.611462E0,3.6966488E0,7.0304203E0,3.2820087E1,1.917139E1,6.8236755E1,1.0925454E1,1.4609173E1,3.0659056E0],"tree_param":{"num_deleted":"0","num_feature":"41","num_nodes":"53","size_leaf_vector":"1"}},{"base_weights":[-5.348195E-3,-5.4500345E-2,4.512752E-1,-6.866515E-2,7.8353874E-2,-4.203221E-2,5.863616E-1,-1.1312418E-1,1.4501382E-1,-0E0,6.970338E-1,-1.9427162E-1,8.897852E-2,-7.975589E-2,5.665035E-1,8.3485407E-1,-0E0,-4.8554534E-1,-1.3940205E-1,1.5753186E-1,-6.806533E-2,-3.2222366E-1,4.6190298E-1,9.0604596E-2,-2.5856772E-3,9.417193E-2,4.5804773E-2,-6.306394E-2,4.604345E-3,-6.76438E-3,-4.6014655E-2,4.7493093E-2,-2.250172E-3,-4.555476E-2,2.5821883E-2,1.308837E-2,7.2056465E-2],"categories":[],"categories_nodes":[],"categories_segments":[],"categories_sizes":[],"default_left":[0,0,0,0,0,0,0,0,0,0,0,0,0,0,0,0,0,0,0,0,0,0,0,0,0,0,0,0,0,0,0,0,0,0,0,0,0],"id":27,"left_children":[1,3,5,7,-1,-1,9,11,13,-1,15,17,19,21,23,25,-1,27,29,31,-1,33,35,-1,-1,-1,-1,-1,-1,-1,-1,-1,-1,-1,-1,-1,-1],"loss_changes":[6.1640706E0,2.8984206E0,3.1807413E0,2.3334856E0,0E0,0E0,1.5398946E0,3.3563187E0,4.0311975E0,0E0,1.8909817E0,2.2620907E0,3.0254793E0,3.5887752E0,3.0612874E0,4.7649002E-1,0E0,1.8194885E0,2.7792017E0,3.1078696E0,0E0,1.5062923E0,6.2130713E-1,0E0,0E0,0E0,0E0,0E0,0E0,0E0,0E0,0E0,0E0,0E0,0E0,0E0,0E0],"parents":[2147483647,0,0,1,1,2,2,3,3,6,6,7,7,8,8,10,10,11,11,12,12,13,13,14,14,15,15,17,17,18,18,19,19,21,21,22,22],"right_children":[2,4,6,8,-1,-1,10,12,14,-1,16,18,20,22,24,26,-1,28,30,32,-1,34,36,-1,-1,-1,-1,-1,-1,-1,-1,-1,-1,-1,-1,-1,-1],"split_conditions":[4.330449E2,1.2952328E0,3.85267E8,4.1E0,7.8353874E-2,-4.203221E-2,4.585272E7,5.328679E0,5.093181E7,-0E0,1.2097365E1,1.384E1,3.074E1,4.1789932E2,1.74E1,9.201677E0,-0E0,4.45E0,4E0,6.364747E0,-6.806533E-2,4.2217792E2,4.26E0,9.0604596E-2,-2.5856772E-3,9.417193E-2,4.5804773E-2,-6.306394E-2,4.604345E-3,-6.76438E-3,-4.6014655E-2,4.7493093E-2,-2.250172E-3,-4.555476E-2,2.5821883E-2,1.308837E-2,7.2056465E-2],"split_indices":[7,18,20,32,0,0,21,17,21,0,19,8,8,7,8,11,0,26,33,19,0,15,26,0,0,0,0,0,0,0,0,0,0,0,0,0,0],"split_type":[0,0,0,0,0,0,0,0,0,0,0,0,0,0,0,0,0,0,0,0,0,0,0,0,0,0,0,0,0,0,0,0,0,0,0,0,0],"sum_hessian":[2.762002E2,2.496358E2,2.6564398E1,2.4569414E2,3.9416666E0,3.4369934E0,2.3127403E1,2.0380466E2,4.1889484E1,3.6209042E0,1.95065E1,1.457731E2,5.8031555E1,2.7218418E1,1.4671065E1,1.6280523E1,3.2259755E0,2.2694193E1,1.2307891E2,5.347761E1,4.5539427E0,1.8957449E1,8.260969E0,9.399251E0,5.271814E0,1.2359863E1,3.9206612E0,1.7961254E1,4.732939E0,1.0093107E2,2.2147839E1,1.9496662E1,3.398095E1,1.5574E1,3.383449E0,3.8592913E0,4.4016776E0],"tree_param":{"num_deleted":"0","num_feature":"41","num_nodes":"37","size_leaf_vector":"1"}},{"base_weights":[-1.1706349E-1,-1.7880578E-1,2.1517934E-1,-1.11692585E-1,-4.0168154E-1,1.2890284E-1,9.297491E-2,-1.3902184E-1,5.486969E-2,4.7186315E-3,-4.6049598E-1,-4.987907E-2,2.7456763E-1,5.582707E-2,-1.6462721E-1,-3.0505142E-1,-5.953435E-1,8.415311E-2,1.6881847E-1,-2.0121822E-1,3.422187E-1,-6.274404E-2,-9.295562E-2,-3.2805897E-2,-6.346591E-2,-6.3901596E-2,3.0376437E-1,-1.4402811E-2,-4.7408592E-2,-3.850087E-2,8.4313E-2,5.0063085E-2,-3.157968E-2,5.263127E-2,-1.1695163E-2],"categories":[],"categories_nodes":[],"categories_segments":[],"categories_sizes":[],"default_left":[0,0,0,0,0,0,0,0,0,0,0,0,0,0,0,0,0,0,0,0,0,0,0,0,0,0,0,0,0,0,0,0,0,0,0],"id":28,"left_children":[1,3,5,7,9,11,-1,13,-1,-1,15,-1,17,-1,19,21,23,-1,25,27,29,-1,31,-1,-1,-1,33,-1,-1,-1,-1,-1,-1,-1,-1],"loss_changes":[4.8981037E0,2.9605298E0,2.1761057E0,2.7725673E0,1.2654681E0,3.048913E0,0E0,2.6393588E0,0E0,0E0,7.53952E-1,0E0,1.5237355E0,0E0,2.6714985E0,1.2661345E0,1.0962677E-1,0E0,2.527316E0,2.0374222E0,3.5674112E0,0E0,1.6058462E0,0E0,0E0,0E0,1.933713E0,0E0,0E0,0E0,0E0,0E0,0E0,0E0,0E0],"parents":[2147483647,0,0,1,1,2,2,3,3,4,4,5,5,7,7,10,10,12,12,14,14,15,15,16,16,18,18,19,19,20,20,22,22,26,26],"right_children":[2,4,6,8,10,12,-1,14,-1,-1,16,-1,18,-1,20,22,24,-1,26,28,30,-1,32,-1,-1,-1,34,-1,-1,-1,-1,-1,-1,-1,-1],"split_conditions":[1.0233065E9,2.752352E0,9.693914E0,1.9989254E1,6.1043346E-1,-2.9511607E-1,9.297491E-2,-5.5417116E7,5.486969E-2,4.7186315E-3,2.4917861E-2,-4.987907E-2,1.3516292E-1,5.582707E-2,4.98E0,-1.3497308E0,-2.0579383E0,8.415311E-2,1.7858527E0,8.968196E0,-9.483775E-1,-6.274404E-2,-4.4517666E-1,-3.2805897E-2,-6.346591E-2,-6.3901596E-2,2.2931738E-2,-1.4402811E-2,-4.7408592E-2,-3.850087E-2,8.4313E-2,5.0063085E-2,-3.157968E-2,5.263127E-2,-1.1695163E-2],"split_indices":[20,13,5,9,29,34,0,20,0,0,34,0,17,0,31,23,23,0,17,11,14,0,23,0,0,0,34,0,0,0,0,0,0,0,0],"split_type":[0,0,0,0,0,0,0,0,0,0,0,0,0,0,0,0,0,0,0,0,0,0,0,0,0,0,0,0,0,0,0,0,0,0,0],"sum_hessian":[2.3866519E2,2.015562E2,3.7108994E1,1.5536952E2,4.6186672E1,3.334137E1,3.767623E0,1.494165E2,5.95301E0,5.1559916E0,4.103068E1,6.104999E0,2.7236372E1,5.0803833E0,1.4433612E2,1.9555735E1,2.1474945E1,4.0234795E0,2.3212893E1,1.3485786E2,9.478269E0,7.4953585E0,1.2060375E1,3.1997318E0,1.8275213E1,3.1630669E0,2.0049826E1,1.1191992E2,2.2937937E1,3.7938404E0,5.6844287E0,3.1353288E0,8.925047E0,1.3252285E1,6.7975407E0],"tree_param":{"num_deleted":"0","num_feature":"41","num_nodes":"35","size_leaf_vector":"1"}},{"base_weights":[5.4688584E-2,2.1655248E-1,-2.6746608E-2,-6.619107E-2,3.4398E-1,-7.3284775E-2,4.9259835E-1,2.5098243E-1,-4.3596098E-1,2.4507631E-1,7.741735E-1,-1.757966E-2,-4.2103598E-1,7.729577E-2,1.4271857E-1,-1.4179234E-1,7.2949564E-1,-7.3812164E-2,8.838236E-3,4.1227803E-1,-1.7968833E-1,8.952755E-2,4.114989E-2,-9.157404E-2,3.1747413E-1,1.4422017E-2,-5.46784E-1,6.684675E-2,-4.7752477E-2,2.3372736E-2,-4.639482E-2,4.054619E-2,9.644218E-2,5.211495E-1,-2.7642844E-2,6.031413E-2,-6.233351E-1,-2.4673272E-2,-4.073478E-1,5.2104706E-1,-7.1052276E-2,-6.32177E-1,-5.35497E-3,2.7331725E-2,8.017E-2,-2.2479339E-2,-7.9987995E-2,-9.548536E-3,3.3141628E-2,-6.3762896E-2,1.982884E-2,-2.1074504E-2,7.7386536E-2,-6.905014E-2,-3.678534E-2],"categories":[],"categories_nodes":[],"categories_segments":[],"categories_sizes":[],"default_left":[0,0,0,0,0,0,0,0,0,0,0,0,0,0,0,0,0,0,0,0,0,0,0,0,0,0,0,0,0,0,0,0,0,0,0,0,0,0,0,0,0,0,0,0,0,0,0,0,0,0,0,0,0,0,0],"id":29,"left_children":[1,3,5,7,9,11,13,15,17,19,21,23,25,-1,27,29,31,-1,-1,33,35,-1,-1,37,39,-1,41,-1,-1,-1,-1,-1,-1,43,-1,-1,45,47,49,51,-1,53,-1,-1,-1,-1,-1,-1,-1,-1,-1,-1,-1,-1,-1],"loss_changes":[3.8200877E0,3.5222979E0,4.590035E0,3.5423107E0,2.7330012E0,3.3650172E0,1.426158E0,3.0839555E0,2.2914555E0,3.92777E0,3.7283802E-1,3.7502582E0,1.7575912E0,0E0,2.4035106E0,1.0958667E0,3.8434982E-1,0E0,0E0,3.0060658E0,5.3878455E0,0E0,0E0,2.593886E0,5.728084E0,0E0,7.636256E-1,0E0,0E0,0E0,0E0,0E0,0E0,2.2576046E0,0E0,0E0,5.8032846E-1,2.5871851E0,3.0640044E0,4.311923E0,0E0,1.2666655E-1,0E0,0E0,0E0,0E0,0E0,0E0,0E0,0E0,0E0,0E0,0E0,0E0,0E0],"parents":[2147483647,0,0,1,1,2,2,3,3,4,4,5,5,6,6,7,7,8,8,9,9,10,10,11,11,12,12,14,14,15,15,16,16,19,19,20,20,23,23,24,24,26,26,33,33,36,36,37,37,38,38,39,39,41,41],"right_children":[2,4,6,8,10,12,14,16,18,20,22,24,26,-1,28,30,32,-1,-1,34,36,-1,-1,38,40,-1,42,-1,-1,-1,-1,-1,-1,44,-1,-1,46,48,50,52,-1,54,-1,-1,-1,-1,-1,-1,-1,-1,-1,-1,-1,-1,-1],"split_conditions":[4.3624704E8,3.12E0,5.12E0,-6.3840046E0,4.1189716E2,4.2705676E2,9.974687E8,3.7496647E1,2.2650022E-2,7.178321E-1,1.9263773E1,6.97E1,2.6792437E-1,7.729577E-2,8.5586154E-1,4.28E0,9.886819E-1,-7.3812164E-2,8.838236E-3,1.48299E0,5.81196E5,8.952755E-2,4.114989E-2,1.7704092E1,7.2523283E8,1.4422017E-2,1.2869314E0,6.684675E-2,-4.7752477E-2,2.3372736E-2,-4.639482E-2,4.054619E-2,9.644218E-2,2.7421388E-1,-2.7642844E-2,6.031413E-2,-8.286458E-2,4.54E0,4.42E0,-4.491308E0,-7.1052276E-2,1.1107688E1,-5.35497E-3,2.7331725E-2,8.017E-2,-2.2479339E-2,-7.9987995E-2,-9.548536E-3,3.3141628E-2,-6.3762896E-2,1.982884E-2,-2.1074504E-2,7.7386536E-2,-6.905014E-2,-3.678534E-2],"split_indices":[20,6,6,17,7,7,20,25,19,12,9,27,12,0,12,31,29,0,0,17,1,0,0,9,20,0,29,0,0,0,0,0,0,12,0,0,22,31,26,19,0,11,0,0,0,0,0,0,0,0,0,0,0,0,0],"split_type":[0,0,0,0,0,0,0,0,0,0,0,0,0,0,0,0,0,0,0,0,0,0,0,0,0,0,0,0,0,0,0,0,0,0,0,0,0,0,0,0,0,0,0,0,0,0,0,0,0,0,0,0,0,0,0],"sum_hessian":[2.8822464E2,9.6827805E1,1.9139684E2,2.9852547E1,6.697526E1,1.7591191E2,1.5484915E1,1.5940837E1,1.3911711E1,5.4772255E1,1.2203001E1,1.519622E2,2.3949707E1,8.370712E0,7.114203E0,8.678616E0,7.2622213E0,8.920871E0,4.99084E0,3.9472794E1,1.529946E1,8.831471E0,3.37153E0,1.2477714E2,2.7185066E1,4.2109456E0,1.9738762E1,3.93346E0,3.180743E0,3.8767445E0,4.801871E0,3.3457222E0,3.9164994E0,3.423104E1,5.2417526E0,5.439654E0,9.859806E0,1.0331336E2,2.146378E1,2.2813858E1,4.3712087E0,1.6628908E1,3.1098545E0,1.8469418E1,1.5761623E1,3.2705193E0,6.5892873E0,8.64716E1,1.6841757E1,1.5666672E1,5.7971087E0,5.7606215E0,1.7053236E1,1.3180914E1,3.4479942E0],"tree_param":{"num_deleted":"0","num_feature":"41","num_nodes":"55","size_leaf_vector":"1"}},{"base_weights":[-9.466283E-3,-5.200489E-2,3.5326445E-1,-2.689099E-1,2.6051053E-3,-0E0,6.862337E-1,-3.8244814E-1,2.6580304E-1,-7.22694E-2,2.7965298E-1,3.7080488E-1,-5.8106154E-2,-0E0,8.7054156E-2,-4.626835E-1,4.9659934E-2,-1.435919E-2,7.639149E-2,-1.643899E-2,-4.0275633E-1,6.880165E-1,9.941463E-2,9.471618E-2,-2.7617095E-2,-6.3924336E-1,-3.53459E-2,1.0009652E-1,-4.9453527E-2,3.9218817E-2,-5.4452556E-1,8.927189E-2,3.6986154E-2,-6.651028E-2,2.5320834E-1,-6.7604825E-2,-3.142699E-2,-6.597253E-2,3.4145545E-2,-9.646957E-3,4.5870654E-2,-9.673885E-3,-6.350406E-2,6.369447E-2,-3.110831E-3],"categories":[],"categories_nodes":[],"categories_segments":[],"categories_sizes":[],"default_left":[0,0,0,0,0,0,0,0,0,0,0,0,0,0,0,0,0,0,0,0,0,0,0,0,0,0,0,0,0,0,0,0,0,0,0,0,0,0,0,0,0,0,0,0,0],"id":30,"left_children":[1,3,5,7,9,11,13,15,17,19,21,23,-1,-1,-1,25,-1,-1,-1,27,29,31,33,-1,-1,35,37,-1,39,-1,41,-1,-1,-1,43,-1,-1,-1,-1,-1,-1,-1,-1,-1,-1],"loss_changes":[4.1497774E0,2.901371E0,3.318997E0,3.0076287E0,4.038885E0,2.9894266E0,1.7496176E0,2.8945913E0,1.8101462E0,2.765876E0,2.9686363E0,3.2484646E0,0E0,0E0,0E0,2.7603664E0,0E0,0E0,0E0,4.2957215E0,2.4860044E0,6.561079E-1,3.3943615E0,0E0,0E0,1.9513702E-1,2.6982532E0,0E0,2.9943726E0,0E0,6.7429495E-1,0E0,0E0,0E0,2.7233515E0,0E0,0E0,0E0,0E0,0E0,0E0,0E0,0E0,0E0,0E0],"parents":[2147483647,0,0,1,1,2,2,3,3,4,4,5,5,6,6,7,7,8,8,9,9,10,10,11,11,15,15,19,19,20,20,21,21,22,22,25,25,26,26,28,28,30,30,34,34],"right_children":[2,4,6,8,10,12,14,16,18,20,22,24,-1,-1,-1,26,-1,-1,-1,28,30,32,34,-1,-1,36,38,-1,40,-1,42,-1,-1,-1,44,-1,-1,-1,-1,-1,-1,-1,-1,-1,-1],"split_conditions":[4.330449E2,1.384E1,5.8040338E0,7.264393E8,3.910375E2,5.082396E1,3.74E0,7.0309715E1,6.029107E1,4E0,6.69E1,4E0,-5.8106154E-2,-0E0,8.7054156E-2,4.066685E2,4.9659934E-2,-1.435919E-2,7.639149E-2,-9.904659E0,2.84E0,7.3422728E0,7.181571E-1,9.471618E-2,-2.7617095E-2,4.88E0,1.8349003E0,1.0009652E-1,1.1665079E9,3.9218817E-2,4.714758E0,8.927189E-2,3.6986154E-2,-6.651028E-2,4.9138376E7,-6.7604825E-2,-3.142699E-2,-6.597253E-2,3.4145545E-2,-9.646957E-3,4.5870654E-2,-9.673885E-3,-6.350406E-2,6.369447E-2,-3.110831E-3],"split_indices":[7,8,17,20,7,25,26,25,25,38,27,38,0,0,0,15,0,0,0,14,31,5,29,0,0,31,13,0,20,0,11,0,0,0,21,0,0,0,0,0,0,0,0,0,0],"split_type":[0,0,0,0,0,0,0,0,0,0,0,0,0,0,0,0,0,0,0,0,0,0,0,0,0,0,0,0,0,0,0,0,0,0,0,0,0,0,0,0,0,0,0,0,0],"sum_hessian":[2.706745E2,2.425869E2,2.80876E1,4.908104E1,1.9350586E2,1.3669765E1,1.4417834E1,4.0662468E1,8.4185705E0,1.5210986E2,4.1395996E1,8.361521E0,5.3082447E0,3.1879E0,1.1229935E1,3.740907E1,3.253401E0,4.5496535E0,3.8689167E0,1.3047566E2,2.1634192E1,1.2419887E1,2.8976109E1,4.4793077E0,3.8822134E0,2.62712E1,1.1137869E1,3.913486E0,1.2656218E2,3.1407902E0,1.84934E1,7.256266E0,5.163621E0,4.6881847E0,2.4287924E1,2.3225094E1,3.046106E0,4.2634377E0,6.8744307E0,1.1609833E2,1.0463857E1,3.3302054E0,1.5163196E1,1.0433601E1,1.38543215E1],"tree_param":{"num_deleted":"0","num_feature":"41","num_nodes":"45","size_leaf_vector":"1"}},{"base_weights":[-6.406689E-2,-1.0258969E-1,2.8117052E-1,4.2262244E-1,-1.2615167E-1,3.8260192E-1,-3.8367517E-2,-6.242411E-4,8.246641E-2,-3.4255964E-1,-7.616268E-2,1.7049201E-1,8.0174255E-1,-4.6188214E-1,-5.851697E-2,6.357092E-2,-1.8594861E-1,3.651786E-1,-2.5723664E-2,1.05143644E-1,4.9744207E-2,-6.355479E-2,-2.3034221E-1,2.568215E-1,-6.0485464E-2,-1.2637644E-1,2.1007133E-1,-2.3989537E-1,4.5232287E-1,6.701658E-2,-1.8663638E-3,3.0641748E-2,-5.065241E-2,-1.7067667E-2,8.59484E-2,4.1202843E-2,-2.7298028E-2,-8.233729E-3,3.9749205E-2,-1.5489379E-2,-5.673907E-2,5.9115756E-3,8.153705E-2],"categories":[],"categories_nodes":[],"categories_segments":[],"categories_sizes":[],"default_left":[0,0,0,0,0,0,0,0,0,0,0,0,0,0,0,0,0,0,0,0,0,0,0,0,0,0,0,0,0,0,0,0,0,0,0,0,0,0,0,0,0,0,0],"id":31,"left_children":[1,3,5,7,9,11,-1,-1,-1,13,15,17,19,21,23,25,27,29,-1,-1,-1,-1,31,33,-1,35,37,39,41,-1,-1,-1,-1,-1,-1,-1,-1,-1,-1,-1,-1,-1,-1],"loss_changes":[3.2040753E0,2.674428E0,1.6372893E0,1.6693516E0,2.2162194E0,1.7612789E0,0E0,0E0,0E0,1.2606311E0,2.625427E0,1.2083161E0,3.163638E-1,9.871459E-1,2.0906804E0,2.0866332E0,3.287459E0,1.2378871E0,0E0,0E0,0E0,0E0,1.8150644E0,2.0063326E0,0E0,2.5424027E0,2.360929E0,2.383235E0,9.575902E-1,0E0,0E0,0E0,0E0,0E0,0E0,0E0,0E0,0E0,0E0,0E0,0E0,0E0,0E0],"parents":[2147483647,0,0,1,1,2,2,3,3,4,4,5,5,9,9,10,10,11,11,12,12,13,13,