{"learner":{"attributes":{"scikit_learn":"{\"_estimator_type\": \"classifier\"}"},"feature_names":["RSXFS","INDPRO","UNRATE","macd","UMCSENT","ad_line","DFF","bb_position","volume_ratio","BAMLH0A0HYM2","lower_shadow","rsi_14","price_volume_correlation","VIXCLS","macd_hist","price_change_20d","is_doji","ICSA","HOUST","candle_body","DGS10","upper_shadow","volume_sma_20","candle_range","DGS2","volume_roc_10","T10Y2Y","inflation_yoy","lower_lows","roc_10","sma_10","higher_highs","candle_direction","gdp_growth_yoy","CSCICP03USM665S","price_above_sma20","CPIAUCSL","price_above_sma50"],"feature_types":["float","float","float","float","float","float","float","float","float","float","float","float","float","float","float","float","int","float","float","float","float","float","float","float","float","float","float","float","float","float","float","float","int","float","float","int","float","int"],"gradient_booster":{"model":{"cats":{"enc":[],"feature_segments":[],"sorted_idx":[]},"gbtree_model_param":{"num_parallel_tree":"1","num_trees":"900"},"iteration_indptr":[0,3,6,9,12,15,18,21,24,27,30,33,36,39,42,45,48,51,54,57,60,63,66,69,72,75,78,81,84,87,90,93,96,99,102,105,108,111,114,117,120,123,126,129,132,135,138,141,144,147,150,153,156,159,162,165,168,171,174,177,180,183,186,189,192,195,198,201,204,207,210,213,216,219,222,225,228,231,234,237,240,243,246,249,252,255,258,261,264,267,270,273,276,279,282,285,288,291,294,297,300,303,306,309,312,315,318,321,324,327,330,333,336,339,342,345,348,351,354,357,360,363,366,369,372,375,378,381,384,387,390,393,396,399,402,405,408,411,414,417,420,423,426,429,432,435,438,441,444,447,450,453,456,459,462,465,468,471,474,477,480,483,486,489,492,495,498,501,504,507,510,513,516,519,522,525,528,531,534,537,540,543,546,549,552,555,558,561,564,567,570,573,576,579,582,585,588,591,594,597,600,603,606,609,612,615,618,621,624,627,630,633,636,639,642,645,648,651,654,657,660,663,666,669,672,675,678,681,684,687,690,693,696,699,702,705,708,711,714,717,720,723,726,729,732,735,738,741,744,747,750,753,756,759,762,765,768,771,774,777,780,783,786,789,792,795,798,801,804,807,810,813,816,819,822,825,828,831,834,837,840,843,846,849,852,855,858,861,864,867,870,873,876,879,882,885,888,891,894,897,900],"tree_info":[0,1,2,0,1,2,0,1,2,0,1,2,0,1,2,0,1,2,0,1,2,0,1,2,0,1,2,0,1,2,0,1,2,0,1,2,0,1,2,0,1,2,0,1,2,0,1,2,0,1,2,0,1,2,0,1,2,0,1,2,0,1,2,0,1,2,0,1,2,0,1,2,0,1,2,0,1,2,0,1,2,0,1,2,0,1,2,0,1,2,0,1,2,0,1,2,0,1,2,0,1,2,0,1,2,0,1,2,0,1,2,0,1,2,0,1,2,0,1,2,0,1,2,0,1,2,0,1,2,0,1,2,0,1,2,0,1,2,0,1,2,0,1,2,0,1,2,0,1,2,0,1,2,0,1,2,0,1,2,0,1,2,0,1,2,0,1,2,0,1,2,0,1,2,0,1,2,0,1,2,0,1,2,0,1,2,0,1,2,0,1,2,0,1,2,0,1,2,0,1,2,0,1,2,0,1,2,0,1,2,0,1,2,0,1,2,0,1,2,0,1,2,0,1,2,0,1,2,0,1,2,0,1,2,0,1,2,0,1,2,0,1,2,0,1,2,0,1,2,0,1,2,0,1,2,0,1,2,0,1,2,0,1,2,0,1,2,0,1,2,0,1,2,0,1,2,0,1,2,0,1,2,0,1,2,0,1,2,0,1,2,0,1,2,0,1,2,0,1,2,0,1,2,0,1,2,0,1,2,0,1,2,0,1,2,0,1,2,0,1,2,0,1,2,0,1,2,0,1,2,0,1,2,0,1,2,0,1,2,0,1,2,0,1,2,0,1,2,0,1,2,0,1,2,0,1,2,0,1,2,0,1,2,0,1,2,0,1,2,0,1,2,0,1,2,0,1,2,0,1,2,0,1,2,0,1,2,0,1,2,0,1,2,0,1,2,0,1,2,0,1,2,0,1,2,0,1,2,0,1,2,0,1,2,0,1,2,0,1,2,0,1,2,0,1,2,0,1,2,0,1,2,0,1,2,0,1,2,0,1,2,0,1,2,0,1,2,0,1,2,0,1,2,0,1,2,0,1,2,0,1,2,0,1,2,0,1,2,0,1,2,0,1,2,0,1,2,0,1,2,0,1,2,0,1,2,0,1,2,0,1,2,0,1,2,0,1,2,0,1,2,0,1,2,0,1,2,0,1,2,0,1,2,0,1,2,0,1,2,0,1,2,0,1,2,0,1,2,0,1,2,0,1,2,0,1,2,0,1,2,0,1,2,0,1,2,0,1,2,0,1,2,0,1,2,0,1,2,0,1,2,0,1,2,0,1,2,0,1,2,0,1,2,0,1,2,0,1,2,0,1,2,0,1,2,0,1,2,0,1,2,0,1,2,0,1,2,0,1,2,0,1,2,0,1,2,0,1,2,0,1,2,0,1,2,0,1,2,0,1,2,0,1,2,0,1,2,0,1,2,0,1,2,0,1,2,0,1,2,0,1,2,0,1,2,0,1,2,0,1,2,0,1,2,0,1,2,0,1,2,0,1,2,0,1,2,0,1,2,0,1,2,0,1,2,0,1,2,0,1,2,0,1,2,0,1,2,0,1,2,0,1,2,0,1,2,0,1,2,0,1,2,0,1,2,0,1,2,0,1,2,0,1,2,0,1,2,0,1,2,0,1,2,0,1,2,0,1,2,0,1,2,0,1,2,0,1,2,0,1,2,0,1,2,0,1,2,0,1,2,0,1,2,0,1,2,0,1,2,0,1,2,0,1,2,0,1,2,0,1,2,0,1,2,0,1,2,0,1,2,0,1,2,0,1,2,0,1,2,0,1,2,0,1,2,0,1,2,0,1,2,0,1,2,0,1,2,0,1,2,0,1,2,0,1,2,0,1,2,0,1,2,0,1,2,0,1,2,0,1,2,0,1,2,0,1,2,0,1,2,0,1,2,0,1,2,0,1,2,0,1,2,0,1,2,0,1,2,0,1,2,0,1,2,0,1,2,0,1,2,0,1,2,0,1,2,0,1,2,0,1,2,0,1,2,0,1,2,0,1,2,0,1,2,0,1,2,0,1,2],"trees":[{"base_weights":[-3.70766E-2,-2.9726803E-1,4.767E-3,-8.0930725E-2,-5.382505E-1,-2.7006915E-2,3.7496498E-1,-2.0678009E-1,5.9044607E-2,-6.4212036E-1,8.304056E-3,4.7780523E-1,-5.701837E-2,-5.6688666E-2,1.0441113E0,4.8772614E-2,-3.463083E-1,-7.3137455E-2,-1.3855702E-2,-3.7055954E-2,6.71765E-1,6.967481E-1,-7.376511E-2,3.830231E-1,-5.8544934E-2,4.8772614E-2,1.3506798E-1,-4.982596E-1,3.600375E-2,3.3599898E-1,1.4756447E-1,1.4582977E-1,-5.5239336E-3,-6.347028E-1,-5.0849844E-2,1.19102836E-1,-1.4916754E-2,-2.159607E-3,-7.256431E-2,8.054212E-2,-2.5631571E-2,-3.7055954E-2,-7.190042E-2,-2.2009512E-2,1.6719357E-3],"categories":[],"categories_nodes":[],"categories_segments":[],"categories_sizes":[],"default_left":[0,0,0,0,0,0,0,0,0,0,0,0,0,0,0,0,0,0,0,0,0,0,0,0,0,0,0,0,0,0,0,0,0,0,0,0,0,0,0,0,0,0,0,0,0],"id":0,"left_children":[1,3,5,7,9,11,13,15,-1,17,-1,19,21,23,25,-1,27,-1,-1,-1,29,31,33,35,-1,-1,-1,37,-1,39,-1,-1,-1,41,43,-1,-1,-1,-1,-1,-1,-1,-1,-1,-1],"loss_changes":[4.2868094E0,2.775382E0,3.9955297E0,2.4290822E0,1.7099762E0,4.6552305E0,7.864297E0,2.3934507E0,0E0,8.9339256E-1,0E0,2.8872197E0,3.6383708E0,3.8404603E0,1.5635204E0,0E0,2.2558703E0,0E0,0E0,0E0,3.5860205E0,3.7234375E0,3.6123877E0,3.9384756E0,0E0,0E0,0E0,1.7892356E0,0E0,2.9093056E0,0E0,0E0,0E0,1.1088514E-1,3.1729364E0,0E0,0E0,0E0,0E0,0E0,0E0,0E0,0E0,0E0,0E0],"parents":[2147483647,0,0,1,1,2,2,3,3,4,4,5,5,6,6,7,7,9,9,11,11,12,12,13,13,14,14,16,16,20,20,21,21,22,22,23,23,27,27,29,29,33,33,34,34],"right_children":[2,4,6,8,10,12,14,16,-1,18,-1,20,22,24,26,-1,28,-1,-1,-1,30,32,34,36,-1,-1,-1,38,-1,40,-1,-1,-1,42,44,-1,-1,-1,-1,-1,-1,-1,-1,-1,-1],"split_conditions":[2.05E5,7.747076E-1,7.487565E1,5.1311703E0,1.536906E3,1.9892381E-1,-1.5059677E8,5.407282E-1,5.9044607E-2,1.9961285E1,8.304056E-3,5.6910586E-1,-3.0769165E8,2.5188777E3,3.7E0,4.8772614E-2,1.3382288E0,-7.3137455E-2,-1.3855702E-2,-3.7055954E-2,1.2188541E1,-1.5756136E-1,-2.7239418E8,8.3000015E1,-5.8544934E-2,4.8772614E-2,1.3506798E-1,8.1290405E2,3.600375E-2,2.142575E1,1.4756447E-1,1.4582977E-1,-5.5239336E-3,-8.2649185E1,1.5367023E0,1.19102836E-1,-1.4916754E-2,-2.159607E-3,-7.256431E-2,8.054212E-2,-2.5631571E-2,-3.7055954E-2,-7.190042E-2,-2.2009512E-2,1.6719357E-3],"split_indices":[17,7,11,19,30,19,5,8,0,29,0,8,5,30,2,0,8,0,0,0,3,12,5,11,0,0,0,30,0,23,0,0,0,3,19,0,0,0,0,0,0,0,0,0,0],"split_type":[0,0,0,0,0,0,0,0,0,0,0,0,0,0,0,0,0,0,0,0,0,0,0,0,0,0,0,0,0,0,0,0,0,0,0,0,0,0,0,0,0,0,0,0,0],"sum_hessian":[3.9094275E2,5.4407295E1,3.3653543E2,2.8958721E1,2.5448574E1,3.0977057E2,2.676488E1,2.4571037E1,4.387685E0,2.1938425E1,3.510148E0,1.711197E1,2.926586E2,1.6234434E1,1.0530444E1,3.9489164E0,2.062212E1,1.8428278E1,3.510148E0,3.0713797E0,1.4040592E1,6.1427593E0,2.8651584E2,8.77537E0,7.4590645E0,3.9489164E0,6.5815277E0,1.711197E1,3.510148E0,1.0091676E1,3.9489164E0,3.0713797E0,3.0713797E0,1.0969213E1,2.7554663E2,3.510148E0,5.265222E0,5.7039905E0,1.1407981E1,5.7039905E0,4.387685E0,3.0713797E0,7.897833E0,7.897833E1,1.965683E2],"tree_param":{"num_deleted":"0","num_feature":"38","num_nodes":"45","size_leaf_vector":"1"}},{"base_weights":[-5.4731343E-2,-8.638694E-2,2.8868112E-1,-3.2929406E-1,-1.0382814E-2,-1.378873E-1,5.4344195E-1,-4.849328E-1,-1.5304185E-1,-2.8388873E-2,1.4635116E-1,4.9120884E-2,-4.6717474E-1,-9.404785E-3,7.4958843E-1,-1.9021614E-3,-5.51702E-1,3.5217342E-1,-3.9737308E-1,1.8825354E-1,-7.608607E-2,-5.2763275E-3,-7.041196E-2,3.061928E-1,1.0636373E0,-7.293684E-2,-3.9984387E-1,7.961532E-2,1.14762105E-1,-4.9950957E-1,2.5511574E-4,1.4635116E-1,9.451184E-2,-1.0363706E-1,6.351529E-1,-4.137225E-2,1.14762105E-1,1.4809273E-1,6.787097E-2,-5.448224E-2,6.863794E-3,-2.635859E-2,8.3173044E-2,-6.061564E-2,-1.4683063E-2,4.6310347E-2,-7.409453E-3,-2.9607022E-2,-1.4793685E-3,-0E0,1.2334976E-1],"categories":[],"categories_nodes":[],"categories_segments":[],"categories_sizes":[],"default_left":[0,0,0,0,0,0,0,0,0,0,0,0,0,0,0,0,0,0,0,0,0,0,0,0,0,0,0,0,0,0,0,0,0,0,0,0,0,0,0,0,0,0,0,0,0,0,0,0,0,0,0],"id":1,"left_children":[1,3,5,7,9,11,13,15,17,19,-1,-1,21,-1,23,-1,25,27,29,31,33,-1,-1,35,37,-1,39,41,-1,43,-1,-1,45,47,49,-1,-1,-1,-1,-1,-1,-1,-1,-1,-1,-1,-1,-1,-1,-1,-1],"loss_changes":[4.1444016E0,6.4439545E0,3.533231E0,2.2141294E0,6.964813E0,2.4907794E0,2.733222E0,1.3073874E0,4.896307E0,2.7246175E0,0E0,0E0,7.0447934E-1,0E0,1.9788017E0,0E0,8.886013E-1,2.643374E0,1.1451302E0,5.496629E0,4.211957E0,0E0,0E0,4.1608186E0,1.1065159E0,0E0,1.4859345E0,2.5915787E0,0E0,7.267022E-1,0E0,0E0,2.7974896E0,3.5491536E0,2.9287512E0,0E0,0E0,0E0,0E0,0E0,0E0,0E0,0E0,0E0,0E0,0E0,0E0,0E0,0E0,0E0,0E0],"parents":[2147483647,0,0,1,1,2,2,3,3,4,4,5,5,6,6,7,7,8,8,9,9,12,12,14,14,16,16,17,17,18,18,19,19,20,20,23,23,24,24,26,26,27,27,29,29,32,32,33,33,34,34],"right_children":[2,4,6,8,10,12,14,16,18,20,-1,-1,22,-1,24,-1,26,28,30,32,34,-1,-1,36,38,-1,40,42,-1,44,-1,-1,46,48,50,-1,-1,-1,-1,-1,-1,-1,-1,-1,-1,-1,-1,-1,-1,-1,-1],"split_conditions":[2.811E1,1.0038364E0,-1.8432683E-1,5.4993835E1,6.94811E7,-5.716174E-1,3.91E0,8.978457E-2,7.249557E-1,3.1E0,1.4635116E-1,4.9120884E-2,-3.946094E7,-9.404785E-3,5.9E1,-1.9021614E-3,-4.449045E0,2.3334818E1,2.28E5,6.69E1,2.53E5,-5.2763275E-3,-7.041196E-2,7.473325E-1,6.7953534E0,-7.293684E-2,3.6779558E6,3.347751E-2,1.14762105E-1,2.0017992E7,2.5511574E-4,1.4635116E-1,3.7375815E0,-4.542203E0,4.4424095E0,-4.137225E-2,1.14762105E-1,1.4809273E-1,6.787097E-2,-5.448224E-2,6.863794E-3,-2.635859E-2,8.3173044E-2,-6.061564E-2,-1.4683063E-2,4.6310347E-2,-7.409453E-3,-2.9607022E-2,-1.4793685E-3,-0E0,1.2334976E-1],"split_indices":[13,19,25,11,22,25,9,19,7,9,0,0,5,0,4,0,14,10,17,4,17,0,0,7,10,0,5,27,0,5,0,0,19,14,19,0,0,0,0,0,0,0,0,0,0,0,0,0,0,0,0],"split_type":[0,0,0,0,0,0,0,0,0,0,0,0,0,0,0,0,0,0,0,0,0,0,0,0,0,0,0,0,0,0,0,0,0,0,0,0,0,0,0,0,0,0,0,0,0,0,0,0,0,0,0],"sum_hessian":[3.8276865E2,3.5079828E2,3.1970379E1,8.321058E1,2.675877E2,1.1824661E1,2.0145718E1,4.379504E1,3.9415535E1,2.6452203E2,3.0656528E0,3.9415536E0,7.883107E0,4.8174543E0,1.5328264E1,5.693355E0,3.8101685E1,1.2700562E1,2.6714975E1,4.7298645E1,2.172234E2,3.0656528E0,4.8174543E0,6.569256E0,8.759008E0,1.7080065E1,2.102162E1,9.634909E0,3.0656528E0,2.145957E1,5.255405E0,3.0656528E0,4.423299E1,2.0934029E2,7.883107E0,3.5036032E0,3.0656528E0,3.9415536E0,4.8174543E0,1.6204165E1,4.8174543E0,6.569256E0,3.0656528E0,1.6204165E1,5.255405E0,1.4014413E1,3.0218578E1,6.569256E1,1.4364774E2,3.9415536E0,3.9415536E0],"tree_param":{"num_deleted":"0","num_feature":"38","num_nodes":"51","size_leaf_vector":"1"}},{"base_weights":[6.71212E-2,5.0735587E-1,3.161413E-2,6.4518774E-1,-1.4909761E-2,-6.427931E-2,4.9029034E-2,1.1037971E0,3.177116E-1,-5.7327986E-1,6.88427E-2,5.5832442E-2,1.3866343E-1,6.099517E-1,-3.0303372E-2,-1.087607E-2,-7.4798375E-2,2.9341057E-1,-1.2729003E-2,1.3593243E-1,1.5193443E-1,6.476691E-1,1.5566492E-1,1.9762777E-1,-1.0541057E-1,-1.087607E-2,4.3840937E-2,7.890066E-2,-1.8927554E-2,3.240581E-2,-2.8194685E-2,6.8371676E-2,3.8010732E-3,-1.3551925E-3,-3.8280077E-2],"categories":[],"categories_nodes":[],"categories_segments":[],"categories_sizes":[],"default_left":[0,0,0,0,0,0,0,0,0,0,0,0,0,0,0,0,0,0,0,0,0,0,0,0,0,0,0,0,0,0,0,0,0,0,0],"id":2,"left_children":[1,3,5,7,-1,-1,9,11,13,15,17,-1,-1,19,-1,-1,-1,21,23,-1,25,27,29,31,33,-1,-1,-1,-1,-1,-1,-1,-1,-1,-1],"loss_changes":[6.214039E0,2.748138E0,4.3065553E0,3.5332022E0,0E0,0E0,4.4214025E0,1.2901125E0,2.7124565E0,8.017945E-1,6.465844E0,0E0,0E0,3.3032525E0,0E0,0E0,0E0,4.4949427E0,5.0141187E0,0E0,5.216247E-1,3.159113E0,5.023887E0,6.0139036E0,4.525381E0,0E0,0E0,0E0,0E0,0E0,0E0,0E0,0E0,0E0,0E0],"parents":[2147483647,0,0,1,1,2,2,3,3,6,6,7,7,8,8,9,9,10,10,13,13,17,17,18,18,20,20,21,21,22,22,23,23,24,24],"right_children":[2,4,6,8,-1,-1,10,12,14,16,18,-1,-1,20,-1,-1,-1,22,24,-1,26,28,30,32,34,-1,-1,-1,-1,-1,-1,-1,-1,-1,-1],"split_conditions":[2.03E5,-2.2E-1,2.68E0,1.435E3,-1.4909761E-2,-6.427931E-2,9.816465E-2,4.9092293E1,5.9938944E7,2.68E0,1.3671161E0,5.5832442E-2,1.3866343E-1,5.8141335E1,-3.0303372E-2,-1.087607E-2,-7.4798375E-2,-3.9160013E-1,1.357E3,1.3593243E-1,1.094513E0,1.6081727E-1,6.316633E6,3.9066795E-1,6.3949776E1,-1.087607E-2,4.3840937E-2,7.890066E-2,-1.8927554E-2,3.240581E-2,-2.8194685E-2,6.8371676E-2,3.8010732E-3,-1.3551925E-3,-3.8280077E-2],"split_indices":[17,26,9,18,0,0,19,11,22,20,19,0,0,11,0,0,0,25,18,0,8,12,5,7,11,0,0,0,0,0,0,0,0,0,0],"split_type":[0,0,0,0,0,0,0,0,0,0,0,0,0,0,0,0,0,0,0,0,0,0,0,0,0,0,0,0,0,0,0,0,0,0,0],"sum_hessian":[4.0098508E2,2.9618216E1,3.7136685E2,2.4605902E1,5.0123134E0,9.1132965E0,3.6225354E2,1.0024627E1,1.4581275E1,1.0935956E1,3.513176E2,3.6453187E0,6.3793077E0,1.0024627E1,4.5566483E0,3.1896539E0,7.746302E0,9.386696E1,2.5745062E2,3.6453187E0,6.3793077E0,2.5972897E1,6.789406E1,7.837435E1,1.7907628E2,3.1896539E0,3.1896539E0,2.2327578E1,3.6453187E0,4.9211803E1,1.8682259E1,1.9137924E1,5.923643E1,1.348768E2,4.419949E1],"tree_param":{"num_deleted":"0","num_feature":"38","num_nodes":"35","size_leaf_vector":"1"}},{"base_weights":[-1.7623873E-2,-1.3837719E-1,8.349137E-2,-4.187826E-1,-5.4679815E-2,-1.18300416E-1,1.9081332E-1,-8.2994744E-2,-5.580757E-1,8.660997E-2,-2.3859917E-1,-2.5287104E-1,1.4843982E-1,1.452656E-1,8.010752E-1,-7.013552E-2,3.6089545E-1,-2.8387162E-1,-6.7851746E-1,-6.9188476E-3,7.218147E-1,-2.154738E-2,-4.5939308E-1,5.905498E-2,-3.6853206E-1,-2.0106652E-1,5.586295E-1,6.1166406E-1,8.170332E-2,1.0780177E0,1.8277891E-2,8.910376E-2,-1.5169357E-2,-6.9792E-2,2.3804666E-2,-3.674883E-2,-7.273307E-2,1.4962348E-1,-3.3250245E-1,1.11202754E-1,2.6243914E-2,-3.3523634E-1,3.9744747E-1,2.0508237E-2,-5.393155E-1,-2.4624763E-1,-6.4460117E-1,5.0554644E-2,-4.296317E-1,2.072911E-1,1.4356998E-1,2.4629243E-1,1.4780758E-1,2.3154292E-1,-8.208846E-2,1.356481E-1,7.375659E-2,2.3970054E-2,-5.2062042E-2,-5.4942597E-2,2.7771002E-2,5.2431423E-2,-5.2175242E-2,1.168951E-1,9.200125E-3,-6.6873886E-2,-1.5746055E-2,-6.197157E-2,-6.810605E-3,-3.4906875E-2,-7.190248E-2,-5.8146905E-2,-3.6142755E-3,7.301763E-2,-2.5024975E-2,-1.8651152E-2,1.1613401E-1,-4.4171005E-3,4.2209063E-2,-1.7327761E-2,5.184911E-2],"categories":[],"categories_nodes":[],"categories_segments":[],"categories_sizes":[],"default_left":[0,0,0,0,0,0,0,0,0,0,0,0,0,0,0,0,0,0,0,0,0,0,0,0,0,0,0,0,0,0,0,0,0,0,0,0,0,0,0,0,0,0,0,0,0,0,0,0,0,0,0,0,0,0,0,0,0,0,0,0,0,0,0,0,0,0,0,0,0,0,0,0,0,0,0,0,0,0,0,0,0],"id":3,"left_children":[1,3,5,7,9,11,13,15,17,19,21,23,25,27,29,-1,31,33,35,37,39,41,43,-1,45,47,49,51,53,55,-1,-1,-1,-1,-1,-1,-1,57,59,-1,-1,61,63,-1,65,67,69,-1,71,73,-1,75,-1,77,79,-1,-1,-1,-1,-1,-1,-1,-1,-1,-1,-1,-1,-1,-1,-1,-1,-1,-1,-1,-1,-1,-1,-1,-1,-1,-1],"loss_changes":[4.8249006E0,4.182611E0,4.6523466E0,1.8566127E0,3.6362789E0,2.676579E0,3.7938743E0,3.4621725E0,8.378391E-1,4.737325E0,2.8666108E0,4.8366556E0,3.5859656E0,3.804538E0,1.4929934E0,0E0,2.0409002E0,2.0583053E0,1.6335964E-1,3.5100129E0,1.6647701E0,4.0833297E0,1.6337953E0,0E0,1.3727174E0,2.1574006E0,3.3542151E0,4.694342E0,2.8503675E0,3.0465603E-1,0E0,0E0,0E0,0E0,0E0,0E0,0E0,2.7652025E0,3.014251E0,0E0,0E0,2.9010267E0,2.9707713E0,0E0,1.2350698E0,1.9726363E0,1.5674543E-1,0E0,5.4483473E-1,2.0806148E0,0E0,4.5134506E0,0E0,3.2254732E0,2.9818902E0,0E0,0E0,0E0,0E0,0E0,0E0,0E0,0E0,0E0,0E0,0E0,0E0,0E0,0E0,0E0,0E0,0E0,0E0,0E0,0E0,0E0,0E0,0E0,0E0,0E0,0E0],"parents":[2147483647,0,0,1,1,2,2,3,3,4,4,5,5,6,6,7,7,8,8,9,9,10,10,11,11,12,12,13,13,14,14,16,16,17,17,18,18,19,19,20,20,21,21,22,22,24,24,25,25,26,26,27,27,28,28,29,29,37,37,38,38,41,41,42,42,44,44,45,45,46,46,48,48,49,49,51,51,53,53,54,54],"right_children":[2,4,6,8,10,12,14,16,18,20,22,24,26,28,30,-1,32,34,36,38,40,42,44,-1,46,48,50,52,54,56,-1,-1,-1,-1,-1,-1,-1,58,60,-1,-1,62,64,-1,66,68,70,-1,72,74,-1,76,-1,78,80,-1,-1,-1,-1,-1,-1,-1,-1,-1,-1,-1,-1,-1,-1,-1,-1,-1,-1,-1,-1,-1,-1,-1,-1,-1,-1],"split_conditions":[1.6120237E3,-1.7952749E-1,-1.689691E8,-3.3369496E-1,3.52E0,5.5394128E-2,7.529776E1,-4.437671E-1,-4.125538E-1,2.51095E1,6.774106E-1,5.364479E7,4.14E0,4.83E0,6.2008356E7,-7.013552E-2,4.7233418E-2,-5.3902733E-1,5.74485E5,2.702E1,3E0,3.5909173E-1,-1.5604614E-1,5.905498E-2,1E0,-1.3961372E-1,1.474E1,2.784644E-2,3E0,3.3139568E-2,1.8277891E-2,8.910376E-2,-1.5169357E-2,-6.9792E-2,2.3804666E-2,-3.674883E-2,-7.273307E-2,1.1299614E0,6.3949776E1,1.11202754E-1,2.6243914E-2,1.1749653E1,-1.4173486E-2,2.0508237E-2,1.5036249E3,-2.0489852E-1,1.351E1,5.0554644E-2,3.822321E3,4.9287094E1,1.4356998E-1,3.3084207E3,1.4780758E-1,-1.22089244E-1,1.0030995E8,1.356481E-1,7.375659E-2,2.3970054E-2,-5.2062042E-2,-5.4942597E-2,2.7771002E-2,5.2431423E-2,-5.2175242E-2,1.168951E-1,9.200125E-3,-6.6873886E-2,-1.5746055E-2,-6.197157E-2,-6.810605E-3,-3.4906875E-2,-7.190248E-2,-5.8146905E-2,-3.6142755E-3,7.301763E-2,-2.5024975E-2,-1.8651152E-2,1.1613401E-1,-4.4171005E-3,4.2209063E-2,-1.7327761E-2,5.184911E-2],"split_indices":[30,12,5,12,20,27,11,25,25,3,7,22,24,6,22,0,25,25,0,13,28,7,12,0,16,12,13,15,28,12,0,0,0,0,0,0,0,25,11,0,0,11,12,0,30,12,13,0,30,23,0,30,0,25,5,0,0,0,0,0,0,0,0,0,0,0,0,0,0,0,0,0,0,0,0,0,0,0,0,0,0],"split_type":[0,0,0,0,0,0,0,0,0,0,0,0,0,0,0,0,0,0,0,0,0,0,0,0,0,0,0,0,0,0,0,0,0,0,0,0,0,0,0,0,0,0,0,0,0,0,0,0,0,0,0,0,0,0,0,0,0,0,0,0,0,0,0,0,0,0,0,0,0,0,0,0,0,0,0,0,0,0,0,0,0],"sum_hessian":[3.9451556E2,1.80232E2,2.1428358E2,4.106378E1,1.3916821E2,7.407058E1,1.40213E2,1.2297128E1,2.8766653E1,7.8427864E1,6.074034E1,4.9485306E1,2.4585274E1,1.3074252E2,9.470477E0,5.2085905E0,7.0885377E0,9.13512E0,1.9631533E1,6.831109E1,1.011678E1,3.0913475E1,2.9826868E1,5.8139277E0,4.367138E1,1.3170449E1,1.14148245E1,1.5388843E1,1.1535368E2,6.3777266E0,3.09275E0,3.5442135E0,3.5443244E0,5.1820073E0,3.9531128E0,3.0566378E0,1.6574896E1,4.5960117E1,2.2350965E1,5.2756557E0,4.841124E0,1.7826193E1,1.3087282E1,3.0512173E0,2.677565E1,3.0647528E1,1.3023852E1,3.082416E0,1.0088034E1,8.319738E0,3.0950859E0,1.0995719E1,4.3931236E0,6.0539894E1,5.481379E1,3.1825142E0,3.1952126E0,4.0703262E1,5.256856E0,1.6617483E1,5.733484E0,3.0505624E0,1.477563E1,3.5388005E0,9.548482E0,1.974605E1,7.0296016E0,9.636238E0,2.101129E1,3.0047667E0,1.0019085E1,7.061335E0,3.026698E0,3.9568071E0,4.3629313E0,7.4447813E0,3.5509372E0,2.4557833E1,3.598206E1,4.7794548E1,7.0192432E0],"tree_param":{"num_deleted":"0","num_feature":"38","num_nodes":"81","size_leaf_vector":"1"}},{"base_weights":[-3.7940998E-2,2.3910807E-2,-1.8698926E-1,2.2234029E-1,-4.9533468E-2,-3.382212E-2,-3.751667E-1,-1.3561434E-1,3.748702E-1,-1.1565154E-1,1.6538918E-1,-2.301718E-1,3.0518752E-1,-4.774621E-1,-1.1323531E-1,2.7568093E-1,-6.236965E-1,6.302952E-1,9.5243834E-2,-1.7421511E-1,3.1427953E-1,3.2418754E-2,7.0992893E-1,-3.3978984E-1,1.2844263E-1,-2.912639E-1,5.7548946E-1,-5.593716E-1,-5.536778E-2,-4.142099E-1,4.6039227E-2,9.341764E-2,-0E0,-7.172725E-2,-3.593699E-2,-1.4474817E-2,8.2293874E-1,2.3040865E-1,-6.903042E-2,-4.4549976E-2,-5.1416004E-1,1.0922926E-1,1.3653238E-1,1.3113938E-1,-6.885203E-2,2.4027376E-2,1.0582831E-1,-6.0864973E-1,1.0764432E-3,5.794674E-2,-4.4531804E-2,1.9058928E-2,-6.9120914E-2,1.165567E0,1.7989127E-1,-6.4576715E-1,-7.942927E-3,5.3288996E-2,-6.75877E-2,1.9068541E-2,-7.1239464E-2,-3.3181574E-2,5.4409206E-2,9.999858E-2,-0E0,-4.7631916E-2,4.1829105E-2,-2.311133E-2,1.6881308E-2,-6.6559695E-2,-3.7596487E-2,-4.3196075E-2,3.490606E-2,-1.3958007E-3,1.1730494E-1,-3.1871945E-2,-7.202943E-2,2.1407194E-2,-6.798931E-2,1.4938468E-1,7.8058094E-2,5.92702E-2,-6.776964E-2,-1.1701099E-2,-7.24453E-2],"categories":[],"categories_nodes":[],"categories_segments":[],"categories_sizes":[],"default_left":[0,0,0,0,0,0,0,0,0,0,0,0,0,0,0,0,0,0,0,0,0,0,0,0,0,0,0,0,0,0,0,0,0,0,0,0,0,0,0,0,0,0,0,0,0,0,0,0,0,0,0,0,0,0,0,0,0,0,0,0,0,0,0,0,0,0,0,0,0,0,0,0,0,0,0,0,0,0,0,0,0,0,0,0,0],"id":4,"left_children":[1,3,5,7,9,11,13,15,17,19,21,23,25,27,29,31,33,35,37,39,41,43,45,47,49,51,53,55,57,59,-1,-1,61,-1,-1,-1,63,65,-1,67,69,-1,71,73,-1,-1,-1,75,77,-1,-1,-1,-1,79,81,83,-1,-1,-1,-1,-1,-1,-1,-1,-1,-1,-1,-1,-1,-1,-1,-1,-1,-1,-1,-1,-1,-1,-1,-1,-1,-1,-1,-1,-1],"loss_changes":[3.5615344E0,3.9730299E0,3.2220907E0,4.052458E0,2.8072689E0,4.182269E0,1.2890658E0,4.4475374E0,3.6279778E0,3.809885E0,3.2695978E0,1.5992951E0,3.7375963E0,1.1808548E0,2.533954E0,2.2216978E0,1.1774278E-1,4.0985565E0,2.632722E0,5.8370895E0,2.3531096E0,2.614751E0,1.3036628E0,2.8929658E0,2.428171E0,1.430229E0,3.5582557E0,1.1645899E0,2.300182E0,1.8222675E0,0E0,0E0,1.5116582E0,0E0,0E0,0E0,3.062583E0,2.879621E0,0E0,3.876748E0,6.3898945E-1,0E0,1.8047636E0,5.121115E0,0E0,0E0,0E0,4.3767834E-1,1.9351519E0,0E0,0E0,0E0,0E0,4.4779682E-1,3.4812014E0,9.557562E-1,0E0,0E0,0E0,0E0,0E0,0E0,0E0,0E0,0E0,0E0,0E0,0E0,0E0,0E0,0E0,0E0,0E0,0E0,0E0,0E0,0E0,0E0,0E0,0E0,0E0,0E0,0E0,0E0,0E0],"parents":[2147483647,0,0,1,1,2,2,3,3,4,4,5,5,6,6,7,7,8,8,9,9,10,10,11,11,12,12,13,13,14,14,15,15,16,16,17,17,18,18,19,19,20,20,21,21,22,22,23,23,24,24,25,25,26,26,27,27,28,28,29,29,32,32,36,36,37,37,39,39,40,40,42,42,43,43,47,47,48,48,53,53,54,54,55,55],"right_children":[2,4,6,8,10,12,14,16,18,20,22,24,26,28,30,32,34,36,38,40,42,44,46,48,50,52,54,56,58,60,-1,-1,62,-1,-1,-1,64,66,-1,68,70,-1,72,74,-1,-1,-1,76,78,-1,-1,-1,-1,80,82,84,-1,-1,-1,-1,-1,-1,-1,-1,-1,-1,-1,-1,-1,-1,-1,-1,-1,-1,-1,-1,-1,-1,-1,-1,-1,-1,-1,-1,-1],"split_conditions":[4.6E0,-1.8346858E8,4.746755E1,-2.886895E-1,1.1203308E-1,4.6913047E0,1.6791975E-1,-4.703525E-1,3.131794E-1,1.735E3,4.1E0,9.991219E0,9.107842E0,2.2645633E-1,3.766299E1,8.413914E0,3.81125E1,3.52E0,1.6E-1,9.07689E-2,3.6679652E0,4.07E0,5.152834E1,4.31E0,1.5818246E3,4.21E0,6.792716E0,5E0,3.83E0,5.6426292E1,4.6039227E-2,9.341764E-2,1E0,-7.172725E-2,-3.593699E-2,-1.4474817E-2,9.760402E1,1.2025906E1,-6.903042E-2,1.1619742E1,1.028143E2,1.0922926E-1,3.9722282E-1,4.387041E1,-6.885203E-2,2.4027376E-2,1.0582831E-1,-5.0923314E0,5.5394128E-2,5.794674E-2,-4.4531804E-2,1.9058928E-2,-6.9120914E-2,6.93927E0,4.97E0,5.359862E-1,-7.942927E-3,5.3288996E-2,-6.75877E-2,1.9068541E-2,-7.1239464E-2,-3.3181574E-2,5.4409206E-2,9.999858E-2,-0E0,-4.7631916E-2,4.1829105E-2,-2.311133E-2,1.6881308E-2,-6.6559695E-2,-3.7596487E-2,-4.3196075E-2,3.490606E-2,-1.3958007E-3,1.1730494E-1,-3.1871945E-2,-7.202943E-2,2.1407194E-2,-6.798931E-2,1.4938468E-1,7.8058094E-2,5.92702E-2,-6.776964E-2,-1.1701099E-2,-7.24453E-2],"split_indices":[24,5,23,25,12,19,15,25,25,18,20,14,21,27,21,3,3,20,26,27,21,20,11,20,30,20,19,24,9,23,0,0,16,0,0,0,23,21,0,3,1,0,19,3,0,0,0,29,27,0,0,0,0,14,24,19,0,0,0,0,0,0,0,0,0,0,0,0,0,0,0,0,0,0,0,0,0,0,0,0,0,0,0,0,0],"split_type":[0,0,0,0,0,0,0,0,0,0,0,0,0,0,0,0,0,0,0,0,0,0,0,0,0,0,0,0,0,0,0,0,0,0,0,0,0,0,0,0,0,0,0,0,0,0,0,0,0,0,0,0,0,0,0,0,0,0,0,0,0,0,0,0,0,0,0,0,0,0,0,0,0,0,0,0,0,0,0,0,0,0,0,0,0],"sum_hessian":[3.8441208E2,2.7125864E2,1.13153435E2,7.3591156E1,1.9766748E2,6.2737553E1,5.041588E1,2.1796047E1,5.179511E1,1.5155507E2,4.6112415E1,3.99349E1,2.2802656E1,3.592253E1,1.4493346E1,1.1740902E1,1.0055145E1,2.6816513E1,2.4978598E1,1.3364282E2,1.7912241E1,3.7294994E1,8.81742E0,3.0803316E1,9.131581E0,6.9933457E0,1.5809311E1,2.9858839E1,6.0636916E0,9.638353E0,4.854993E0,3.4770117E0,8.26389E0,7.0202007E0,3.0349443E0,5.240142E0,2.157637E1,2.1480532E1,3.4980652E0,9.703721E1,3.6605614E1,3.1309056E0,1.4781336E1,3.299711E1,4.2978873E0,3.9491572E0,4.8682623E0,1.7340626E1,1.3462689E1,5.209648E0,3.9219332E0,3.0822132E0,3.9111323E0,6.165453E0,9.643858E0,2.5097982E1,4.760857E0,3.037259E0,3.0264323E0,3.0836246E0,6.5547285E0,5.2457504E0,3.0181396E0,1.7642939E1,3.9334326E0,4.367232E0,1.71133E1,5.2015522E1,4.5021687E1,1.6938667E1,1.9666948E1,3.8661015E0,1.0915235E1,2.8965961E1,4.0311446E0,5.1771736E0,1.2163453E1,1.04191675E1,3.0435221E0,3.0321486E0,3.133304E0,6.609692E0,3.0341659E0,3.4479449E0,2.1650038E1],"tree_param":{"num_deleted":"0","num_feature":"38","num_nodes":"85","size_leaf_vector":"1"}},{"base_weights":[6.110619E-2,8.495542E-2,-4.1186875E-1,4.604456E-2,4.1769227E-1,-2.6978692E-3,-6.715994E-2,1.2859157E-1,-1.16413355E-1,6.620546E-1,-1.2355928E-1,4.888211E-2,-4.814815E-2,1.1009788E-1,1.1177504E-1,3.4998065E-1,-1.9934122E-1,-4.629994E-2,8.337933E-1,-5.142148E-1,6.7023516E-2,1.586848E-1,-2.3536982E-1,1.3267282E-1,1.1944035E-1,3.6007288E-1,-2.6533934E-1,1.0003144E0,7.3899464E-3,-7.3340185E-2,-9.539421E-3,-7.0380084E-2,1.7676452E-2,2.0161988E-2,-4.835482E-2,-1.53476E-2,7.291647E-2,7.0734255E-2,-4.0692307E-2,-3.433884E-2,1.6579913E-2,6.8863064E-2,1.2940791E-1],"categories":[],"categories_nodes":[],"categories_segments":[],"categories_sizes":[],"default_left":[0,0,0,0,0,0,0,0,0,0,0,0,0,0,0,0,0,0,0,0,0,0,0,0,0,0,0,0,0,0,0,0,0,0,0,0,0,0,0,0,0,0,0],"id":5,"left_children":[1,3,5,7,9,11,-1,13,15,17,19,-1,-1,21,-1,23,25,-1,27,29,-1,31,33,-1,35,37,39,41,-1,-1,-1,-1,-1,-1,-1,-1,-1,-1,-1,-1,-1,-1,-1],"loss_changes":[4.656482E0,5.075345E0,2.031953E0,4.759198E0,5.504792E0,1.8868799E0,0E0,4.175532E0,4.6000905E0,5.5812626E0,3.9748166E0,0E0,0E0,3.8822834E0,0E0,3.8569355E0,3.7439508E0,0E0,3.0276012E0,7.0791364E-1,0E0,3.1297774E0,3.1107683E0,0E0,2.5027041E0,2.8777733E0,3.0829277E0,1.5671043E0,0E0,0E0,0E0,0E0,0E0,0E0,0E0,0E0,0E0,0E0,0E0,0E0,0E0,0E0,0E0],"parents":[2147483647,0,0,1,1,2,2,3,3,4,4,5,5,7,7,8,8,9,9,10,10,13,13,15,15,16,16,18,18,19,19,21,21,22,22,24,24,25,25,26,26,27,27],"right_children":[2,4,6,8,10,12,-1,14,16,18,20,-1,-1,22,-1,24,26,-1,28,30,-1,32,34,-1,36,38,40,42,-1,-1,-1,-1,-1,-1,-1,-1,-1,-1,-1,-1,-1,-1,-1],"split_conditions":[1.0030995E8,1.2865816E0,1.385E3,1.1444541E0,7.2593085E-2,7.005632E0,-6.715994E-2,9.635892E7,1.365E1,1.2475575E-1,5.515247E-1,4.888211E-2,-4.814815E-2,7.697839E1,1.1177504E-1,3.1972149E1,-2.2091402E8,-4.629994E-2,2.0117107E-1,2.0549078E0,6.7023516E-2,5.468246E-2,1.025954E2,1.3267282E-1,3.2739416E-1,3.9614588E-2,4E-1,4.28E0,7.3899464E-3,-7.3340185E-2,-9.539421E-3,-7.0380084E-2,1.7676452E-2,2.0161988E-2,-4.835482E-2,-1.53476E-2,7.291647E-2,7.0734255E-2,-4.0692307E-2,-3.433884E-2,1.6579913E-2,6.8863064E-2,1.2940791E-1],"split_indices":[5,25,18,8,15,3,0,5,13,7,27,0,0,23,0,11,5,0,12,25,0,19,1,0,25,27,26,24,0,0,0,0,0,0,0,0,0,0,0,0,0,0,0],"split_type":[0,0,0,0,0,0,0,0,0,0,0,0,0,0,0,0,0,0,0,0,0,0,0,0,0,0,0,0,0,0,0,0,0,0,0,0,0,0,0,0,0,0,0],"sum_hessian":[4.1529343E2,3.9563733E2,1.96561E1,3.545858E2,4.105154E1,7.821083E0,1.1835017E1,2.3554079E2,1.1904499E2,2.8394522E1,1.2657019E1,3.7551203E0,4.065963E0,2.314262E2,4.114605E0,1.774086E1,1.0130413E2,3.66081E0,2.4733711E1,8.590509E0,4.066509E0,2.031925E2,2.8233675E1,3.2141175E0,1.4526742E1,1.0483446E1,9.082069E1,2.0153984E1,4.579727E0,5.433202E0,3.1573079E0,3.9805002E0,1.99212E2,1.0087515E1,1.814616E1,9.973405E0,4.553337E0,7.3112965E0,3.17215E0,7.711318E1,1.3707506E1,1.0106176E1,1.0047808E1],"tree_param":{"num_deleted":"0","num_feature":"38","num_nodes":"43","size_leaf_vector":"1"}},{"base_weights":[-1.4189493E-2,-4.3667946E-2,4.6358293E-1,-2.571479E-1,8.573375E-3,7.2659075E-1,-2.1790983E-1,-6.1101675E-1,-1.2520981E-1,-4.7951996E-2,1.9788976E-1,1.023274E0,-4.2769536E-3,-3.7210379E-3,-3.5928413E-2,-5.7324427E-3,-7.0955954E-2,3.6172703E-1,-2.3900951E-1,8.62719E-3,-2.888278E-1,3.172175E-1,-1.531703E-1,1.4121632E-1,5.9547603E-2,8.89574E-2,3.5161473E-2,-1.4226604E-1,-6.956907E-2,-2.86519E-2,4.651488E-1,-4.103202E-1,3.926326E-2,2.0790188E-1,1.002088E0,2.2887729E-1,-5.081067E-1,-1.1009512E-2,2.189499E-2,2.1538902E-2,-3.366441E-2,1.5289669E-2,-1.1523137E-2,1.341629E-1,7.0032375E-3,1.860385E-2,-4.7914457E-2,4.3547533E-2,-6.8942994E-2,1.8870914E-3,5.5645652E-2,5.8580842E-2,1.4184552E-1,7.208314E-2,-2.3683444E-2,-7.1464255E-2,-8.944991E-3],"categories":[],"categories_nodes":[],"categories_segments":[],"categories_sizes":[],"default_left":[0,0,0,0,0,0,0,0,0,0,0,0,0,0,0,0,0,0,0,0,0,0,0,0,0,0,0,0,0,0,0,0,0,0,0,0,0,0,0,0,0,0,0,0,0,0,0,0,0,0,0,0,0,0,0,0,0],"id":6,"left_children":[1,3,5,7,9,11,13,15,17,19,21,23,-1,-1,-1,-1,-1,25,27,29,31,33,35,-1,-1,-1,37,39,-1,41,43,45,47,49,51,53,55,-1,-1,-1,-1,-1,-1,-1,-1,-1,-1,-1,-1,-1,-1,-1,-1,-1,-1,-1,-1],"loss_changes":[5.386466E0,4.075529E0,4.0461974E0,3.2701936E0,3.1353939E0,3.7884817E0,1.1621407E-1,9.70314E-1,2.9121923E0,3.0831718E0,2.8468628E0,1.670332E0,0E0,0E0,0E0,0E0,0E0,1.6007961E0,1.8007088E0,3.1301136E0,1.7517536E0,3.6453261E0,2.340153E0,0E0,0E0,0E0,1.8150944E-1,2.5004983E0,0E0,2.6305876E0,4.661028E0,1.3349442E0,3.319765E0,2.8322E0,8.969431E-1,1.9221865E0,6.880932E-1,0E0,0E0,0E0,0E0,0E0,0E0,0E0,0E0,0E0,0E0,0E0,0E0,0E0,0E0,0E0,0E0,0E0,0E0,0E0,0E0],"parents":[2147483647,0,0,1,1,2,2,3,3,4,4,5,5,6,6,7,7,8,8,9,9,10,10,11,11,17,17,18,18,19,19,20,20,21,21,22,22,26,26,27,27,29,29,30,30,31,31,32,32,33,33,34,34,35,35,36,36],"right_children":[2,4,6,8,10,12,14,16,18,20,22,24,-1,-1,-1,-1,-1,26,28,30,32,34,36,-1,-1,-1,38,40,-1,42,44,46,48,50,52,54,56,-1,-1,-1,-1,-1,-1,-1,-1,-1,-1,-1,-1,-1,-1,-1,-1,-1,-1,-1,-1],"split_conditions":[1.0351198E0,-2.0447917E8,4.33E0,1.397997E1,4.26E0,2.36E5,1.2732305E1,-1.5874936E-1,-3.0769165E8,4.04E0,4.03E0,2E0,-4.2769536E-3,-3.7210379E-3,-3.5928413E-2,-5.7324427E-3,-7.0955954E-2,3.283392E1,2.113E1,7.487565E1,1.380707E0,3.9E0,1.9896431E1,1.4121632E-1,5.9547603E-2,8.89574E-2,7.870496E-1,2.2635693E1,-6.956907E-2,-4.6684494E0,1.029659E2,-7.6E-1,1E0,2.0259608E-2,-6.2852144E-2,4.3597674E0,1.823E1,-1.1009512E-2,2.189499E-2,2.1538902E-2,-3.366441E-2,1.5289669E-2,-1.1523137E-2,1.341629E-1,7.0032375E-3,1.860385E-2,-4.7914457E-2,4.3547533E-2,-6.8942994E-2,1.8870914E-3,5.5645652E-2,5.8580842E-2,1.4184552E-1,7.208314E-2,-2.3683444E-2,-7.1464255E-2,-8.944991E-3],"split_indices":[7,5,9,10,20,17,21,15,5,20,9,28,0,0,0,0,0,21,13,11,8,9,10,0,0,0,7,10,0,14,1,26,32,15,15,29,13,0,0,0,0,0,0,0,0,0,0,0,0,0,0,0,0,0,0,0,0],"split_type":[0,0,0,0,0,0,0,0,0,0,0,0,0,0,0,0,0,0,0,0,0,0,0,0,0,0,0,0,0,0,0,0,0,0,0,0,0,0,0,0,0,0,0,0,0,0,0,0,0,0,0,0,0,0,0,0,0],"sum_hessian":[3.8519086E2,3.6308853E2,2.2102316E1,7.168313E1,2.914054E2,1.6048756E1,6.0535607E0,1.9163635E1,5.2519497E1,2.240545E2,6.735089E1,1.1652325E1,4.3964314E0,3.0231473E0,3.0304134E0,3.072548E0,1.6091087E1,9.741226E0,4.277827E1,1.8117879E2,4.287572E1,5.0485138E1,1.6865755E1,5.860755E0,5.7915697E0,3.5402665E0,6.2009597E0,3.5589172E1,7.189098E0,1.6738496E2,1.3793811E1,3.1493412E1,1.1382307E1,4.377445E1,6.7106905E0,8.004077E0,8.861678E0,3.1820383E0,3.0189211E0,1.23464575E1,2.3242714E1,5.365149E1,1.1373348E2,4.133001E0,9.6608095E0,3.0905674E0,2.8402845E1,7.488214E0,3.8940928E0,2.8636425E1,1.5138023E1,3.596158E0,3.1145322E0,3.9701538E0,4.033923E0,5.7268806E0,3.1347978E0],"tree_param":{"num_deleted":"0","num_feature":"38","num_nodes":"57","size_leaf_vector":"1"}},{"base_weights":[-5.8628995E-2,-7.595818E-2,5.4034597E-1,7.965887E-2,-1.4861049E-1,9.485624E-1,-3.3102606E-3,3.1968647E-1,-9.85515E-2,-2.6672903E-1,-3.2080006E-2,4.497654E-2,1.3895075E-1,1.18171E-1,7.709124E-1,-2.0857745E-1,5.4321754E-1,-6.1374056E-1,-2.0512381E-1,-1.08804E-1,4.7380766E-1,-0E0,8.528718E-2,1.484735E-1,1.3392448E-1,-6.247803E-1,-9.553308E-2,1.1281586E-1,9.789912E-3,-1.4572526E-2,-7.129291E-2,-3.663543E-1,-3.200725E-2,4.939162E-1,-1.6063792E-1,-2.9872462E-2,7.8897595E-1,-4.2008284E-2,2.0148054E-2,-6.8536855E-2,8.71555E-2,-6.981381E-2,-3.5156254E-2,-2.231126E-2,3.7770256E-2,-1.899353E-2,-6.6621505E-2,2.781245E-2,-2.320673E-2,1.1467265E-1,1.1227212E-2,4.1147817E-2,-2.2489462E-2,1.2495927E-1,2.5637934E-2],"categories":[],"categories_nodes":[],"categories_segments":[],"categories_sizes":[],"default_left":[0,0,0,0,0,0,0,0,0,0,0,0,0,0,0,0,0,0,0,0,0,0,0,0,0,0,0,0,0,0,0,0,0,0,0,0,0,0,0,0,0,0,0,0,0,0,0,0,0,0,0,0,0,0,0],"id":7,"left_children":[1,3,5,7,9,11,-1,13,15,17,19,-1,-1,21,23,25,27,29,31,33,35,37,-1,39,-1,41,43,-1,-1,-1,-1,45,47,49,51,-1,53,-1,-1,-1,-1,-1,-1,-1,-1,-1,-1,-1,-1,-1,-1,-1,-1,-1,-1],"loss_changes":[3.994781E0,4.28461E0,2.619661E0,5.1589975E0,3.5251513E0,1.162559E0,0E0,4.5758457E0,4.8299017E0,2.6387854E0,5.037093E0,0E0,0E0,3.119422E0,5.384328E0,2.6914947E0,2.4584892E0,7.848878E-1,3.0006466E0,3.524876E0,4.2223215E0,2.6289623E0,0E0,4.7140284E0,0E0,1.1833191E-1,2.806308E0,0E0,0E0,0E0,0E0,2.8703065E0,3.2876759E0,2.0713286E0,3.845828E0,0E0,2.8163123E0,0E0,0E0,0E0,0E0,0E0,0E0,0E0,0E0,0E0,0E0,0E0,0E0,0E0,0E0,0E0,0E0,0E0,0E0],"parents":[2147483647,0,0,1,1,2,2,3,3,4,4,5,5,7,7,8,8,9,9,10,10,13,13,14,14,15,15,16,16,17,17,18,18,19,19,20,20,21,21,23,23,25,25,26,26,31,31,32,32,33,33,34,34,36,36],"right_children":[2,4,6,8,10,12,-1,14,16,18,20,-1,-1,22,24,26,28,30,32,34,36,38,-1,40,-1,42,44,-1,-1,-1,-1,46,48,50,52,-1,54,-1,-1,-1,-1,-1,-1,-1,-1,-1,-1,-1,-1,-1,-1,-1,-1,-1,-1],"split_conditions":[1.82E3,-1.738862E8,3E0,3.3455395E1,1.1619742E1,-6.504974E0,-3.3102606E-3,4.43E0,2.238E1,-2.5409535E-1,5.08E0,4.497654E-2,1.3895075E-1,2.4203676E1,-2.1921099E8,-1.3806485E1,-2.1921099E8,-4.75639E-2,4.534722E-1,-5.716174E-1,-4.1615275E-1,-2.886895E-1,8.528718E-2,2.4998147E0,1.3392448E-1,5.2793736E1,8.630549E0,1.1281586E-1,9.789912E-3,-1.4572526E-2,-7.129291E-2,3E0,-2.9425118E-3,5.8713068E7,-8.3E-1,-2.9872462E-2,3.3796191E0,-4.2008284E-2,2.0148054E-2,-6.8536855E-2,8.71555E-2,-6.981381E-2,-3.5156254E-2,-2.231126E-2,3.7770256E-2,-1.899353E-2,-6.6621505E-2,2.781245E-2,-2.320673E-2,1.1467265E-1,1.1227212E-2,4.1147817E-2,-2.2489462E-2,1.2495927E-1,2.5637934E-2],"split_indices":[18,5,31,3,3,29,0,24,13,12,9,0,0,3,5,14,5,15,7,25,25,25,0,19,0,10,19,0,0,0,0,31,15,22,26,0,14,0,0,0,0,0,0,0,0,0,0,0,0,0,0,0,0,0,0],"split_type":[0,0,0,0,0,0,0,0,0,0,0,0,0,0,0,0,0,0,0,0,0,0,0,0,0,0,0,0,0,0,0,0,0,0,0,0,0,0,0,0,0,0,0,0,0,0,0,0,0,0,0,0,0,0,0],"sum_hessian":[3.8884158E2,3.7815527E2,1.0686292E1,1.19916016E2,2.5823926E2,6.3061504E0,4.3801413E0,5.130125E1,6.861477E1,1.277556E2,1.3048366E2,3.1601617E0,3.1459887E0,3.5703873E1,1.559738E1,5.8763565E1,9.851205E0,1.8881252E1,1.08874344E2,1.135401E2,1.6943567E1,3.0828E1,4.8758717E0,7.588508E0,8.008872E0,1.2265944E1,4.649762E1,4.094734E0,5.75647E0,3.5212994E0,1.5359954E1,5.601554E1,5.2858807E1,8.770885E0,1.0476921E2,4.8190827E0,1.2124484E1,9.97836E0,2.0849638E1,3.4625216E0,4.1259866E0,9.258534E0,3.0074084E0,3.68322E1,9.665422E0,3.5579597E1,2.0435944E1,2.0516068E1,3.234274E1,3.0652375E0,5.7056484E0,1.0367196E1,9.4402016E1,6.32871E0,5.795774E0],"tree_param":{"num_deleted":"0","num_feature":"38","num_nodes":"55","size_leaf_vector":"1"}},{"base_weights":[7.410276E-2,4.60056E-1,3.9998338E-2,6.4150786E-1,-5.2585315E-2,3.45179E-1,2.282707E-3,8.4535575E-1,1.060995E-1,-3.926907E-2,4.6476892E-1,9.88247E-2,-1.6717553E-1,3.360515E-2,9.3948305E-1,-4.8793335E-2,7.818367E-2,1.0465254E0,3.0026525E-1,-4.1312176E-1,1.6207634E-1,-3.2742888E-1,3.1836353E-2,5.5254793E-1,1.2808079E-1,1.3055171E-1,6.595414E-2,-2.5424669E-2,4.5789254E-1,-1.7740712E-1,-7.3910706E-2,8.958592E-1,1.1499394E-1,1.0167149E-1,-4.636944E-1,-7.2300024E-2,9.7669795E-2,1.046878E-1,-1.4451799E-2,6.542873E-2,-1.6661983E-2,5.2857436E-2,-4.5191336E-2,1.0860299E-1,3.8714368E-2,3.6190841E-3,4.9526043E-2,8.457645E-2,-3.4431923E-2,3.6284465E-3,-5.0391633E-2,2.1087712E-2,-4.9298253E-2],"categories":[],"categories_nodes":[],"categories_segments":[],"categories_sizes":[],"default_left":[0,0,0,0,0,0,0,0,0,0,0,0,0,0,0,0,0,0,0,0,0,0,0,0,0,0,0,0,0,0,0,0,0,0,0,0,0,0,0,0,0,0,0,0,0,0,0,0,0,0,0,0,0],"id":8,"left_children":[1,3,5,7,-1,9,11,13,15,-1,17,19,21,-1,23,-1,-1,25,27,29,31,33,35,37,-1,-1,-1,-1,39,41,-1,43,45,47,49,-1,51,-1,-1,-1,-1,-1,-1,-1,-1,-1,-1,-1,-1,-1,-1,-1,-1],"loss_changes":[5.2796316E0,5.8840537E0,4.2527504E0,2.9186153E0,0E0,3.6151485E0,5.4250712E0,7.9529476E-1,3.2332842E0,0E0,3.1995997E0,6.8430815E0,3.861834E0,0E0,1.9358797E0,0E0,0E0,4.7692966E-1,2.4523375E0,1.6744876E0,6.412716E0,3.948709E0,2.5980577E0,2.891265E0,0E0,0E0,0E0,0E0,2.7258043E0,2.6805284E0,0E0,8.983526E-1,5.2699594E0,5.3933806E0,1.0725813E0,0E0,3.2803147E0,0E0,0E0,0E0,0E0,0E0,0E0,0E0,0E0,0E0,0E0,0E0,0E0,0E0,0E0,0E0,0E0],"parents":[2147483647,0,0,1,1,2,2,3,3,5,5,6,6,7,7,8,8,10,10,11,11,12,12,14,14,17,17,18,18,19,19,20,20,21,21,22,22,23,23,28,28,29,29,31,31,32,32,33,33,34,34,36,36],"right_children":[2,4,6,8,-1,10,12,14,16,-1,18,20,22,-1,24,-1,-1,26,28,30,32,34,36,38,-1,-1,-1,-1,40,42,-1,44,46,48,50,-1,52,-1,-1,-1,-1,-1,-1,-1,-1,-1,-1,-1,-1,-1,-1,-1,-1],"split_conditions":[2.03E5,-2E-1,1.306E1,2.747E1,-5.2585315E-2,-5.5556595E-1,7.3309906E-2,3.65E0,5.06E0,-3.926907E-2,-2.4285395E-1,6.719372E-2,1.46E3,3.360515E-2,1.9407871E0,-4.8793335E-2,7.818367E-2,1.0058055E0,3.55129E1,-4.8397172E7,1.108936E1,-2.4817333E8,9.54294E0,1.2520041E0,1.2808079E-1,1.3055171E-1,6.595414E-2,-2.5424669E-2,2.676204E3,-1.1610754E-1,-7.3910706E-2,3.7481108E-1,8.9958924E-1,2.1918741E1,1.9892381E-1,-7.2300024E-2,1.0474538E0,1.046878E-1,-1.4451799E-2,6.542873E-2,-1.6661983E-2,5.2857436E-2,-4.5191336E-2,1.0860299E-1,3.8714368E-2,3.6190841E-3,4.9526043E-2,8.457645E-2,-3.4431923E-2,3.6284465E-3,-5.0391633E-2,2.1087712E-2,-4.9298253E-2],"split_indices":[17,26,13,13,0,25,15,9,9,0,12,7,18,0,19,0,0,8,23,5,23,5,23,19,0,0,0,0,30,12,0,25,25,10,19,0,7,0,0,0,0,0,0,0,0,0,0,0,0,0,0,0,0],"split_type":[0,0,0,0,0,0,0,0,0,0,0,0,0,0,0,0,0,0,0,0,0,0,0,0,0,0,0,0,0,0,0,0,0,0,0,0,0,0,0,0,0,0,0,0,0,0,0,0,0,0,0,0,0],"sum_hessian":[4.04944E2,3.2537876E1,3.724061E2,2.759543E1,4.9424453E0,4.058016E1,3.3182596E2,1.9808868E1,7.7865624E0,5.511242E0,3.5068916E1,2.117957E2,1.2003026E2,3.3269286E0,1.648194E1,4.0798335E0,3.706729E0,7.4783072E0,2.7590607E1,2.3055428E1,1.8874026E2,6.673233E1,5.3297928E1,7.984899E0,8.497041E0,4.1830235E0,3.2952838E0,5.953008E0,2.16376E1,1.3647979E1,9.407448E0,1.1143368E1,1.775969E2,1.5913191E1,5.081914E1,4.073585E0,4.9224342E1,4.726405E0,3.2584937E0,1.6579185E1,5.0584135E0,3.6931095E0,9.954869E0,7.885508E0,3.2578595E0,1.4741946E2,3.0177431E1,6.0139956E0,9.899196E0,3.599473E0,4.7219666E1,4.150323E1,7.721111E0],"tree_param":{"num_deleted":"0","num_feature":"38","num_nodes":"53","size_leaf_vector":"1"}},{"base_weights":[-1.8195048E-2,-1.8142411E-1,5.1007323E-2,-2.984776E-1,1.4241502E-1,3.8674304E-1,-2.315805E-2,-2.1348603E-1,-6.558752E-1,-3.3523716E-2,6.772892E-1,6.433787E-1,2.3545736E-2,-7.041127E-2,4.6773106E-1,-3.6176732E-1,1.2449896E-1,-7.1643025E-2,-3.491434E-2,-2.6372835E-1,6.283962E-2,1.9590033E-2,1.1809979E-1,-4.6102097E-3,7.7395487E-1,5.119747E-1,-3.802956E-1,1.0325184E-1,-8.925753E-2,8.882872E-1,-1.8744314E-1,-9.918332E-3,-5.018942E-1,6.00473E-1,-2.1805607E-1,3.9669033E-2,-4.845534E-1,3.2197812E-3,9.080819E-1,-2.6873488E-2,1.2252653E-1,-7.1593404E-2,2.073133E-3,-4.6865817E-2,-5.402387E-1,1.6030993E-2,1.1382188E-1,-6.988828E-2,5.009931E-2,-3.2275338E-2,8.320879E-2,-6.999113E-2,-3.6685593E-2,8.325643E-4,1.0434314E-1,3.6950286E-2,-5.6742024E-2,-6.079321E-2,-4.674656E-3,2.3771238E-2,1.0623994E-1,9.1139134E-4,-3.0660091E-2,-7.084719E-2,-1.8604985E-2],"categories":[],"categories_nodes":[],"categories_segments":[],"categories_sizes":[],"default_left":[0,0,0,0,0,0,0,0,0,0,0,0,0,0,0,0,0,0,0,0,0,0,0,0,0,0,0,0,0,0,0,0,0,0,0,0,0,0,0,0,0,0,0,0,0,0,0,0,0,0,0,0,0,0,0,0,0,0,0,0,0,0,0,0,0],"id":9,"left_children":[1,3,5,7,9,11,13,15,17,19,21,23,25,27,29,31,33,-1,-1,35,-1,-1,-1,-1,37,39,41,-1,43,45,47,49,51,53,55,-1,57,-1,59,-1,-1,-1,-1,61,63,-1,-1,-1,-1,-1,-1,-1,-1,-1,-1,-1,-1,-1,-1,-1,-1,-1,-1,-1,-1],"loss_changes":[4.354112E0,4.3733597E0,6.7472143E0,2.469345E0,2.9210649E0,4.499735E0,5.079909E0,3.4729679E0,1.6528368E-1,3.4511137E0,1.694912E0,2.6468096E0,4.087289E0,4.102756E0,5.3756833E0,2.3151698E0,3.4473531E0,0E0,0E0,2.519439E0,0E0,0E0,0E0,0E0,2.3039942E0,5.3957024E0,1.5782198E0,0E0,3.72927E0,1.9990492E0,2.6933556E0,3.657981E0,7.8020287E-1,2.2193518E0,2.5169344E0,0E0,6.318071E-1,0E0,1.9467564E0,0E0,0E0,0E0,0E0,2.669703E0,8.9982796E-1,0E0,0E0,0E0,0E0,0E0,0E0,0E0,0E0,0E0,0E0,0E0,0E0,0E0,0E0,0E0,0E0,0E0,0E0,0E0,0E0],"parents":[2147483647,0,0,1,1,2,2,3,3,4,4,5,5,6,6,7,7,8,8,9,9,10,10,11,11,12,12,13,13,14,14,15,15,16,16,19,19,24,24,25,25,26,26,28,28,29,29,30,30,31,31,32,32,33,33,34,34,36,36,38,38,43,43,44,44],"right_children":[2,4,6,8,10,12,14,16,18,20,22,24,26,28,30,32,34,-1,-1,36,-1,-1,-1,-1,38,40,42,-1,44,46,48,50,52,54,56,-1,58,-1,60,-1,-1,-1,-1,62,64,-1,-1,-1,-1,-1,-1,-1,-1,-1,-1,-1,-1,-1,-1,-1,-1,-1,-1,-1,-1],"split_conditions":[-1.689691E8,7.1218014E0,-1.28007736E8,3.4240444E1,4.266771E1,5.1034026E0,7.487565E1,2.0933508E1,1.4457028E-1,8.132509E-2,5.919077E7,5.6085104E7,3E0,2.83E0,4.38E0,-8.267237E0,-4.3582484E-2,-7.1643025E-2,-3.491434E-2,-3.1224102E8,6.283962E-2,1.9590033E-2,1.1809979E-1,-4.6102097E-3,2.07E5,-1.559636E8,3.1680336E1,1.0325184E-1,1.0950704E1,2.05E5,2.3776764E-1,4.0675604E-1,6.205983E0,5.783018E7,2.11E5,3.9669033E-2,3.4E0,3.2197812E-3,3.56E0,-2.6873488E-2,1.2252653E-1,-7.1593404E-2,2.073133E-3,2.4115437E1,1.4563544E1,1.6030993E-2,1.1382188E-1,-6.988828E-2,5.009931E-2,-3.2275338E-2,8.320879E-2,-6.999113E-2,-3.6685593E-2,8.325643E-4,1.0434314E-1,3.6950286E-2,-5.6742024E-2,-6.079321E-2,-4.674656E-3,2.3771238E-2,1.0623994E-1,9.1139134E-4,-3.0660091E-2,-7.084719E-2,-1.8604985E-2],"split_indices":[5,19,5,10,10,19,11,10,12,12,22,22,31,9,9,14,12,0,0,5,0,0,0,0,17,5,21,0,29,17,15,7,14,22,17,0,9,0,20,0,0,0,0,10,10,0,0,0,0,0,0,0,0,0,0,0,0,0,0,0,0,0,0,0,0],"split_type":[0,0,0,0,0,0,0,0,0,0,0,0,0,0,0,0,0,0,0,0,0,0,0,0,0,0,0,0,0,0,0,0,0,0,0,0,0,0,0,0,0,0,0,0,0,0,0,0,0,0,0,0,0,0,0,0,0,0,0,0,0,0,0,0,0],"sum_hessian":[3.8412515E2,1.1474846E2,2.6937668E2,8.451622E1,3.0232239E1,4.8907322E1,2.2046936E2,6.86341E1,1.5882118E1,2.2679073E1,7.5531645E0,2.8451197E1,2.0456125E1,2.0137434E2,1.9095022E1,4.7905685E1,2.072842E1,1.2879799E1,3.0023193E0,1.6983671E1,5.695403E0,4.034682E0,3.5184822E0,4.4185905E0,2.4032606E1,9.358393E0,1.1097733E1,3.203658E0,1.9817068E2,1.1701124E1,7.3938975E0,1.3878482E1,3.4027203E1,8.765521E0,1.19629E1,4.1223927E0,1.2861278E1,3.8133514E0,2.0219254E1,4.4308624E0,4.9275303E0,6.134399E0,4.963334E0,1.81447E2,1.672368E1,3.134755E0,8.566369E0,4.3247657E0,3.0691316E0,1.0250494E1,3.6279879E0,1.3326577E1,2.0700624E1,3.8912833E0,4.8742375E0,4.351899E0,7.6110015E0,9.82517E0,3.0361085E0,3.9522724E0,1.6266981E1,1.4903708E2,3.2409924E1,1.1078998E1,5.6446834E0],"tree_param":{"num_deleted":"0","num_feature":"38","num_nodes":"65","size_leaf_vector":"1"}},{"base_weights":[-4.61055E-2,-5.6152545E-2,7.879111E-2,8.624464E-2,-6.527092E-2,-1.8581808E-2,-2.1767627E-1,2.2202726E-1,-5.2568275E-2,-6.618138E-2,-4.380749E-1,-1.043124E-1,5.3703207E-1,-3.953625E-1,-2.1421498E-2,4.6076933E-1,-1.6604783E-1,-5.922808E-1,-6.1643858E-2,2.0820037E-2,-7.0443265E-2,-6.7687675E-2,8.2361095E-2,2.233783E-2,-5.904307E-2,-6.617202E-3,2.1548983E-2,1.175402E-1,-6.7162476E-3,-4.3631013E-2,1.5306696E-3,-1.00958655E-2,-6.631951E-2,7.801281E-2,-4.305656E-2],"categories":[],"categories_nodes":[],"categories_segments":[],"categories_sizes":[],"default_left":[0,0,0,0,0,0,0,0,0,0,0,0,0,0,0,0,0,0,0,0,0,0,0,0,0,0,0,0,0,0,0,0,0,0,0],"id":10,"left_children":[1,3,-1,-1,5,7,9,11,13,15,17,19,21,23,25,27,29,31,33,-1,-1,-1,-1,-1,-1,-1,-1,-1,-1,-1,-1,-1,-1,-1,-1],"loss_changes":[3.197757E0,3.1540527E0,0E0,0E0,2.6928062E0,2.3792713E0,2.9191794E0,3.739863E0,2.7022963E0,2.7750137E0,2.0194564E0,3.3581576E0,6.4860373E0,2.6014042E0,2.4889643E0,3.2631252E0,2.2440705E0,7.991924E-1,3.3388035E0,0E0,0E0,0E0,0E0,0E0,0E0,0E0,0E0,0E0,0E0,0E0,0E0,0E0,0E0,0E0,0E0],"parents":[2147483647,0,0,1,1,4,4,5,5,6,6,7,7,8,8,9,9,10,10,11,11,12,12,13,13,14,14,15,15,16,16,17,17,18,18],"right_children":[2,4,-1,-1,6,8,10,12,14,16,18,20,22,24,26,28,30,32,34,-1,-1,-1,-1,-1,-1,-1,-1,-1,-1,-1,-1,-1,-1,-1,-1],"split_conditions":[8.263352E1,-7.4347615E-1,7.879111E-2,8.624464E-2,4.26E0,-2.2457562E8,2.18E5,4.5463777E0,3.39534E1,1.2475575E-1,7.992276E-2,3.75E0,3.59E0,-2.1514376E-1,4.1E0,1.6898646E3,-2.1997051E0,3.941691E-1,3.12E0,2.0820037E-2,-7.0443265E-2,-6.7687675E-2,8.2361095E-2,2.233783E-2,-5.904307E-2,-6.617202E-3,2.1548983E-2,1.175402E-1,-6.7162476E-3,-4.3631013E-2,1.5306696E-3,-1.00958655E-2,-6.631951E-2,7.801281E-2,-4.305656E-2],"split_indices":[21,25,0,0,20,5,17,19,11,7,15,20,24,12,20,30,3,19,9,0,0,0,0,0,0,0,0,0,0,0,0,0,0,0,0],"split_type":[0,0,0,0,0,0,0,0,0,0,0,0,0,0,0,0,0,0,0,0,0,0,0,0,0,0,0,0,0,0,0,0,0,0,0],"sum_hessian":[3.8972595E2,3.852976E2,4.428348E0,3.5872524E0,3.8171036E2,2.9278464E2,8.8925735E1,3.5805065E1,2.5697955E2,5.3046818E1,3.5878914E1,1.746306E1,1.8342005E1,2.1039854E1,2.359397E2,8.234469E0,4.481235E1,2.5223183E1,1.0655731E1,1.1416558E1,6.046502E0,3.4104917E0,1.4931514E1,4.9168487E0,1.6123005E1,1.9886919E2,3.707052E1,3.5269728E0,4.7074966E0,1.8160143E1,2.6652206E1,3.3898032E0,2.1833378E1,3.1304452E0,7.525286E0],"tree_param":{"num_deleted":"0","num_feature":"38","num_nodes":"35","size_leaf_vector":"1"}},{"base_weights":[5.2257296E-2,-4.2735675E-1,7.915718E-2,1.5411327E-2,-5.774568E-1,-1.5572326E-1,1.2683582E-1,-6.781823E-1,-1.1178437E-2,-2.3480414E-1,6.9796585E-2,3.330493E-1,6.405145E-2,-4.0509976E-2,-7.472832E-2,6.9858454E-2,-3.183469E-1,4.6822554E-1,-3.6034344E-3,1.770022E-1,-1.2827799E-1,5.1155657E-2,-3.8325766E-1,3.0533418E-1,8.301212E-1,-6.051419E-2,2.8957337E-1,4.7473708E-1,4.965614E-2,-7.324692E-2,-7.327285E-2,3.694163E-2,-4.3913696E-2,1.1504149E-2,8.749642E-2,1.1449005E-2,1.0020422E-1,5.5111837E-2,-1.5208525E-2,1.7330792E-2,7.452531E-2,-7.22898E-2,8.186477E-3,-4.7382392E-2,1.1492869E-3],"categories":[],"categories_nodes":[],"categories_segments":[],"categories_sizes":[],"default_left":[0,0,0,0,0,0,0,0,0,0,0,0,0,0,0,0,0,0,0,0,0,0,0,0,0,0,0,0,0,0,0,0,0,0,0,0,0,0,0,0,0,0,0,0,0],"id":11,"left_children":[1,3,5,-1,7,9,11,13,-1,15,-1,17,19,-1,-1,-1,21,23,25,27,29,-1,31,33,35,-1,37,39,41,-1,43,-1,-1,-1,-1,-1,-1,-1,-1,-1,-1,-1,-1,-1,-1],"loss_changes":[5.102105E0,1.8797107E0,4.2215967E0,0E0,7.018614E-1,4.244434E0,4.021398E0,1.11570835E-1,0E0,4.5169334E0,0E0,3.3620453E0,5.244362E0,0E0,0E0,0E0,2.8898778E0,2.9379673E0,3.7101872E0,5.7179666E0,2.8694806E0,0E0,2.1180005E0,3.8303235E0,1.83951E0,0E0,1.6554325E0,3.594388E0,2.6040006E0,0E0,2.8231497E0,0E0,0E0,0E0,0E0,0E0,0E0,0E0,0E0,0E0,0E0,0E0,0E0,0E0,0E0],"parents":[2147483647,0,0,1,1,2,2,4,4,5,5,6,6,7,7,9,9,11,11,12,12,16,16,17,17,18,18,19,19,20,20,22,22,23,23,24,24,26,26,27,27,28,28,30,30],"right_children":[2,4,6,-1,8,10,12,14,-1,16,-1,18,20,-1,-1,-1,22,24,26,28,30,-1,32,34,36,-1,38,40,42,-1,44,-1,-1,-1,-1,-1,-1,-1,-1,-1,-1,-1,-1,-1,-1],"split_conditions":[2.83E0,6.0272212E7,5.4562092E7,1.5411327E-2,1.2470644E1,1.035326E2,1.357E3,1.7299904E0,-1.1178437E-2,5.15E1,6.9796585E-2,8.263242E0,1.6330175E1,-4.0509976E-2,-7.472832E-2,6.9858454E-2,3.342346E0,3E0,2.0260128E1,9.7281605E-1,1.357E1,5.1155657E-2,1.285E1,5.0283628E0,6.719372E-2,-6.051419E-2,1.812E1,4.1906002E-1,1.1074672E0,-7.324692E-2,5.7534104E7,3.694163E-2,-4.3913696E-2,1.1504149E-2,8.749642E-2,1.1449005E-2,1.0020422E-1,5.5111837E-2,-1.5208525E-2,1.7330792E-2,7.452531E-2,-7.22898E-2,8.186477E-3,-4.7382392E-2,1.1492869E-3],"split_indices":[9,22,22,0,19,1,18,19,0,4,0,19,3,0,0,0,10,28,21,19,13,0,13,19,7,0,13,19,19,0,22,0,0,0,0,0,0,0,0,0,0,0,0,0,0],"split_type":[0,0,0,0,0,0,0,0,0,0,0,0,0,0,0,0,0,0,0,0,0,0,0,0,0,0,0,0,0,0,0,0,0,0,0,0,0,0,0,0,0,0,0,0,0],"sum_hessian":[3.978008E2,2.0849873E1,3.7695096E2,4.140635E0,1.6709236E1,6.321405E1,3.137369E2,1.3523671E1,3.185566E0,5.802828E1,5.1857734E0,7.2754295E1,2.409826E2,3.1618047E0,1.0361866E1,4.6083126E0,5.3419964E1,5.209467E1,2.0659622E1,1.5215393E2,8.8828674E1,3.7134702E0,4.9706493E1,3.624243E1,1.5852239E1,6.8465643E0,1.3813058E1,4.5265415E1,1.0688852E2,7.157635E0,8.167104E1,3.2727733E0,4.643372E1,2.7388634E1,8.853797E0,3.2155561E0,1.2636682E1,8.802159E0,5.010899E0,2.1661871E1,2.3603544E1,4.067862E0,1.02820656E2,1.4390597E1,6.728044E1],"tree_param":{"num_deleted":"0","num_feature":"38","num_nodes":"45","size_leaf_vector":"1"}},{"base_weights":[-4.1191425E-2,3.2024843E-1,-6.124712E-2,-5.8731074E-3,1.006127E0,-2.3292719E-1,-7.421273E-3,8.289819E-2,-3.248369E-1,1.2766702E-1,6.7564204E-2,3.2204646E-1,-2.9111716E-1,1.8449657E-1,-7.482543E-2,-7.160361E-2,5.356595E-2,-7.84368E-3,8.353579E-2,-3.4726524E-1,1.4784604E-1,1.52301425E-2,6.222846E-1,-1.3244475E-1,2.2285081E-1,-3.8337618E-1,1.9627249E-2,8.654707E-2,-3.3143736E-2,-6.492431E-2,1.10031806E-1,9.058155E-1,1.26665E-2,2.9941157E-1,-1.8532865E-1,-2.739464E-1,4.744443E-1,-4.9401235E-2,-1.8929379E-2,7.190152E-2,-1.2607737E-2,3.413115E-2,1.2505446E-1,-4.0451728E-2,5.158929E-2,1.1528242E-1,1.6843405E-3,-2.3620356E-2,2.0330977E-2,-6.865003E-2,-0E0,6.6104815E-3,7.731256E-2],"categories":[],"categories_nodes":[],"categories_segments":[],"categories_sizes":[],"default_left":[0,0,0,0,0,0,0,0,0,0,0,0,0,0,0,0,0,0,0,0,0,0,0,0,0,0,0,0,0,0,0,0,0,0,0,0,0,0,0,0,0,0,0,0,0,0,0,0,0,0,0,0,0],"id":12,"left_children":[1,3,5,7,9,11,13,-1,15,-1,-1,17,19,21,23,-1,-1,-1,-1,25,27,29,31,33,35,37,-1,-1,-1,39,-1,41,43,45,47,49,51,-1,-1,-1,-1,-1,-1,-1,-1,-1,-1,-1,-1,-1,-1,-1,-1],"loss_changes":[2.8017583E0,4.629387E0,3.3917763E0,3.6307106E0,3.107648E-1,2.841289E0,3.638053E0,0E0,3.452164E0,0E0,0E0,1.7711359E0,1.98875E0,5.3400145E0,3.5810466E0,0E0,0E0,0E0,0E0,1.417223E0,3.1443653E0,4.70867E0,3.3932128E0,4.0037756E0,4.24181E0,1.3536797E0,0E0,0E0,0E0,2.3102531E0,0E0,2.4550762E0,1.4209985E0,4.4594655E0,3.1059766E0,1.2147257E0,2.6579175E0,0E0,0E0,0E0,0E0,0E0,0E0,0E0,0E0,0E0,0E0,0E0,0E0,0E0,0E0,0E0,0E0],"parents":[2147483647,0,0,1,1,2,2,3,3,4,4,5,5,6,6,8,8,11,11,12,12,13,13,14,14,19,19,20,20,21,21,22,22,23,23,24,24,25,25,29,29,31,31,32,32,33,33,34,34,35,35,36,36],"right_children":[2,4,6,8,10,12,14,-1,16,-1,-1,18,20,22,24,-1,-1,-1,-1,26,28,30,32,34,36,38,-1,-1,-1,40,-1,42,44,46,48,50,52,-1,-1,-1,-1,-1,-1,-1,-1,-1,-1,-1,-1,-1,-1,-1,-1],"split_conditions":[3.3697166E-2,4.38E0,-1.7264838E0,5.98E1,2.2635693E1,-3.4116425E1,-5E-1,8.289819E-2,6.5469456E-1,1.2766702E-1,6.7564204E-2,1.3951708E-1,9.140165E0,5.048968E1,7.15E1,-7.160361E-2,5.356595E-2,-7.84368E-3,8.353579E-2,6.6660456E7,-2.9536247E-1,4.17E0,3.4845016E1,4.036495E0,1.351E1,3.9997199E0,1.9627249E-2,8.654707E-2,-3.3143736E-2,4.355334E-1,1.10031806E-1,1.681E1,9.370765E-1,2E0,4.0373948E-1,5.9387946E-1,-4.423314E-2,-4.9401235E-2,-1.8929379E-2,7.190152E-2,-1.2607737E-2,3.413115E-2,1.2505446E-1,-4.0451728E-2,5.158929E-2,1.1528242E-1,1.6843405E-3,-2.3620356E-2,2.0330977E-2,-6.865003E-2,-0E0,6.6104815E-3,7.731256E-2],"split_indices":[7,20,3,4,10,14,26,0,25,0,0,7,19,23,4,0,0,0,0,22,25,20,21,10,13,14,0,0,0,8,0,13,8,28,27,7,25,0,0,0,0,0,0,0,0,0,0,0,0,0,0,0,0],"split_type":[0,0,0,0,0,0,0,0,0,0,0,0,0,0,0,0,0,0,0,0,0,0,0,0,0,0,0,0,0,0,0,0,0,0,0,0,0,0,0,0,0,0,0,0,0,0,0,0,0,0,0,0,0],"sum_hessian":[3.897089E2,2.014667E1,3.6956223E2,1.3622695E1,6.523974E0,8.768768E1,2.8187454E2,3.6350114E0,9.987683E0,3.2635021E0,3.2604718E0,8.115547E0,7.9572136E1,7.283535E1,2.0903922E2,6.9576116E0,3.0300717E0,4.4969516E0,3.6185954E0,7.076875E1,8.803378E0,5.276585E1,2.0069496E1,1.7546666E2,3.3572544E1,6.656016E1,4.2086005E0,3.5764604E0,5.2269177E0,4.9137936E1,3.627916E0,1.355329E1,6.5162053E0,1.8885801E1,1.5658087E2,1.1149788E1,2.2422754E1,4.196712E1,2.4593033E1,3.359572E0,4.5778362E1,5.324067E0,8.229223E0,3.464757E0,3.0514483E0,4.533088E0,1.4352714E1,1.387184E2,1.7862467E1,4.268895E0,6.8808928E0,9.665538E0,1.2757216E1],"tree_param":{"num_deleted":"0","num_feature":"38","num_nodes":"53","size_leaf_vector":"1"}},{"base_weights":[-1.6021496E-2,-7.02159E-2,1.2366501E-1,7.374239E-2,-2.1447337E-1,-1.336711E-1,3.4588614E-1,1.0792054E-1,4.857914E-2,-4.9480617E-1,-1.3850558E-1,-2.203791E-1,3.406731E-1,9.0806305E-2,6.49382E-1,2.051579E-1,-9.089961E-2,-0E0,-5.7910746E-1,2.238229E-1,-2.1570721E-1,-5.2620493E-2,-4.727819E-1,-1.1003187E-2,7.511974E-2,4.296186E-1,-1.3616057E-1,8.0090696E-1,-1.8178893E-2,8.079305E-2,6.722491E-1,-3.8241708E-1,1.1453887E-1,-6.5205306E-1,-7.2945985E-3,4.2738116E-1,-4.488428E-2,-3.1100762E-1,4.213764E-2,8.304411E-2,-2.0834891E-1,-6.9795124E-2,-2.1089593E-1,9.16846E-2,-0E0,-3.6421275E-1,5.584019E-2,1.21972E0,5.2140015E-1,6.289959E-2,-0E0,-6.144287E-3,9.063785E-2,-8.92498E-3,-7.032512E-2,-1.9216103E-3,5.6196094E-2,-6.97982E-2,-3.539964E-2,8.9627905E-3,1.0713793E-1,1.6709412E-2,-3.9748956E-2,-1.7256234E-2,5.0734665E-2,-6.8378784E-2,-5.943128E-4,-4.958322E-2,2.0397346E-2,3.8684994E-2,-3.8254697E-2,-5.9089005E-2,5.089461E-3,8.006744E-2,1.423338E-1,1.00043654E-1,2.6472425E-2],"categories":[],"categories_nodes":[],"categories_segments":[],"categories_sizes":[],"default_left":[0,0,0,0,0,0,0,0,0,0,0,0,0,0,0,0,0,0,0,0,0,0,0,0,0,0,0,0,0,0,0,0,0,0,0,0,0,0,0,0,0,0,0,0,0,0,0,0,0,0,0,0,0,0,0,0,0,0,0,0,0,0,0,0,0,0,0,0,0,0,0,0,0,0,0,0,0],"id":13,"left_children":[1,3,5,7,9,11,13,-1,15,17,19,21,23,25,27,29,31,-1,33,35,37,39,41,-1,-1,43,45,47,-1,49,51,53,55,57,-1,59,-1,61,63,-1,65,-1,67,-1,69,71,-1,73,75,-1,-1,-1,-1,-1,-1,-1,-1,-1,-1,-1,-1,-1,-1,-1,-1,-1,-1,-1,-1,-1,-1,-1,-1,-1,-1,-1,-1],"loss_changes":[2.8750286E0,5.7188826E0,6.0785723E0,3.352839E0,2.858996E0,2.0071318E0,4.335363E0,0E0,2.9405715E0,1.2268405E0,3.0428674E0,1.7060237E0,1.4452524E0,2.4408886E0,3.332058E0,3.608883E0,4.260567E0,0E0,8.396883E-1,2.6054046E0,2.235672E0,3.4391143E0,8.5884976E-1,0E0,0E0,2.6313992E0,2.952352E0,2.3357697E0,0E0,2.2060356E0,2.352851E0,2.6815147E0,2.5270872E0,1.6470432E-1,0E0,3.0667655E0,0E0,2.7539062E0,2.4441316E0,0E0,2.0201168E0,0E0,9.743297E-1,0E0,1.039134E0,1.3928185E0,0E0,3.958454E-1,1.5072503E0,0E0,0E0,0E0,0E0,0E0,0E0,0E0,0E0,0E0,0E0,0E0,0E0,0E0,0E0,0E0,0E0,0E0,0E0,0E0,0E0,0E0,0E0,0E0,0E0,0E0,0E0,0E0,0E0],"parents":[2147483647,0,0,1,1,2,2,3,3,4,4,5,5,6,6,8,8,9,9,10,10,11,11,12,12,13,13,14,14,15,15,16,16,18,18,19,19,20,20,21,21,22,22,25,25,26,26,27,27,29,29,30,30,31,31,32,32,33,33,35,35,37,37,38,38,40,40,42,42,44,44,45,45,47,47,48,48],"right_children":[2,4,6,8,10,12,14,-1,16,18,20,22,24,26,28,30,32,-1,34,36,38,40,42,-1,-1,44,46,48,-1,50,52,54,56,58,-1,60,-1,62,64,-1,66,-1,68,-1,70,72,-1,74,76,-1,-1,-1,-1,-1,-1,-1,-1,-1,-1,-1,-1,-1,-1,-1,-1,-1,-1,-1,-1,-1,-1,-1,-1,-1,-1,-1,-1],"split_conditions":[-1.4741906E7,-1.559636E8,9.0147364E-1,1.596539E1,-4.91844E0,6.30324E7,2.224375E0,1.0792054E-1,1.97709E1,5.4562092E7,4.3004272E1,6.128747E1,6.225692E0,1E0,4.09E0,1.7669903E-1,-3.1E-1,-0E0,1.9E-1,1.4563544E1,4.054926E1,2.83E0,1.7299904E0,-1.1003187E-2,7.511974E-2,3E0,8.912997E0,1.2713128E1,-1.8178893E-2,-6.820358E1,5.6930332E1,1.8481198E3,6.4315704E1,-2.4170588E7,-7.2945985E-3,-5.639447E7,-4.488428E-2,5.080689E-1,-6.944485E7,8.304411E-2,2.14E5,-6.9795124E-2,4.23E0,9.16846E-2,1.551E3,1.552E3,5.584019E-2,-3.8366944E-2,1.6372911E3,6.289959E-2,-0E0,-6.144287E-3,9.063785E-2,-8.92498E-3,-7.032512E-2,-1.9216103E-3,5.6196094E-2,-6.97982E-2,-3.539964E-2,8.9627905E-3,1.0713793E-1,1.6709412E-2,-3.9748956E-2,-1.7256234E-2,5.0734665E-2,-6.8378784E-2,-5.943128E-4,-4.958322E-2,2.0397346E-2,3.8684994E-2,-3.8254697E-2,-5.9089005E-2,5.089461E-3,8.006744E-2,1.423338E-1,1.00043654E-1,2.6472425E-2],"split_indices":[5,5,8,11,3,22,19,0,10,22,11,11,3,32,9,15,26,0,26,10,3,20,19,0,0,31,29,10,0,3,3,30,11,5,0,5,0,8,5,0,17,0,9,0,18,18,0,15,30,0,0,0,0,0,0,0,0,0,0,0,0,0,0,0,0,0,0,0,0,0,0,0,0,0,0,0,0],"split_type":[0,0,0,0,0,0,0,0,0,0,0,0,0,0,0,0,0,0,0,0,0,0,0,0,0,0,0,0,0,0,0,0,0,0,0,0,0,0,0,0,0,0,0,0,0,0,0,0,0,0,0,0,0,0,0,0,0,0,0,0,0,0,0,0,0,0,0,0,0,0,0,0,0,0,0,0,0],"sum_hessian":[3.802723E2,2.745286E2,1.05743706E2,1.3708429E2,1.3744432E2,4.8810314E1,5.6933388E1,3.1476798E0,1.339366E2,2.890665E1,1.0853767E2,4.149041E1,7.319904E0,3.1183735E1,2.5749653E1,6.341586E1,7.0520744E1,4.1721625E0,2.473449E1,1.8803316E1,8.973435E1,2.523506E1,1.6255352E1,3.407975E0,3.9119291E0,1.2650536E1,1.85332E1,2.1884073E1,3.8655798E0,5.0343178E1,1.3072681E1,2.9318447E1,4.1202297E1,2.1421007E1,3.313482E0,1.457718E1,4.226136E0,6.57866E1,2.3947754E1,3.6218529E0,2.1613207E1,8.445534E0,7.8098183E0,5.829995E0,6.8205404E0,1.4096351E1,4.436849E0,8.481394E0,1.34026785E1,6.308177E0,4.4035E1,3.0769808E0,9.995701E0,1.554942E1,1.3769026E1,3.162141E1,9.580887E0,1.8153904E1,3.2671025E0,9.738758E0,4.838422E0,9.885676E0,5.590092E1,1.6281555E1,7.6661987E0,6.235204E0,1.5378003E1,4.7612624E0,3.0485559E0,3.4438944E0,3.376646E0,9.245969E0,4.850382E0,3.095401E0,5.385993E0,4.4389215E0,8.9637575E0],"tree_param":{"num_deleted":"0","num_feature":"38","num_nodes":"77","size_leaf_vector":"1"}},{"base_weights":[4.6939123E-2,1.9060607E-1,-1.8352615E-2,-1.7452085E-1,2.6784557E-1,3.7631005E-2,-1.946393E-1,-6.159432E-2,7.9384595E-2,4.3092275E-1,6.991646E-2,6.231558E-1,-3.2144948E-3,-3.119522E-1,4.9114786E-2,3.8788646E-1,-2.6976365E-1,-4.0231332E-2,5.286766E-1,-4.933414E-2,8.1010455E-1,-1.398692E-2,8.676736E-1,-4.0807012E-2,4.751404E-1,-1.9355519E-2,-5.530884E-1,4.135189E-1,-2.9970145E-1,-0E0,7.43508E-2,1.1841496E-2,-6.9674E-2,7.9091835E-1,3.4146607E-1,-1.7972822E-1,5.151633E-1,1.2092795E-1,3.546114E-2,1.20223954E-1,2.2422796E-2,-7.249652E-2,-1.9230088E-2,-1.1617078E-2,7.749232E-1,4.1754815E-1,-3.5396522E-1,-6.621264E-1,7.4502835E-3,1.0679229E-2,1.2631483E-1,2.4026647E-2,-5.956279E-2,1.0082658E-1,1.4787611E-3,6.6302754E-3,7.495266E-2,5.0301697E-2,-3.1042377E-2,-0E0,9.8253965E-2,3.2486442E-2,-5.8889645E-3,1.2708521E-1,1.2273359E-2,2.4797863E-3,8.1944995E-2,1.0221618E-2,-6.1677445E-2,-4.261392E-2,-7.524865E-2,-4.749877E-2,5.1931698E-2],"categories":[],"categories_nodes":[],"categories_segments":[],"categories_sizes":[],"default_left":[0,0,0,0,0,0,0,0,0,0,0,0,0,0,0,0,0,0,0,0,0,0,0,0,0,0,0,0,0,0,0,0,0,0,0,0,0,0,0,0,0,0,0,0,0,0,0,0,0,0,0,0,0,0,0,0,0,0,0,0,0,0,0,0,0,0,0,0,0,0,0,0,0],"id":14,"left_children":[1,3,5,7,9,11,13,-1,15,17,19,21,23,25,27,29,31,-1,33,35,37,-1,39,41,43,45,47,49,51,-1,-1,-1,-1,53,55,57,59,-1,-1,-1,-1,-1,61,-1,63,65,67,69,-1,71,-1,-1,-1,-1,-1,-1,-1,-1,-1,-1,-1,-1,-1,-1,-1,-1,-1,-1,-1,-1,-1,-1,-1],"loss_changes":[3.7931366E0,3.5746393E0,2.7437468E0,2.5107374E0,3.3191047E0,5.070044E0,1.9452591E0,0E0,1.5124263E0,4.6753674E0,4.2807965E0,2.6623564E0,3.4773011E0,3.156083E0,2.7688074E0,9.959258E-1,1.1262809E0,0E0,2.3709974E0,2.9910412E0,1.0235662E0,0E0,2.106957E0,2.6065469E0,2.569249E0,3.0600185E0,1.759726E0,3.5485883E0,1.799815E0,0E0,0E0,0E0,0E0,3.4399738E0,3.3093076E0,2.985281E0,1.7405112E0,0E0,0E0,0E0,0E0,0E0,2.3825238E0,0E0,2.9056754E0,1.3293334E0,1.4969628E0,3.034525E-1,0E0,1.8741794E0,0E0,0E0,0E0,0E0,0E0,0E0,0E0,0E0,0E0,0E0,0E0,0E0,0E0,0E0,0E0,0E0,0E0,0E0,0E0,0E0,0E0,0E0,0E0],"parents":[2147483647,0,0,1,1,2,2,3,3,4,4,5,5,6,6,8,8,9,9,10,10,11,11,12,12,13,13,14,14,15,15,16,16,18,18,19,19,20,20,22,22,23,23,24,24,25,25,26,26,27,27,28,28,33,33,34,34,35,35,36,36,42,42,44,44,45,45,46,46,47,47,49,49],"right_children":[2,4,6,8,10,12,14,-1,16,18,20,22,24,26,28,30,32,-1,34,36,38,-1,40,42,44,46,48,50,52,-1,-1,-1,-1,54,56,58,60,-1,-1,-1,-1,-1,62,-1,64,66,68,70,-1,72,-1,-1,-1,-1,-1,-1,-1,-1,-1,-1,-1,-1,-1,-1,-1,-1,-1,-1,-1,-1,-1,-1,-1],"split_conditions":[1.4528266E0,1.9892381E-1,-1.3932159E7,4.6360353E-1,1.1619742E1,1.27E1,2.0481754E1,-6.159432E-2,-3.946094E7,6.719372E-2,2.34E5,2E0,-2.848127E7,1.6136494E3,1.1332092E0,-1.8958293E-1,7.0349157E-1,-4.0231332E-2,4.3229654E-1,6.0683197E-1,-4.3165016E7,-1.398692E-2,2.38E5,-3.0988278E8,2E0,2.9126592E0,5.9773567E1,8.526178E-3,1.6112043E1,-0E0,7.43508E-2,1.1841496E-2,-6.9674E-2,9.7281605E-1,5.5757824E1,-2.0520872E8,1.551E3,1.2092795E-1,3.546114E-2,1.20223954E-1,2.2422796E-2,-7.249652E-2,-2.4817333E8,-1.1617078E-2,3E0,-1.3551523E-2,-3.4E-1,-3.3064905E-1,7.4502835E-3,1.679924E1,1.2631483E-1,2.4026647E-2,-5.956279E-2,1.0082658E-1,1.4787611E-3,6.6302754E-3,7.495266E-2,5.0301697E-2,-3.1042377E-2,-0E0,9.8253965E-2,3.2486442E-2,-5.8889645E-3,1.2708521E-1,1.2273359E-2,2.4797863E-3,8.1944995E-2,1.0221618E-2,-6.1677445E-2,-4.261392E-2,-7.524865E-2,-4.749877E-2,5.1931698E-2],"split_indices":[19,19,5,7,3,13,21,0,5,7,17,28,5,30,29,25,7,0,7,25,5,0,17,5,28,29,3,15,3,0,0,0,0,19,11,5,18,0,0,0,0,0,5,0,28,15,26,25,0,10,0,0,0,0,0,0,0,0,0,0,0,0,0,0,0,0,0,0,0,0,0,0,0],"split_type":[0,0,0,0,0,0,0,0,0,0,0,0,0,0,0,0,0,0,0,0,0,0,0,0,0,0,0,0,0,0,0,0,0,0,0,0,0,0,0,0,0,0,0,0,0,0,0,0,0,0,0,0,0,0,0,0,0,0,0,0,0,0,0,0,0,0,0,0,0,0,0,0,0],"sum_hessian":[4.0240048E2,1.2615362E2,2.7624686E2,2.1779034E1,1.0437459E2,2.0929283E2,6.695403E1,8.044568E0,1.3734466E1,5.6883965E1,4.749062E1,1.3714634E1,1.9557819E2,4.5458324E1,2.149571E1,7.437832E0,6.296634E0,5.832686E0,5.105128E1,4.0865135E1,6.6254864E0,3.2395024E0,1.0475132E1,1.8160677E2,1.3971428E1,2.077387E1,2.4684452E1,1.0644091E1,1.085162E1,3.684682E0,3.7531497E0,3.2133398E0,3.0832944E0,2.0907598E1,3.014368E1,3.3396206E1,7.4689283E0,3.325835E0,3.2996511E0,6.7323318E0,3.7428002E0,5.311025E0,1.7629575E2,4.608667E0,9.3627615E0,8.86938E0,1.1904491E1,2.1161655E1,3.5227973E0,7.369095E0,3.274996E0,3.7287576E0,7.122862E0,1.6209534E1,4.698066E0,1.8219332E1,1.1924348E1,5.197064E0,2.8199142E1,3.6852376E0,3.7836907E0,1.7884605E1,1.5841113E2,5.1775403E0,4.1852207E0,4.6652994E0,4.2040806E0,4.234644E0,7.6698475E0,6.3239994E0,1.4837655E1,3.672481E0,3.696614E0],"tree_param":{"num_deleted":"0","num_feature":"38","num_nodes":"73","size_leaf_vector":"1"}},{"base_weights":[-5.2858576E-2,-6.767117E-2,4.0697408E-1,-1.3830441E-1,2.9090354E-2,-0E0,7.249336E-1,-5.0353505E-2,-4.1947556E-1,7.335246E-1,-7.6446882E-3,4.013414E-2,9.9211514E-2,-7.346215E-2,1.06478706E-1,3.984546E-2,-4.938843E-1,1.8315243E-2,1.2884834E-1,4.9414897E-1,-6.1710976E-2,1.7407652E-2,-2.9923105E-1,-9.214017E-2,-5.9255844E-1,8.225053E-1,-2.4396097E-2,2.4151939E-1,-1.6102348E-1,6.0277604E-3,-6.927804E-2,-6.3683614E-3,-5.3979572E-2,-6.832022E-2,4.5267638E-2,-6.379574E-2,-1.0697154E-2,1.3214636E-1,2.6091842E-2,5.7104256E-2,-7.774923E-3,-2.7653981E-2,2.2812217E-2],"categories":[],"categories_nodes":[],"categories_segments":[],"categories_sizes":[],"default_left":[0,0,0,0,0,0,0,0,0,0,0,0,0,0,0,0,0,0,0,0,0,0,0,0,0,0,0,0,0,0,0,0,0,0,0,0,0,0,0,0,0,0,0],"id":15,"left_children":[1,3,5,7,9,-1,11,13,15,17,19,-1,-1,21,-1,-1,23,-1,-1,25,27,29,31,33,35,37,-1,39,41,-1,-1,-1,-1,-1,-1,-1,-1,-1,-1,-1,-1,-1,-1],"loss_changes":[2.5780778E0,2.549809E0,1.4862543E0,5.275377E0,4.1153903E0,0E0,3.8575053E-1,4.144995E0,3.1342134E0,2.2354918E0,3.9867048E0,0E0,0E0,3.336571E0,0E0,0E0,1.786068E0,0E0,0E0,3.5360308E0,4.0390453E0,3.4343712E0,2.5764065E0,3.1357543E0,7.4427414E-1,2.6070862E0,0E0,3.5166845E0,4.571391E0,0E0,0E0,0E0,0E0,0E0,0E0,0E0,0E0,0E0,0E0,0E0,0E0,0E0,0E0],"parents":[2147483647,0,0,1,1,2,2,3,3,4,4,6,6,7,7,8,8,9,9,10,10,13,13,16,16,19,19,20,20,21,21,22,22,23,23,24,24,25,25,27,27,28,28],"right_children":[2,4,6,8,10,-1,12,14,16,18,20,-1,-1,22,-1,-1,24,-1,-1,26,28,30,32,34,36,38,-1,40,42,-1,-1,-1,-1,-1,-1,-1,-1,-1,-1,-1,-1,-1,-1],"split_conditions":[1.0931824E0,1.8915464E1,3.7E0,7.457575E0,-3.0988278E8,-0E0,1.025781E2,7.178112E0,3.8452234E0,8.6308247E-1,1.022138E2,4.013414E-2,9.9211514E-2,6.1756276E7,1.06478706E-1,3.984546E-2,5.4723796E7,1.8315243E-2,1.2884834E-1,5.305262E0,2.3334818E1,5.756737E0,3E0,5.1721824E7,5E0,-8.9588536E7,-2.4396097E-2,1.2279333E0,6.8538635E1,6.0277604E-3,-6.927804E-2,-6.3683614E-3,-5.3979572E-2,-6.832022E-2,4.5267638E-2,-6.379574E-2,-1.0697154E-2,1.3214636E-1,2.6091842E-2,5.7104256E-2,-7.774923E-3,-2.7653981E-2,2.2812217E-2],"split_indices":[7,10,2,29,5,0,1,29,10,8,1,0,0,22,0,0,22,0,0,19,10,29,28,22,9,5,0,29,11,0,0,0,0,0,0,0,0,0,0,0,0,0,0],"split_type":[0,0,0,0,0,0,0,0,0,0,0,0,0,0,0,0,0,0,0,0,0,0,0,0,0,0,0,0,0,0,0,0,0,0,0,0,0,0,0,0,0,0,0],"sum_hessian":[3.8297635E2,3.7131784E2,1.1658514E1,2.1521059E2,1.5610725E2,5.224538E0,6.433976E0,1.6429297E2,5.0917618E1,7.778152E0,1.483291E2,3.1922402E0,3.241736E0,1.6113687E2,3.1560926E0,4.097447E0,4.6820168E1,4.062462E0,3.7156904E0,1.4168309E1,1.3416078E2,1.1464338E2,4.6493492E1,9.470123E0,3.7350044E1,9.891855E0,4.2764535E0,3.2815445E1,1.01345345E2,1.08336075E2,6.3073034E0,2.3765656E1,2.2727839E1,4.6181355E0,4.8519874E0,3.3939617E1,3.4104276E0,5.0720596E0,4.8197956E0,1.6263714E1,1.655173E1,7.836802E1,2.2977325E1],"tree_param":{"num_deleted":"0","num_feature":"38","num_nodes":"43","size_leaf_vector":"1"}},{"base_weights":[-3.184733E-2,-6.725469E-2,3.0323792E-1,-2.5559214E-1,-1.6270999E-2,-4.926321E-2,4.4906446E-1,-3.1442896E-1,6.979671E-2,4.6617347E-1,-3.9642703E-2,5.92904E-1,-9.065805E-2,-3.5295206E-1,3.0214924E-2,1.1050961E-1,4.499571E-2,-6.220423E-2,4.3179396E-1,1.2435706E-1,4.609513E-1,4.894496E-2,-6.970477E-2,-4.667739E-1,-6.756664E-2,-4.124251E-2,4.7287922E-2,5.0943357E-1,-8.179855E-2,-8.603475E-2,1.0507931E-1,-4.1037764E-2,6.2781036E-1,-5.1423896E-2,7.4982704E-3,-3.5397086E-2,1.8047443E-2,1.1538182E-2,1.02792695E-1,-5.345704E-2,-4.3457286E-3,-4.0911984E-2,2.2079363E-2,8.6673245E-2,-1.7406961E-2],"categories":[],"categories_nodes":[],"categories_segments":[],"categories_sizes":[],"default_left":[0,0,0,0,0,0,0,0,0,0,0,0,0,0,0,0,0,0,0,0,0,0,0,0,0,0,0,0,0,0,0,0,0,0,0,0,0,0,0,0,0,0,0,0,0],"id":16,"left_children":[1,3,5,7,9,-1,11,13,-1,15,17,19,21,23,-1,-1,25,27,29,-1,31,-1,-1,33,35,-1,-1,37,39,41,-1,-1,43,-1,-1,-1,-1,-1,-1,-1,-1,-1,-1,-1,-1],"loss_changes":[4.421197E0,3.2277517E0,4.141876E0,4.011839E0,2.9734266E0,0E0,2.399383E0,1.6260252E0,0E0,3.1528442E0,2.6807835E0,1.8325481E0,2.2686794E0,2.0225358E0,0E0,0E0,1.4990834E0,2.6932275E0,3.7815225E0,0E0,2.9898582E0,0E0,0E0,1.2175198E0,1.3462814E0,0E0,0E0,1.4935458E0,4.0379515E0,6.4733315E-1,0E0,0E0,3.3645053E0,0E0,0E0,0E0,0E0,0E0,0E0,0E0,0E0,0E0,0E0,0E0,0E0],"parents":[2147483647,0,0,1,1,2,2,3,3,4,4,6,6,7,7,9,9,10,10,11,11,12,12,13,13,16,16,17,17,18,18,20,20,23,23,24,24,27,27,28,28,29,29,32,32],"right_children":[2,4,6,8,10,-1,12,14,-1,16,18,20,22,24,-1,-1,26,28,30,-1,32,-1,-1,34,36,-1,-1,38,40,42,-1,-1,44,-1,-1,-1,-1,-1,-1,-1,-1,-1,-1,-1,-1],"split_conditions":[2.811E1,9.153953E-1,4.9664536E2,1.5550778E0,4.0516093E-1,-4.926321E-2,1.3540163E1,4.99E0,6.979671E-2,1.0427121E1,2.53E5,3.7403378E0,3.79E0,2.28E5,3.0214924E-2,1.1050961E-1,1.592E1,1.7675938E1,5.216428E0,1.2435706E-1,1.1027502E1,4.894496E-2,-6.970477E-2,9.827259E7,-1.0467837E-1,-4.124251E-2,4.7287922E-2,-1.5656315E1,3.39534E1,2.9510157E1,1.0507931E-1,-4.1037764E-2,3.196E1,-5.1423896E-2,7.4982704E-3,-3.5397086E-2,1.8047443E-2,1.1538182E-2,1.02792695E-1,-5.345704E-2,-4.3457286E-3,-4.0911984E-2,2.2079363E-2,8.6673245E-2,-1.7406961E-2],"split_indices":[13,19,30,8,8,0,21,9,0,10,17,10,20,17,0,0,13,11,19,0,23,0,0,5,12,0,0,29,11,10,0,0,13,0,0,0,0,0,0,0,0,0,0,0,0],"split_type":[0,0,0,0,0,0,0,0,0,0,0,0,0,0,0,0,0,0,0,0,0,0,0,0,0,0,0,0,0,0,0,0,0,0,0,0,0,0,0,0,0,0,0,0,0],"sum_hessian":[3.743584E2,3.3892377E2,3.543461E1,7.169916E1,2.672246E2,5.3442125E0,3.0090395E1,6.769417E1,4.0049896E0,1.2062118E1,2.551625E2,2.3897093E1,6.193302E0,6.390632E1,3.7878523E0,4.633433E0,7.428685E0,2.4379417E2,1.1368326E1,3.7593296E0,2.0137764E1,3.090819E0,3.102483E0,4.5389435E1,1.8516884E1,3.4792075E0,3.9494774E0,7.8277173E0,2.3596646E2,6.148935E0,5.2193913E0,3.1167927E0,1.7020971E1,4.190745E1,3.4819834E0,8.761148E0,9.755734E0,4.626628E0,3.2010894E0,1.8117273E1,2.1784918E2,3.1376352E0,3.0112996E0,1.3203559E1,3.8174124E0],"tree_param":{"num_deleted":"0","num_feature":"38","num_nodes":"45","size_leaf_vector":"1"}},{"base_weights":[5.2757032E-2,-7.14632E-2,6.678887E-2,-1.4554204E-1,1.08117394E-1,7.451191E-2,-2.0414144E-1,2.0926808E-1,-3.7264014E-3,5.752402E-2,-2.5672704E-1,4.7973263E-1,1.1706913E-1,-4.8409402E-1,4.975785E-2,-5.610546E-1,-7.7565596E-2,4.114034E-2,6.6095823E-1,-2.811919E-1,1.9274051E-1,-7.249834E-2,1.0475203E-2,5.509155E-1,-9.7880624E-2,-6.84349E-2,-1.4642722E-2,-4.4198867E-2,1.2719973E-2,-1.5886804E-2,6.4428516E-2,9.996546E-2,3.8894996E-2,2.6322404E-2,-4.4691876E-2,2.4674205E-2,-4.7765058E-2,1.577816E-3,7.053687E-2,-4.4135187E-2,-2.6890936E-3],"categories":[],"categories_nodes":[],"categories_segments":[],"categories_sizes":[],"default_left":[0,0,0,0,0,0,0,0,0,0,0,0,0,0,0,0,0,0,0,0,0,0,0,0,0,0,0,0,0,0,0,0,0,0,0,0,0,0,0,0,0],"id":17,"left_children":[1,-1,3,5,7,-1,9,11,13,-1,15,17,19,21,23,25,27,29,31,33,35,-1,-1,37,39,-1,-1,-1,-1,-1,-1,-1,-1,-1,-1,-1,-1,-1,-1,-1,-1],"loss_changes":[4.250062E0,0E0,3.449194E0,3.2872682E0,3.7502623E0,0E0,2.4410994E0,4.2632837E0,4.058704E0,0E0,3.0056734E0,3.410203E0,3.9102237E0,2.3171313E0,1.0442301E1,9.634838E-1,2.7092001E0,1.6367668E0,2.663577E0,1.8855395E0,3.9491272E0,0E0,0E0,2.582327E0,2.5955129E0,0E0,0E0,0E0,0E0,0E0,0E0,0E0,0E0,0E0,0E0,0E0,0E0,0E0,0E0,0E0,0E0],"parents":[2147483647,0,0,2,2,3,3,4,4,6,6,7,7,8,8,10,10,11,11,12,12,13,13,14,14,15,15,16,16,17,17,18,18,19,19,20,20,23,23,24,24],"right_children":[2,-1,4,6,8,-1,10,12,14,-1,16,18,20,22,24,26,28,30,32,34,36,-1,-1,38,40,-1,-1,-1,-1,-1,-1,-1,-1,-1,-1,-1,-1,-1,-1,-1,-1],"split_conditions":[2.67E0,-7.14632E-2,5.463964E7,5.15E1,1.0474006E0,7.451191E-2,4.1792962E-1,1.357E3,1.3577628E-1,5.752402E-2,-1.3530059E-1,-4.703525E-1,-1.2377346E1,2.2920375E-1,3.7892604E-1,9.416013E-1,3.45E0,3.91E0,3E0,5.76564E7,8.6587326E1,-7.249834E-2,1.0475203E-2,3.11E0,-1.0680417E-2,-6.84349E-2,-1.4642722E-2,-4.4198867E-2,1.2719973E-2,-1.5886804E-2,6.4428516E-2,9.996546E-2,3.8894996E-2,2.6322404E-2,-4.4691876E-2,2.4674205E-2,-4.7765058E-2,1.577816E-3,7.053687E-2,-4.4135187E-2,-2.6890936E-3],"split_indices":[9,0,22,4,8,0,8,18,7,0,25,25,14,27,7,8,20,9,31,22,23,0,0,9,15,0,0,0,0,0,0,0,0,0,0,0,0,0,0,0,0],"split_type":[0,0,0,0,0,0,0,0,0,0,0,0,0,0,0,0,0,0,0,0,0,0,0,0,0,0,0,0,0,0,0,0,0,0,0,0,0,0,0,0,0],"sum_hessian":[4.001714E2,6.968178E0,3.9320322E2,6.362896E1,3.2957425E2,3.7502525E0,5.9878708E1,1.734838E2,1.5609045E2,3.601695E0,5.627701E1,4.3721714E1,1.2976208E2,1.5744667E1,1.4034578E2,2.0568167E1,3.5708847E1,1.29808E1,3.0740917E1,2.0464361E1,1.0929772E2,1.1277778E1,4.466889E0,3.202872E1,1.0831706E2,1.5617795E1,4.9503713E0,1.2980257E1,2.272859E1,9.679012E0,3.3017874E0,1.3409134E1,1.7331783E1,4.6212463E0,1.5843115E1,1.013464E2,7.951323E0,7.343429E0,2.4685291E1,1.8222124E1,9.009494E1],"tree_param":{"num_deleted":"0","num_feature":"38","num_nodes":"41","size_leaf_vector":"1"}},{"base_weights":[-5.5166297E-2,-1.3702308E-1,4.434909E-2,-4.5873925E-1,-8.3974466E-2,-3.0757618E-1,1.0850419E-1,-5.556517E-1,-6.0228407E-3,-2.3170134E-1,6.15787E-2,6.484201E-2,-4.5927283E-1,6.203346E-2,6.085339E-1,-6.28788E-1,-6.4134444E-3,6.646057E-2,-2.7572784E-1,1.2485274E-2,9.670639E-2,-6.445576E-1,-1.5460007E-1,1.7813768E-2,6.1666024E-1,1.268303E-1,3.442772E-1,-3.0588938E-2,-6.776228E-2,-3.1419566E-1,4.9666323E-2,5.0635034E-1,-6.1426613E-2,-7.1244545E-2,-3.8248915E-2,1.7228385E-2,-4.750565E-2,-5.5314004E-2,5.669585E-2,1.0384291E-1,-0E0,-3.5562397E-3,7.24486E-2,-5.1982027E-2,-1.9412046E-2,-9.824335E-3,9.117413E-2,4.472458E-2,-1.6916892E-2,5.14397E-2,1.5705036E-3],"categories":[],"categories_nodes":[],"categories_segments":[],"categories_sizes":[],"default_left":[0,0,0,0,0,0,0,0,0,0,0,0,0,0,0,0,0,0,0,0,0,0,0,0,0,0,0,0,0,0,0,0,0,0,0,0,0,0,0,0,0,0,0,0,0,0,0,0,0,0,0],"id":18,"left_children":[1,3,5,7,9,11,13,15,-1,17,19,-1,21,23,25,27,-1,-1,29,31,-1,33,35,37,39,-1,41,-1,-1,43,-1,45,47,-1,-1,-1,-1,-1,49,-1,-1,-1,-1,-1,-1,-1,-1,-1,-1,-1,-1],"loss_changes":[3.1440165E0,3.5545046E0,3.8931694E0,1.0811019E0,3.934063E0,3.851944E0,3.3398843E0,7.7703524E-1,0E0,3.5601196E0,3.9667623E0,0E0,1.2089405E0,3.236433E0,1.9372869E0,2.0264912E-1,0E0,0E0,2.5724487E0,3.2221165E0,0E0,1.1360502E-1,9.850449E-1,2.7268217E0,2.5637128E0,0E0,1.3739138E0,0E0,0E0,1.9614191E0,0E0,2.9109085E0,4.1208043E0,0E0,0E0,0E0,0E0,0E0,2.1453187E0,0E0,0E0,0E0,0E0,0E0,0E0,0E0,0E0,0E0,0E0,0E0,0E0],"parents":[2147483647,0,0,1,1,2,2,3,3,4,4,5,5,6,6,7,7,9,9,10,10,12,12,13,13,14,14,15,15,18,18,19,19,21,21,22,22,23,23,24,24,26,26,29,29,31,31,32,32,38,38],"right_children":[2,4,6,8,10,12,14,16,-1,18,20,-1,22,24,26,28,-1,-1,30,32,-1,34,36,38,40,-1,42,-1,-1,44,-1,46,48,-1,-1,-1,-1,-1,50,-1,-1,-1,-1,-1,-1,-1,-1,-1,-1,-1,-1],"split_conditions":[1.7026771E3,-2.0299637E8,3.97E0,1.5222393E3,3.689677E-2,3.56E0,4.55E0,3.305452E-1,-6.0228407E-3,-3.3871278E-1,3.7824515E-1,6.484201E-2,1.2633495E0,9.8807734E-1,-5.8E-1,1.0696753E3,-6.4134444E-3,6.646057E-2,8.2E-1,4.036495E0,9.670639E-2,6.6751404E0,4.3064735E1,1.0020055E1,6.2893756E7,1.268303E-1,6.0382565E1,-3.0588938E-2,-6.776228E-2,-1.24425374E-1,4.9666323E-2,-4.890748E7,-6.4E-1,-7.1244545E-2,-3.8248915E-2,1.7228385E-2,-4.750565E-2,-5.5314004E-2,1.7407274E3,1.0384291E-1,-0E0,-3.5562397E-3,7.24486E-2,-5.1982027E-2,-1.9412046E-2,-9.824335E-3,9.117413E-2,4.472458E-2,-1.6916892E-2,5.14397E-2,1.5705036E-3],"split_indices":[30,5,24,30,15,24,9,15,0,12,12,0,8,7,26,30,0,0,26,10,0,29,21,10,22,0,11,0,0,12,0,5,26,0,0,0,0,0,30,0,0,0,0,0,0,0,0,0,0,0,0],"split_type":[0,0,0,0,0,0,0,0,0,0,0,0,0,0,0,0,0,0,0,0,0,0,0,0,0,0,0,0,0,0,0,0,0,0,0,0,0,0,0,0,0,0,0,0,0,0,0,0,0,0,0],"sum_hessian":[3.846457E2,2.115783E2,1.730674E2,2.957419E1,1.820041E2,2.6386286E1,1.466811E2,2.3555456E1,6.018734E0,9.063917E1,9.136494E1,3.478436E0,2.2907848E1,1.3449416E2,1.2186948E1,2.0303045E1,3.2524111E0,4.071393E0,8.656777E1,8.686701E1,4.4979224E0,1.3971435E1,8.936415E0,1.248255E2,9.668665E0,3.2683916E0,8.918556E0,3.0316525E0,1.7271393E1,8.264076E1,3.9270139E0,1.1408109E1,7.545891E1,1.0657272E1,3.3141615E0,4.2922535E0,4.644161E0,7.710351E0,1.1711514E2,5.7223496E0,3.9463155E0,4.3752184E0,4.543338E0,3.0037264E1,5.2603497E1,4.510424E0,6.8976846E0,1.2972055E1,6.248685E1,9.33102E0,1.0778413E2],"tree_param":{"num_deleted":"0","num_feature":"38","num_nodes":"51","size_leaf_vector":"1"}},{"base_weights":[-1.8244667E-2,-3.1958472E-2,6.27458E-1,-6.2348276E-2,2.75878E-1,1.0883342E-2,1.0096582E-1,-1.4562526E-2,-2.432026E-1,-5.2418884E-2,4.5248348E-1,2.6572064E-1,-5.919118E-2,-3.151315E-1,2.6440707E-1,1.0466995E0,2.1918468E-1,8.515994E-2,9.3206066E-1,-1.4505728E-1,5.9650157E-2,-3.6449236E-1,2.7689612E-2,6.78588E-2,-2.0329004E-2,6.2751345E-2,1.3356942E-1,-4.7724623E-2,4.6101323E-1,-4.3594427E-2,2.8480714E-2,1.4074714E-1,1.8246626E-2,-1.8166853E-2,4.2555314E-2,1.9340103E-2,-2.0732893E-2,-5.0814778E-2,-1.1544887E-2,-2.077931E-2,7.331962E-2],"categories":[],"categories_nodes":[],"categories_segments":[],"categories_sizes":[],"default_left":[0,0,0,0,0,0,0,0,0,0,0,0,0,0,0,0,0,0,0,0,0,0,0,0,0,0,0,0,0,0,0,0,0,0,0,0,0,0,0,0,0],"id":19,"left_children":[1,3,5,7,9,-1,-1,11,13,-1,15,17,19,21,23,25,27,29,31,33,35,37,-1,-1,-1,-1,-1,-1,39,-1,-1,-1,-1,-1,-1,-1,-1,-1,-1,-1,-1],"loss_changes":[3.29902E0,3.455041E0,1.41066E0,2.8986301E0,4.6927595E0,0E0,0E0,3.3362222E0,2.5797153E0,0E0,3.6304612E0,4.288406E0,2.37463E0,1.8242998E0,1.7282969E0,6.332674E-1,3.359558E0,3.0132582E0,2.547E0,2.805221E0,3.4594257E0,1.9791193E0,0E0,0E0,0E0,0E0,0E0,0E0,2.7754245E0,0E0,0E0,0E0,0E0,0E0,0E0,0E0,0E0,0E0,0E0,0E0,0E0],"parents":[2147483647,0,0,1,1,2,2,3,3,4,4,7,7,8,8,10,10,11,11,12,12,13,13,14,14,15,15,16,16,17,17,18,18,19,19,20,20,21,21,28,28],"right_children":[2,4,6,8,10,-1,-1,12,14,-1,16,18,20,22,24,26,28,30,32,34,36,38,-1,-1,-1,-1,-1,-1,40,-1,-1,-1,-1,-1,-1,-1,-1,-1,-1,-1,-1],"split_conditions":[6.8996E7,1.5195395E0,7.747076E-1,2.8045025E-1,-2.1071802E8,1.0883342E-2,1.0096582E-1,5.4562092E7,2.1733615E-1,-5.2418884E-2,2.11E5,5.3771068E7,-2.7E-1,1.82E3,1.2302869E1,-2.1514376E-1,2.15E5,1.3118773E0,4.5710263E0,2.53E5,2.8382679E1,2.529562E-2,2.7689612E-2,6.78588E-2,-2.0329004E-2,6.2751345E-2,1.3356942E-1,-4.7724623E-2,1E0,-4.3594427E-2,2.8480714E-2,1.4074714E-1,1.8246626E-2,-1.8166853E-2,4.2555314E-2,1.9340103E-2,-2.0732893E-2,-5.0814778E-2,-1.1544887E-2,-2.077931E-2,7.331962E-2],"split_indices":[22,8,7,27,5,0,0,22,15,0,17,22,26,18,21,12,17,19,29,17,10,12,0,0,0,0,0,0,37,0,0,0,0,0,0,0,0,0,0,0,0],"split_type":[0,0,0,0,0,0,0,0,0,0,0,0,0,0,0,0,0,0,0,0,0,0,0,0,0,0,0,0,0,0,0,0,0,0,0,0,0,0,0,0,0],"sum_hessian":[3.7895703E2,3.7132062E2,7.6364007E0,3.3832553E2,3.2995106E1,3.4054766E0,4.230924E0,2.6813837E2,7.0187164E1,5.8283186E0,2.7166788E1,3.6454643E1,2.3168372E2,6.1681713E1,8.50545E0,7.4399137E0,1.9726873E1,2.8889261E1,7.56538E0,1.349779E2,9.670582E1,5.712611E1,4.555601E0,4.6002793E0,3.9051704E0,3.3067074E0,4.1332064E0,4.952766E0,1.4774108E1,7.8307595E0,2.1058502E1,4.4940042E0,3.0713754E0,1.2706841E2,7.909489E0,6.46964E1,3.200941E1,3.5907852E1,2.1218258E1,4.174011E0,1.0600097E1],"tree_param":{"num_deleted":"0","num_feature":"38","num_nodes":"41","size_leaf_vector":"1"}},{"base_weights":[2.0861834E-2,5.770583E-1,3.3495654E-3,-4.2657834E-2,9.3407464E-1,1.5849577E-1,-5.4298434E-2,1.11483894E-1,5.6739967E-2,-2.2018571E-1,2.9998845E-1,-1.6439077E-1,8.19051E-2,2.3386955E-1,-4.4333646E-1,-1.929287E-1,4.088506E-1,-5.325878E-1,-1.178519E-1,4.9801645E-1,2.9804767E-3,8.83674E-2,-1.0818973E-1,-7.22047E-2,-3.771293E-2,7.227589E-2,-4.7118038E-1,4.967068E-1,-1.2108678E-1,-3.9523947E-3,-6.729425E-1,2.895214E-1,-1.573457E-1,-1.958916E-1,8.333826E-1,1.6430385E-1,-2.2026864E-1,1.6278006E-2,-4.0258676E-2,-6.680881E-2,4.495464E-2,-7.26578E-2,1.4574756E-2,6.318509E-2,-1.0670436E-2,-5.8069974E-2,6.826373E-2,-7.464277E-2,-3.6791563E-2,-2.7291557E-2,5.7010558E-2,-2.6473675E-2,-6.181324E-3,-4.781746E-2,6.532678E-3,1.0292999E-1,1.2467151E-2,-5.3423394E-2,2.3354193E-2,7.3210537E-3,-3.481718E-2],"categories":[],"categories_nodes":[],"categories_segments":[],"categories_sizes":[],"default_left":[0,0,0,0,0,0,0,0,0,0,0,0,0,0,0,0,0,0,0,0,0,0,0,0,0,0,0,0,0,0,0,0,0,0,0,0,0,0,0,0,0,0,0,0,0,0,0,0,0,0,0,0,0,0,0,0,0,0,0,0,0],"id":20,"left_children":[1,3,5,-1,7,9,11,-1,-1,13,15,17,19,21,23,25,27,29,31,33,35,-1,37,-1,39,-1,41,43,45,-1,47,49,51,53,55,57,59,-1,-1,-1,-1,-1,-1,-1,-1,-1,-1,-1,-1,-1,-1,-1,-1,-1,-1,-1,-1,-1,-1,-1,-1],"loss_changes":[3.9914877E0,4.5754023E0,3.6188338E0,0E0,3.8739967E-1,5.896038E0,4.413418E0,0E0,0E0,3.0429816E0,4.3300467E0,2.7191968E0,4.2498913E0,2.2458537E0,2.194915E0,3.677891E0,3.1091948E0,1.1720686E0,2.3233316E0,4.8909225E0,3.9727993E0,0E0,5.371757E-1,0E0,2.6450298E0,0E0,1.8315239E0,4.6799326E0,3.458342E0,0E0,1.715703E-1,2.0371118E0,1.3242929E0,5.3989536E-1,1.8230476E0,3.0964017E0,1.759702E0,0E0,0E0,0E0,0E0,0E0,0E0,0E0,0E0,0E0,0E0,0E0,0E0,0E0,0E0,0E0,0E0,0E0,0E0,0E0,0E0,0E0,0E0,0E0,0E0],"parents":[2147483647,0,0,1,1,2,2,4,4,5,5,6,6,9,9,10,10,11,11,12,12,13,13,14,14,15,15,16,16,17,17,18,18,19,19,20,20,22,22,24,24,26,26,27,27,28,28,30,30,31,31,32,32,33,33,34,34,35,35,36,36],"right_children":[2,4,6,-1,8,10,12,-1,-1,14,16,18,20,22,24,26,28,30,32,34,36,-1,38,-1,40,-1,42,44,46,-1,48,50,52,54,56,58,60,-1,-1,-1,-1,-1,-1,-1,-1,-1,-1,-1,-1,-1,-1,-1,-1,-1,-1,-1,-1,-1,-1,-1,-1],"split_conditions":[1.243E1,1.221711E1,-1.7264838E0,-4.2657834E-2,3.4757175E1,-1.3175182E-1,5.368643E0,1.11483894E-1,5.6739967E-2,-2.2739618E-1,2.86E0,2E0,6.8147273E0,1.5222393E3,1.424E3,5.1430976E-1,5.02E0,6.896497E-3,2.02E5,9.735742E1,1.8915464E1,8.83674E-2,-2.5624773E-1,-7.22047E-2,-7.4970484E-2,7.227589E-2,4.6283077E1,3.860478E0,1.1815084E0,-3.9523947E-3,1.5328413E-1,3.59E0,1E0,5.887022E0,4.77E0,3.8452234E0,1.0268077E1,1.6278006E-2,-4.0258676E-2,-6.680881E-2,4.495464E-2,-7.26578E-2,1.4574756E-2,6.318509E-2,-1.0670436E-2,-5.8069974E-2,6.826373E-2,-7.464277E-2,-3.6791563E-2,-2.7291557E-2,5.7010558E-2,-2.6473675E-2,-6.181324E-3,-4.781746E-2,6.532678E-3,1.0292999E-1,1.2467151E-2,-5.3423394E-2,2.3354193E-2,7.3210537E-3,-3.481718E-2],"split_indices":[13,10,3,0,10,15,29,0,0,15,9,28,29,30,18,8,24,15,17,34,10,0,15,0,12,0,10,29,8,0,15,9,35,29,24,10,14,0,0,0,0,0,0,0,0,0,0,0,0,0,0,0,0,0,0,0,0,0,0,0,0],"split_type":[0,0,0,0,0,0,0,0,0,0,0,0,0,0,0,0,0,0,0,0,0,0,0,0,0,0,0,0,0,0,0,0,0,0,0,0,0,0,0,0,0,0,0,0,0,0,0,0,0,0,0,0,0,0,0,0,0,0,0,0,0],"sum_hessian":[4.1567133E2,1.2416393E1,4.0325494E2,3.179282E0,9.237111E0,1.0966819E2,2.9358673E2,5.8676853E0,3.3694265E0,2.9623497E1,8.004469E1,1.6275034E2,1.3083641E2,9.61219E0,2.0011307E1,1.4299978E1,6.574472E1,1.790443E1,1.448459E2,2.0572859E1,1.1026356E2,3.3611245E0,6.2510657E0,1.1668884E1,8.342423E0,3.2116728E0,1.1088305E1,5.656243E1,9.182286E0,4.153586E0,1.3750845E1,1.2521649E1,1.3232425E2,6.619604E0,1.3953255E1,6.428472E1,4.5978832E1,3.10145E0,3.149616E0,3.7103727E0,4.6320505E0,7.943961E0,3.144344E0,4.6343937E1,1.0218493E1,5.9385E0,3.2437863E0,1.0700418E1,3.0504265E0,4.0498905E0,8.471758E0,6.1719517E1,7.060473E1,3.3255973E0,3.2940068E0,1.0785388E1,3.1678674E0,5.606391E0,5.8678333E1,1.3731727E1,3.2247105E1],"tree_param":{"num_deleted":"0","num_feature":"38","num_nodes":"61","size_leaf_vector":"1"}},{"base_weights":[-2.6297443E-2,-2.890422E-1,1.2530788E-2,-1.2413094E-1,-5.308138E-1,3.8585827E-1,-8.078031E-3,-4.2999583E-1,5.9774186E-2,-6.130724E-1,-8.266157E-3,5.596841E-1,-3.9924026E-2,-1.653899E-1,5.2408047E-2,-6.382981E-3,-5.620808E-2,-4.002932E-1,3.297385E-1,-6.663275E-2,-3.475235E-2,7.3608804E-1,-7.524068E-3,5.9098035E-2,-1.970327E-1,3.5189313E-1,-4.6226555E-3,-1.0920279E-2,-6.619733E-2,5.8187354E-1,-1.7838249E-2,9.5906293E-1,1.0525723E-2,-5.9974456E-1,-1.3735735E-1,4.7351497E-1,-6.7648344E-2,-4.0203795E-2,5.927779E-1,-6.005316E-3,9.8668806E-2,7.348622E-2,1.2454637E-1,-6.898498E-2,-3.423671E-2,-0E0,-3.2914776E-2,7.116947E-2,1.4457208E-2,-3.647556E-2,2.1481188E-3,9.636766E-2,-1.3832467E-2],"categories":[],"categories_nodes":[],"categories_segments":[],"categories_sizes":[],"default_left":[0,0,0,0,0,0,0,0,0,0,0,0,0,0,0,0,0,0,0,0,0,0,0,0,0,0,0,0,0,0,0,0,0,0,0,0,0,0,0,0,0,0,0,0,0,0,0,0,0,0,0,0,0],"id":21,"left_children":[1,3,5,7,9,11,13,15,17,19,-1,21,-1,23,25,-1,-1,27,29,-1,-1,31,-1,-1,33,35,37,-1,-1,39,-1,41,-1,43,45,47,-1,49,51,-1,-1,-1,-1,-1,-1,-1,-1,-1,-1,-1,-1,-1,-1],"loss_changes":[3.956496E0,1.9180632E0,2.617513E0,1.7299429E0,6.6132736E-1,2.4668765E0,3.0338364E0,4.9002695E-1,2.3225617E0,1.11116886E-1,0E0,1.719769E0,0E0,2.0945876E0,3.9459617E0,0E0,0E0,4.3401408E-1,1.581109E0,0E0,0E0,1.5219069E0,0E0,0E0,1.968385E0,4.628458E0,4.0320425E0,0E0,0E0,2.2135313E0,0E0,2.547493E-1,0E0,1.2281108E-1,1.9768326E0,2.501635E0,0E0,3.6712275E0,2.9840217E0,0E0,0E0,0E0,0E0,0E0,0E0,0E0,0E0,0E0,0E0,0E0,0E0,0E0,0E0],"parents":[2147483647,0,0,1,1,2,2,3,3,4,4,5,5,6,6,7,7,8,8,9,9,11,11,13,13,14,14,17,17,18,18,21,21,24,24,25,25,26,26,29,29,31,31,33,33,34,34,35,35,37,37,38,38],"right_children":[2,4,6,8,10,12,14,16,18,20,-1,22,-1,24,26,-1,-1,28,30,-1,-1,32,-1,-1,34,36,38,-1,-1,40,-1,42,-1,44,46,48,-1,50,52,-1,-1,-1,-1,-1,-1,-1,-1,-1,-1,-1,-1,-1,-1],"split_conditions":[2.05E5,9.223779E0,1.9892381E-1,1.2473526E-3,1.9961285E1,1.0386641E-1,1.5367023E0,6.4620715E-1,1.8779058E1,2.581466E-1,-8.266157E-3,1.031703E2,-3.9924026E-2,-2.837004E1,2.2064846E0,-6.382981E-3,-5.620808E-2,1.274747E0,1.9314048E-1,-6.663275E-2,-3.475235E-2,8.508259E-2,-7.524068E-3,5.9098035E-2,-6.504974E0,7.332545E1,1.0351198E0,-1.0920279E-2,-6.619733E-2,-6.8E-1,-1.7838249E-2,2.550131E-2,1.0525723E-2,6.1382652E7,7.883943E-1,2.22E5,-6.7648344E-2,1.32E1,2.31E5,-6.005316E-3,9.8668806E-2,7.348622E-2,1.2454637E-1,-6.898498E-2,-3.423671E-2,-0E0,-3.2914776E-2,7.116947E-2,1.4457208E-2,-3.647556E-2,2.1481188E-3,9.636766E-2,-1.3832467E-2],"split_indices":[17,29,19,15,29,12,19,8,23,27,0,1,0,14,19,0,0,29,25,0,0,15,0,0,29,23,7,0,0,26,0,15,0,22,19,17,0,13,17,0,0,0,0,0,0,0,0,0,0,0,0,0,0],"split_type":[0,0,0,0,0,0,0,0,0,0,0,0,0,0,0,0,0,0,0,0,0,0,0,0,0,0,0,0,0,0,0,0,0,0,0,0,0,0,0,0,0,0,0,0,0,0,0,0,0,0,0,0,0],"sum_hessian":[3.8497314E2,4.981482E1,3.3515833E2,2.995061E1,1.986421E1,1.7694971E1,3.1746335E2,1.1400169E1,1.855044E1,1.656395E1,3.3002598E0,1.4615165E1,3.079807E0,8.857578E1,2.2888756E2,3.262176E0,8.137994E0,6.7050843E0,1.1845356E1,1.3357615E1,3.2063348E0,1.1548235E1,3.0669303E0,3.3588953E0,8.521688E1,3.6812206E1,1.9207536E2,3.4221709E0,3.2829132E0,8.038737E0,3.8066185E0,8.3768E0,3.1714356E0,1.0664959E1,7.4551926E1,3.3054214E1,3.75799E0,1.8152443E2,1.0550921E1,3.046286E0,4.992451E0,5.0944777E0,3.2823215E0,7.4872007E0,3.177758E0,4.340448E1,3.1147446E1,1.892831E1,1.4125904E1,2.917129E1,1.5235315E2,7.0694556E0,3.481466E0],"tree_param":{"num_deleted":"0","num_feature":"38","num_nodes":"53","size_leaf_vector":"1"}},{"base_weights":[-3.632829E-2,-8.715809E-2,7.804855E-2,-4.4333E-1,-5.808601E-2,1.5216452E-1,-3.5480434E-1,-3.4332044E-2,-6.816995E-2,1.6085386E-1,-1.1750904E-1,7.321445E-1,9.4945095E-2,-5.3548956E-1,6.6357413E-3,-4.3369066E-2,3.7955083E-2,2.3800345E-2,5.0889474E-1,-2.505423E-1,5.5048205E-2,1.3454309E-1,3.312115E-2,2.827896E-2,6.1513555E-1,-6.6293143E-3,-6.880384E-2,-1.231389E-1,4.3489504E-1,-1.3842299E-2,9.2192155E-1,-5.6005394E-1,-1.7264615E-1,2.0474505E-1,-1.5998729E-1,-4.3932408E-2,4.2100817E-1,8.6956285E-2,9.563477E-3,-4.932508E-2,2.371983E-2,-4.2992264E-2,9.974398E-2,1.3045661E-1,4.3653335E-2,-6.4029224E-2,-2.5697947E-2,-2.3754112E-2,3.9396714E-2,-3.5239544E-2,3.2389108E-2,3.9160218E-2,-2.8628899E-2,3.3565786E-2,-1.5810786E-2,7.3017064E-3,1.08098544E-1],"categories":[],"categories_nodes":[],"categories_segments":[],"categories_sizes":[],"default_left":[0,0,0,0,0,0,0,0,0,0,0,0,0,0,0,0,0,0,0,0,0,0,0,0,0,0,0,0,0,0,0,0,0,0,0,0,0,0,0,0,0,0,0,0,0,0,0,0,0,0,0,0,0,0,0,0,0],"id":22,"left_children":[1,3,5,7,9,11,13,15,-1,17,19,21,23,25,-1,-1,-1,27,29,31,33,-1,-1,35,37,-1,-1,39,41,-1,43,45,47,49,51,53,55,-1,-1,-1,-1,-1,-1,-1,-1,-1,-1,-1,-1,-1,-1,-1,-1,-1,-1,-1,-1],"loss_changes":[2.177151E0,2.6366708E0,3.6610742E0,1.8101437E0,3.1265025E0,3.1658297E0,1.3124707E0,1.2409805E0,0E0,2.3793612E0,4.372859E0,1.9115448E0,3.0398045E0,7.6333237E-1,0E0,0E0,0E0,2.2666605E0,3.8888602E0,2.5063071E0,2.6564906E0,0E0,0E0,2.298733E0,1.216753E0,0E0,0E0,3.6510189E0,4.926985E0,0E0,1.3994756E0,4.1157818E-1,3.1634307E0,3.2499764E0,2.3382618E0,2.8984718E0,2.7698312E0,0E0,0E0,0E0,0E0,0E0,0E0,0E0,0E0,0E0,0E0,0E0,0E0,0E0,0E0,0E0,0E0,0E0,0E0,0E0,0E0],"parents":[2147483647,0,0,1,1,2,2,3,3,4,4,5,5,6,6,7,7,9,9,10,10,11,11,12,12,13,13,17,17,18,18,19,19,20,20,23,23,24,24,27,27,28,28,30,30,31,31,32,32,33,33,34,34,35,35,36,36],"right_children":[2,4,6,8,10,12,14,16,-1,18,20,22,24,26,-1,-1,-1,28,30,32,34,-1,-1,36,38,-1,-1,40,42,-1,44,46,48,50,52,54,56,-1,-1,-1,-1,-1,-1,-1,-1,-1,-1,-1,-1,-1,-1,-1,-1,-1,-1,-1,-1],"split_conditions":[4.6913047E0,1.316E3,9.222934E1,1.6981287E1,-1.738862E8,5.0283628E0,4.3981627E-1,1.6911667E1,-6.816995E-2,-1.9370354E8,-1.4741906E7,-1.8129283E-1,8.095106E1,3.92E0,6.6357413E-3,-4.3369066E-2,3.7955083E-2,3.3424126E1,3.69E0,-2.2354606E-1,1.7342067E-3,1.3454309E-1,3.312115E-2,7.359033E1,4.26E0,-6.6293143E-3,-6.880384E-2,4.38E0,2.2334104E0,-1.3842299E-2,3E0,2.2282274E1,1.4993167E0,3.477218E-1,3.39E0,-4.737625E0,1.2201335E0,8.6956285E-2,9.563477E-3,-4.932508E-2,2.371983E-2,-4.2992264E-2,9.974398E-2,1.3045661E-1,4.3653335E-2,-6.4029224E-2,-2.5697947E-2,-2.3754112E-2,3.9396714E-2,-3.5239544E-2,3.2389108E-2,3.9160218E-2,-2.8628899E-2,3.3565786E-2,-1.5810786E-2,7.3017064E-3,1.08098544E-1],"split_indices":[19,18,23,10,5,19,25,21,0,5,5,25,23,20,0,0,0,21,20,12,12,0,0,11,20,0,0,9,19,0,28,10,8,19,9,29,8,0,0,0,0,0,0,0,0,0,0,0,0,0,0,0,0,0,0,0,0],"split_type":[0,0,0,0,0,0,0,0,0,0,0,0,0,0,0,0,0,0,0,0,0,0,0,0,0,0,0,0,0,0,0,0,0,0,0,0,0,0,0,0,0,0,0,0,0,0,0,0,0,0,0,0,0,0,0,0,0],"sum_hessian":[3.741093E2,2.5962735E2,1.1448196E2,1.9225426E1,2.4040192E2,9.799796E1,1.6483995E1,7.27566E0,1.1949766E1,5.0923695E1,1.8947823E2,8.537193E0,8.946077E1,1.1682364E1,4.801631E0,3.8233297E0,3.4523304E0,3.6819042E1,1.410465E1,1.0729404E2,8.218419E1,3.1831303E0,5.354063E0,7.9562004E1,9.8987665E0,3.062372E0,8.619992E0,2.6996403E1,9.82264E0,5.4256496E0,8.679E0,2.1191053E1,8.610299E1,4.873038E1,3.3453804E1,6.706492E1,1.2497084E1,6.4701242E0,3.4286425E0,1.3436278E1,1.3560124E1,3.8104806E0,6.0121603E0,4.643564E0,4.0354357E0,1.6406303E1,4.784751E0,7.746534E1,8.637645E0,8.402809E0,4.032757E1,6.0463133E0,2.7407492E1,1.5260312E1,5.1804607E1,8.354518E0,4.1425657E0],"tree_param":{"num_deleted":"0","num_feature":"38","num_nodes":"57","size_leaf_vector":"1"}},{"base_weights":[5.923409E-2,-6.812485E-2,7.081451E-2,2.1046911E-1,1.7152568E-2,-2.8918436E-1,2.878241E-1,3.0608407E-1,-2.2030687E-2,-5.792446E-2,-4.3869104E-2,8.4733903E-1,2.3902313E-1,-1.5206228E-1,4.643299E-1,1.12455204E-1,-1.0910683E-1,3.8350303E-2,-3.371529E-2,1.1700147E-1,3.6497515E-2,3.443465E-1,-1.6850185E-2,1.7925598E-2,-7.4931726E-2,1.7572501E-1,1.0047355E0,2.3076552E-1,-3.3989403E-1,-6.769465E-2,-4.26566E-1,6.2049534E-2,1.5163258E-2,-7.303696E-2,1.2964159E-2,6.426909E-2,-1.3636022E-2,1.1963236E-1,6.17973E-2,1.0421001E-2,5.5580724E-2,-4.7273505E-2,3.308818E-2,5.4483004E-2,-9.853932E-3,-1.3189772E-2,-7.3866256E-2],"categories":[],"categories_nodes":[],"categories_segments":[],"categories_sizes":[],"default_left":[0,0,0,0,0,0,0,0,0,0,0,0,0,0,0,0,0,0,0,0,0,0,0,0,0,0,0,0,0,0,0,0,0,0,0,0,0,0,0,0,0,0,0,0,0,0,0],"id":23,"left_children":[1,-1,3,5,7,9,11,13,15,-1,17,19,21,23,25,27,29,-1,-1,-1,-1,31,33,-1,-1,35,37,39,41,43,45,-1,-1,-1,-1,-1,-1,-1,-1,-1,-1,-1,-1,-1,-1,-1,-1],"loss_changes":[3.5170124E0,0E0,3.0532615E0,4.392119E0,3.3935494E0,1.0083604E0,2.5590534E0,2.6338267E0,3.0629625E0,0E0,1.0694969E0,1.0012898E0,2.4816403E0,1.8719846E0,4.0435786E0,5.4751186E0,2.040875E0,0E0,0E0,0E0,0E0,3.3533096E0,2.8195274E0,0E0,0E0,2.6402738E0,4.2538166E-1,3.2756424E0,1.9088342E0,2.6292517E0,1.5655179E0,0E0,0E0,0E0,0E0,0E0,0E0,0E0,0E0,0E0,0E0,0E0,0E0,0E0,0E0,0E0,0E0],"parents":[2147483647,0,0,2,2,3,3,4,4,5,5,6,6,7,7,8,8,10,10,11,11,12,12,13,13,14,14,15,15,16,16,21,21,22,22,25,25,26,26,27,27,28,28,29,29,30,30],"right_children":[2,-1,4,6,8,10,12,14,16,-1,18,20,22,24,26,28,30,-1,-1,-1,-1,32,34,-1,-1,36,38,40,42,44,46,-1,-1,-1,-1,-1,-1,-1,-1,-1,-1,-1,-1,-1,-1,-1,-1],"split_conditions":[2.67E0,-6.812485E-2,-1.7264838E0,-1.3810832E1,-2.4817333E8,1.568E1,3.6E0,5.2683916E-2,3.57E0,-5.792446E-2,-3.0641903E1,1.0546105E0,1E0,6.2118122E1,-2.6514864E-2,7.024495E1,4.3955734E1,3.8350303E-2,-3.371529E-2,1.1700147E-1,3.6497515E-2,1.6136494E3,-6.8E-1,1.7925598E-2,-7.4931726E-2,7.399501E-1,1.280753E0,5.887022E0,4.797218E7,3.96E0,-4.423314E-2,6.2049534E-2,1.5163258E-2,-7.303696E-2,1.2964159E-2,6.426909E-2,-1.3636022E-2,1.1963236E-1,6.17973E-2,1.0421001E-2,5.5580724E-2,-4.7273505E-2,3.308818E-2,5.4483004E-2,-9.853932E-3,-1.3189772E-2,-7.3866256E-2],"split_indices":[9,0,3,29,5,13,2,15,20,0,3,8,35,3,12,11,21,0,0,0,0,30,26,0,0,8,8,29,5,24,25,0,0,0,0,0,0,0,0,0,0,0,0,0,0,0,0],"split_type":[0,0,0,0,0,0,0,0,0,0,0,0,0,0,0,0,0,0,0,0,0,0,0,0,0,0,0,0,0,0,0,0,0,0,0,0,0,0,0,0,0,0,0,0,0,0,0],"sum_hessian":[4.165984E2,6.1928577E0,4.1040552E2,1.1332439E2,2.9708112E2,1.4982492E1,9.8341896E1,3.570067E1,2.6138046E2,6.615994E0,8.366499E0,7.593631E0,9.074827E1,9.00417E0,2.6696497E1,1.0226239E2,1.5911807E2,3.2536142E0,5.1128845E0,4.340319E0,3.2533119E0,6.453883E1,2.6209433E1,5.728773E0,3.275397E0,1.760961E1,9.086889E0,8.127521E1,2.0987186E1,1.4114252E2,1.7975554E1,2.62225E1,3.8316334E1,4.5128236E0,2.169661E1,7.140274E0,1.0469335E1,5.7638245E0,3.3230643E0,5.8815147E1,2.2460058E1,1.7667004E1,3.3201838E0,6.53139E0,1.3461113E2,9.483917E0,8.491635E0],"tree_param":{"num_deleted":"0","num_feature":"38","num_nodes":"47","size_leaf_vector":"1"}},{"base_weights":[7.468842E-3,-3.820562E-2,1.5067796E-1,-1.06755145E-1,1.0167868E-1,4.7568724E-1,1.482159E-2,-1.4211023E-2,-3.1348985E-1,1.8146876E-1,-3.5497242E-1,-2.4637449E-1,7.044686E-1,-4.2690033E-1,9.8819695E-2,-5.1663274E-1,3.3351313E-2,-1.7719896E-1,-5.264958E-1,5.1066734E-2,6.2561876E-1,-5.883431E-2,3.8091164E-2,1.42744705E-2,-6.530444E-2,8.8584286E-1,-1.8106418E-3,1.1367955E-2,-7.08152E-2,2.4430299E-1,-2.4180277E-1,-1.1182092E-2,-6.8159126E-2,-6.585002E-2,6.2939614E-2,-4.0397382E-1,2.0936567E-1,-5.975335E-1,-6.5860823E-3,-2.0442258E-1,1.9926898E-1,9.503591E-1,-2.752774E-2,1.0333232E0,1.8926889E-2,6.3593954E-2,8.081467E-1,1.3872485E-1,-5.079069E-1,-3.5992082E-2,1.1069516E-2,-5.7150524E-2,-0E0,4.7745418E-2,-4.391512E-2,-6.8812415E-2,-4.0067457E-2,-4.336443E-2,5.7875138E-2,7.256802E-2,6.6677504E-3,6.8960816E-2,1.4171396E-1,4.2287778E-2,1.2068776E-1,2.2368802E-2,-5.428942E-2,1.1034633E-1,1.7360566E-2,-1.5778271E-2,5.0530035E-2,-6.9041245E-2,-7.6608337E-3],"categories":[],"categories_nodes":[],"categories_segments":[],"categories_sizes":[],"default_left":[0,0,0,0,0,0,0,0,0,0,0,0,0,0,0,0,0,0,0,0,0,0,0,0,0,0,0,0,0,0,0,0,0,0,0,0,0,0,0,0,0,0,0,0,0,0,0,0,0,0,0,0,0,0,0,0,0,0,0,0,0,0,0,0,0,0,0,0,0,0,0,0,0],"id":24,"left_children":[1,3,5,7,9,11,13,15,17,19,21,23,25,27,29,31,33,35,37,39,41,-1,-1,-1,-1,43,-1,-1,-1,45,47,-1,-1,-1,49,51,53,55,-1,57,59,61,-1,63,-1,65,67,69,71,-1,-1,-1,-1,-1,-1,-1,-1,-1,-1,-1,-1,-1,-1,-1,-1,-1,-1,-1,-1,-1,-1,-1,-1],"loss_changes":[2.496436E0,2.7589052E0,4.0302496E0,3.6690142E0,3.4192138E0,4.5265117E0,2.4011157E0,3.2547975E0,1.6475945E0,4.585205E0,2.4216375E0,1.0841651E0,2.794549E0,1.6321968E0,2.7461731E0,7.000513E-1,2.450708E0,3.2469206E0,6.7836714E-1,2.3673322E0,5.378061E0,0E0,0E0,0E0,0E0,1.5654049E0,0E0,0E0,0E0,3.8814492E0,1.7038859E0,0E0,0E0,0E0,2.3545442E0,1.614095E0,2.3683681E0,2.1346521E-1,0E0,4.089294E0,2.6944199E0,1.320241E0,0E0,1.2240696E0,0E0,2.8714392E0,1.6001291E0,7.6768863E-1,6.9120455E-1,0E0,0E0,0E0,0E0,0E0,0E0,0E0,0E0,0E0,0E0,0E0,0E0,0E0,0E0,0E0,0E0,0E0,0E0,0E0,0E0,0E0,0E0,0E0,0E0],"parents":[2147483647,0,0,1,1,2,2,3,3,4,4,5,5,6,6,7,7,8,8,9,9,10,10,11,11,12,12,13,13,14,14,15,15,16,16,17,17,18,18,19,19,20,20,25,25,29,29,30,30,34,34,35,35,36,36,37,37,39,39,40,40,41,41,43,43,45,45,46,46,47,47,48,48],"right_children":[2,4,6,8,10,12,14,16,18,20,22,24,26,28,30,32,34,36,38,40,42,-1,-1,-1,-1,44,-1,-1,-1,46,48,-1,-1,-1,50,52,54,56,-1,58,60,62,-1,64,-1,66,68,70,72,-1,-1,-1,-1,-1,-1,-1,-1,-1,-1,-1,-1,-1,-1,-1,-1,-1,-1,-1,-1,-1,-1,-1,-1],"split_conditions":[4.27E0,1.2499293E0,7.637952E-1,6.178341E7,1.1631225E1,-2.5409535E-1,9.067607E-1,-6.4868134E-1,3.84E0,5.4357886E0,5.0973663E1,5.152834E1,1.4106803E-1,3.800191E1,1.4213707E0,3.31E0,3.05E0,3.578152E1,2.9337206E1,-2.4404807E0,8.039936E1,-5.883431E-2,3.8091164E-2,1.42744705E-2,-6.530444E-2,1.752E1,-1.8106418E-3,1.1367955E-2,-7.08152E-2,1.761E1,4.541631E1,-1.1182092E-2,-6.8159126E-2,-6.585002E-2,5.370881E2,1.1833372E-1,2.3E5,5.8799545E1,-6.5860823E-3,3.7195776E-2,-4.6684494E0,1.488E3,-2.752774E-2,-4.4E-1,1.8926889E-2,7.613874E1,1.6277636E1,2.14E5,1.5550778E0,-3.5992082E-2,1.1069516E-2,-5.7150524E-2,-0E0,4.7745418E-2,-4.391512E-2,-6.8812415E-2,-4.0067457E-2,-4.336443E-2,5.7875138E-2,7.256802E-2,6.6677504E-3,6.8960816E-2,1.4171396E-1,4.2287778E-2,1.2068776E-1,2.2368802E-2,-5.428942E-2,1.1034633E-1,1.7360566E-2,-1.5778271E-2,5.0530035E-2,-6.9041245E-2,-7.6608337E-3],"split_indices":[20,8,8,22,29,12,8,25,20,14,23,11,27,23,8,9,9,23,14,29,23,0,0,0,0,13,0,0,0,13,11,0,0,0,30,15,17,23,0,12,14,18,0,26,0,23,14,17,8,0,0,0,0,0,0,0,0,0,0,0,0,0,0,0,0,0,0,0,0,0,0,0,0],"split_type":[0,0,0,0,0,0,0,0,0,0,0,0,0,0,0,0,0,0,0,0,0,0,0,0,0,0,0,0,0,0,0,0,0,0,0,0,0,0,0,0,0,0,0,0,0,0,0,0,0,0,0,0,0,0,0,0,0,0,0,0,0,0,0,0,0,0,0,0,0,0,0,0,0],"sum_hessian":[3.797522E2,2.8744943E2,9.230276E1,1.9340898E2,9.404045E1,2.691877E1,6.538399E1,1.340103E2,5.9398693E1,8.029062E1,1.3749833E1,6.3698773E0,2.0548891E1,1.0191434E1,5.5192554E1,1.1685677E1,1.22324615E2,3.6620132E1,2.277856E1,6.232786E1,1.7962755E1,1.0557634E1,3.1921988E0,3.1626847E0,3.2071927E0,1.6518393E1,4.0304985E0,3.3864784E0,6.8049555E0,3.889988E1,1.6292675E1,3.6072953E0,8.078382E0,4.7910953E0,1.1753352E2,2.3240484E1,1.3379647E1,1.9521246E1,3.2573164E0,2.262001E1,3.970785E1,1.328096E1,4.681794E0,1.3473787E1,3.0446062E0,2.9677141E1,9.22274E0,6.569869E0,9.722806E0,1.16478405E1,1.0588568E2,1.6503914E1,6.7365694E0,9.594132E0,3.785515E0,1.2850272E1,6.6709723E0,1.7631798E1,4.988212E0,7.747485E0,3.1960367E1,8.817394E0,4.463566E0,3.186326E0,1.0287461E1,2.3659712E1,6.0174294E0,6.1356864E0,3.0870535E0,3.5127308E0,3.0571384E0,6.6267405E0,3.096065E0],"tree_param":{"num_deleted":"0","num_feature":"38","num_nodes":"73","size_leaf_vector":"1"}},{"base_weights":[-1.06623145E-2,-5.109935E-2,2.2968982E-1,1.2850975E-2,-2.0101722E-1,-4.35814E-3,4.3735492E-1,8.2628146E-2,-2.6962748E-1,9.433625E-2,-2.761898E-1,1.8535805E-1,-4.5958656E-1,-1.5127158E-1,6.222355E-1,-6.654787E-2,2.0303172E-1,-3.505871E-1,7.674892E-2,-1.4348708E-1,8.925604E-2,2.0053269E-1,-3.3347756E-1,4.4061667E-1,-3.4138113E-2,-6.9323584E-2,-5.7691885E-3,3.2224145E-2,-6.725221E-2,7.900567E-1,-3.4531828E-2,4.9039528E-1,-1.3781503E-1,9.456203E-2,4.0576074E-1,-4.608125E-1,8.431807E-2,-6.739746E-2,9.997815E-2,8.408239E-2,-2.7566314E-2,-4.5989767E-1,-1.5593868E-1,7.14063E-1,-3.6808606E-2,5.03882E-1,1.0745109E0,-1.5716104E-2,9.095644E-2,9.24699E-2,-1.8989412E-2,-7.453132E-5,4.4391844E-2,2.6420442E-2,1.3020205E-1,-1.7718237E-2,-5.974887E-2,1.07129686E-1,-4.9679257E-2,-4.0912606E-2,3.968359E-2,-6.3703716E-2,-1.864428E-2,4.7438603E-2,-2.5686055E-2,9.888178E-2,1.6603911E-2,8.524348E-2,-1.2478411E-2,7.08332E-2,1.2335978E-1],"categories":[],"categories_nodes":[],"categories_segments":[],"categories_sizes":[],"default_left":[0,0,0,0,0,0,0,0,0,0,0,0,0,0,0,0,0,0,0,0,0,0,0,0,0,0,0,0,0,0,0,0,0,0,0,0,0,0,0,0,0,0,0,0,0,0,0,0,0,0,0,0,0,0,0,0,0,0,0,0,0,0,0,0,0,0,0,0,0,0,0],"id":25,"left_children":[1,3,5,7,9,11,13,15,17,19,21,23,25,27,29,31,33,35,-1,37,-1,39,41,43,-1,-1,-1,-1,-1,45,-1,47,49,51,53,55,57,-1,59,-1,-1,61,63,65,-1,67,69,-1,-1,-1,-1,-1,-1,-1,-1,-1,-1,-1,-1,-1,-1,-1,-1,-1,-1,-1,-1,-1,-1,-1,-1],"loss_changes":[3.7352328E0,3.1913078E0,2.7291157E0,4.5478334E0,2.2279863E0,2.2684817E0,3.2674508E0,3.3568263E0,3.8148284E0,3.879402E0,2.192212E0,2.4669871E0,6.5220916E-1,1.7852765E0,3.7417746E0,3.2581277E0,2.2188587E0,2.0772214E0,0E0,2.0503142E0,0E0,2.6433163E0,1.5299807E0,2.8041701E0,0E0,0E0,0E0,0E0,0E0,1.3655901E0,0E0,2.6020544E0,4.019337E0,2.3011887E0,4.334782E0,1.2329869E0,4.9786716E0,0E0,1.6016611E0,0E0,0E0,1.9026871E0,1.905581E0,1.283041E0,0E0,2.2799263E0,2.6924992E-1,0E0,0E0,0E0,0E0,0E0,0E0,0E0,0E0,0E0,0E0,0E0,0E0,0E0,0E0,0E0,0E0,0E0,0E0,0E0,0E0,0E0,0E0,0E0,0E0],"parents":[2147483647,0,0,1,1,2,2,3,3,4,4,5,5,6,6,7,7,8,8,9,9,10,10,11,11,12,12,13,13,14,14,15,15,16,16,17,17,19,19,21,21,22,22,23,23,29,29,31,31,32,32,33,33,34,34,35,35,36,36,38,38,41,41,42,42,43,43,45,45,46,46],"right_children":[2,4,6,8,10,12,14,16,18,20,22,24,26,28,30,32,34,36,-1,38,-1,40,42,44,-1,-1,-1,-1,-1,46,-1,48,50,52,54,56,58,-1,60,-1,-1,62,64,66,-1,68,70,-1,-1,-1,-1,-1,-1,-1,-1,-1,-1,-1,-1,-1,-1,-1,-1,-1,-1,-1,-1,-1,-1,-1,-1],"split_conditions":[1.8183702E-1,1.7342067E-3,1.1321254E0,2.8045025E-1,3.1E0,1.030722E2,3.55E0,1.17681465E1,1.5273821E0,3.03E0,2.85E0,1.8915464E1,3.837482E-1,9.7435854E-2,4.4E0,-6.820358E1,-1.2673023E-1,-4.6648473E-2,7.674892E-2,-2.3755448E-1,8.925604E-2,9.981115E-2,6.062593E7,2.9124627E-1,-3.4138113E-2,-6.9323584E-2,-5.7691885E-3,3.2224145E-2,-6.725221E-2,4.1E0,-3.4531828E-2,6.059809E7,2.1150188E1,3.538356E1,5.06E0,-2.5719962E-1,1.786394E3,-6.739746E-2,3.495915E1,8.408239E-2,-2.7566314E-2,3.347751E-2,6.103907E7,1.528452E3,-3.6808606E-2,6.0948292E7,1.7834353E-1,-1.5716104E-2,9.095644E-2,9.24699E-2,-1.8989412E-2,-7.453132E-5,4.4391844E-2,2.6420442E-2,1.3020205E-1,-1.7718237E-2,-5.974887E-2,1.07129686E-1,-4.9679257E-2,-4.0912606E-2,3.968359E-2,-6.3703716E-2,-1.864428E-2,4.7438603E-2,-2.5686055E-2,9.888178E-2,1.6603911E-2,8.524348E-2,-1.2478411E-2,7.08332E-2,1.2335978E-1],"split_indices":[12,12,8,27,9,1,20,3,8,9,20,10,12,15,20,3,12,12,0,25,0,15,22,27,0,0,0,0,0,20,0,22,11,21,9,12,30,0,11,0,0,27,22,30,0,22,25,0,0,0,0,0,0,0,0,0,0,0,0,0,0,0,0,0,0,0,0,0,0,0,0],"split_type":[0,0,0,0,0,0,0,0,0,0,0,0,0,0,0,0,0,0,0,0,0,0,0,0,0,0,0,0,0,0,0,0,0,0,0,0,0,0,0,0,0,0,0,0,0,0,0,0,0,0,0,0,0,0,0,0,0,0,0,0,0,0,0,0,0,0,0,0,0,0,0],"sum_hessian":[3.8593445E2,3.3077878E2,5.515569E1,2.3146664E2,9.931212E1,2.5750298E1,2.9405392E1,1.859568E2,4.5509857E1,1.9873455E1,7.943866E1,1.806241E1,7.6878867E0,6.903422E0,2.2501968E1,8.270377E1,1.0325303E2,4.236534E1,3.1445146E0,1.5278205E1,4.59525E0,8.307964E0,7.11307E1,1.2305395E1,5.7570157E0,4.658351E0,3.029536E0,3.5368335E0,3.3665884E0,1.9279633E1,3.2223356E0,9.156408E0,7.354736E1,6.7680595E1,3.557243E1,3.397776E1,8.387582E0,4.8797045E0,1.03985E1,3.60036E0,4.7076044E0,4.1124718E1,3.000598E1,9.29712E0,3.0082743E0,9.924149E0,9.355485E0,3.5288222E0,5.627586E0,3.2684724E0,7.027889E1,5.3027733E1,1.46528635E1,3.0928589E1,4.643843E0,1.1361563E1,2.2616196E1,3.1408253E0,5.2467566E0,3.6920462E0,6.7064543E0,2.4654984E1,1.6469734E1,3.9534042E0,2.6052576E1,6.0173707E0,3.2797494E0,6.4638534E0,3.4602952E0,3.1890068E0,6.166478E0],"tree_param":{"num_deleted":"0","num_feature":"38","num_nodes":"71","size_leaf_vector":"1"}},{"base_weights":[5.014267E-2,3.8842806E-1,2.4291467E-2,5.4326785E-1,-2.0661782E-2,1.7748249E-1,-1.9655801E-2,7.7167565E-1,-1.2675418E-2,2.9865772E-1,-6.0762014E-2,7.866538E-2,-1.3957362E-1,2.3459723E-2,9.574799E-1,-4.281787E-2,3.682373E-2,1.3824393E-1,8.7251645E-1,1.1593384E-1,-7.464215E-2,5.0073605E-2,9.5434345E-2,-4.4653141E-1,-2.922692E-2,1.0979996E-1,5.5905264E-2,-4.8537306E-2,4.476976E-1,3.977388E-2,1.1567576E-1,-6.869324E-2,2.5083065E-1,-1.8908606E-1,1.6295148E-1,-5.385846E-1,4.0082846E-2,4.37082E-1,-1.0569033E-1,2.6448881E-2,-3.1300027E-2,6.7546414E-3,8.5902445E-2,-4.318286E-2,4.120525E-2,1.0191767E-3,-5.6705672E-2,4.484461E-2,5.7670446E-3,1.5621902E-2,-6.189614E-2,-2.624262E-2,7.8067265E-2,6.486385E-2,-1.579728E-2],"categories":[],"categories_nodes":[],"categories_segments":[],"categories_sizes":[],"default_left":[0,0,0,0,0,0,0,0,0,0,0,0,0,0,0,0,0,0,0,0,0,0,0,0,0,0,0,0,0,0,0,0,0,0,0,0,0,0,0,0,0,0,0,0,0,0,0,0,0,0,0,0,0,0,0],"id":26,"left_children":[1,3,5,7,-1,9,11,13,15,17,19,21,23,-1,25,-1,-1,27,29,31,-1,33,-1,35,37,-1,-1,39,41,-1,-1,-1,43,45,47,49,-1,51,53,-1,-1,-1,-1,-1,-1,-1,-1,-1,-1,-1,-1,-1,-1,-1,-1],"loss_changes":[3.4865537E0,2.6583943E0,2.5424316E0,2.955472E0,0E0,2.4555378E0,3.4403253E0,1.4746532E0,1.0619692E0,5.0500336E0,3.4860504E0,3.8907814E0,4.4112353E0,0E0,4.3708706E-1,0E0,0E0,2.5904784E0,1.4312258E0,2.3972692E0,0E0,4.1786766E0,0E0,2.7320728E0,3.4373531E0,0E0,0E0,2.2800126E0,