{"learner":{"attributes":{"scikit_learn":"{\"_estimator_type\": \"classifier\"}"},"feature_names":["RSXFS","INDPRO","UNRATE","macd","UMCSENT","ad_line","DFF","bb_position","volume_ratio","BAMLH0A0HYM2","lower_shadow","rsi_14","price_volume_correlation","VIXCLS","macd_hist","price_change_20d","is_doji","ICSA","HOUST","candle_body","DGS10","upper_shadow","volume_sma_20","candle_range","DGS2","volume_roc_10","T10Y2Y","inflation_yoy","lower_lows","roc_10","sma_10","higher_highs","candle_direction","gdp_growth_yoy","CSCICP03USM665S","price_above_sma20","CPIAUCSL","price_above_sma50"],"feature_types":["float","float","float","float","float","float","float","float","float","float","float","float","float","float","float","float","int","float","float","float","float","float","float","float","float","float","float","float","float","float","float","float","int","float","float","int","float","int"],"gradient_booster":{"model":{"cats":{"enc":[],"feature_segments":[],"sorted_idx":[]},"gbtree_model_param":{"num_parallel_tree":"1","num_trees":"900"},"iteration_indptr":[0,3,6,9,12,15,18,21,24,27,30,33,36,39,42,45,48,51,54,57,60,63,66,69,72,75,78,81,84,87,90,93,96,99,102,105,108,111,114,117,120,123,126,129,132,135,138,141,144,147,150,153,156,159,162,165,168,171,174,177,180,183,186,189,192,195,198,201,204,207,210,213,216,219,222,225,228,231,234,237,240,243,246,249,252,255,258,261,264,267,270,273,276,279,282,285,288,291,294,297,300,303,306,309,312,315,318,321,324,327,330,333,336,339,342,345,348,351,354,357,360,363,366,369,372,375,378,381,384,387,390,393,396,399,402,405,408,411,414,417,420,423,426,429,432,435,438,441,444,447,450,453,456,459,462,465,468,471,474,477,480,483,486,489,492,495,498,501,504,507,510,513,516,519,522,525,528,531,534,537,540,543,546,549,552,555,558,561,564,567,570,573,576,579,582,585,588,591,594,597,600,603,606,609,612,615,618,621,624,627,630,633,636,639,642,645,648,651,654,657,660,663,666,669,672,675,678,681,684,687,690,693,696,699,702,705,708,711,714,717,720,723,726,729,732,735,738,741,744,747,750,753,756,759,762,765,768,771,774,777,780,783,786,789,792,795,798,801,804,807,810,813,816,819,822,825,828,831,834,837,840,843,846,849,852,855,858,861,864,867,870,873,876,879,882,885,888,891,894,897,900],"tree_info":[0,1,2,0,1,2,0,1,2,0,1,2,0,1,2,0,1,2,0,1,2,0,1,2,0,1,2,0,1,2,0,1,2,0,1,2,0,1,2,0,1,2,0,1,2,0,1,2,0,1,2,0,1,2,0,1,2,0,1,2,0,1,2,0,1,2,0,1,2,0,1,2,0,1,2,0,1,2,0,1,2,0,1,2,0,1,2,0,1,2,0,1,2,0,1,2,0,1,2,0,1,2,0,1,2,0,1,2,0,1,2,0,1,2,0,1,2,0,1,2,0,1,2,0,1,2,0,1,2,0,1,2,0,1,2,0,1,2,0,1,2,0,1,2,0,1,2,0,1,2,0,1,2,0,1,2,0,1,2,0,1,2,0,1,2,0,1,2,0,1,2,0,1,2,0,1,2,0,1,2,0,1,2,0,1,2,0,1,2,0,1,2,0,1,2,0,1,2,0,1,2,0,1,2,0,1,2,0,1,2,0,1,2,0,1,2,0,1,2,0,1,2,0,1,2,0,1,2,0,1,2,0,1,2,0,1,2,0,1,2,0,1,2,0,1,2,0,1,2,0,1,2,0,1,2,0,1,2,0,1,2,0,1,2,0,1,2,0,1,2,0,1,2,0,1,2,0,1,2,0,1,2,0,1,2,0,1,2,0,1,2,0,1,2,0,1,2,0,1,2,0,1,2,0,1,2,0,1,2,0,1,2,0,1,2,0,1,2,0,1,2,0,1,2,0,1,2,0,1,2,0,1,2,0,1,2,0,1,2,0,1,2,0,1,2,0,1,2,0,1,2,0,1,2,0,1,2,0,1,2,0,1,2,0,1,2,0,1,2,0,1,2,0,1,2,0,1,2,0,1,2,0,1,2,0,1,2,0,1,2,0,1,2,0,1,2,0,1,2,0,1,2,0,1,2,0,1,2,0,1,2,0,1,2,0,1,2,0,1,2,0,1,2,0,1,2,0,1,2,0,1,2,0,1,2,0,1,2,0,1,2,0,1,2,0,1,2,0,1,2,0,1,2,0,1,2,0,1,2,0,1,2,0,1,2,0,1,2,0,1,2,0,1,2,0,1,2,0,1,2,0,1,2,0,1,2,0,1,2,0,1,2,0,1,2,0,1,2,0,1,2,0,1,2,0,1,2,0,1,2,0,1,2,0,1,2,0,1,2,0,1,2,0,1,2,0,1,2,0,1,2,0,1,2,0,1,2,0,1,2,0,1,2,0,1,2,0,1,2,0,1,2,0,1,2,0,1,2,0,1,2,0,1,2,0,1,2,0,1,2,0,1,2,0,1,2,0,1,2,0,1,2,0,1,2,0,1,2,0,1,2,0,1,2,0,1,2,0,1,2,0,1,2,0,1,2,0,1,2,0,1,2,0,1,2,0,1,2,0,1,2,0,1,2,0,1,2,0,1,2,0,1,2,0,1,2,0,1,2,0,1,2,0,1,2,0,1,2,0,1,2,0,1,2,0,1,2,0,1,2,0,1,2,0,1,2,0,1,2,0,1,2,0,1,2,0,1,2,0,1,2,0,1,2,0,1,2,0,1,2,0,1,2,0,1,2,0,1,2,0,1,2,0,1,2,0,1,2,0,1,2,0,1,2,0,1,2,0,1,2,0,1,2,0,1,2,0,1,2,0,1,2,0,1,2,0,1,2,0,1,2,0,1,2,0,1,2,0,1,2,0,1,2,0,1,2,0,1,2,0,1,2,0,1,2,0,1,2,0,1,2,0,1,2,0,1,2,0,1,2,0,1,2,0,1,2,0,1,2,0,1,2,0,1,2,0,1,2,0,1,2,0,1,2,0,1,2,0,1,2,0,1,2,0,1,2,0,1,2,0,1,2,0,1,2,0,1,2,0,1,2,0,1,2,0,1,2,0,1,2,0,1,2,0,1,2,0,1,2,0,1,2,0,1,2,0,1,2,0,1,2,0,1,2,0,1,2,0,1,2,0,1,2,0,1,2,0,1,2,0,1,2,0,1,2,0,1,2,0,1,2,0,1,2,0,1,2,0,1,2],"trees":[{"base_weights":[1.6958036E-2,6.909756E-2,-3.1890905E-1,3.566312E-2,6.5634954E-1,-5.7639307E-1,-3.7468479E-3,-3.38916E-1,8.6713806E-2,1.14169E0,1.2867892E-1,-7.4447215E-2,-2.7579224E-1,1.18132435E-1,-2.503841E-1,1.8629475E-1,-4.4295967E-1,5.838987E-1,2.5487745E-2,4.7776114E-2,1.4451766E-1,-5.38772E-2,1.14448704E-1,-6.012505E-2,4.7776114E-2,3.7094377E-2,-7.312021E-2,-3.898042E-2,7.876059E-2,-5.4527646E-1,4.7776114E-2,-6.2445275E-2,9.037312E-1,-6.3294494E-1,7.547204E-2,4.8426473E-1,-5.38772E-2,-1.7795084E-2,-6.570472E-2,-4.3416005E-2,6.001504E-2,-0E0,1.21430695E-1,-7.421791E-2,-7.995942E-3,-2.835086E-2,1.4982392E-2,-1.619208E-2,1.14448704E-1],"categories":[],"categories_nodes":[],"categories_segments":[],"categories_sizes":[],"default_left":[0,0,0,0,0,0,0,0,0,0,0,0,0,0,0,0,0,0,0,0,0,0,0,0,0,0,0,0,0,0,0,0,0,0,0,0,0,0,0,0,0,0,0,0,0,0,0,0,0],"id":0,"left_children":[1,3,5,7,9,11,13,15,17,19,21,-1,23,-1,25,27,29,31,33,-1,-1,-1,-1,-1,-1,35,-1,-1,-1,37,-1,39,41,43,45,47,-1,-1,-1,-1,-1,-1,-1,-1,-1,-1,-1,-1,-1],"loss_changes":[6.950066E0,6.7025385E0,4.2642803E0,6.2248983E0,4.5750594E0,1.3497496E0,7.017276E0,2.1633954E0,8.699097E0,1.6492777E0,6.248316E0,0E0,2.6953163E0,0E0,2.8649359E0,2.271893E0,3.1146817E0,6.575507E0,8.392378E0,0E0,0E0,0E0,0E0,0E0,0E0,3.2677662E0,0E0,0E0,0E0,1.1195459E0,0E0,2.5649858E0,5.973316E0,9.973879E-1,6.361397E0,3.2091422E0,0E0,0E0,0E0,0E0,0E0,0E0,0E0,0E0,0E0,0E0,0E0,0E0,0E0],"parents":[2147483647,0,0,1,1,2,2,3,3,4,4,5,5,6,6,7,7,8,8,9,9,10,10,12,12,14,14,15,15,16,16,17,17,18,18,25,25,29,29,31,31,32,32,33,33,34,34,35,35],"right_children":[2,4,6,8,10,12,14,16,18,20,22,-1,24,-1,26,28,30,32,34,-1,-1,-1,-1,-1,-1,36,-1,-1,-1,38,-1,40,42,44,46,48,-1,-1,-1,-1,-1,-1,-1,-1,-1,-1,-1,-1,-1],"split_conditions":[6.443432E7,9.827259E7,1.4310166E1,1.32E1,3.347751E-2,2.0886673E1,4.18E0,4.48E0,-2.8309494E-1,-2.1312177E-1,4.82022E0,-7.4447215E-2,6.543737E-1,1.18132435E-1,8.493509E-2,5.9710948E7,4.5974648E1,1.028143E2,2.03E5,4.7776114E-2,1.4451766E-1,-5.38772E-2,1.14448704E-1,-6.012505E-2,4.7776114E-2,1.6226067E3,-7.312021E-2,-3.898042E-2,7.876059E-2,6.79E1,4.7776114E-2,1.5944565E1,3.6E0,3.3455395E1,5.868031E2,-2.0145208E8,-5.38772E-2,-1.7795084E-2,-6.570472E-2,-4.3416005E-2,6.001504E-2,-0E0,1.21430695E-1,-7.421791E-2,-7.995942E-3,-2.835086E-2,1.4982392E-2,-1.619208E-2,1.14448704E-1],"split_indices":[22,5,3,13,27,21,24,24,12,12,29,0,7,0,12,22,21,1,17,0,0,0,0,0,0,30,0,0,0,4,0,21,2,3,30,5,0,0,0,0,0,0,0,0,0,0,0,0,0],"split_type":[0,0,0,0,0,0,0,0,0,0,0,0,0,0,0,0,0,0,0,0,0,0,0,0,0,0,0,0,0,0,0,0,0,0,0,0,0,0,0,0,0,0,0,0,0,0,0,0,0],"sum_hessian":[3.9807623E2,3.4491003E2,5.3166183E1,3.265923E2,1.831776E1,2.9040354E1,2.4125832E1,3.8869396E1,2.8772287E2,9.382268E0,8.935493E0,1.831776E1,1.0722591E1,4.020972E0,2.010486E1,6.254845E0,3.261455E1,3.1274227E1,2.5644867E2,3.1274226E0,6.254845E0,5.3612957E0,3.5741973E0,7.595169E0,3.1274226E0,1.250969E1,7.595169E0,3.1274226E0,3.1274226E0,2.9487127E1,3.1274226E0,1.0275817E1,2.099841E1,1.7870987E1,2.3857767E2,7.1483946E0,5.3612957E0,7.1483946E0,2.2338734E1,6.70162E0,3.5741973E0,5.3612957E0,1.5637114E1,1.4743564E1,3.1274226E0,4.0656494E1,1.9792117E2,3.5741973E0,3.5741973E0],"tree_param":{"num_deleted":"0","num_feature":"38","num_nodes":"49","size_leaf_vector":"1"}},{"base_weights":[-2.3426504E-1,8.0145225E-2,-2.4796961E-1,-1.5125209E-1,-3.2597625E-1,-4.0268052E-1,-2.2866266E-2,-3.423555E-1,2.8174674E-2,-4.563307E-1,1.53436465E-2,3.062325E-1,-1.7050767E-1,1.3203937E-1,-3.643318E-1,-5.0399786E-1,1.709522E-2,1.3946547E-1,9.3602365E-1,-3.5118258E-1,1.2539516E-1,-2.7366651E-2,7.601937E-2,-3.1771767E-1,-5.56893E-1,-1.4902267E-2,-5.6953114E-2,3.4458254E-2,-3.9850913E-2,1.6440558E-1,1.709522E-2,2.0729588E-2,-4.280677E-2,-1.0398512E-2,7.562032E-2,-2.5151E-2,-5.6777883E-2,-6.312342E-2,-1.2279368E-2],"categories":[],"categories_nodes":[],"categories_segments":[],"categories_sizes":[],"default_left":[0,0,0,0,0,0,0,0,0,0,0,0,0,0,0,0,0,0,0,0,0,0,0,0,0,0,0,0,0,0,0,0,0,0,0,0,0,0,0],"id":1,"left_children":[1,-1,3,5,7,9,11,13,-1,15,-1,17,19,21,23,25,-1,27,29,31,33,-1,-1,35,37,-1,-1,-1,-1,-1,-1,-1,-1,-1,-1,-1,-1,-1,-1],"loss_changes":[5.074257E0,0E0,2.6291618E0,5.1037617E0,1.9677391E0,1.6374035E0,5.138445E0,2.0210056E0,0E0,1.5100832E0,0E0,3.3064919E0,3.9508862E0,2.1937208E0,1.5368156E0,9.852505E-1,0E0,2.8819914E0,3.4134622E0,1.9978409E0,4.079525E0,0E0,0E0,2.3528662E0,1.0496016E0,0E0,0E0,0E0,0E0,0E0,0E0,0E0,0E0,0E0,0E0,0E0,0E0,0E0,0E0],"parents":[2147483647,0,0,2,2,3,3,4,4,5,5,6,6,7,7,9,9,11,11,12,12,13,13,14,14,15,15,17,17,18,18,19,19,20,20,23,23,24,24],"right_children":[2,-1,4,6,8,10,12,14,-1,16,-1,18,20,22,24,26,-1,28,30,32,34,-1,-1,36,38,-1,-1,-1,-1,-1,-1,-1,-1,-1,-1,-1,-1,-1,-1],"split_conditions":[-4.985856E1,8.0145225E-2,5.2619415E1,3.68209E1,3.6546104E1,3.17603E2,1.5098451E3,-3.0988278E8,2.8174674E-2,2.53E5,1.53436465E-2,2.9077134E0,7.15E1,-4.3E-1,9.608625E-1,2.91299E2,1.709522E-2,2.550131E-2,1.9897264E-1,-4.962015E-1,6.585693E0,-2.7366651E-2,7.601937E-2,2.988377E1,3.1928354E1,-1.4902267E-2,-5.6953114E-2,3.4458254E-2,-3.9850913E-2,1.6440558E-1,1.709522E-2,2.0729588E-2,-4.280677E-2,-1.0398512E-2,7.562032E-2,-2.5151E-2,-5.6777883E-2,-6.312342E-2,-1.2279368E-2],"split_indices":[14,0,11,11,14,36,30,5,0,17,0,19,4,26,7,36,0,15,25,25,19,0,0,10,10,0,0,0,0,0,0,0,0,0,0,0,0,0,0],"split_type":[0,0,0,0,0,0,0,0,0,0,0,0,0,0,0,0,0,0,0,0,0,0,0,0,0,0,0,0,0,0,0,0,0,0,0,0,0,0,0],"sum_hessian":[3.5989072E2,4.529517E0,3.553612E2,1.5935664E2,1.9600456E2,5.3530655E1,1.0582599E2,1.9106326E2,4.9412913E0,4.900114E1,4.529517E0,3.2530167E1,7.329582E1,8.235485E0,1.8282777E2,4.5706944E1,3.2941942E0,2.594178E1,6.5883884E0,4.5706944E1,2.7588877E1,4.9412913E0,3.2941942E0,1.4782697E2,3.5000813E1,7.4119368E0,3.829501E1,1.8941616E1,7.0001626E0,3.2941942E0,3.2941942E0,5.3530655E0,4.0353878E1,2.0176939E1,7.4119368E0,1.1735567E2,3.0471296E1,2.9647747E1,5.3530655E0],"tree_param":{"num_deleted":"0","num_feature":"38","num_nodes":"39","size_leaf_vector":"1"}},{"base_weights":[1.5424302E-1,2.936289E-1,2.9307643E-2,2.0930558E-1,7.4222547E-1,3.1491396E-1,-9.3191616E-2,4.6109572E-1,4.212356E-2,-2.303949E-2,8.828204E-1,5.5128574E-1,-2.3155537E-1,-6.3816565E-1,-3.8655277E-2,6.060081E-2,7.797433E-1,4.1898453E-1,-1.1722767E-1,9.893788E-1,8.529393E-3,-5.911848E-2,7.1425015E-1,1.612282E-2,-6.421225E-2,-1.5175864E-2,-7.803593E-2,-6.128633E-1,1.3969073E-2,3.4232175E-1,-4.7725666E-1,8.872185E-1,3.523346E-3,2.7510554E-2,9.287792E-1,-7.73958E-2,-3.4884676E-2,2.380374E-2,1.1254978E0,2.2817174E-1,9.824062E-1,3.735583E-1,-7.5087525E-2,-7.765604E-2,-1.5175864E-2,-4.23547E-2,9.135368E-1,-2.103959E-2,6.6846706E-2,-0E0,-7.685774E-2,8.529393E-3,9.7659156E-2,-5.1028695E-2,4.6916977E-2,1.20260894E-1,2.380374E-2,-2.2294777E-2,3.1149114E-2,7.03159E-2,1.3221638E-1,-1.0677472E-2,1.0536116E-1,7.1606256E-2,1.2429657E-1,3.523346E-3,7.5851776E-2,5.4223356E-3,-4.7260176E-2,1.285607E-1,3.8160965E-2],"categories":[],"categories_nodes":[],"categories_segments":[],"categories_sizes":[],"default_left":[0,0,0,0,0,0,0,0,0,0,0,0,0,0,0,0,0,0,0,0,0,0,0,0,0,0,0,0,0,0,0,0,0,0,0,0,0,0,0,0,0,0,0,0,0,0,0,0,0,0,0,0,0,0,0,0,0,0,0,0,0,0,0,0,0,0,0,0,0,0,0],"id":2,"left_children":[1,3,5,7,9,11,13,15,17,-1,19,21,23,25,27,29,31,33,35,37,-1,-1,39,41,-1,-1,-1,43,45,47,49,51,-1,53,55,-1,57,-1,59,61,63,65,-1,-1,-1,67,69,-1,-1,-1,-1,-1,-1,-1,-1,-1,-1,-1,-1,-1,-1,-1,-1,-1,-1,-1,-1,-1,-1,-1,-1],"loss_changes":[7.1377907E0,7.2371445E0,7.6395426E0,6.844501E0,4.2575054E0,8.517715E0,4.451685E0,8.22263E0,5.969022E0,0E0,2.1587563E0,8.609015E0,2.0718489E0,8.4020615E-1,4.2481523E0,4.4130282E0,2.7950268E0,5.803742E0,3.666027E0,2.2393532E0,0E0,0E0,5.1137257E0,3.3523753E0,0E0,0E0,0E0,7.857356E-1,6.5196595E0,3.5355573E0,1.3911128E0,2.1391087E0,0E0,4.043881E0,2.2353754E0,0E0,4.0272236E0,0E0,1.3448181E0,4.1432314E0,1.5076828E0,1.0277205E0,0E0,0E0,0E0,5.0055737E0,1.285439E0,0E0,0E0,0E0,0E0,0E0,0E0,0E0,0E0,0E0,0E0,0E0,0E0,0E0,0E0,0E0,0E0,0E0,0E0,0E0,0E0,0E0,0E0,0E0,0E0],"parents":[2147483647,0,0,1,1,2,2,3,3,4,4,5,5,6,6,7,7,8,8,10,10,11,11,12,12,13,13,14,14,15,15,16,16,17,17,18,18,19,19,22,22,23,23,27,27,28,28,29,29,30,30,31,31,33,33,34,34,36,36,38,38,39,39,40,40,41,41,45,45,46,46],"right_children":[2,4,6,8,10,12,14,16,18,-1,20,22,24,26,28,30,32,34,36,38,-1,-1,40,42,-1,-1,-1,44,46,48,50,52,-1,54,56,-1,58,-1,60,62,64,66,-1,-1,-1,68,70,-1,-1,-1,-1,-1,-1,-1,-1,-1,-1,-1,-1,-1,-1,-1,-1,-1,-1,-1,-1,-1,-1,-1,-1],"split_conditions":[1.6310812E3,3.99E0,1.383E1,3E0,-2.339771E1,-1.1595589E7,2.81E0,9.706937E1,-2.6651254E-1,-2.303949E-2,5.5604672E0,-3.1446032E8,4.15E0,-1.9548526E8,-7.6E-1,1E0,2.101833E1,4.52E0,-2.6093832E-1,1.9299543E1,8.529393E-3,-5.911848E-2,4.21E0,1.3970501E8,-6.421225E-2,-1.5175864E-2,-7.803593E-2,6.97E1,1.9300697E0,1.46E3,-9.403744E0,5.3771068E7,3.523346E-3,1.4160403E0,4.98E0,-7.73958E-2,-2.5844504E7,2.380374E-2,-4.6648473E-2,-3.2065268E7,2.27E5,-1.640981E-1,-7.5087525E-2,-7.765604E-2,-1.5175864E-2,7.457575E0,-1.8085822E8,-2.103959E-2,6.6846706E-2,-0E0,-7.685774E-2,8.529393E-3,9.7659156E-2,-5.1028695E-2,4.6916977E-2,1.20260894E-1,2.380374E-2,-2.2294777E-2,3.1149114E-2,7.03159E-2,1.3221638E-1,-1.0677472E-2,1.0536116E-1,7.1606256E-2,1.2429657E-1,3.523346E-3,7.5851776E-2,5.4223356E-3,-4.7260176E-2,1.285607E-1,3.8160965E-2],"split_indices":[30,20,13,31,14,5,9,34,25,0,19,5,20,5,26,16,21,9,12,23,0,0,20,5,0,0,0,4,25,18,29,22,0,14,9,0,5,0,12,5,17,12,0,0,0,29,5,0,0,0,0,0,0,0,0,0,0,0,0,0,0,0,0,0,0,0,0,0,0,0,0],"split_type":[0,0,0,0,0,0,0,0,0,0,0,0,0,0,0,0,0,0,0,0,0,0,0,0,0,0,0,0,0,0,0,0,0,0,0,0,0,0,0,0,0,0,0,0,0,0,0,0,0,0,0,0,0,0,0,0,0,0,0,0,0,0,0,0,0,0,0,0,0,0,0],"sum_hessian":[4.116865E2,1.9414761E2,2.1753888E2,1.6373895E2,3.040866E1,6.5495575E1,1.520433E2,6.5027756E1,9.87112E1,3.7426045E0,2.6666058E1,4.5846905E1,1.9648674E1,1.3566941E1,1.3847636E2,2.9005184E1,3.6022568E1,2.9473011E1,6.923818E1,2.3391277E1,3.2747788E0,5.613907E0,4.0232998E1,1.2163465E1,7.485209E0,3.2747788E0,1.0292162E1,1.1695639E1,1.2678072E2,1.9180847E1,9.824337E0,3.1344313E1,4.6782556E0,1.684172E1,1.263129E1,7.485209E0,6.1752975E1,3.7426045E0,1.9648674E1,1.4502592E1,2.5730406E1,8.42086E0,3.7426045E0,8.42086E0,3.2747788E0,1.1929552E2,7.485209E0,7.0173836E0,1.2163465E1,3.7426045E0,6.0817323E0,3.2747788E0,2.8069534E1,7.485209E0,9.356511E0,8.888685E0,3.7426045E0,4.0232998E1,2.1519976E1,6.5495577E0,1.3099115E1,1.0292162E1,4.21043E0,1.3099115E1,1.263129E1,4.6782556E0,3.7426045E0,9.730772E1,2.19878E1,4.21043E0,3.2747788E0],"tree_param":{"num_deleted":"0","num_feature":"38","num_nodes":"71","size_leaf_vector":"1"}},{"base_weights":[2.9124951E-2,9.9328166E-1,6.5624514E-3,1.3908517E-1,1.8322587E-2,-3.8254002E-1,4.6706364E-2,-4.6077976E-1,2.2802304E-2,1.6769198E-1,-1.1948246E-1,-5.3491503E-1,2.2687145E-2,8.0352694E-1,1.1880088E-1,-1.6751197E-1,7.3600125E-1,-6.233716E-1,1.8392332E-2,1.035372E0,5.649785E-3,5.6248143E-2,6.675593E-1,2.5425526E-1,-2.746646E-1,1.573544E-2,1.09362915E-1,-6.1295135E-3,-6.928819E-2,5.6290157E-2,1.24604166E-1,-2.0749014E-2,1.9212738E-2,2.4783902E-2,1.1706084E-1,6.2635265E-2,-1.9524893E-2,-3.8804315E-2,-0E0],"categories":[],"categories_nodes":[],"categories_segments":[],"categories_sizes":[],"default_left":[0,0,0,0,0,0,0,0,0,0,0,0,0,0,0,0,0,0,0,0,0,0,0,0,0,0,0,0,0,0,0,0,0,0,0,0,0,0,0],"id":3,"left_children":[1,3,5,-1,-1,7,9,11,-1,13,15,17,-1,19,21,23,25,27,-1,29,-1,31,33,35,37,-1,-1,-1,-1,-1,-1,-1,-1,-1,-1,-1,-1,-1,-1],"loss_changes":[8.657045E0,2.748927E0,6.115937E0,0E0,0E0,1.7815113E0,7.1866865E0,1.7053032E0,0E0,6.334417E0,6.1249933E0,1.9373207E0,0E0,2.417038E0,6.532393E0,6.442869E0,1.4903955E0,9.556942E-1,0E0,8.487482E-1,0E0,6.2055297E0,3.9520693E0,4.8563013E0,3.5768633E0,0E0,0E0,0E0,0E0,0E0,0E0,0E0,0E0,0E0,0E0,0E0,0E0,0E0,0E0],"parents":[2147483647,0,0,1,1,2,2,5,5,6,6,7,7,9,9,10,10,11,11,13,13,14,14,15,15,16,16,17,17,19,19,21,21,22,22,23,23,24,24],"right_children":[2,4,6,-1,-1,8,10,12,-1,14,16,18,-1,20,22,24,26,28,-1,30,-1,32,34,36,38,-1,-1,-1,-1,-1,-1,-1,-1,-1,-1,-1,-1,-1,-1],"split_conditions":[2.68E0,3.39534E1,5.537379E2,1.3908517E-1,1.8322587E-2,2.617715E-1,-3.6664698E-3,2.47E5,2.2802304E-2,2.95E0,9.635892E7,3.113E1,2.2687145E-2,2.19E5,1.584E3,5.6355344E7,5.0156746E-2,3.0010273E0,1.8392332E-2,1.677E1,5.649785E-3,1.8102404E-2,2.84E0,-4.8397172E7,1.2852365E0,1.573544E-2,1.09362915E-1,-6.1295135E-3,-6.928819E-2,5.6290157E-2,1.24604166E-1,-2.0749014E-2,1.9212738E-2,2.4783902E-2,1.1706084E-1,6.2635265E-2,-1.9524893E-2,-3.8804315E-2,-0E0],"split_indices":[9,11,30,0,0,12,12,17,0,9,5,13,0,17,18,22,12,10,0,13,0,15,20,5,8,0,0,0,0,0,0,0,0,0,0,0,0,0,0],"split_type":[0,0,0,0,0,0,0,0,0,0,0,0,0,0,0,0,0,0,0,0,0,0,0,0,0,0,0,0,0,0,0,0,0,0,0,0,0,0,0],"sum_hessian":[4.02482E2,9.003501E0,3.934785E2,5.908501E0,3.0950003E0,3.6486103E1,3.569924E2,3.2508644E1,3.9774587E0,2.0694041E2,1.5005197E2,2.9496298E1,3.012346E0,1.4519791E1,1.9242062E2,1.4226224E2,7.7897315E0,2.6400038E1,3.096259E0,1.09491825E1,3.570608E0,1.7299364E2,1.942699E1,2.86037E1,1.1365855E2,3.1372454E0,4.6524863E0,3.08454E0,2.3315498E1,3.636176E0,7.313007E0,5.855369E1,1.1443994E2,1.0780395E1,8.646595E0,1.5749481E1,1.2854219E1,8.0648346E1,3.30102E1],"tree_param":{"num_deleted":"0","num_feature":"38","num_nodes":"39","size_leaf_vector":"1"}},{"base_weights":[-1.95112E-1,6.858886E-2,-2.0409584E-1,2.838499E-2,-2.3475923E-1,2.0918989E-1,-3.2156107E-1,-2.6978844E-1,-5.4198066E-3,4.449589E-1,-4.1053125E-1,-6.683594E-2,9.449151E-3,-4.8285186E-1,-2.2316122E-1,-5.841711E-1,1.8550305E-1,-3.8904622E-2,6.415436E-1,-5.391185E-3,-6.621824E-2,-5.8657163E-1,-3.087131E-1,4.6758313E-2,-2.3956442E-1,-6.725549E-2,-3.3955835E-2,3.0102855E-1,-6.522478E-2,1.3749024E-1,4.0469542E-2,-6.460584E-2,-2.209336E-2,-1.0603772E-3,-5.713268E-2,-4.8111632E-2,-2.0270476E-2,1.7875116E-2,9.664615E-2],"categories":[],"categories_nodes":[],"categories_segments":[],"categories_sizes":[],"default_left":[0,0,0,0,0,0,0,0,0,0,0,0,0,0,0,0,0,0,0,0,0,0,0,0,0,0,0,0,0,0,0,0,0,0,0,0,0,0,0],"id":4,"left_children":[1,-1,3,5,7,9,11,13,15,17,19,-1,-1,21,23,25,27,-1,29,-1,-1,31,33,-1,35,-1,-1,37,-1,-1,-1,-1,-1,-1,-1,-1,-1,-1,-1],"loss_changes":[2.7989635E0,0E0,2.548646E0,2.5910227E0,2.4917564E0,4.010016E0,2.0585258E0,2.6176147E0,4.6953573E0,3.3191824E0,5.941181E-1,0E0,0E0,7.648926E-1,2.5203953E0,1.0470867E-1,3.0382962E0,0E0,2.5924182E0,0E0,0E0,5.4729843E-1,1.3976382E0,0E0,1.8672171E0,0E0,0E0,2.138581E0,0E0,0E0,0E0,0E0,0E0,0E0,0E0,0E0,0E0,0E0,0E0],"parents":[2147483647,0,0,2,2,3,3,4,4,5,5,6,6,7,7,8,8,9,9,10,10,13,13,14,14,15,15,16,16,18,18,21,21,22,22,24,24,27,27],"right_children":[2,-1,4,6,8,10,12,14,16,18,20,-1,-1,22,24,26,28,-1,30,-1,-1,32,34,-1,36,-1,-1,38,-1,-1,-1,-1,-1,-1,-1,-1,-1,-1,-1],"split_conditions":[-4.985856E1,6.858886E-2,1.019503E2,5.756737E0,1.5483855E1,3.2809048E0,-3.2056548E-2,1.383E1,2.2835066E0,1.0609501E1,-1.5166488E-1,-6.683594E-2,9.449151E-3,9.496437E-2,-2.893381E8,-6.292688E7,8.60451E-1,-3.8904622E-2,5.6660213E0,-5.391185E-3,-6.621824E-2,6.404456E7,1.6911667E1,4.6758313E-2,4.4791503E0,-6.725549E-2,-3.3955835E-2,-1.1595589E7,-6.522478E-2,1.3749024E-1,4.0469542E-2,-6.460584E-2,-2.209336E-2,-1.0603772E-3,-5.713268E-2,-4.8111632E-2,-2.0270476E-2,1.7875116E-2,9.664615E-2],"split_indices":[14,0,1,29,14,19,25,13,19,23,25,0,0,25,5,5,25,0,21,0,0,22,21,0,21,0,0,5,0,0,0,0,0,0,0,0,0,0,0],"split_type":[0,0,0,0,0,0,0,0,0,0,0,0,0,0,0,0,0,0,0,0,0,0,0,0,0,0,0,0,0,0,0,0,0,0,0,0,0,0,0],"sum_hessian":[3.5785712E2,3.423922E0,3.544332E2,4.0921856E1,3.1351132E2,2.7196404E1,1.37254505E1,2.7157706E2,4.1934265E1,1.9838524E1,7.357879E0,7.5837607E0,6.1416903E0,4.8208378E1,2.2336868E2,1.0480909E1,3.1453356E1,3.668486E0,1.6170038E1,3.2587063E0,4.099173E0,2.9704699E1,1.850368E1,4.976111E0,2.1839258E2,7.2702565E0,3.2106528E0,2.7802797E1,3.6505594E0,3.7270803E0,1.2442958E1,2.5246998E1,4.457701E0,8.893234E0,9.610446E0,2.8394833E1,1.8999774E2,2.3721048E1,4.0817475E0],"tree_param":{"num_deleted":"0","num_feature":"38","num_nodes":"39","size_leaf_vector":"1"}},{"base_weights":[1.4612663E-1,2.3995124E-1,-3.3798497E-2,-1.445863E-1,2.8469375E-1,-7.011119E-2,7.571622E-2,-3.6558205E-1,4.2114714E-1,8.792863E-1,2.3290503E-1,-1.7130505E-1,2.557792E-1,2.4432672E-2,-5.942538E-1,-2.2476936E-2,9.976622E-2,2.3587517E-2,1.0681082E0,3.1614292E-1,-3.0291403E-2,-5.987872E-2,-4.906828E-1,-1.529874E-1,5.1437247E-1,-7.792012E-2,-1.4449499E-2,1.2457269E-1,7.754145E-2,-1.3619303E-3,3.9852855E-1,9.4202094E-2,-9.5500596E-2,3.9131674E-1,-2.8968614E-1,-1.3241146E-2,-6.775879E-2,4.6369996E-2,-5.279627E-1,8.086232E-1,4.7968086E-2,3.2446425E-2,-3.4363043E-2,2.4215793E-2,6.025946E-2,3.56822E-2,-2.4453467E-2,9.943713E-2,1.645211E-2,-7.1718246E-2,-1.31284045E-2,3.8080856E-2,-4.8006047E-2,-1.4642151E-2,-7.640668E-2,2.3149015E-2,1.1469104E-1,-4.4933703E-2,4.1447617E-2],"categories":[],"categories_nodes":[],"categories_segments":[],"categories_sizes":[],"default_left":[0,0,0,0,0,0,0,0,0,0,0,0,0,0,0,0,0,0,0,0,0,0,0,0,0,0,0,0,0,0,0,0,0,0,0,0,0,0,0,0,0,0,0,0,0,0,0,0,0,0,0,0,0,0,0,0,0,0,0],"id":5,"left_children":[1,3,5,7,9,11,-1,13,15,17,19,21,23,-1,25,-1,-1,-1,27,29,31,33,35,37,39,-1,-1,-1,-1,41,43,-1,45,47,49,51,-1,-1,53,55,57,-1,-1,-1,-1,-1,-1,-1,-1,-1,-1,-1,-1,-1,-1,-1,-1,-1,-1],"loss_changes":[7.23633E0,4.8576565E0,4.135881E0,3.6543884E0,7.6353436E0,4.6128516E0,0E0,2.9982657E0,3.1189392E0,2.2764444E0,5.1190605E0,3.7541616E0,3.529882E0,0E0,1.1878266E0,0E0,0E0,0E0,4.981594E-1,4.664303E0,3.4509072E0,8.271448E0,2.380515E0,2.9689882E0,2.7063088E0,0E0,0E0,0E0,0E0,4.058192E0,4.38813E0,0E0,3.5239358E0,3.5347548E0,3.498067E0,1.4958028E0,0E0,0E0,6.228342E-1,2.2474747E0,1.4948562E0,0E0,0E0,0E0,0E0,0E0,0E0,0E0,0E0,0E0,0E0,0E0,0E0,0E0,0E0,0E0,0E0,0E0,0E0],"parents":[2147483647,0,0,1,1,2,2,3,3,4,4,5,5,7,7,8,8,9,9,10,10,11,11,12,12,14,14,18,18,19,19,20,20,21,21,22,22,23,23,24,24,29,29,30,30,32,32,33,33,34,34,35,35,38,38,39,39,40,40],"right_children":[2,4,6,8,10,12,-1,14,16,18,20,22,24,-1,26,-1,-1,-1,28,30,32,34,36,38,40,-1,-1,-1,-1,42,44,-1,46,48,50,52,-1,-1,54,56,58,-1,-1,-1,-1,-1,-1,-1,-1,-1,-1,-1,-1,-1,-1,-1,-1,-1,-1],"split_conditions":[2.2303047E1,1.569464E-1,2.0959728E0,3.9614588E-2,3.640102E1,1.1090734E-1,7.571622E-2,-8.679824E7,-3.676772E1,-1.4153293E8,2.581466E-1,-1E-2,5.635774E-1,2.4432672E-2,1.2085829E0,-2.2476936E-2,9.976622E-2,2.3587517E-2,-3.1E-1,-6.4E-1,-5.2355733E0,1.6802656E-2,-2.2282524E-1,3.2608685E1,6.613514E1,-7.792012E-2,-1.4449499E-2,1.2457269E-1,7.754145E-2,5.225649E-1,-4.3582484E-2,9.4202094E-2,-8.9588536E7,-1.6419381E8,2.583945E1,-1.0467837E-1,-6.775879E-2,4.6369996E-2,7.496927E-1,9.701499E0,9.095228E0,3.2446425E-2,-3.4363043E-2,2.4215793E-2,6.025946E-2,3.56822E-2,-2.4453467E-2,9.943713E-2,1.645211E-2,-7.1718246E-2,-1.31284045E-2,3.8080856E-2,-4.8006047E-2,-1.4642151E-2,-7.640668E-2,2.3149015E-2,1.1469104E-1,-4.4933703E-2,4.1447617E-2],"split_indices":[21,7,25,27,11,12,0,5,3,5,27,26,7,0,8,0,0,0,26,26,29,15,25,11,11,0,0,0,0,7,12,0,5,5,21,12,0,0,8,3,29,0,0,0,0,0,0,0,0,0,0,0,0,0,0,0,0,0,0],"split_type":[0,0,0,0,0,0,0,0,0,0,0,0,0,0,0,0,0,0,0,0,0,0,0,0,0,0,0,0,0,0,0,0,0,0,0,0,0,0,0,0,0,0,0,0,0,0,0,0,0,0,0,0,0,0,0,0,0,0,0],"sum_hessian":[4.2728775E2,2.811831E2,1.4610464E2,2.9050634E1,2.5213248E2,1.3989948E2,6.205166E0,2.104273E1,8.007904E0,1.9918385E1,2.3221408E2,1.0702187E2,3.28776E1,5.617007E0,1.5425723E1,3.7236044E0,4.2843E0,4.6903887E0,1.5227996E1,1.7669331E2,5.552078E1,7.966111E1,2.7360762E1,1.2605622E1,2.027198E1,1.0721356E1,4.7043667E0,9.061712E0,6.166283E0,3.6172634E1,1.4052068E2,3.3086388E0,5.221214E1,2.6711435E1,5.2949677E1,7.878235E0,1.9482527E1,4.6567497E0,7.9488726E0,1.2253541E1,8.01844E0,1.838442E1,1.7788214E1,7.9958916E1,6.056176E1,1.2738876E1,3.9473263E1,7.0871577E0,1.9624277E1,1.4049299E1,3.8900375E1,4.165922E0,3.7123127E0,3.2624133E0,4.6864595E0,4.699693E0,7.5538483E0,3.2767966E0,4.7416434E0],"tree_param":{"num_deleted":"0","num_feature":"38","num_nodes":"59","size_leaf_vector":"1"}},{"base_weights":[5.394686E-2,5.411694E-1,1.8471478E-2,-3.9289232E-2,6.721962E-1,2.9065672E-1,-3.200718E-2,1.1744388E0,2.7433696E-1,3.6952233E-1,-7.164368E-2,-7.06751E-2,3.4447005E-1,7.0484124E-2,1.3678716E-1,-1.5648445E-2,1.0150335E-1,4.9169493E-1,-3.5020468E-1,-6.395831E-1,-4.0157262E-2,5.137155E-1,-6.881007E-2,-5.1720377E-2,4.9897194E-2,-2.646681E-1,6.203133E-1,-7.207414E-2,1.5293648E-2,-7.056686E-2,-3.4937408E-2,-7.13087E-2,5.1354706E-1,1.0708685E0,2.1315926E-1,1.8879633E-2,-6.879907E-2,5.1984806E-2,1.3306329E-1,-1.2369239E-2,2.3677113E-2,-4.3627813E-2,8.503466E-2,6.579434E-2,1.2980942E-1,-4.7763545E-2,4.7871895E-2],"categories":[],"categories_nodes":[],"categories_segments":[],"categories_sizes":[],"default_left":[0,0,0,0,0,0,0,0,0,0,0,0,0,0,0,0,0,0,0,0,0,0,0,0,0,0,0,0,0,0,0,0,0,0,0,0,0,0,0,0,0,0,0,0,0,0,0],"id":6,"left_children":[1,3,5,-1,7,9,11,13,15,17,-1,19,21,-1,-1,23,-1,25,27,29,31,33,-1,-1,-1,35,37,-1,-1,-1,-1,39,41,43,45,-1,-1,-1,-1,-1,-1,-1,-1,-1,-1,-1,-1],"loss_changes":[6.7505846E0,3.3020043E0,5.074965E0,0E0,4.4992E0,4.5825615E0,4.4838142E0,6.2307453E-1,2.9581852E0,4.7585835E0,0E0,4.8115115E0,5.020237E0,0E0,0E0,2.4949737E0,0E0,4.538583E0,1.5109959E0,1.4107656E-1,4.5674577E0,3.990584E0,0E0,0E0,0E0,1.3413441E0,2.5688477E0,0E0,0E0,0E0,0E0,4.07755E0,4.579713E0,5.1893234E-1,3.0146434E0,0E0,0E0,0E0,0E0,0E0,0E0,0E0,0E0,0E0,0E0,0E0,0E0],"parents":[2147483647,0,0,1,1,2,2,4,4,5,5,6,6,7,7,8,8,9,9,11,11,12,12,15,15,17,17,18,18,19,19,20,20,21,21,25,25,26,26,31,31,32,32,33,33,34,34],"right_children":[2,4,6,-1,8,10,12,14,16,18,-1,20,22,-1,-1,24,-1,26,28,30,32,34,-1,-1,-1,36,38,-1,-1,-1,-1,40,42,44,46,-1,-1,-1,-1,-1,-1,-1,-1,-1,-1,-1,-1],"split_conditions":[6.719372E-2,-1.7435959E1,5.4507576E7,-3.9289232E-2,1.9647951E0,2.3769348E1,8.110831E7,-2.4476696E1,4.38E0,4.98E0,-7.164368E-2,2.03E5,6.5456316E7,7.0484124E-2,1.3678716E-1,-9.275513E0,1.0150335E-1,-6.312593E0,5.3279296E7,1.3023335E1,1.033081E2,3.57E0,-6.881007E-2,-5.1720377E-2,4.9897194E-2,1.025192E2,2.4966528E-1,-7.207414E-2,1.5293648E-2,-7.056686E-2,-3.4937408E-2,6.08701E5,3.532625E-1,7.249557E-1,1.026732E2,1.8879633E-2,-6.879907E-2,5.1984806E-2,1.3306329E-1,-1.2369239E-2,2.3677113E-2,-4.3627813E-2,8.503466E-2,6.579434E-2,1.2980942E-1,-4.7763545E-2,4.7871895E-2],"split_indices":[7,29,22,0,19,14,5,14,20,9,0,17,22,0,0,29,0,29,22,14,1,9,0,0,0,1,15,0,0,0,0,0,7,7,1,0,0,0,0,0,0,0,0,0,0,0,0],"split_type":[0,0,0,0,0,0,0,0,0,0,0,0,0,0,0,0,0,0,0,0,0,0,0,0,0,0,0,0,0,0,0,0,0,0,0,0,0,0,0,0,0,0,0,0,0,0,0],"sum_hessian":[3.937549E2,2.643599E1,3.673189E2,3.1336713E0,2.3302317E1,5.770013E1,3.096188E2,1.0102617E1,1.31997E1,5.366057E1,4.039562E0,2.8109448E2,2.8524323E1,3.2336426E0,6.8689747E0,9.4592495E0,3.740451E0,4.601946E1,7.6411095E0,1.4042584E1,2.6705188E2,2.4633772E1,3.8905509E0,4.888588E0,4.5706615E0,6.5598464E0,3.945961E1,4.48998E0,3.151129E0,1.1040695E1,3.0018897E0,2.5308124E2,1.3970643E1,8.425703E0,1.6208069E1,3.0798628E0,3.4799833E0,3.4845192E1,4.614421E0,2.1663126E2,3.6449986E1,3.5716376E0,1.0399005E1,3.2852468E0,5.140456E0,4.3739038E0,1.1834165E1],"tree_param":{"num_deleted":"0","num_feature":"38","num_nodes":"47","size_leaf_vector":"1"}},{"base_weights":[-2.0649868E-1,-2.6779604E-1,1.7247023E-2,-4.7218615E-1,-2.0589252E-1,1.11307085E-1,-5.5357084E-2,-5.3174794E-1,4.1274775E-2,-2.3454289E-1,3.4722325E-1,1.8635067E-1,-2.347259E-1,-2.8909433E-1,-5.9533477E-1,-3.6082093E-2,4.742459E-2,-2.6755452E-1,1.3429107E-1,1.08038835E-1,-0E0,-7.185411E-2,7.68136E-1,-3.3112594E-1,3.946271E-2,1.7951261E-2,-6.6980176E-2,-6.3209563E-1,-3.0462041E-2,-6.5114856E-2,-3.547433E-1,4.974044E-1,-3.7770206E-1,4.8917662E-2,-3.966431E-2,7.229185E-2,-2.3196515E-1,8.7744417E-4,1.3212E-1,2.7515066E-1,-5.0986373E-1,4.8610073E-2,-3.7794035E-2,-6.801768E-2,-4.51188E-2,5.31748E-2,-1.7503323E-2,4.2826917E-2,-3.937001E-2,1.0635252E-2,1.0816937E-1,-1.9517684E-3,-6.52096E-2,-5.074968E-2,2.8330183E-2,-2.5007514E-2,1.0559871E-1,-6.0150634E-2,5.8106235E-3],"categories":[],"categories_nodes":[],"categories_segments":[],"categories_sizes":[],"default_left":[0,0,0,0,0,0,0,0,0,0,0,0,0,0,0,0,0,0,0,0,0,0,0,0,0,0,0,0,0,0,0,0,0,0,0,0,0,0,0,0,0,0,0,0,0,0,0,0,0,0,0,0,0,0,0,0,0,0,0],"id":7,"left_children":[1,3,5,7,9,-1,11,13,15,17,19,21,23,25,27,-1,-1,29,31,-1,33,35,37,39,-1,41,-1,43,-1,45,47,49,51,-1,-1,-1,53,-1,-1,55,57,-1,-1,-1,-1,-1,-1,-1,-1,-1,-1,-1,-1,-1,-1,-1,-1,-1,-1],"loss_changes":[4.9362173E0,3.4830265E0,6.2175446E0,2.0380487E0,3.4284859E0,0E0,3.129983E0,7.953434E-1,1.1898415E0,2.5265274E0,2.6450176E0,4.653988E0,2.530643E0,1.544603E0,3.770523E-1,0E0,0E0,3.2998333E0,3.144779E0,0E0,1.4348054E0,2.650627E0,3.854414E0,3.9676132E0,0E0,1.3176578E0,0E0,2.0674324E-1,0E0,3.746214E0,4.0417404E0,2.1448007E0,6.09011E-1,0E0,0E0,0E0,2.5538225E0,0E0,0E0,3.4679832E0,1.5242105E0,0E0,0E0,0E0,0E0,0E0,0E0,0E0,0E0,0E0,0E0,0E0,0E0,0E0,0E0,0E0,0E0,0E0,0E0],"parents":[2147483647,0,0,1,1,2,2,3,3,4,4,6,6,7,7,8,8,9,9,10,10,11,11,12,12,13,13,14,14,17,17,18,18,20,20,21,21,22,22,23,23,25,25,27,27,29,29,30,30,31,31,32,32,36,36,39,39,40,40],"right_children":[2,4,6,8,10,-1,12,14,16,18,20,22,24,26,28,-1,-1,30,32,-1,34,36,38,40,-1,42,-1,44,-1,46,48,50,52,-1,-1,-1,54,-1,-1,56,58,-1,-1,-1,-1,-1,-1,-1,-1,-1,-1,-1,-1,-1,-1,-1,-1,-1,-1],"split_conditions":[1.1E-1,-3.644055E0,-4.37161E1,2.39E5,3.7824515E-1,1.11307085E-1,6.2089963E0,2.12E5,-1.881242E1,2.521417E1,4.0343127E-1,5.298724E0,1.2860568E1,1.3840694E1,3.636795E1,-3.6082093E-2,4.742459E-2,2.4930904E-2,1E0,1.08038835E-1,7.4791676E-1,3.13E0,8.295278E0,3.2631138E-1,3.946271E-2,3.9E0,-6.6980176E-2,1.030951E2,-3.0462041E-2,1.023809E2,3.9703093E0,1.7153934E-1,4.07E0,4.8917662E-2,-3.966431E-2,7.229185E-2,2.8989486E7,8.7744417E-4,1.3212E-1,1.2086695E-1,4.8E-1,4.8610073E-2,-3.7794035E-2,-6.801768E-2,-4.51188E-2,5.31748E-2,-1.7503323E-2,4.2826917E-2,-3.937001E-2,1.0635252E-2,1.0816937E-1,-1.9517684E-3,-6.52096E-2,-5.074968E-2,2.8330183E-2,-2.5007514E-2,1.0559871E-1,-6.0150634E-2,5.8106235E-3],"split_indices":[26,29,14,17,12,0,10,17,14,14,12,10,19,10,10,0,0,14,32,0,14,9,3,7,0,20,0,1,0,1,10,15,20,0,0,0,5,0,0,25,26,0,0,0,0,0,0,0,0,0,0,0,0,0,0,0,0,0,0],"split_type":[0,0,0,0,0,0,0,0,0,0,0,0,0,0,0,0,0,0,0,0,0,0,0,0,0,0,0,0,0,0,0,0,0,0,0,0,0,0,0,0,0,0,0,0,0,0,0,0,0,0,0,0,0,0,0,0,0,0,0],"sum_hessian":[3.5795297E2,2.81312E2,7.664095E1,6.486513E1,2.1644687E2,4.758874E0,7.188208E1,5.8294163E1,6.5709667E0,2.0601411E2,1.0432755E1,3.038095E1,4.1501133E1,1.2545723E1,4.574844E1,3.2958484E0,3.275118E0,1.8936409E2,1.665002E1,3.2539737E0,7.178782E0,2.09838E1,9.39715E0,3.6167515E1,5.333616E0,6.852061E0,5.6936626E0,4.0203316E1,5.5451264E0,5.740338E1,1.3196071E2,9.857264E0,6.792757E0,3.2419515E0,3.9368305E0,3.3548145E0,1.7628986E1,4.0790195E0,5.318131E0,8.095215E0,2.8072302E1,3.2448137E0,3.6072469E0,3.1107029E1,9.096285E0,8.726184E0,4.8677197E1,6.085189E0,1.2587553E2,6.078445E0,3.7788186E0,3.1510446E0,3.6417124E0,1.1614097E1,6.014889E0,4.8038406E0,3.291374E0,2.4318623E1,3.7536778E0],"tree_param":{"num_deleted":"0","num_feature":"38","num_nodes":"59","size_leaf_vector":"1"}},{"base_weights":[1.4914195E-1,4.3595308E-1,9.386292E-2,1.771123E-1,6.8341935E-1,4.4135585E-1,4.294377E-2,6.2598896E-1,-2.2463183E-1,8.2957554E-1,-5.0056013E-3,5.3904533E-1,-3.572343E-2,-4.3090045E-1,8.1333295E-2,1.0202765E0,-0E0,-0E0,-7.4888706E-2,9.706998E-1,4.2944497E-1,-2.7800456E-2,6.379893E-1,-6.344472E-1,-4.085824E-2,2.1307972E-1,-1.4004047E-1,1.1999853E-1,6.2729746E-2,4.4219833E-2,-4.5647305E-2,1.0875316E0,3.202333E-2,9.301542E-2,-2.016684E-2,8.01226E-1,5.6934755E-2,-7.573574E-2,-3.3787467E-2,6.473552E-2,-5.5184275E-2,1.07515074E-1,1.7285234E-1,1.10750265E-1,-2.8710544E-1,6.107476E-2,1.1888983E-1,2.7667938E-2,9.187027E-2,-4.736853E-2,5.3691376E-2,2.1432646E-2,-3.7340056E-2,-6.0533103E-2,2.4791606E-2,-8.675075E-3,-5.24621E-2],"categories":[],"categories_nodes":[],"categories_segments":[],"categories_sizes":[],"default_left":[0,0,0,0,0,0,0,0,0,0,0,0,0,0,0,0,0,0,0,0,0,0,0,0,0,0,0,0,0,0,0,0,0,0,0,0,0,0,0,0,0,0,0,0,0,0,0,0,0,0,0,0,0,0,0,0,0],"id":8,"left_children":[1,3,5,7,9,11,13,15,17,19,-1,21,-1,23,25,27,-1,29,-1,31,33,-1,35,37,39,41,43,-1,-1,-1,-1,45,-1,-1,-1,47,49,-1,-1,-1,-1,-1,51,53,55,-1,-1,-1,-1,-1,-1,-1,-1,-1,-1,-1,-1],"loss_changes":[6.567379E0,4.2061234E0,6.155452E0,6.0370007E0,3.7399368E0,3.5139675E0,5.539689E0,3.8775306E0,2.019312E0,1.4316463E0,0E0,3.2758827E0,0E0,1.7379231E0,8.281254E0,4.2544842E-1,0E0,2.5221486E0,0E0,1.4094582E0,2.5607219E0,0E0,3.294938E0,4.0397453E-1,2.8692713E0,6.033188E0,3.9149644E0,0E0,0E0,0E0,0E0,5.9365845E-1,0E0,0E0,0E0,1.5633087E0,2.0870252E0,0E0,0E0,0E0,0E0,0E0,3.8525019E0,3.7950613E0,3.1147523E0,0E0,0E0,0E0,0E0,0E0,0E0,0E0,0E0,0E0,0E0,0E0,0E0],"parents":[2147483647,0,0,1,1,2,2,3,3,4,4,5,5,6,6,7,7,8,8,9,9,11,11,13,13,14,14,15,15,17,17,19,19,20,20,22,22,23,23,24,24,25,25,26,26,31,31,35,35,36,36,42,42,43,43,44,44],"right_children":[2,4,6,8,10,12,14,16,18,20,-1,22,-1,24,26,28,-1,30,-1,32,34,-1,36,38,40,42,44,-1,-1,-1,-1,46,-1,-1,-1,48,50,-1,-1,-1,-1,-1,52,54,56,-1,-1,-1,-1,-1,-1,-1,-1,-1,-1,-1,-1],"split_conditions":[2.08E5,4.27E0,1.319E1,1.6330175E1,1.6310812E3,1.5110226E0,6.719372E-2,1.2939878E0,3.6E0,2.6782036E-1,-5.0056013E-3,-3.1809565E8,-3.572343E-2,1.029659E2,7.591858E-2,1.782473E0,-0E0,1.1992315E1,-7.4888706E-2,4.9026268E1,4.78E0,-2.7800456E-2,7.083623E7,3.96E0,-1.3166083E1,1.0609501E1,1.6316221E0,1.1999853E-1,6.2729746E-2,4.4219833E-2,-4.5647305E-2,1.8779058E1,3.202333E-2,9.301542E-2,-2.016684E-2,5.902069E-1,5.94256E5,-7.573574E-2,-3.3787467E-2,6.473552E-2,-5.5184275E-2,1.07515074E-1,8.2189865E0,5.82E1,8.448311E-1,6.107476E-2,1.1888983E-1,2.7667938E-2,9.187027E-2,-4.736853E-2,5.3691376E-2,2.1432646E-2,-3.7340056E-2,-6.0533103E-2,2.4791606E-2,-8.675075E-3,-5.24621E-2],"split_indices":[17,24,13,3,30,8,7,29,2,25,0,5,0,1,15,19,0,10,0,23,9,0,5,9,29,23,19,0,0,0,0,23,0,0,0,8,0,0,0,0,0,0,29,4,7,0,0,0,0,0,0,0,0,0,0,0,0],"split_type":[0,0,0,0,0,0,0,0,0,0,0,0,0,0,0,0,0,0,0,0,0,0,0,0,0,0,0,0,0,0,0,0,0,0,0,0,0,0,0,0,0,0,0,0,0,0,0,0,0,0,0,0,0,0,0,0,0],"sum_hessian":[4.1772415E2,6.709728E1,3.5062686E2,3.3076317E1,3.4020966E1,4.4462955E1,3.061639E2,1.5712984E1,1.7363333E1,2.8470932E1,5.550033E0,3.975727E1,4.7056847E0,2.2673704E1,2.834902E2,9.577607E0,6.135377E0,1.2291547E1,5.0717854E0,2.0757381E1,7.71355E0,4.1657863E0,3.5591484E1,1.4689055E1,7.984648E0,1.7800772E2,1.05482475E2,6.2566347E0,3.3209724E0,6.189638E0,6.101909E0,1.7409494E1,3.347887E0,4.3630695E0,3.3504806E0,2.7621683E1,7.969802E0,1.0036867E1,4.6521883E0,3.3075397E0,4.6771083E0,7.7106333E0,1.7029709E2,3.874875E1,6.6733734E1,3.3485303E0,1.4060965E1,5.2713337E0,2.235035E1,3.6868892E0,4.2829127E0,1.5850636E2,1.1790725E1,6.0570803E0,3.2691666E1,3.6501053E1,3.0232677E1],"tree_param":{"num_deleted":"0","num_feature":"38","num_nodes":"57","size_leaf_vector":"1"}},{"base_weights":[3.386155E-2,3.4618467E-1,-1.4839522E-2,4.2293644E-1,-6.943944E-2,-1.8848445E-1,8.810676E-2,-1.5170744E-1,6.0609806E-1,8.6830914E-2,-3.022781E-1,1.18623696E-1,6.689329E-2,2.610874E-1,-6.997886E-2,-1.8537914E-2,7.4040216E-1,-3.7711504E-1,4.05159E-1,-4.094663E-1,5.414789E-2,1.94638E-1,-7.705232E-2,-6.854669E-2,1.2874155E-1,8.3779734E-1,-1.1747186E-2,3.893301E-2,-6.185933E-1,1.0530559E-1,8.855254E-1,3.7745006E-2,-4.9658412E-1,6.854715E-1,-2.9030937E-1,1.1165211E-1,7.6097524E-1,-2.6701483E-1,2.518445E-1,9.802299E-2,5.318964E-3,-3.563043E-2,-6.957387E-2,7.862288E-2,-1.3998928E-2,1.2816726E-1,5.1669694E-2,-3.511549E-2,1.00114964E-1,-3.903271E-2,-6.726715E-2,1.4870862E-2,1.0534962E-1,-7.119361E-2,-9.168147E-3,2.5360277E-2,-3.4251716E-2,4.9039897E-2,1.1321508E-1,-3.63723E-2,9.018218E-2,-1.41194705E-2,5.7359345E-2],"categories":[],"categories_nodes":[],"categories_segments":[],"categories_sizes":[],"default_left":[0,0,0,0,0,0,0,0,0,0,0,0,0,0,0,0,0,0,0,0,0,0,0,0,0,0,0,0,0,0,0,0,0,0,0,0,0,0,0,0,0,0,0,0,0,0,0,0,0,0,0,0,0,0,0,0,0,0,0,0,0,0,0],"id":9,"left_children":[1,3,5,7,-1,9,11,13,15,17,19,-1,21,23,-1,-1,25,27,29,31,33,35,37,-1,-1,39,-1,-1,41,43,45,47,49,51,53,55,57,59,61,-1,-1,-1,-1,-1,-1,-1,-1,-1,-1,-1,-1,-1,-1,-1,-1,-1,-1,-1,-1,-1,-1,-1,-1],"loss_changes":[6.017512E0,4.2630987E0,6.092327E0,5.3001204E0,0E0,4.002894E0,4.8345966E0,2.7756433E0,4.10256E0,5.476701E0,3.4813976E0,0E0,3.8639548E0,6.76409E0,0E0,0E0,2.8029346E0,2.8165915E0,3.0743542E0,2.7564354E0,4.563614E0,5.1372385E0,6.141409E0,0E0,0E0,3.1729317E0,0E0,0E0,1.0304499E-1,2.3882906E0,9.740224E-1,4.3118577E0,9.598284E-1,1.3345854E0,1.032684E0,6.2782354E0,1.1941996E0,7.0399714E0,4.5784187E0,0E0,0E0,0E0,0E0,0E0,0E0,0E0,0E0,0E0,0E0,0E0,0E0,0E0,0E0,0E0,0E0,0E0,0E0,0E0,0E0,0E0,0E0,0E0,0E0],"parents":[2147483647,0,0,1,1,2,2,3,3,5,5,6,6,7,7,8,8,9,9,10,10,12,12,13,13,16,16,17,17,18,18,19,19,20,20,21,21,22,22,25,25,28,28,29,29,30,30,31,31,32,32,33,33,34,34,35,35,36,36,37,37,38,38],"right_children":[2,4,6,8,-1,10,12,14,16,18,20,-1,22,24,-1,-1,26,28,30,32,34,36,38,-1,-1,40,-1,-1,42,44,46,48,50,52,54,56,58,60,62,-1,-1,-1,-1,-1,-1,-1,-1,-1,-1,-1,-1,-1,-1,-1,-1,-1,-1,-1,-1,-1,-1,-1,-1],"split_conditions":[5.414116E7,2.3216394E1,1.1822774E1,-5.2355733E0,-6.943944E-2,4.8602424E0,2.64E0,-6.6352256E7,2.02E5,1.027267E2,1.7870281E1,1.18623696E-1,3.9E0,-1.17736556E-1,-6.997886E-2,-1.8537914E-2,6.00372E5,4.2408996E0,1.381677E1,5.6110932E7,2.2655897E-1,4.27E0,6E-2,-6.854669E-2,1.2874155E-1,2.1241328E7,-1.1747186E-2,3.893301E-2,5.698297E7,2.86E0,-3.1E-1,1.8E-1,4.4958115E-2,-5.073137E-2,3.74E0,4.01E0,4.2559943E-1,2.144E1,1.681E1,9.802299E-2,5.318964E-3,-3.563043E-2,-6.957387E-2,7.862288E-2,-1.3998928E-2,1.2816726E-1,5.1669694E-2,-3.511549E-2,1.00114964E-1,-3.903271E-2,-6.726715E-2,1.4870862E-2,1.0534962E-1,-7.119361E-2,-9.168147E-3,2.5360277E-2,-3.4251716E-2,4.9039897E-2,1.1321508E-1,-3.63723E-2,9.018218E-2,-1.41194705E-2,5.7359345E-2],"split_indices":[22,14,21,29,0,21,9,5,17,1,10,0,2,12,0,0,0,10,23,22,29,20,26,0,0,5,0,0,22,20,26,26,12,12,20,20,7,13,13,0,0,0,0,0,0,0,0,0,0,0,0,0,0,0,0,0,0,0,0,0,0,0,0],"split_type":[0,0,0,0,0,0,0,0,0,0,0,0,0,0,0,0,0,0,0,0,0,0,0,0,0,0,0,0,0,0,0,0,0,0,0,0,0,0,0,0,0,0,0,0,0,0,0,0,0,0,0,0,0,0,0,0,0,0,0,0,0,0,0],"sum_hessian":[3.9330423E2,5.325014E1,3.400541E2,4.9737057E1,3.513084E0,1.2689757E2,2.1315652E2,1.18936405E1,3.784342E1,3.6860706E1,9.003686E1,3.8462615E0,2.0931027E2,6.709898E0,5.183743E0,5.376451E0,3.2466965E1,1.4864253E1,2.1996452E1,6.942448E1,2.0612383E1,1.11245125E2,9.806514E1,3.457197E0,3.252701E0,2.9263557E1,3.2034092E0,3.4472947E0,1.1416959E1,1.3746029E1,8.250424E0,1.1141158E1,5.8283318E1,7.343845E0,1.32685375E1,9.728601E1,1.3959114E1,6.2366615E1,3.5698524E1,2.4638464E1,4.6250925E0,3.0171094E0,8.399849E0,3.6899917E0,1.0056037E1,3.7278397E0,4.5225844E0,7.908476E0,3.232682E0,3.6903862E1,2.1379457E1,3.1547623E0,4.1890826E0,4.005082E0,9.263455E0,7.432124E1,2.296477E1,8.3637295E0,5.595384E0,5.7743427E1,4.6231885E0,1.5954405E1,1.974412E1],"tree_param":{"num_deleted":"0","num_feature":"38","num_nodes":"63","size_leaf_vector":"1"}},{"base_weights":[-1.6638562E-1,6.84083E-2,-1.800062E-1,-2.0888953E-1,2.0270197E-1,-2.375279E-1,9.0341814E-2,-2.560678E-1,5.0578165E-1,-2.7362713E-1,7.0262134E-2,1.0293125E-1,-8.818352E-2,3.5885077E-2,-6.547572E-2,1.0497362E-1,1.0311147E-1,-4.6725425E-1,-2.3521799E-1,-9.873234E-2,4.8336068E-1,-3.2084256E-1,1.0090293E-1,5.8560263E-2,-4.1120335E-2,-5.448843E-2,3.238836E-2,-3.8964283E-3,-3.2563757E-2,2.7741386E-2,-3.207862E-2,1.0852973E-2,1.1739313E-1,5.533572E-2,-4.9416114E-2],"categories":[],"categories_nodes":[],"categories_segments":[],"categories_sizes":[],"default_left":[0,0,0,0,0,0,0,0,0,0,0,0,0,0,0,0,0,0,0,0,0,0,0,0,0,0,0,0,0,0,0,0,0,0,0],"id":10,"left_children":[1,-1,3,5,7,9,11,13,15,17,19,-1,21,-1,-1,23,-1,25,27,29,31,33,-1,-1,-1,-1,-1,-1,-1,-1,-1,-1,-1,-1,-1],"loss_changes":[4.076112E0,0E0,3.8710938E0,2.8063297E0,3.4239633E0,3.326786E0,4.83032E0,2.4122744E0,2.9979968E0,1.9007511E0,2.2080176E0,0E0,6.012931E0,0E0,0E0,2.182762E0,0E0,2.7163792E0,3.9198027E0,1.8439026E0,2.2381709E0,3.0066664E0,0E0,0E0,0E0,0E0,0E0,0E0,0E0,0E0,0E0,0E0,0E0,0E0,0E0],"parents":[2147483647,0,0,2,2,3,3,4,4,5,5,6,6,7,7,8,8,9,9,10,10,12,12,15,15,17,17,18,18,19,19,20,20,21,21],"right_children":[2,-1,4,6,8,10,12,14,16,18,20,-1,22,-1,-1,24,-1,26,28,30,32,34,-1,-1,-1,-1,-1,-1,-1,-1,-1,-1,-1,-1,-1],"split_conditions":[-4.985856E1,6.84083E-2,2.521417E1,9.728883E0,6.790855E1,3.3E-1,1.7207778E3,2.2303047E1,6.413067E1,3.68209E1,-1.7476394E7,1.0293125E-1,4.6515663E1,3.5885077E-2,-6.547572E-2,2.015166E1,1.0311147E-1,2.53E5,5.131768E1,3.13E0,7.148768E-1,1.0498714E1,1.0090293E-1,5.8560263E-2,-4.1120335E-2,-5.448843E-2,3.238836E-2,-3.8964283E-3,-3.2563757E-2,2.7741386E-2,-3.207862E-2,1.0852973E-2,1.1739313E-1,5.533572E-2,-4.9416114E-2],"split_indices":[14,0,14,19,11,26,30,21,23,11,5,0,21,0,0,21,0,17,11,9,7,19,0,0,0,0,0,0,0,0,0,0,0,0,0],"split_type":[0,0,0,0,0,0,0,0,0,0,0,0,0,0,0,0,0,0,0,0,0,0,0,0,0,0,0,0,0,0,0,0,0,0,0],"sum_hessian":[3.5506668E2,5.403569E0,3.4966312E2,3.254108E2,2.4252327E1,2.97311E2,2.8099777E1,9.522996E0,1.4729332E1,2.66402E2,3.0909023E1,4.502426E0,2.3597351E1,3.651018E0,5.8719783E0,8.530919E0,6.1984124E0,4.348194E1,2.2292006E2,2.1817663E1,9.09136E0,1.9602606E1,3.9947457E0,4.5109296E0,4.01999E0,3.9739998E1,3.7419426E0,7.0705154E1,1.522149E2,7.922367E0,1.3895296E1,6.061692E0,3.0296683E0,3.111632E0,1.6490973E1],"tree_param":{"num_deleted":"0","num_feature":"38","num_nodes":"35","size_leaf_vector":"1"}},{"base_weights":[1.04318894E-1,-6.156701E-1,1.301902E-1,-2.065969E-2,-7.4768305E-2,1.5486845E-1,-5.0102955E-1,-1.2688294E-1,2.0960784E-1,-7.5448744E-2,2.056906E-3,-4.9714786E-1,1.841846E-2,-4.4165384E-3,2.7689892E-1,-6.940894E-1,2.8674414E-3,5.3491664E-1,-1.154322E-1,-2.3242426E-1,2.4048837E-1,5.8060354E-1,1.970213E-1,-4.073235E-2,-7.715054E-2,-2.1443002E-2,9.793799E-2,2.8657923E-2,-3.4762617E-2,1.9806532E-2,-4.117541E-2,4.4826146E-2,-2.4415491E-2,7.634311E-2,-1.2199677E-2,3.8876373E-2,-1.04081435E-2],"categories":[],"categories_nodes":[],"categories_segments":[],"categories_sizes":[],"default_left":[0,0,0,0,0,0,0,0,0,0,0,0,0,0,0,0,0,0,0,0,0,0,0,0,0,0,0,0,0,0,0,0,0,0,0,0,0],"id":11,"left_children":[1,3,5,-1,-1,7,9,11,13,-1,-1,15,17,19,21,23,-1,25,27,29,31,33,35,-1,-1,-1,-1,-1,-1,-1,-1,-1,-1,-1,-1,-1,-1],"loss_changes":[7.604155E0,6.515932E-1,6.14785E0,0E0,0E0,5.8979053E0,2.0296133E0,3.3768346E0,4.6351805E0,0E0,0E0,1.8943667E0,3.1126947E0,4.263941E0,5.824463E0,1.3861656E-1,0E0,3.1932175E0,3.2955778E0,3.0991335E0,3.718038E0,6.5541058E0,1.1199402E1,0E0,0E0,0E0,0E0,0E0,0E0,0E0,0E0,0E0,0E0,0E0,0E0,0E0,0E0],"parents":[2147483647,0,0,1,1,2,2,5,5,6,6,7,7,8,8,11,11,12,12,13,13,14,14,15,15,17,17,18,18,19,19,20,20,21,21,22,22],"right_children":[2,4,6,-1,-1,8,10,12,14,-1,-1,16,18,20,22,24,-1,26,28,30,32,34,36,-1,-1,-1,-1,-1,-1,-1,-1,-1,-1,-1,-1,-1,-1],"split_conditions":[2.73E0,-2.2282524E-1,3.9437793E3,-2.065969E-2,-7.4768305E-2,5.4507576E7,5.530504E0,2.97E0,-6.1E-1,-7.5448744E-2,2.056906E-3,5.3344616E7,-5.680704E0,3E0,1.358E3,3.74E0,2.8674414E-3,2.14E5,3.0089476E0,-6.7776804E0,1.031058E2,2.0459772E1,1.6310812E3,-4.073235E-2,-7.715054E-2,-2.1443002E-2,9.793799E-2,2.8657923E-2,-3.4762617E-2,1.9806532E-2,-4.117541E-2,4.4826146E-2,-2.4415491E-2,7.634311E-2,-1.2199677E-2,3.8876373E-2,-1.04081435E-2],"split_indices":[9,25,30,0,0,22,14,20,26,0,0,22,29,28,18,9,0,17,19,3,1,14,30,0,0,0,0,0,0,0,0,0,0,0,0,0,0],"split_type":[0,0,0,0,0,0,0,0,0,0,0,0,0,0,0,0,0,0,0,0,0,0,0,0,0,0,0,0,0,0,0,0,0,0,0,0,0],"sum_hessian":[4.1030783E2,1.4019005E1,3.9628885E2,3.6677191E0,1.0351285E1,3.8160352E2,1.4685331E1,6.1759575E1,3.1984393E2,9.98193E0,4.7034016E0,1.753134E1,4.4228233E1,7.617403E1,2.436699E2,1.2869407E1,4.6619325E0,9.194868E0,3.5033367E1,3.966196E1,3.651207E1,5.035087E1,1.9331903E2,3.1434052E0,9.726002E0,3.3588128E0,5.836055E0,1.266009E1,2.2373276E1,1.1496354E1,2.8165606E1,2.5705584E1,1.0806486E1,4.0060238E1,1.0290628E1,1.18292984E2,7.502605E1],"tree_param":{"num_deleted":"0","num_feature":"38","num_nodes":"37","size_leaf_vector":"1"}},{"base_weights":[9.184377E-3,2.660526E-1,-3.950119E-2,3.2218304E-1,-6.778234E-2,4.104205E-1,-7.031691E-2,7.942409E-2,5.1959604E-1,1.0158396E0,-1.8336928E-1,-1.9294076E-1,6.46603E-2,7.697334E-2,-6.519859E-2,2.954977E-1,9.381092E-1,1.1887407E-1,5.8778137E-2,4.8307206E-2,-4.7375607E-1,-2.269859E-1,7.3452525E-2,-3.2647598E-1,1.9502553E-1,-5.631381E-2,1.1704765E-1,4.9790087E-1,-3.5785433E-2,1.4783888E-2,1.2277254E-1,-7.128113E-2,-9.117636E-3,-3.0019668E-1,9.1720015E-2,-4.0229064E-1,4.4411775E-2,6.502759E-1,9.9943236E-2,-4.793226E-2,3.2075904E-2,7.0403405E-2,-8.787348E-3,1.9340266E-2,-3.480914E-2,-8.953011E-3,9.8274134E-2,1.2866325E-3,-5.9651118E-2,-3.943261E-2,8.627099E-2,1.13505475E-1,5.011986E-3],"categories":[],"categories_nodes":[],"categories_segments":[],"categories_sizes":[],"default_left":[0,0,0,0,0,0,0,0,0,0,0,0,0,0,0,0,0,0,0,0,0,0,0,0,0,0,0,0,0,0,0,0,0,0,0,0,0,0,0,0,0,0,0,0,0,0,0,0,0,0,0,0,0],"id":12,"left_children":[1,3,5,7,-1,9,11,13,15,17,19,21,23,-1,25,27,29,-1,-1,-1,31,33,-1,35,37,-1,39,41,-1,-1,-1,-1,-1,43,45,47,-1,49,51,-1,-1,-1,-1,-1,-1,-1,-1,-1,-1,-1,-1,-1,-1],"loss_changes":[5.020342E0,3.3771176E0,4.6224685E0,2.8390708E0,0E0,7.7668543E0,5.2182155E0,2.82228E0,2.9592896E0,5.4115677E-1,2.1053681E0,5.1810803E0,7.6091123E0,0E0,2.1130123E0,2.9279118E0,2.4451447E0,0E0,0E0,0E0,6.130581E-1,3.7450724E0,0E0,2.185967E0,4.7785025E0,0E0,2.0123804E0,2.1059017E0,0E0,0E0,0E0,0E0,0E0,3.0950394E0,4.8809695E0,2.8024383E0,0E0,4.341152E0,4.6812377E0,0E0,0E0,0E0,0E0,0E0,0E0,0E0,0E0,0E0,0E0,0E0,0E0,0E0,0E0],"parents":[2147483647,0,0,1,1,2,2,3,3,5,5,6,6,7,7,8,8,9,9,10,10,11,11,12,12,14,14,15,15,16,16,20,20,21,21,23,23,24,24,26,26,27,27,33,33,34,34,35,35,37,37,38,38],"right_children":[2,4,6,8,-1,10,12,14,16,18,20,22,24,-1,26,28,30,-1,-1,-1,32,34,-1,36,38,-1,40,42,-1,-1,-1,-1,-1,44,46,48,-1,50,52,-1,-1,-1,-1,-1,-1,-1,-1,-1,-1,-1,-1,-1,-1],"split_conditions":[5.4507576E7,2.3769348E1,-2.984155E1,9.928628E0,-6.778234E-2,1.5E1,1.587795E1,-2.8309494E-1,1.030196E2,7.085738E1,6.372653E-1,1.82E3,1.352E3,7.697334E-2,-1.7211953E-1,4.7000793E-1,2E0,1.1887407E-1,5.8778137E-2,4.8307206E-2,1.3E-1,1.3892273E0,7.3452525E-2,4.91E0,1.479E1,-5.631381E-2,1.2746394E1,1.028143E2,-3.5785433E-2,1.4783888E-2,1.2277254E-1,-7.128113E-2,-9.117636E-3,-3.033547E-1,2.541953E1,1.258E1,4.4411775E-2,-3.9094204E-1,2.2501309E-1,-4.793226E-2,3.2075904E-2,7.0403405E-2,-8.787348E-3,1.9340266E-2,-3.480914E-2,-8.953011E-3,9.8274134E-2,1.2866325E-3,-5.9651118E-2,-3.943261E-2,8.627099E-2,1.13505475E-1,5.011986E-3],"split_indices":[22,14,14,21,0,13,3,12,1,23,8,18,18,0,12,25,28,0,0,0,26,8,0,24,13,0,23,1,0,0,0,0,0,12,21,13,0,12,19,0,0,0,0,0,0,0,0,0,0,0,0,0,0],"split_type":[0,0,0,0,0,0,0,0,0,0,0,0,0,0,0,0,0,0,0,0,0,0,0,0,0,0,0,0,0,0,0,0,0,0,0,0,0,0,0,0,0,0,0,0,0,0,0,0,0,0,0,0,0],"sum_hessian":[3.994463E2,6.3902115E1,3.355442E2,6.047745E1,3.4246626E0,2.122172E1,3.1432245E2,2.7413647E1,3.3063805E1,1.0556156E1,1.0665564E1,1.6506366E2,1.492588E2,4.7933536E0,2.2620295E1,2.1800169E1,1.1263636E1,7.2260795E0,3.3300767E0,3.112231E0,7.5533323E0,1.5939595E2,5.667712E0,3.7082436E1,1.1217636E2,6.1518116E0,1.6468483E1,1.6779015E1,5.021154E0,3.1539207E0,8.109715E0,4.434643E0,3.1186895E0,1.2988036E2,2.9515587E1,3.3922543E1,3.1598954E0,1.9098389E1,9.307797E1,4.0336585E0,1.2434824E1,1.2522789E1,4.256226E0,1.127626E1,1.186041E2,2.4507942E1,5.0076447E0,1.0677437E1,2.3245104E1,3.1335275E0,1.5964862E1,4.082214E0,8.899576E1],"tree_param":{"num_deleted":"0","num_feature":"38","num_nodes":"53","size_leaf_vector":"1"}},{"base_weights":[-1.7472419E-1,7.570468E-2,-1.8918006E-1,-2.1862806E-1,1.23135306E-1,-4.459088E-1,-1.747033E-1,-3.0777434E-1,3.9183906E-1,-5.14378E-1,4.926837E-2,4.5871522E-2,-1.879903E-1,-6.5253004E-2,7.090757E-3,1.5352689E-1,1.4856452E-1,-5.4849815E-1,-4.9625913E-4,-2.0549856E-1,2.6308116E-1,8.569591E-2,-1.2718625E-1,-0E0,-5.889059E-2,-2.4758354E-3,-2.5343627E-2,-2.4432946E-2,8.1863865E-2,-6.704554E-2,3.984089E-2],"categories":[],"categories_nodes":[],"categories_segments":[],"categories_sizes":[],"default_left":[0,0,0,0,0,0,0,0,0,0,0,0,0,0,0,0,0,0,0,0,0,0,0,0,0,0,0,0,0,0,0],"id":13,"left_children":[1,-1,3,5,7,9,11,13,15,17,-1,-1,19,-1,-1,21,-1,23,-1,25,27,-1,29,-1,-1,-1,-1,-1,-1,-1,-1],"loss_changes":[4.5842037E0,0E0,3.1247911E0,3.0209322E0,3.3704226E0,3.2220783E0,2.169661E0,1.5021513E0,4.5070877E0,7.5223064E-1,0E0,0E0,2.0124893E0,0E0,0E0,3.040311E0,0E0,9.5161533E-1,0E0,2.0996504E0,2.71417E0,0E0,3.10548E0,0E0,0E0,0E0,0E0,0E0,0E0,0E0,0E0],"parents":[2147483647,0,0,2,2,3,3,4,4,5,5,6,6,7,7,8,8,9,9,12,12,15,15,17,17,19,19,20,20,22,22],"right_children":[2,-1,4,6,8,10,12,14,16,18,-1,-1,20,-1,-1,22,-1,24,-1,26,28,-1,30,-1,-1,-1,-1,-1,-1,-1,-1],"split_conditions":[-4.985856E1,7.570468E-2,3.3E-1,3.8078323E1,9.9092585E-1,9.760402E1,1E0,1.3648306E1,1.3070376E7,5E0,4.926837E-2,4.5871522E-2,4.67E0,-6.5253004E-2,7.090757E-3,3.07E0,1.4856452E-1,2.68E0,-4.9625913E-4,2.1917177E1,2.0528837E1,8.569591E-2,2.3292115E0,-0E0,-5.889059E-2,-2.4758354E-3,-2.5343627E-2,-2.4432946E-2,8.1863865E-2,-6.704554E-2,3.984089E-2],"split_indices":[14,0,26,11,8,23,31,3,5,28,0,0,20,0,0,9,0,20,0,23,10,0,29,0,0,0,0,0,0,0,0],"split_type":[0,0,0,0,0,0,0,0,0,0,0,0,0,0,0,0,0,0,0,0,0,0,0,0,0,0,0,0,0,0,0],"sum_hessian":[3.433907E2,5.061949E0,3.3832874E2,3.0949667E2,2.883205E1,4.960951E1,2.5988718E2,1.0925138E1,1.7906912E1,4.6378025E1,3.231483E0,5.1160474E0,2.5477112E2,5.819116E0,5.1060224E0,1.487212E1,3.034792E0,4.32755E1,3.1025229E0,2.4551753E2,9.25359E0,4.2851143E0,1.0587006E1,3.0042958E0,4.0271206E1,5.1936874E1,1.9358066E2,4.7715673E0,4.482023E0,5.2859774E0,5.3010283E0],"tree_param":{"num_deleted":"0","num_feature":"38","num_nodes":"31","size_leaf_vector":"1"}},{"base_weights":[1.2151438E-1,-3.4179386E-1,1.5038744E-1,1.5040839E-1,-5.624089E-1,2.6544252E-1,5.2840453E-2,-4.318677E-2,7.1531646E-2,-7.282973E-2,-2.2653809E-2,3.3382183E-1,-6.411976E-2,3.4019026E-1,-5.3574543E-2,1.3991933E-1,5.1013136E-1,9.3909204E-2,-1.9276358E-1,-5.757932E-2,4.3981585E-1,-2.7829856E-3,-6.2057626E-1,2.8369784E-1,-3.6346483E-1,7.5660175E-1,2.3397212E-1,7.97941E-2,-3.4187177E-1,7.7592474E-1,1.7745015E-1,-2.4965742E-1,1.4326264E-1,-7.670814E-2,-1.6969254E-2,3.980212E-2,-3.720279E-2,-6.864243E-2,3.232864E-2,4.026527E-2,9.776188E-2,7.465555E-2,-2.0307725E-2,-1.5230476E-2,-7.7368625E-2,9.086995E-2,1.0686581E-2,-1.9385425E-2,7.5199366E-2,-6.440075E-2,-1.2264251E-2,6.606947E-2,1.4666904E-3],"categories":[],"categories_nodes":[],"categories_segments":[],"categories_sizes":[],"default_left":[0,0,0,0,0,0,0,0,0,0,0,0,0,0,0,0,0,0,0,0,0,0,0,0,0,0,0,0,0,0,0,0,0,0,0,0,0,0,0,0,0,0,0,0,0,0,0,0,0,0,0,0,0],"id":14,"left_children":[1,3,5,7,9,11,13,-1,-1,-1,-1,15,17,19,21,23,25,-1,27,-1,29,31,33,35,37,39,41,-1,43,45,47,49,51,-1,-1,-1,-1,-1,-1,-1,-1,-1,-1,-1,-1,-1,-1,-1,-1,-1,-1,-1,-1],"loss_changes":[5.5441594E0,2.677674E0,4.3595085E0,2.5028863E0,8.281245E-1,4.064868E0,6.5255938E0,0E0,0E0,0E0,0E0,5.007374E0,3.8933191E0,5.274527E0,4.39665E0,5.15318E0,5.1591644E0,0E0,4.014229E0,0E0,4.4913406E0,5.1473646E0,7.234807E-1,4.18301E0,3.5407727E0,3.0082436E0,8.333978E0,0E0,1.8507805E0,1.9029293E0,6.3839865E0,2.5805864E0,5.8708987E0,0E0,0E0,0E0,0E0,0E0,0E0,0E0,0E0,0E0,0E0,0E0,0E0,0E0,0E0,0E0,0E0,0E0,0E0,0E0,0E0],"parents":[2147483647,0,0,1,1,2,2,3,3,4,4,5,5,6,6,11,11,12,12,13,13,14,14,15,15,16,16,18,18,20,20,21,21,22,22,23,23,24,24,25,25,26,26,28,28,29,29,30,30,31,31,32,32],"right_children":[2,4,6,8,10,12,14,-1,-1,-1,-1,16,18,20,22,24,26,-1,28,-1,30,32,34,36,38,40,42,-1,44,46,48,50,52,-1,-1,-1,-1,-1,-1,-1,-1,-1,-1,-1,-1,-1,-1,-1,-1,-1,-1,-1,-1],"split_conditions":[2.86E0,-2.2282524E-1,-9.408382E7,3.0779898E1,4.7000793E-1,1.4730621E1,-2.4601305E0,-4.318677E-2,7.1531646E-2,-7.282973E-2,-2.2653809E-2,-1.7594407E0,2.92E0,-2.984155E1,2.1733615E-1,4.54E0,4.5336376E1,9.3909204E-2,5.78812E5,-5.757932E-2,1.029024E2,5.3018986E1,2.925E1,3.9437793E3,2.238E1,1.025186E2,-2.0604478E8,7.97941E-2,1.358E3,6.4947753E0,2.22E5,3.36E0,5.7310156E2,-7.670814E-2,-1.6969254E-2,3.980212E-2,-3.720279E-2,-6.864243E-2,3.232864E-2,4.026527E-2,9.776188E-2,7.465555E-2,-2.0307725E-2,-1.5230476E-2,-7.7368625E-2,9.086995E-2,1.0686581E-2,-1.9385425E-2,7.5199366E-2,-6.440075E-2,-1.2264251E-2,6.606947E-2,1.4666904E-3],"split_indices":[9,25,5,11,25,14,3,0,0,0,0,14,9,14,15,9,3,0,0,0,1,11,13,30,13,1,5,0,18,19,17,9,30,0,0,0,0,0,0,0,0,0,0,0,0,0,0,0,0,0,0,0,0],"split_type":[0,0,0,0,0,0,0,0,0,0,0,0,0,0,0,0,0,0,0,0,0,0,0,0,0,0,0,0,0,0,0,0,0,0,0,0,0,0,0,0,0,0,0,0,0,0,0,0,0,0,0,0,0],"sum_hessian":[4.153973E2,2.4101889E1,3.912954E2,7.32903E0,1.6772858E1,1.7898648E2,2.1230893E2,3.5334628E0,3.7955675E0,1.0950014E1,5.822843E0,1.4848102E2,3.0505468E1,5.757111E1,1.5473782E2,7.106804E1,7.741298E1,3.3072197E0,2.7198248E1,5.502058E0,5.2069054E1,1.4227022E2,1.2467595E1,5.5467495E1,1.5600542E1,4.062201E1,3.679097E1,3.4133656E0,2.3784882E1,2.2573689E1,2.9495365E1,5.3108974E1,8.916125E1,9.189687E0,3.2779088E0,4.7395985E1,8.071508E0,1.0709724E1,4.8908176E0,1.5897498E1,2.4724512E1,1.7005016E1,1.9785954E1,1.678368E1,7.0012016E0,1.8681135E1,3.8925524E0,1.7851114E1,1.1644251E1,1.2647443E1,4.0461533E1,1.7510927E1,7.165032E1],"tree_param":{"num_deleted":"0","num_feature":"38","num_nodes":"53","size_leaf_vector":"1"}},{"base_weights":[8.7191295E-3,8.187709E-2,-1.6742557E-1,5.2826655E-1,3.558848E-2,-2.1109101E-1,1.002624E-1,-2.6409188E-2,6.830752E-1,-3.6290112E-1,8.412218E-2,2.5244272E-1,-3.2039347E-1,1.0485181E0,2.5586197E-1,2.1476028E-2,-4.965134E-1,-3.3056E-2,2.593318E-1,-1.3861056E-1,7.065301E-1,-1.9006279E-1,-5.9477764E-1,1.1890924E-1,6.447487E-2,-1.4152797E-1,9.269911E-2,-2.5547084E-1,-7.081668E-2,1.7751248E-1,-2.0528676E-1,4.146591E-2,5.2746254E-1,1.6094097E-1,-7.047651E-2,1.0783189E-1,-7.5492114E-3,-4.9051738E-1,-3.729072E-2,-6.993998E-2,-4.1029918E-1,-4.2104788E-2,1.1094505E-2,-5.663047E-2,2.7250757E-2,5.0086076E-3,7.6846235E-2,-1.9960476E-3,-4.7800418E-2,1.8563693E-2,-4.6225708E-2,6.831433E-2,-2.6580203E-2,-3.8053703E-2,5.7904262E-2,-1.8947607E-2,-6.515851E-2,-3.831664E-2,2.0187005E-2,-0E0,-6.641034E-2],"categories":[],"categories_nodes":[],"categories_segments":[],"categories_sizes":[],"default_left":[0,0,0,0,0,0,0,0,0,0,0,0,0,0,0,0,0,0,0,0,0,0,0,0,0,0,0,0,0,0,0,0,0,0,0,0,0,0,0,0,0,0,0,0,0,0,0,0,0,0,0,0,0,0,0,0,0,0,0,0,0],"id":15,"left_children":[1,3,5,7,9,11,-1,-1,13,15,17,19,21,23,25,-1,27,29,31,33,35,37,39,-1,-1,41,-1,43,-1,45,47,49,51,53,-1,-1,-1,55,57,-1,59,-1,-1,-1,-1,-1,-1,-1,-1,-1,-1,-1,-1,-1,-1,-1,-1,-1,-1,-1,-1],"loss_changes":[5.0564547E0,5.6881123E0,5.814456E0,3.2391958E0,4.854408E0,5.637287E0,0E0,0E0,3.2486477E0,2.137118E0,4.646986E0,3.8054986E0,3.1292295E0,3.9832878E-1,2.8430116E0,0E0,1.0206752E0,4.8912926E0,5.233733E0,1.9784474E0,2.9802394E0,2.764718E0,4.1413784E-1,0E0,0E0,4.9247047E-1,0E0,1.8139582E0,0E0,4.46217E0,3.7095318E0,3.6339703E0,5.049451E0,1.7039956E0,0E0,0E0,0E0,8.9634085E-1,3.4212554E0,0E0,1.1627902E0,0E0,0E0,0E0,0E0,0E0,0E0,0E0,0E0,0E0,0E0,0E0,0E0,0E0,0E0,0E0,0E0,0E0,0E0,0E0,0E0],"parents":[2147483647,0,0,1,1,2,2,3,3,4,4,5,5,8,8,9,9,10,10,11,11,12,12,13,13,14,14,16,16,17,17,18,18,19,19,20,20,21,21,22,22,25,25,27,27,29,29,30,30,31,31,32,32,33,33,37,37,38,38,40,40],"right_children":[2,4,6,8,10,12,-1,-1,14,16,18,20,22,24,26,-1,28,30,32,34,36,38,40,-1,-1,42,-1,44,-1,46,48,50,52,54,-1,-1,-1,56,58,-1,60,-1,-1,-1,-1,-1,-1,-1,-1,-1,-1,-1,-1,-1,-1,-1,-1,-1,-1,-1,-1],"split_conditions":[6.2345933E-2,2.95E0,9.635892E7,2.0074544E0,3.16E0,5.5907556E7,1.002624E-1,-2.6409188E-2,8.263242E0,6.3290036E-1,7.473325E-1,2.18E5,2.174E1,4.188815E-1,3.580095E1,2.1476028E-2,4.21E0,-4.2E-1,9.2325455E-1,1.46E3,3.4726808E0,1.3555138E-1,8.256644E-1,1.1890924E-1,6.447487E-2,6.0685856E7,9.269911E-2,2.4930904E-2,-7.081668E-2,4.3E0,-7.110218E-1,4.77E0,2.529562E-2,1.782473E0,-7.047651E-2,1.0783189E-1,-7.5492114E-3,1.3902998E1,3.34E0,-6.993998E-2,1.1261181E1,-4.2104788E-2,1.1094505E-2,-5.663047E-2,2.7250757E-2,5.0086076E-3,7.6846235E-2,-1.9960476E-3,-4.7800418E-2,1.8563693E-2,-4.6225708E-2,6.831433E-2,-2.6580203E-2,-3.8053703E-2,5.7904262E-2,-1.8947607E-2,-6.515851E-2,-3.831664E-2,2.0187005E-2,-0E0,-6.641034E-2],"split_indices":[12,9,5,19,9,22,0,0,19,8,7,17,13,7,21,0,20,26,8,18,14,12,7,0,0,22,0,14,0,20,14,9,12,19,0,0,0,21,9,0,29,0,0,0,0,0,0,0,0,0,0,0,0,0,0,0,0,0,0,0,0],"split_type":[0,0,0,0,0,0,0,0,0,0,0,0,0,0,0,0,0,0,0,0,0,0,0,0,0,0,0,0,0,0,0,0,0,0,0,0,0,0,0,0,0,0,0,0,0,0,0,0,0,0,0,0,0,0,0,0,0,0,0,0,0],"sum_hessian":[3.928448E2,2.7800327E2,1.14841515E2,2.5818457E1,2.5218481E2,1.108713E2,3.9702141E0,4.1027517E0,2.1715704E1,2.7085894E1,2.2509892E2,2.0955717E1,8.991559E1,1.1499445E1,1.021626E1,4.9360647E0,2.2149828E1,1.3459424E2,9.0504684E1,1.1178346E1,9.777371E0,6.1321835E1,2.859375E1,8.201787E0,3.2976577E0,6.372736E0,3.843524E0,1.0680013E1,1.1469816E1,6.0294632E1,7.42996E1,5.0202095E1,4.0302593E1,7.24171E0,3.9366355E0,6.6878304E0,3.0895407E0,2.037499E1,4.0946842E1,1.7721992E1,1.08717575E1,3.1806557E0,3.19208E0,6.8370285E0,3.842984E0,4.9827938E1,1.0466694E1,4.4519905E1,2.9779696E1,3.923444E1,1.0967656E1,3.380767E1,6.4949207E0,3.055012E0,4.186698E0,7.393944E0,1.2981048E1,1.6885235E1,2.406161E1,4.14725E0,6.7245073E0],"tree_param":{"num_deleted":"0","num_feature":"38","num_nodes":"61","size_leaf_vector":"1"}},{"base_weights":[-1.8419227E-1,6.3787565E-2,-1.99943E-1,-2.2549534E-1,1.2156039E-1,-1.5931445E-1,-3.9619967E-1,-3.7457407E-1,4.8073247E-1,-1.9154322E-1,3.966408E-1,-4.2251232E-1,2.6635481E-2,-6.564546E-2,1.6576339E-2,9.239844E-1,-2.9253135E-2,4.3915417E-2,-2.6545691E-1,1.07723355E-1,1.18425176E-1,-4.8798403E-1,-2.1847698E-1,1.297685E-1,5.3628277E-2,6.381672E-2,-6.0201227E-3,-1.6678391E-2,-4.0546995E-2,-6.212454E-2,6.2239524E-2,-6.2832E-2,-3.767499E-2,-4.0721297E-2,4.6220552E-2],"categories":[],"categories_nodes":[],"categories_segments":[],"categories_sizes":[],"default_left":[0,0,0,0,0,0,0,0,0,0,0,0,0,0,0,0,0,0,0,0,0,0,0,0,0,0,0,0,0,0,0,0,0,0,0],"id":16,"left_children":[1,-1,3,5,7,9,11,13,15,17,19,21,-1,-1,-1,23,-1,25,27,-1,29,31,33,-1,-1,-1,-1,-1,-1,-1,-1,-1,-1,-1,-1],"loss_changes":[4.3008623E0,0E0,2.7115126E0,3.379342E0,4.2982845E0,3.930647E0,1.5019302E0,1.5832102E0,4.908992E0,3.6479745E0,2.1251674E0,1.0082455E0,0E0,0E0,0E0,1.0571771E0,0E0,3.1256037E0,2.1305857E0,0E0,3.2742229E0,8.3266354E-1,2.6297479E0,0E0,0E0,0E0,0E0,0E0,0E0,0E0,0E0,0E0,0E0,0E0,0E0],"parents":[2147483647,0,0,2,2,3,3,4,4,5,5,6,6,7,7,8,8,9,9,10,10,11,11,15,15,17,17,18,18,20,20,21,21,22,22],"right_children":[2,-1,4,6,8,10,12,14,16,18,20,22,-1,-1,-1,24,-1,26,28,-1,30,32,34,-1,-1,-1,-1,-1,-1,-1,-1,-1,-1,-1,-1],"split_conditions":[-4.985856E1,6.3787565E-2,2.521417E1,6.2261605E0,2.5491732E1,6.824557E1,4.7481087E1,7.791885E1,2.8913874E1,-1.961031E-1,6.20486E2,4.65E0,2.6635481E-2,-6.564546E-2,1.6576339E-2,4.21E0,-2.9253135E-2,2E0,1.6735516E3,1.07723355E-1,3.2809048E0,8.629779E-1,1.8519413E1,1.297685E-1,5.3628277E-2,6.381672E-2,-6.0201227E-3,-1.6678391E-2,-4.0546995E-2,-6.212454E-2,6.2239524E-2,-6.2832E-2,-3.767499E-2,-4.0721297E-2,4.6220552E-2],"split_indices":[14,0,14,29,10,11,10,11,21,12,30,9,0,0,0,20,0,28,30,0,19,7,10,0,0,0,0,0,0,0,0,0,0,0,0],"split_type":[0,0,0,0,0,0,0,0,0,0,0,0,0,0,0,0,0,0,0,0,0,0,0,0,0,0,0,0,0,0,0,0,0,0,0],"sum_hessian":[3.3445703E2,6.0940757E0,3.2836295E2,3.045027E2,2.386026E1,2.1999234E2,8.451036E1,9.9010105E0,1.39592495E1,2.0817012E2,1.1822216E1,8.146233E1,3.0480287E0,6.614153E0,3.2868576E0,8.942843E0,5.0164056E0,4.9421436E1,1.5874869E2,3.2427998E0,8.579416E0,6.1196175E1,2.0266157E1,4.302794E0,4.64005E0,7.4347415E0,4.1986694E1,9.366935E1,6.507934E1,3.3868637E0,5.1925526E0,2.6455435E1,3.4740738E1,1.6013191E1,4.2529645E0],"tree_param":{"num_deleted":"0","num_feature":"38","num_nodes":"35","size_leaf_vector":"1"}},{"base_weights":[1.1352949E-1,-2.20694E-1,1.5037903E-1,1.19944826E-1,-4.9554944E-1,2.927315E-1,5.2609123E-2,3.4122303E-1,-5.210353E-2,9.895521E-3,-6.3572645E-1,-4.5754004E-1,3.4848687E-1,-4.657355E-1,1.0960043E-1,1.0962752E-1,1.4584549E-2,-3.202374E-2,-7.380344E-2,9.80755E-3,-7.237868E-2,4.3529284E-1,-6.985642E-2,-5.955286E-1,-0E0,2.6982503E-2,4.0974176E-1,-3.7303943E-2,5.3195357E-2,6.1859167E-1,2.425514E-1,3.1821066E-1,-3.8695747E-1,-1.4405173E-2,-6.930636E-1,4.4944742E-1,-3.2269478E-2,7.0246196E-1,-2.1258504E-3,8.545226E-2,4.162125E-2,6.513674E-2,8.450876E-3,6.869589E-2,-3.1174187E-2,5.0470244E-2,-7.075107E-2,-7.654314E-2,-4.0334083E-2,8.501695E-2,-1.6144171E-2,-1.785E-2,1.8685153E-2,1.00701086E-1,4.0495325E-2,7.7665344E-2,-2.391827E-2],"categories":[],"categories_nodes":[],"categories_segments":[],"categories_sizes":[],"default_left":[0,0,0,0,0,0,0,0,0,0,0,0,0,0,0,0,0,0,0,0,0,0,0,0,0,0,0,0,0,0,0,0,0,0,0,0,0,0,0,0,0,0,0,0,0,0,0,0,0,0,0,0,0,0,0,0,0],"id":17,"left_children":[1,3,5,7,9,11,13,15,-1,-1,17,19,21,23,25,-1,27,-1,-1,-1,-1,29,31,33,-1,35,37,-1,-1,39,41,43,45,-1,47,49,51,53,55,-1,-1,-1,-1,-1,-1,-1,-1,-1,-1,-1,-1,-1,-1,-1,-1,-1,-1],"loss_changes":[5.083307E0,3.8623705E0,5.146266E0,2.571619E0,1.9563446E0,6.328807E0,6.506411E0,3.255189E0,0E0,0E0,4.6971655E-1,1.6046278E0,5.156168E0,1.3147836E0,4.905137E0,0E0,1.9861977E0,0E0,0E0,0E0,0E0,4.028717E0,2.9848523E0,6.557245E-1,0E0,3.9706302E0,5.2324877E0,0E0,0E0,2.682396E0,3.6302238E0,2.5561886E0,3.900221E0,0E0,1.4131403E-1,4.85933E0,4.4078298E0,2.098753E0,3.2411442E0,0E0,0E0,0E0,0E0,0E0,0E0,0E0,0E0,0E0,0E0,0E0,0E0,0E0,0E0,0E0,0E0,0E0,0E0],"parents":[2147483647,0,0,1,1,2,2,3,3,4,4,5,5,6,6,7,7,10,10,11,11,12,12,13,13,14,14,16,16,21,21,22,22,23,23,25,25,26,26,29,29,30,30,31,31,32,32,34,34,35,35,36,36,37,37,38,38],"right_children":[2,4,6,8,10,12,14,16,-1,-1,18,20,22,24,26,-1,28,-1,-1,-1,-1,30,32,34,-1,36,38,-1,-1,40,42,44,46,-1,48,50,52,54,56,-1,-1,-1,-1,-1,-1,-1,-1,-1,-1,-1,-1,-1,-1,-1,-1,-1,-1],"split_conditions":[1.3577628E-1,9.7411585E-1,2.306999E-2,1.926E1,5.6085104E7,2.73E0,-6.0051756E0,9.755695E1,-5.210353E-2,9.895521E-3,1.424E1,-1.9751711E-1,7.455085E-1,2.32E5,1.0386641E-1,1.0962752E-1,7.05E1,-3.202374E-2,-7.380344E-2,9.80755E-3,-7.237868E-2,3E0,3.9E0,2.7303964E-1,-0E0,1.317E3,2.2371948E-1,-3.7303943E-2,5.3195357E-2,3.85E0,1.333E1,1.1543732E-1,6.7103267E-1,-1.4405173E-2,5.7364714E-1,1.973681E1,4.25E0,6.87138E1,5.9E1,8.545226E-2,4.162125E-2,6.513674E-2,8.450876E-3,6.869589E-2,-3.1174187E-2,5.0470244E-2,-7.075107E-2,-7.654314E-2,-4.0334083E-2,8.501695E-2,-1.6144171E-2,-1.785E-2,1.8685153E-2,1.00701086E-1,4.0495325E-2,7.7665344E-2,-2.391827E-2],"split_indices":[7,8,15,13,22,9,14,34,0,0,13,25,7,17,12,0,4,0,0,0,0,31,2,7,0,18,12,0,0,9,13,12,29,0,7,14,9,11,4,0,0,0,0,0,0,0,0,0,0,0,0,0,0,0,0,0,0],"split_type":[0,0,0,0,0,0,0,0,0,0,0,0,0,0,0,0,0,0,0,0,0,0,0,0,0,0,0,0,0,0,0,0,0,0,0,0,0,0,0,0,0,0,0,0,0,0,0,0,0,0,0,0,0,0,0,0,0],"sum_hessian":[4.1294205E2,4.0688328E1,3.7225372E2,1.80325E1,2.265583E1,1.5107178E2,2.2118193E2,1.3555623E1,4.4768753E0,4.1922216E0,1.8463608E1,1.0276188E1,1.407956E2,2.166486E1,1.9951707E2,3.929797E0,9.625826E0,4.8617578E0,1.36018505E1,3.2278142E0,7.0483737E0,1.1679556E2,2.4000025E1,1.6918797E1,4.746063E0,1.5679839E2,4.2718693E1,5.4083705E0,4.217456E0,5.9485016E1,5.7310547E1,1.0650399E1,1.3349626E1,3.2318678E0,1.368693E1,1.9413052E1,1.3738533E2,2.5071943E1,1.764675E1,2.7088848E1,3.2396168E1,1.5714993E1,4.159556E1,6.8123965E0,3.8380024E0,3.4324415E0,9.917185E0,1.0543896E1,3.1430335E0,1.1798303E1,7.6147494E0,8.268221E1,5.4703114E1,1.210544E1,1.2966504E1,3.9665089E0,1.368024E1],"tree_param":{"num_deleted":"0","num_feature":"38","num_nodes":"57","size_leaf_vector":"1"}},{"base_weights":[3.5871426E-3,-1.6644703E-2,7.2125924E-1,2.4680063E-1,-5.5910233E-2,9.4676864E-1,1.3424336E-2,4.2067426E-1,-2.6425585E-1,4.4799037E-2,-1.9309476E-1,5.5022236E-2,1.21794894E-1,6.1530995E-1,-1.8253063E-1,-5.163287E-1,4.189174E-2,1.0190952E-1,2.5824932E-2,1.8735202E-1,-2.632509E-1,-2.4542353E-1,8.745915E-1,-7.087947E-2,2.3113608E-2,-7.044614E-2,-1.1629007E-2,1.143739E-1,-1.9391277E-1,-1.6943832E-1,8.2902044E-1,-3.710849E-1,-6.2038224E-2,1.8125227E-2,-6.636892E-2,5.3315397E-2,1.0019634E-1,4.028812E-3,8.5054114E-2,-5.2809943E-3,-6.9655254E-2,-5.490938E-2,1.4137718E-2,4.1965794E-2,1.3749497E-1,-4.5699146E-2,-9.901913E-3,1.6490383E-2,-4.1528746E-2],"categories":[],"categories_nodes":[],"categories_segments":[],"categories_sizes":[],"default_left":[0,0,0,0,0,0,0,0,0,0,0,0,0,0,0,0,0,0,0,0,0,0,0,0,0,0,0,0,0,0,0,0,0,0,0,0,0,0,0,0,0,0,0,0,0,0,0,0,0],"id":18,"left_children":[1,3,5,7,9,11,-1,13,15,17,19,-1,-1,21,23,25,-1,-1,27,29,31,33,35,-1,-1,-1,-1,37,39,41,43,45,47,-1,-1,-1,-1,-1,-1,-1,-1,-1,-1,-1,-1,-1,-1,-1,-1],"loss_changes":[5.8008924E0,3.951648E0,1.3295655E0,4.421916E0,4.635148E0,5.923562E-1,0E0,4.409112E0,2.179107E0,3.451038E0,3.8022432E0,0E0,0E0,6.3756714E0,2.0234509E0,6.067891E-1,0E0,0E0,3.671761E0,5.1036525E0,2.5612125E0,1.2229301E0,7.4007225E-1,0E0,0E0,0E0,0E0,7.275873E0,3.7512312E0,1.7105712E0,1.5413709E0,1.7600794E0,3.428148E0,0E0,0E0,0E0,0E0,0E0,0E0,0E0,0E0,0E0,0E0,0E0,0E0,0E0,0E0,0E0,0E0],"parents":[2147483647,0,0,1,1,2,2,3,3,4,4,5,5,7,7,8,8,9,9,10,10,13,13,14,14,15,15,18,18,19,19,20,20,21,21,22,22,27,27,28,28,29,29,30,30,31,31,32,32],"right_children":[2,4,6,8,10,12,-1,14,16,18,20,-1,-1,22,24,26,-1,-1,28,30,32,34,36,-1,-1,-1,-1,38,40,42,44,46,48,-1,-1,-1,-1,-1,-1,-1,-1,-1,-1,-1,-1,-1,-1,-1,-1],"split_conditions":[4.0086807E3,-2.8309494E-1,2.3205736E0,6.045626E7,1.914E1,4.4085716E1,1.3424336E-2,4.28E0,-3.5162264E-1,2.64E0,9.646188E1,5.5022236E-2,1.21794894E-1,1.32E1,4.31E0,2.167E1,4.189174E-2,1.0190952E-1,5.99979E5,6.581352E2,1.281698E-1,6.630091E-1,4.6531708E1,-7.087947E-2,2.3113608E-2,-7.044614E-2,-1.1629007E-2,1.9126813E3,8.132509E-2,1.1609953E-1,4.2305633E-2,2.2E-1,8.9417715E0,1.8125227E-2,-6.636892E-2,5.3315397E-2,1.0019634E-1,4.028812E-3,8.5054114E-2,-5.2809943E-3,-6.9655254E-2,-5.490938E-2,1.4137718E-2,4.1965794E-2,1.3749497E-1,-4.5699146E-2,-9.901913E-3,1.6490383E-2,-4.1528746E-2],"split_indices":[30,12,14,22,13,11,0,9,12,9,34,0,0,13,24,13,0,0,0,30,15,8,11,0,0,0,0,30,12,25,15,26,14,0,0,0,0,0,0,0,0,0,0,0,0,0,0,0,0],"split_type":[0,0,0,0,0,0,0,0,0,0,0,0,0,0,0,0,0,0,0,0,0,0,0,0,0,0,0,0,0,0,0,0,0,0,0,0,0,0,0,0,0,0,0,0,0,0,0,0,0],"sum_hessian":[3.944797E2,3.8362335E2,1.0856359E1,4.9362022E1,3.3426132E2,7.6759205E0,3.1804378E0,3.699037E1,1.2371651E1,1.9237457E2,1.4188673E2,3.3901582E0,4.2857623E0,2.8090277E1,8.900095E0,9.161937E0,3.2097144E0,3.4734993E0,1.8890108E2,2.1842968E1,1.2004377E2,6.414803E0,2.1675472E1,3.991954E0,4.908141E0,6.0096197E0,3.1523168E0,1.350017E2,5.3899376E1,1.398472E1,7.8582487E0,7.7779E1,4.2264774E1,3.0851762E0,3.329627E0,6.243258E0,1.5432215E1,1.22877014E2,1.2124683E1,4.232672E1,1.1572653E1,6.4055405E0,7.5791793E0,4.6965823E0,3.1616662E0,5.8782505E1,1.8996492E1,2.5592997E1,1.6671776E1],"tree_param":{"num_deleted":"0","num_feature":"38","num_nodes":"49","size_leaf_vector":"1"}},{"base_weights":[-1.3376127E-1,-1.8345691E-1,-2.1762087E-3,5.7761773E-2,-2.161754E-1,-1.06023796E-1,2.7092737E-1,2.3264685E-1,-4.0383372E-1,-2.9279373E-4,-2.6119253E-1,5.4031396E-1,-1.8542133E-1,1.2816402E-1,1.00214496E-1,4.8324588E-1,-3.3266148E-1,-6.312428E-2,-4.6614227E-3,-1.0016217E-1,8.238629E-2,-3.2171273E-1,-5.2737184E-2,2.9584158E-3,1.1343677E-1,-3.100139E-1,2.2763069E-1,7.6972656E-2,-3.6522128E-2,1.5196314E-1,9.812348E-2,-6.163007E-2,-0E0,-1.9533387E-1,6.496065E-2,5.6163844E-2,-3.589278E-1,-3.3288738E-1,1.8492381E-1,-1.6833328E-3,-5.805243E-1,7.3754966E-2,-1.7259367E-1,3.654525E-1,-2.9448214E-1,-7.6722265E-3,4.36306E-2,-4.3084204E-2,1.4758415E-2,-2.8074864E-2,7.327529E-2,-3.8183335E-2,3.285488E-2,3.3324953E-2,-5.121958E-2,6.254021E-2,-8.104788E-3,6.71979E-2,-2.891506E-2,-6.565319E-2,-1.8961642E-2,-6.471109E-2,3.995747E-2,-4.6034106E-3,7.985041E-2,-6.461818E-2,1.1004661E-2],"categories":[],"categories_nodes":[],"categories_segments":[],"categories_sizes":[],"default_left":[0,0,0,0,0,0,0,0,0,0,0,0,0,0,0,0,0,0,0,0,0,0,0,0,0,0,0,0,0,0,0,0,0,0,0,0,0,0,0,0,0,0,0,0,0,0,0,0,0,0,0,0,0,0,0,0,0,0,0,0,0,0,0,0,0,0,0],"id":19,"left_children":[1,3,5,7,9,11,13,15,17,19,21,23,25,27,-1,29,31,-1,-1,33,-1,35,37,-1,-1,39,41,-1,43,45,-1,-1,-1,47,-1,49,51,53,55,57,59,-1,61,63,65,-1,-1,-1,-1,-1,-1,-1,-1,-1,-1,-1,-1,-1,-1,-1,-1,-1,-1,-1,-1,-1,-1],"loss_changes":[2.1784167E0,1.9374504E0,2.6170564E0,2.315216E0,2.0598507E0,3.4405055E0,2.5169506E0,3.0187917E0,5.6177247E-1,3.0240285E0,2.1966915E0,2.0880353E0,3.1217632E0,2.3382633E0,0E0,2.3093364E0,5.8044755E-1,0E0,0E0,2.3692508E0,0E0,1.9582891E0,2.7086563E0,0E0,0E0,3.828669E0,2.8978071E0,0E0,1.7673218E0,6.31796E-1,0E0,0E0,0E0,2.4627633E0,0E0,2.8295732E0,1.9852028E0,2.2753043E0,2.603067E0,4.2516503E0,6.353617E-1,0E0,2.1510756E0,1.2445765E0,1.5641091E0,0E0,0E0,0E0,0E0,0E0,0E0,0E0,0E0,0E0,0E0,0E0,0E0,0E0,0E0,0E0,0E0,0E0,0E0,0E0,0E0,0E0,0E0],"parents":[2147483647,0,0,1,1,2,2,3,3,4,4,5,5,6,6,7,7,8,8,9,9,10,10,11,11,12,12,13,13,15,15,16,16,19,19,21,21,22,22,25,25,26,26,28,28,29,29,33,33,35,35,36,36,37,37,38,38,39,39,40,40,42,42,43,43,44,44],"right_children":[2,4,6,8,10,12,14,16,18,20,22,24,26,28,-1,30,32,-1,-1,34,-1,36,38,-1,-1,40,42,-1,44,46,-1,-1,-1,48,-1,50,52,54,56,58,60,-1,62,64,66,-1,-1,-1,-1,-1,-1,-1,-1,-1,-1,-1,-1,-1,-1,-1,-1,-1,-1,-1,-1,-1,-1],"split_conditions":[7.01E1,1.019503E2,3.7561333E1,3E0,5.772076E-1,-3.5162264E-1,3.31E0,1.6367395E1,7.4835887E0,5.643488E-1,6.9935295E1,2.3052654E1,9.329138E0,-1.0860391E-1,1.00214496E-1,6.2859836E7,1.3981175E1,-6.312428E-2,-4.6614227E-3,2.39E5,8.238629E-2,3.9951735E0,2.4624941E0,2.9584158E-3,1.1343677E-1,2.8913622E0,2.7467642E3,7.6972656E-2,-1.8938458E8,-3.2056548E-2,9.812348E-2,-6.163007E-2,-0E0,-5.1361084E-1,6.496065E-2,1.2939878E0,3.4472808E3,7.6564914E-1,8.894884E-1,2.13E5,7.7314315E0,7.3754966E-2,5.419014E1,-2.4278443E8,3.354127E-2,-7.6722265E-3,4.36306E-2,-4.3084204E-2,1.4758415E-2,-2.8074864E-2,7.327529E-2,-3.8183335E-2,3.285488E-2,3.3324953E-2,-5.121958E-2,6.254021E-2,-8.104788E-3,6.71979E-2,-2.891506E-2,-6.565319E-2,-1.8961642E-2,-6.471109E-2,3.995747E-2,-4.6034106E-3,7.985041E-2,-6.461818E-2,1.1004661E-2],"split_indices":[4,1,10,28,8,12,9,3,10,8,11,21,19,15,0,22,29,0,0,17,0,10,19,0,0,19,30,0,5,25,0,0,0,25,0,29,30,7,7,17,19,0,21,5,12,0,0,0,0,0,0,0,0,0,0,0,0,0,0,0,0,0,0,0,0,0,0],"split_type":[0,0,0,0,0,0,0,0,0,0,0,0,0,0,0,0,0,0,0,0,0,0,0,0,0,0,0,0,0,0,0,0,0,0,0,0,0,0,0,0,0,0,0,0,0,0,0,0,0,0,0,0,0,0,0,0,0,0,0,0,0,0,0,0,0,0,0],"sum_hessian":[3.3587665E2,2.4322038E2,9.265627E1,2.867555E1,2.1454483E2,6.743968E1,2.5216589E1,2.0989485E1,7.686065E0,3.7419437E1,1.771254E2,7.176794E0,6.0262886E1,2.131025E1,3.9063396E0,1.4675364E1,6.3141217E0,4.4784164E0,3.207649E0,3.3561687E1,3.8577485E0,1.3685783E2,4.0267563E1,4.006002E0,3.1707919E0,4.650286E1,1.3760027E1,4.4018664E0,1.6908382E1,9.01172E0,5.663644E0,3.2969656E0,3.017156E0,2.9965364E1,3.5963237E0,1.2024524E1,1.24833305E2,1.8656425E1,2.1611135E1,2.1952019E1,2.4550842E1,6.123613E0,7.636414E0,6.4414525E0,1.046693E1,4.8402405E0,4.171479E0,1.7922546E1,1.2042818E1,7.9676695E0,4.0568547E0,1.2099198E2,3.8413293E0,3.820305E0,1.4836121E1,8.227062E0,1.3384074E1,6.4216475E0,1.5530371E1,2.0283234E1,4.267609E0,4.262809E0,3.3736053E0,3.2303846E0,3.211068E0,5.699349E0,4.767582E0],"tree_param":{"num_deleted":"0","num_feature":"38","num_nodes":"67","size_leaf_vector":"1"}},{"base_weights":[8.995428E-2,2.1762022E-1,-2.9880548E-2,7.5489596E-2,3.8767803E-1,-5.1462597E-1,8.616628E-3,1.7355233E-1,-5.432607E-1,2.018865E-1,6.064025E-1,-8.93492E-3,-6.5352045E-2,2.0376664E-1,-1.2546112E-1,7.5557446E-1,8.590222E-2,-2.0313717E-3,-7.901741E-2,3.6169407E-1,-4.1958058E-1,6.7577684E-1,-2.0274866E-2,7.7084476E-1,7.6826856E-2,-1.5343456E-1,4.6358548E-2,4.858022E-1,1.0815854E-1,-2.8385472E-1,2.1764447E-1,5.1388055E-1,-3.6648172E-1,-0E0,-7.615312E-2,-1.37175275E-2,7.4870485E-1,3.1046972E-3,9.703001E-1,1.9467652E-1,-7.630369E-2,-2.3778692E-1,8.091733E-2,1.64213E-2,7.959309E-2,-4.371692E-2,5.2863766E-2,3.330506E-2,-3.3709373E-2,3.5198472E-2,1.0725077E-1,4.765173E-3,-7.486964E-2,6.0493317E-2,9.9875115E-2,1.1280574E-1,5.3400833E-2,2.632962E-2,-7.246264E-2,-3.9716326E-2,2.8748258E-3,-1.0585683E-2,7.031987E-2],"categories":[],"categories_nodes":[],"categories_segments":[],"categories_sizes":[],"default_left":[0,0,0,0,0,0,0,0,0,0,0,0,0,0,0,0,0,0,0,0,0,0,0,0,0,0,0,0,0,0,0,0,0,0,0,0,0,0,0,0,0,0,0,0,0,0,0,0,0,0,0,0,0,0,0,0,0,0,0,0,0,0,0],"id":20,"left_children":[1,3,5,7,9,11,13,15,17,19,21,-1,-1,23,25,27,29,-1,-1,31,33,35,-1,37,39,41,-1,43,-1,45,47,49,51,-1,-1,-1,53,-1,55,57,-1,59,61,-1,-1,-1,-1,-1,-1,-1,-1,-1,-1,-1,-1,-1,-1,-1,-1,-1,-1,-1,-1],"loss_changes":[6.5911684E0,4.9878664E0,4.1800323E0,6.8874774E0,3.7485218E0,8.928361E-1,5.37132E0,4.9388638E0,1.9156008E0,5.1253376E0,2.481614E0,0E0,0E0,5.940342E0,1.9732783E0,9.113431E-1,4.186319E0,0E0,0E0,4.594563E0,1.4470308E0,2.4342117E0,0E0,2.135147E0,6.7590714E0,2.309676E0,0E0,6.2113535E-1,0E0,2.8070407E0,4.084164E0,2.9126234E0,1.1911154E0,0E0,0E0,0E0,1.0986004E0,0E0,5.883446E-1,3.7857463E0,0E0,3.6741557E0,3.606144E0,0E0,0E0,0E0,0E0,0E0,0E0,0E0,0E0,0E0,0E0,0E0,0E0,0E0,0E0,0E0,0E0,0E0,0E0,0E0,0E0],"parents":[2147483647,0,0,1,1,2,2,3,3,4,4,5,5,6,6,7,7,8,8,9,9,10,10,13,13,14,14,15,15,16,16,19,19,20,20,21,21,23,23,24,24,25,25,27,27,29,29,30,30,31,31,32,32,36,36,38,38,39,39,41,41,42,42],"right_children":[2,4,6,8,10,12,14,16,18,20,22,-1,-1,24,26,28,30,-1,-1,32,34,36,-1,38,40,42,-1,44,-1,46,48,50,52,-1,-1,-1,54,-1,56,58,-1,60,62,-1,-1,-1,-1,-1,-1,-1,-1,-1,-1,-1,-1,-1,-1,-1,-1,-1,-1,-1,-1],"split_conditions":[1.6310812E3,4.2E0,1.022138E2,6.012874E0,-5.2E-1,3.9146164E1,1.357E3,3.342346E0,7.8564817E-1,1.4730621E1,3.4884992E-1,-8.93492E-3,-6.5352045E-2,1.7718093E3,4.77E0,3.0010273E0,4.194488E1,-2.0313717E-3,-7.901741E-2,1.030951E2,1.2556758E0,-2.2783863E1,-2.0274866E-2,-7.5E-1,3.84E0,3.6817726E1,4.6358548E-2,3.74E0,1.0815854E-1,5.81196E5,2.2735073E1,-7.1E-1,1.2025906E1,-0E0,-7.615312E-2,-1.37175275E-2,1.1815084E0,3.1046972E-3,1.7596005E3,8.000665E1,-7.630369E-2,4.86E0,1.399E3,1.64213E-2,7.959309E-2,-4.371692E-2,5.2863766E-2,3.330506E-2,-3.3709373E-2,3.5198472E-2,1.0725077E-1,4.765173E-3,-7.486964E-2,6.0493317E-2,9.9875115E-2,1.1280574E-1,5.3400833E-2,2.632962E-2,-7.246264E-2,-3.9716326E-2,2.8748258E-3,-1.0585683E-2,7.031987E-2],"split_indices":[30,24,1,14,26,23,18,10,8,14,27,0,0,30,9,10,11,0,0,1,8,14,0,26,9,21,0,9,0,0,3,26,21,0,0,0,8,0,30,11,0,24,18,0,0,0,0,0,0,0,0,0,0,0,0,0,0,0,0,0,0,0,0],"split_type":[0,0,0,0,0,0,0,0,0,0,0,0,0,0,0,0,0,0,0,0,0,0,0,0,0,0,0,0,0,0,0,0,0,0,0,0,0,0,0,0,0,0,0,0,0,0,0,0,0,0,0,0,0,0,0,0,0,0,0,0,0,0,0],"sum_hessian":[4.2945874E2,2.082997E2,2.2115906E2,1.1386566E2,9.443404E1,1.6371729E1,2.0478732E2,9.849002E1,1.537564E1,5.1412292E1,4.302174E1,4.248296E0,1.2123432E1,8.3682045E1,1.2110528E2,1.2641811E1,8.584821E1,5.095955E0,1.0279685E1,4.1057297E1,1.0354995E1,3.975346E1,3.2682803E0,1.506905E1,6.8613E1,1.1584747E2,5.2578063E0,7.221671E0,5.42014E0,2.2322319E1,6.3525894E1,3.4097736E1,6.9595633E0,4.7860155E0,5.5689797E0,3.1524765E0,3.6600983E1,3.331E0,1.17380495E1,6.0341736E1,8.271264E0,8.549849E1,3.0348984E1,3.7787147E0,3.4429564E0,1.8921225E1,3.4010956E0,5.276835E1,1.0757545E1,2.6701414E1,7.3963213E0,3.256746E0,3.7028174E0,2.3710033E1,1.289095E1,8.336076E0,3.4019742E0,5.631811E1,4.0236235E0,5.3709023E1,3.1789463E1,2.3283012E1,7.065972E0],"tree_param":{"num_deleted":"0","num_feature":"38","num_nodes":"63","size_leaf_vector":"1"}},{"base_weights":[-4.312814E-3,-4.0263036E-1,2.874624E-2,4.250523E-2,-5.3534997E-1,-4.0601003E-1,6.2727675E-2,-5.9825265E-1,-5.38637E-3,6.615145E-2,-5.632701E-1,2.3673117E-1,-8.901001E-3,-6.8015635E-2,-7.7782907E-3,-6.3052696E-1,-1.2906849E-2,-2.502656E-2,4.415531E-1,1.3864565E-1,-1.1453252E-1,-2.9327651E-2,-6.835603E-2,-2.7313212E-1,3.2264948E-1,5.046085E-1,-4.381227E-2,-5.185285E-2,3.242008E-1,-3.6621E-1,3.20536E-2,4.164618E-2,-5.6915797E-2,-5.071775E-2,6.676569E-2,-3.8263094E-2,5.6331526E-2,3.3776965E-2,-2.8638178E-2,7.967457E-2,1.5341677E-2,-5.1451188E-2,-6.4061224E-3,8.700484E-2,-3.440888E-3],"categories":[],"categories_nodes":[],"categories_segments":[],"categories_sizes":[],"default_left":[0,0,0,0,0,0,0,0,0,0,0,0,0,0,0,0,0,0,0,0,0,0,0,0,0,0,0,0,0,0,0,0,0,0,0,0,0,0,0,0,0,0,0,0,0],"id":21,"left_children":[1,3,5,-1,7,9,11,13,-1,-1,15,17,19,-1,-1,21,-1,23,25,27,29,-1,-1,31,33,35,-1,37,39,41,43,-1,-1,-1,-1,-1,-1,-1,-1,-1,-1,-1,-1,-1,-1],"loss_changes":[5.2274227E0,3.377295E0,5.3416123E0,0E0,7.305107E-1,4.4204574E0,4.2313056E0,9.052391E-1,0E0,0E0,5.859232E-1,5.3436456E0,3.7221851E0,0E0,0E0,2.3356152E-1,0E0,3.737525E0,3.1176844E0,3.5394745E0,5.1870217E0,0E0,0E0,5.24055E0,5.1754513E0,2.7541876E0,0E0,4.466024E0,3.9755006E0,2.2538328E0,4.9931817E0,0E0,0E0,0E0,0E0,0E0,0E0,0E0,0E0,0E0,0E0,0E0,0E0,0E0,0E0],"parents":[2147483647,0,0,1,1,2,2,4,4,5,5,6,6,7,7,10,10,11,11,12,12,15,15,17,17,18,18,19,19,20,20,23,23,24,24,25,25,27,27,28,28,29,29,30,30],"right_children":[2,4,6,-1,8,10,12,14,-1,-1,16,18,20,-1,-1,22,-1,24,26,28,30,-1,-1,32,34,36,-1,38,40,42,44,-1,-1,-1,-1,-1,-1,-1,-1,-1,-1,-1,-1,-1,-1],"split_conditions":[5.74485E5,5.6803612E7,2.03E5,4.250523E-2,2.7288446E-1,1.309E1,-5.1E-1,8.5E-1,-5.38637E-3,6.615145E-2,2.1733615E-1,1.9079432E-2,-1.4682618E0,-6.8015635E-2,-7.7782907E-3,1E0,-1.2906849E-2,1.711E1,1.56547E-1,2.747746E0,7.220885E-1,-2.9327651E-2,-6.835603E-2,-1.07174404E-1,-7.7E-1,3.2631138E-1,-4.381227E-2,5.5790784E7,4.4424095E0,5.531515E1,1.023809E2,4.164618E-2,-5.6915797E-2,-5.071775E-2,6.676569E-2,-3.8263094E-2,5.6331526E-2,3.3776965E-2,-2.8638178E-2,7.967457E-2,1.5341677E-2,-5.1451188E-2,-6.4061224E-3,8.700484E-2,-3.440888E-3],"split_indices":[0,22,17,0,12,13,26,26,0,0,15,15,14,0,0,28,0,13,33,19,7,0,0,15,26,7,0,22,19,23,1,0,0,0,0,0,0,0,0,0,0,0,0,0,0],"split_type":[0,0,0,0,0,0,0,0,0,0,0,0,0,0,0,0,0,0,0,0,0,0,0,0,0,0,0,0,0,0,0,0,0,0,0,0,0,0,0,0,0,0,0,0,0],"sum_hessian":[3.93952E2,3.0337118E1,3.6361487E2,4.0577765E0,2.6279343E1,2.6067783E1,3.375471E2,2.3037693E1,3.2416487E0,3.2242374E0,2.2843546E1,9.877184E1,2.3877525E2,1.9712778E1,3.3249152E0,1.9541143E1,3.3024027E0,4.3183662E1,5.5588177E1,9.921429E1,1.3956096E2,3.000284E0,1.654086E1,2.5380741E1,1.780292E1,5.2015976E1,3.5722036E0,4.8724678E1,5.048961E1,5.156318E1,8.799779E1,7.5092974E0,1.7871445E1,5.129167E0,1.2673754E1,3.088229E0,4.8927746E1,1.8131855E1,3.0592825E1,1.3150696E1,3.7338913E1,3.431789E1,1.7245287E1,6.488081E0,8.1509705E1],"tree_param":{"num_deleted":"0","num_feature":"38","num_nodes":"45","size_leaf_vector":"1"}},{"base_weights":[-1.276607E-1,-2.895912E-1,-8.532507E-2,-3.4051633E-1,3.778008E-2,9.412738E-2,-1.4671035E-1,-3.8555703E-1,3.22426E-2,2.5816345E-1,-3.4244785E-1,-1.7391412E-1,4.3178743E-1,2.1459807E-2,-4.482288E-1,8.041737E-1,1.2766324E-1,-5.221396E-1,3.97554E-2,-4.5193538E-1,-1.21874884E-1,2.902782E-3,1.0728216E-1,-5.514797E-1,-9.688805E-2,3.3091504E-2,1.2835698E-1,5.933802E-4,8.780027E-2,-6.437357E-2,-2.6653782E-2,1.2294421E-4,-5.666447E-1,1.494463E-2,-2.2977033E-1,-2.1149402E-2,-5.9209492E-2,2.0834666E-2,-6.2132627E-2,7.208782E-2,-1.1803304E-2,-6.424315E-2,-1.5412959E-2,-1.1699832E-2,4.1619077E-2,-3.9266407E-2,-8.5807815E-3],"categories":[],"categories_nodes":[],"categories_segments":[],"categories_sizes":[],"default_left":[0,0,0,0,0,0,0,0,0,0,0,0,0,0,0,0,0,0,0,0,0,0,0,0,0,0,0,0,0,0,0,0,0,0,0,0,0,0,0,0,0,0,0,0,0,0,0],"id":22,"left_children":[1,3,5,7,-1,9,11,13,-1,15,17,19,21,-1,23,25,27,29,-1,31,33,-1,-1,35,37,-1,-1,39,-1,-1,-1,-1,41,43,45,-1,-1,-1,-1,-1,-1,-1,-1,-1,-1,-1,-1],"loss_changes":[2.209793E0,2.302734E0,2.8793974E0,1.8966632E0,0E0,4.735222E0,3.0468974E0,2.2550602E0,0E0,3.3368545E0,2.417896E0,2.6319194E0,2.1099987E0,0E0,1.8769484E0,1.8713312E0,3.652966E0,3.4501672E-1,0E0,1.5654941E0,2.344406E0,0E0,0E0,4.7662163E-1,2.060396E0,0E0,0E0,2.9539938E0,0E0,0E0,0E0,0E0,6.401181E-1,3.6906028E0,2.021327E0,0E0,0E0,0E0,0E0,0E0,0E0,0E0,0E0,0E0,0E0,0E0,0E0],"parents":[2147483647,0,0,1,1,2,2,3,3,5,5,6,6,7,7,9,9,10,10,11,11,12,12,14,14,15,15,16,16,17,17,19,19,20,20,23,23,24,24,27,27,32,32,33,33,34,34],"right_children":[2,4,6,8,-1,10,12,14,-1,16,18,20,22,-1,24,26,28,30,-1,32,34,-1,-1,36,38,-1,-1,40,-1,-1,-1,-1,42,44,46,-1,-1,-1,-1,-1,-1,-1,-1,-1,-1,-1,-1],"split_conditions":[1.382E1,1.5301074E0,1.677E1,4.4578476E1,3.778008E-2,3.538356E1,5.419014E1,9.158386E0,3.22426E-2,8.278548E-1,1.613E1,-7.2437844E0,9.599974E0,2.1459807E-2,3.103142E1,1.479E1,7.974122E0,1.542E1,3.97554E-2,4.7898164E0,2.2132881E1,2.902782E-3,1.0728216E-1,1.1432033E1,1.32E1,3.3091504E-2,1.2835698E-1,4.7348157E-1,8.780027E-2,-6.437357E-2,-2.6653782E-2,1.2294421E-4,7.5507474E0,8.698443E0,1.725753E1,-2.1149402E-2,-5.9209492E-2,2.0834666E-2,-6.2132627E-2,7.208782E-2,-1.1803304E-2,-6.424315E-2,-1.5412959E-2,-1.1699832E-2,4.1619077E-2,-3.9266407E-2,-8.5807815E-3],"split_indices":[13,8,13,10,0,21,21,21,0,19,13,3,19,0,21,13,29,13,0,10,23,0,0,10,13,0,0,8,0,0,0,0,19,21,10,0,0,0,0,0,0,0,0,0,0,0,0],"split_type":[0,0,0,0,0,0,0,0,0,0,0,0,0,0,0,0,0,0,0,0,0,0,0,0,0,0,0,0,0,0,0,0,0,0,0,0,0,0,0,0,0,0,0,0,0,0,0],"sum_hessian":[3.2807123E2,6.7384544E1,2.606867E2,6.2792034E1,4.592509E0,6.601562E1,1.9467108E2,5.8977734E1,3.8143E0,4.818195E1,1.7833666E1,1.8615974E2,8.511336E0,5.4026885E0,5.3575047E1,9.046995E0,3.9134956E1,1.4481707E1,3.3519604E0,2.8926884E1,1.5723285E2,5.3871403E0,3.124196E0,4.11426E1,1.2432445E1,4.742668E0,4.3043275E0,3.3666836E1,5.4681206E0,9.445273E0,5.0364327E0,5.687056E0,2.3239828E1,6.895371E1,8.8279144E1,4.719444E0,3.6423157E1,7.7761464E0,4.656298E0,4.8080783E0,2.8858755E1,1.9381021E1,3.8588073E0,5.1756187E1,1.7197523E1,4.1009487E1,4.7269657E1],"tree_param":{"num_deleted":"0","num_feature":"38","num_nodes":"47","size_leaf_vector":"1"}},{"base_weights":[1.0241716E-1,-5.6169546E-1,1.2336435E-1,-7.887613E-3,-6.9852024E-2,1.4004003E-1,-3.0230382E-1,-6.7003146E-2,1.7802459E-1,-5.3412145E-1,2.0326946E-2,1.2501812E-1,-4.4531205E-1,-5.6283325E-1,1.9736655E-1,-4.45319E-3,-7.117085E-2,1.8901678E-2,1.06768005E-1,2.1491215E-2,-5.9657454E-1,-7.7040605E-2,-1.9758856E-2,2.9231235E-1,8.972203E-2,2.6074395E-2,-4.991146E-2,-6.9431596E-2,-1.2583189E-2,5.0856303E-2,1.6616343E-2,2.814939E-2,-1.1687296E-2],"categories":[],"categories_nodes":[],"categories_segments":[],"categories_sizes":[],"default_left":[0,0,0,0,0,0,0,0,0,0,0,0,0,0,0,0,0,0,0,0,0,0,0,0,0,0,0,0,0,0,0,0,0],"id":23,"left_children":[1,3,5,-1,-1,7,9,11,13,15,-1,17,19,21,23,-1,-1,25,-1,-1,27,-1,-1,29,31,-1,-1,-1,-1,-1,-1,-1,-1],"loss_changes":[5.9339385E0,7.752886E-1,2.9431176E0,0E0,0E0,3.1652489E0,1.8605446E0,4.528016E0,4.835144E0,8.5936666E-1,0E0,3.9811618E0,2.1491222E0,5.3427815E-1,3.3398056E0,0E0,0E0,4.6199155E0,0E0,0E0,7.026086E-1,0E0,0E0,4.7039165E0,6.186772E0,0E0,0E0,0E0,0E0,0E0,0E0,0E0,0E0],"parents":[2147483647,0,0,1,1,2,2,5,5,6,6,7,7,8,8,9,9,11,11,12,12,13,13,14,14,17,17,20,20,23,23,24,24],"right_children":[2,4,6,-1,-1,8,10,12,14,16,-1,18,20,22,24,-1,-1,26,-1,-1,28,-1,-1,30,32,-1,-1,-1,-1,-1,-1,-1,-1],"split_conditions":[2.73E0,-3.055005E-1,3.9023425E3,-7.887613E-3,-6.9852024E-2,-2.6093832E-1,3.9380434E0,3.347751E-2,9.622865E1,-2.6234443E8,2.0326946E-2,4.74E0,-4.9158388E-1,-5.357269E-2,1.587795E1,-4.45319E-3,-7.117085E-2,-2.2768038E7,1.06768005E-1,2.1491215E-2,2.8517522E3,-7.7040605E-2,-1.9758856E-2,-1.8432683E-1,-1.4522034E8,2.6074395E-2,-4.991146E-2,-6.9431596E-2,-1.2583189E-2,5.0856303E-2,1.6616343E-2,2.814939E-2,-1.1687296E-2],"split_indices":[9,25,30,0,0,12,14,27,34,5,0,9,25,12,3,0,0,5,0,0,30,0,0,25,5,0,0,0,0,0,0,0,0],"split_type":[0,0,0,0,0,0,0,0,0,0,0,0,0,0,0,0,0,0,0,0,0,0,0,0,0,0,0,0,0,0,0,0,0],"sum_hessian":[4.2910834E2,1.28960085E1,4.162123E2,3.0437849E0,9.852223E0,4.008124E2,1.5399917E1,6.171459E1,3.390978E2,1.0690302E1,4.7096148E0,4.0805325E1,2.0909264E1,8.424712E0,3.306731E2,3.0286899E0,7.6616125E0,3.6863632E1,3.9416904E0,3.766448E0,1.7142817E1,5.126528E0,3.2981842E0,1.7511537E2,1.5555772E2,2.5296406E1,1.1567228E1,1.398016E1,3.1626565E0,6.411333E1,1.11002045E2,8.090522E1,7.465251E1],"tree_param":{"num_deleted":"0","num_feature":"38","num_nodes":"33","size_leaf_vector":"1"}},{"base_weights":[3.691251E-2,1.7872412E-2,7.704093E-1,2.8825969E-1,-2.3479424E-2,1.0888E-1,3.2623064E-2,8.104858E-2,6.322039E-1,-4.4861925E-1,3.9937147E-3,-2.2682206E-1,3.699403E-1,-1.0382895E-2,9.770473E-2,-5.7352245E-1,1.6955908E-2,-3.577993E-1,3.5377197E-2,1.4264275E-2,-6.8106346E-2,7.762568E-1,-1.02969274E-1,-7.110089E-3,-6.737903E-2,-4.8417646E-1,2.9599661E-2,1.10039584E-1,-9.5027275E-2,-3.6859192E-2,4.769403E-2,4.8373725E-2,1.1124728E-1,-6.5605864E-2,4.990263E-2,-5.995974E-2,-1.0102433E-2,3.995131E-3,7.499467E-2,4.7152277E-2,-1.7435668E-2],"categories":[],"categories_nodes":[],"categories_segments":[],"categories_sizes":[],"default_left":[0,0,0,0,0,0,0,0,0,0,0,0,0,0,0,0,0,0,0,0,0,0,0,0,0,0,0,0,0,0,0,0,0,0,0,0,0,0,0,0,0],"id":24,"left_children":[1,3,5,7,9,-1,-1,11,13,15,17,19,21,-1,-1,23,-1,25,27,29,-1,31,33,-1,-1,35,-1,37,39,-1,-1,-1,-1,-1,-1,-1,-1,-1,-1,-1,-1],"loss_changes":[5.364408E0,4.2784367E0,1.1987996E0,3.54149E0,3.8938644E0,0E0,0E0,2.8666306E0,4.891841E0,1.6117978E0,3.4824286E0,1.7512395E0,3.2845712E0,0E0,0E0,7.7628803E-1,0E0,2.0536356E0,2.778169E0,1.7993319E0,0E0,6.824126E-1,2.6098523E0,0E0,0E0,8.3748484E-1,0E0,8.072612E0,4.623925E0,0E0,0E0,0E0,0E0,0E0,0E0,0E0,0E0,0E0,0E0,0E0,0E0],"parents":[2147483647,0,0,1,1,2,2,3,3,4,4,7,7,8,8,9,9,10,10,11,11,12,12,15,15,17,17,18,18,19,19,21,21,22,22,25,25,27,27,28,28],"right_children":[2,4,6,8,10,-1,-1,12,14,16,18,20,22,-1,-1,24,-1,26,28,30,-1,32,34,-1,-1,36,-1,38,40,-1,-1,-1,-1,-1,-1,-1,-1,-1,-1,-1,-1],"split_conditions":[4.0086807E3,-2.8309494E-1,5.97527E1,-2.1E-1,2.03E5,1.0888E-1,3.2623064E-2,1.9585164E0,-4.0695372E-1,2.0861764E-1,5.74485E5,-5.6E-1,6.907557E1,-1.0382895E-2,9.770473E-2,3.59E0,1.6955908E-2,8.5E-1,3.9E0,-7.9E-1,-6.8106346E-2,6.538458E0,2.1733615E-1,-7.110089E-3,-6.737903E-2,1.568191E-1,2.9599661E-2,4.3E0,2.72E0,-3.6859192E-2,4.769403E-2,4.8373725E-2,1.1124728E-1,-6.5605864E-2,4.990263E-2,-5.995974E-2,-1.0102433E-2,3.995131E-3,7.499467E-2,4.7152277E-2,-1.7435668E-2],"split_indices":[30,12,11,26,17,0,0,29,25,15,0,26,11,0,0,9,0,26,2,26,0,29,15,0,0,15,0,20,9,0,0,0,0,0,0,0,0,0,0,0,0],"split_type":[0,0,0,0,0,0,0,0,0,0,0,0,0,0,0,0,0,0,0,0,0,0,0,0,0,0,0,0,0,0,0,0,0,0,0,0,0,0,0,0,0],"sum_hessian":[3.897519E2,3.801234E2,9.628468E0,5.0664513E1,3.294589E2,5.3926864E0,4.235781E0,3.1875343E1,1.8789171E1,2.0125708E1,3.093332E2,1.5273634E1,1.660171E1,5.9242883E0,1.2864882E1,1.6883398E1,3.2423093E0,2.4353725E1,2.8497946E2,9.897368E0,5.3762655E0,9.0088005E0,7.592908E0,3.003202E0,1.3880196E1,2.055868E1,3.7950463E0,1.8171944E2,1.0326003E2,5.3087077E0,4.5886602E0,5.1069136E0,3.9018872E0,4.0390887E0,3.5538192E0,1.55553055E1,5.0033727E0,1.6401732E2,1.7702112E1,1.2467244E1,9.079279E1],"tree_param":{"num_deleted":"0","num_feature":"38","num_nodes":"41","size_leaf_vector":"1"}},{"base_weights":[-1.4907804E-1,9.864674E-2,-1.7337656E-1,-2.256244E-1,6.291494E-1,-4.6135772E-2,-2.1706589E-1,-5.770994E-1,1.00706294E-1,1.4336355E-1,1.4451204E-1,-1.0015916E-1,5.549623E-1,-3.8980797E-1,-1.1761356E-1,-2.9274134E-2,-6.44074E-2,-3.2613542E-2,6.472815E-2,-3.3793613E-1,-0E0,-0E0,1.07313834E-1,1.7763296E-1,-4.4230416E-1,2.3735332E-1,-1.8558511E-1,1.4893E-1,-5.7258666E-1,-6.1590623E-2,7.495998E-2,-3.579124E-2,8.1998214E-2,-4.933064E-1,1.2984113E-1,4.380206E-2,1.3085955E-1,-4.5036772E-1,-8.3581485E-2,-3.6626812E-2,7.0693605E-2,-2.897634E-2,-6.389703E-2,-0E0,7.0012525E-2,-5.2672744E-2,-4.3302653E-3,-0E0,2.7082792E-2,4.4344675E-2,-6.234389E-2,-5.451202E-2,1.4460661E-3,-2.9536858E-2,1.6396353E-2],"categories":[],"categories_nodes":[],"categories_segments":[],"categories_sizes":[],"default_left":[0,0,0,0,0,0,0,0,0,0,0,0,0,0,0,0,0,0,0,0,0,0,0,0,0,0,0,0,0,0,0,0,0,0,0,0,0,0,0,0,0,0,0,0,0,0,0,0,0,0,0,0,0,0,0],"id":25,"left_children":[1,3,5,7,9,11,13,15,-1,17,-1,19,21,23,25,-1,-1,-1,-1,27,29,-1,-1,31,33,35,37,39,41,-1,43,-1,-1,45,47,49,-1,51,53,-1,-1,-1,-1,-1,-1,-1,-1,-1,-1,-1,-1,-1,-1,-1,-1],"loss_changes":[2.0272493E0,5.154034E0,1.6721954E0,7.9673495E0,4.334933E0,2.5207102E0,3.8438692E0,1.6187763E-1,0E0,1.7866626E0,0E0,1.7203808E0,1.8923153E0,2.4923754E0,3.4868774E0,0E0,0E0,0E0,0E0,2.5003805E0,2.3839755E0,0E0,0E0,2.448362E0,2.2522888E0,4.6358232E0,3.227419E0,2.0475516E0,1.6323471E-1,0E0,2.1532035E0,0E0,0E0,9.89027E-1,1.2510541E-1,5.2616057E0,0E0,1.5304098E0,4.6413293E0,0E0,0E0,0E0,0E0,0E0,0E0,0E0,0E0,0E0,0E0,0E0,0E0,0E0,0E0,0E0,0E0],"parents":[2147483647,0,0,1,1,2,2,3,3,4,4,5,5,6,6,7,7,9,9,11,11,12,12,13,13,14,14,19,19,20,20,23,23,24,24,25,25,26,26,27,27,28,28,30,30,33,33,34,34,35,35,37,37,38,38],"right_children":[2,4,6,8,10,12,14,16,-1,18,-1,20,22,24,26,-1,-1,-1,-1,28,30,-1,-1,32,34,36,38,40,42,-1,44,-1,-1,46,48,50,-1,52,54,-1,-1,-1,-1,-1,-1,-1,-1,-1,-1,-1,-1,-1,-1,-1,-1],"split_conditions":[4.5801586E-1,1.029809E2,2.2132881E1,4.4106296E-1,-5.9578913E-1,3.0888045E-1,1.6394104E1,-5.5574336E0,1.00706294E-1,3.83E0,1.4451204E-1,4.4791503E0,-1.5139435E-2,-2.6234443E8,1.97709E1,-2.9274134E-2,-6.44074E-2,-3.2613542E-2,6.472815E-2,5.138522E2,-1.1012788E-1,-0E0,1.07313834E-1,3.6E0,4.6E0,9.008483E0,1.677243E1,1.79E0,-1.8958293E-1,-6.1590623E-2,6.4952372E7,-3.579124E-2,8.1998214E-2,7.632046E1,1.0970742E0,1.421E3,1.3085955E-1,1.5841939E1,-1.5458845E8,-3.6626812E-2,7.0693605E-2,-2.897634E-2,-6.389703E-2,-0E0,7.0012525E-2,-5.2672744E-2,-4.3302653E-3,-0E0,2.7082792E-2,4.4344675E-2,-6.234389E-2,-5.451202E-2,1.4460661E-3,-2.9536858E-2,1.6396353E-2],"split_indices":[8,1,23,8,25,12,10,29,0,20,0,21,15,5,10,0,0,0,0,30,15,0,0,2,20,19,21,20,25,0,22,0,0,11,8,18,0,14,5,0,0,0,0,0,0,0,0,0,0,0,0,0,0,0,0],"split_type":[0,0,0,0,0,0,0,0,0,0,0,0,0,0,0,0,0,0,0,0,0,0,0,0,0,0,0,0,0,0,0,0,0,0,0,0,0,0,0,0,0,0,0,0,0,0,0,0,0,0,0,0,0,0,0],"sum_hessian":[3.3516357E2,2.9543575E1,3.0562E2,1.8254457E1,1.1289117E1,7.875333E1,2.2686665E2,1.4308887E1,3.9455721E0,7.226792E0,4.0623245E0,7.248818E1,6.26514E0,8.241676E1,1.4444989E2,3.1147242E0,1.1194162E1,3.6566944E0,3.5700972E0,2.1340956E1,5.114723E1,3.0197213E0,3.2454188E0,6.7975516E0,7.561922E1,2.2938433E1,1.2151146E2,6.813756E0,1.45272E1,5.5069976E0,4.5640232E1,3.6462054E0,3.1513462E0,6.96032E1,6.016015E0,1.959539E1,3.3430426E0,3.3424847E1,8.808662E1,3.4674587E0,3.3462975E0,3.1499453E0,1.13772545E1,4.0823177E1,4.817053E0,6.456853E1,5.0346704E0,3.0046234E0,3.0113919E0,1.2369861E1,7.22553E0,2.7929455E1,5.495392E0,4.767927E1,4.0407345E1],"tree_param":{"num_deleted":"0","num_feature":"38","num_nodes":"55","size_leaf_vector":"1"}},{"base_weights":[7.752075E-2,1.3024943E-1,-7.752743E-2,7.8421965E-2,3.7239122E-1,-2.70081E-1,1.2752841E-1,-2.257446E-2,2.2872847E-1,2.462018E-1,8.908521E-2,-5.5170286E-1,-8.9567095E-2,4.2367178E-1,-6.2893316E-2,1.6224778E-1,-2.620666E-1,9.7522125E-2,1.8911567E-1,3.2662907E-1,-6.387114E-2,-6.754703E-2,-9.10306E-3,2.4228948E-1,-4.9174544E-1,-4.3603804E-2,5.9484357E-1,2.917174E-1,-3.3115602E-1,8.074367E-1,8.990255E-2,-5.7972735E-1,-5.7313163E-2,1.3052388E-1,5.8702856E-1,9.246554E-1,1.1312337E-1,-4.1388627E-2,7.0214564E-1,-6.538139E-2,-0E0,3.5545808E-1,9.949486E-2,1.2405778E-2,9.154955E-2,-5.0757807E-2,-7.837563E-2,4.348199E-2,1.035468E-1,-7.5816445E-2,1.4589692E-2,-4.2651985E-3,-6.755434E-2,-1.8839274E-2,7.22744E-2,2.210301E-2,-4.4231843E-2,1.8606272E-2,8.33857E-2,1.044237E-1,6.3305125E-2,9.6216716E-2,-1.660585E-3,3.2593768E-2,-5.3396117E-2,1.8168492E-2,1.06799774E-1,-1.5906816E-2,7.124441E-2,-2.6668344E-2,2.3844443E-2,3.1244833E-2,-5.646962E-2],"categories":[],"categories_nodes":[],"categories_segments":[],"categories_sizes":[],"default_left":[0,0,0,0,0,0,0,0,0,0,0,0,0,0,0,0,0,0,0,0,0,0,0,0,0,0,0,0,0,0,0,0,0,0,0,0,0,0,0,0,0,0,0,0,0,0,0,0,0,0,0,0,0,0,0,0,0,0,0,0,0,0,0,0,0,0,0,0,0,0,0,0,0],"id":26,"left_children":[1,3,5,7,9,11,13,15,17,19,-1,21,23,25,27,29,31,-1,33,35,-1,-1,-1,37,39,-1,41,43,45,47,49,51,53,55,57,59,61,63,65,-1,-1,67,-1,69,-1,71,-1,-1,-1,-1,-1,-1,-1,-1,-1,-1,-1,-1,-1,-1,-1,-1,-1,-1,-1,-1,-1,-1,-1,-1,-1,-1,-1],"loss_changes":[3.3930473E0,3.8379626E0,4.1520977E0,3.9000876E0,3.4119864E0,2.6905925E0,2.8879683E0,6.7654777E0,2.9138474E0,3.1143353E0,0E0,1.1127362E0,4.4968143E0,2.983797E0,2.9277115E0,3.9131546E0,4.271941E0,0E0,2.209024E0,5.046119E0,0E0,0E0,0E0,2.4483714E0,1.2596853E0,0E0,1.4398088E0,2.186016E0,2.152164E0,5.3105783E-1,3.630245E0,1.260376E0,4.138746E0,4.4414625E0,1.1048179E0,1.3215923E-1,3.4027195E0,2.0720425E0,1.2073584E0,0E0,0E0,2.0559864E0,0E0,5.8711886E-1,0E0,2.1223135E0,0E0,0E0,0E0,0E0,0E0,0E0,0E0,0E0,0E0,0E0,0E0,0E0,0E0,0E0,0E0,0E0,0E0,0E0,0E0,0E0,0E0,0E0,0E0,0E0,0E0,0E0,0E0],"parents":[2147483647,0,0,1,1,2,2,3,3,4,4,5,5,6,6,7,7,8,8,9,9,11,11,12,12,13,13,14,14,15,15,16,16,18,18,19,19,23,23,24,24,26,26,27,27,28,28,29,29,30,30,31,31,32,32,33,33,34,34,35,35,36,36,37,37,38,38,41,41,43,43,45,45],"right_children":[2,4,6,8,10,12,14,16,18,20,-1,22,24,26,28,30,32,-1,34,36,-1,-1,-1,38,40,-1,42,44,46,48,50,52,54,56,58,60,62,64,66,-1,-1,68,-1,70,-1,72,-1,-1,-1,-1,-1,-1,-1,-1,-1,-1,-1,-1,-1,-1,-1,-1,-1,-1,-1,-1,-1,-1,-1,-1,-1,-1,-1],"split_conditions":[6E-2,5.99979E5,2.252E1,1.914E1,1.0386641E-1,4.1445415E1,-1.19215906E-1,1.9079432E-2,1.953E1,6.15973E5,8.908521E-2,4.7000793E-1,6.347428E-2,5.407409E7,-1.0806686E-1,5.86286E5,-1.2292025E-1,9.7522125E-2,8.692829E1,5.5348186E1,-6.387114E-2,-6.754703E-2,-9.10306E-3,1.8102404E-2,1.2470644E1,-4.3603804E-2,7.2743163E0,3.347751E-2,2.925E1,3E0,3.7E0,9.545032E0,3.3144375E1,4.6180313E1,1.0772757E1,6.774106E-1,-4.6E-1,4.263387E0,5.794754E-1,-6.538139E-2,-0E0,2.811E1,9.949486E-2,2.11E5,9.154955E-2,1.3263436E-1,-7.837563E-2,4.348199E-2,1.035468E-1,-7.5816445E-2,1.4589692E-2,-4.2651985E-3,-6.755434E-2,-1.8839274E-2,7.22744E-2,2.210301E-2,-4.4231843E-2,1.8606272E-2,8.33857E-2,1.044237E-1,6.3305125E-2,9.6216716E-2,-1.660585E-3,3.2593768E-2,-5.3396117E-2,1.8168492E-2,1.06799774E-1,-1.5906816E-2,7.124441E-2,-2.6668344E-2,2.3844443E-2,3.1244833E-2,-5.646962E-2],"split_indices":[26,0,13,13,12,11,25,15,13,0,0,25,15,22,12,0,12,0,11,3,0,0,0,15,19,0,21,27,13,31,20,21,10,3,10,7,26,19,7,0,0,13,0,17,0,15,0,0,0,0,0,0,0,0,0,0,0,0,0,0,0,0,0,0,0,0,0,0,0,0,0,0,0],"split_type":[0,0,0,0,0,0,0,0,0,0,0,0,0,0,0,0,0,0,0,0,0,0,0,0,0,0,0,0,0,0,0,0,0,0,0,0,0,0,0,0,0,0,0,0,0,0,0,0,0,0,0,0,0,0,0,0,0,0,0,0,0,0,0,0,0,0,0,0,0,0,0,0,0],"sum_hessian":[4.1415863E2,3.0954855E2,1.0461009E2,2.5542363E2,5.4124916E1,5.4184853E1,5.0425236E1,1.5242404E2,1.02999596E2,4.3803776E1,1.032114E1,2.086833E1,3.3316525E1,1.9891966E1,3.0533272E1,8.5813934E1,6.6610115E1,4.944045E0,9.805555E1,4.031569E1,3.4880853E0,1.6241163E1,4.627166E0,1.81397E1,1.5176825E1,3.1802454E0,1.671172E1,1.2985932E1,1.7547338E1,8.410358E0,7.740357E1,2.584377E1,4.0766342E1,8.580505E1,1.2250492E1,1.0395787E1,2.9919903E1,1.114071E1,6.9989905E0,1.1488647E1,3.6881766E0,1.0730416E1,5.9813037E0,9.150762E0,3.835171E0,1.1039949E1,6.507389E0,3.4697692E0,4.94059E0,4.6058235E0,7.2797745E1,4.0924764E0,2.1751293E1,3.5076233E1,5.6901097E0,7.4301735E1,1.1503318E1,4.8889875E0,7.361505E0,6.946232E0,3.4495554E0,3.9827847E0,2.5937117E1,6.2847753E0,4.855934E0,3.063646E0,3.9353442E0,4.303324E0,6.4270916E0,3.88884E0,5.2619214E0,6.3775153E0,4.6624336E0],"tree_param":{"num_deleted":"0","num_feature":"38","num_nodes":"73","size_leaf_vector":"1"}},{"base_weights":[2.4138525E-2,-5.541563E-2,1.5619887E-1,4.6587294E-1,-8.374865E-2,1.19311966E-1,6.917796E-1,9.8127216E-2,-6.39774E-3,2.0691748E-1,-1.38475E-1,1.5010042E-1,-5.2195013E-2,2.9005399E-2,1.0060318E-1,3.2246804E-1,-4.8920624E-2,7.127209E-2,-2.13057E-1,5.7654315E-1,8.4708646E-2,5.6163996E-1,-8.9120075E-2,4.1209137E-1,-1.6730575E-1,-2.6238683E-1,1.502873E-1,-5.7582073E-3,7.978193E-1,-3.847024E-2,3.124607E-1,-0E0,7.516451E-2,-5.379922E-2,3.6892116E-2,1.3721116E-2,1.03794E-1,4.5515414E-2,-3.1078681E-2,-1.3142834E-2,-3.855826E-2,-1.8799681E-2,7.639413E-2,2.8939337E-2,1.019242E-1,2.551013E-3,-6.966652E-2,-6.7742795E-2,4.0519364E-2],"categories":[],"categories_nodes":[],"categories_segments":[],"categories_sizes":[],"default_left":[0,0,0,0,0,0,0,0,0,0,0,0,0,0,0,0,0,0,0,0,0,0,0,0,0,0,0,0,0,0,0,0,0,0,0,0,0,0,0,0,0,0,0,0,0,0,0,0,0],"id":27,"left_children":[1,3,5,7,9,11,13,-1,-1,15,17,19,-1,-1,-1,21,-1,23,25,27,29,31,33,35,37,39,41,-1,43,45,47,-1,-1,-1,-1,-1,-1,-1,-1,-1,-1,-1,-1,-1,-1,-1,-1,-1,-1],"loss_changes":[4.1209927E0,3.5656676E0,2.8260267E0,3.4837525E0,3.677606E0,2.702303E0,1.0169344E0,0E0,0E0,2.928793E0,3.0680442E0,3.6167607E0,0E0,0E0,0E0,3.14529E0,0E0,4.1705704E0,2.601828E0,2.5148125E0,3.2543654E0,2.2134356E0,2.3971632E0,3.5089247E0,2.6649804E0,1.9977322E0,3.615993E0,0E0,1.3025208E0,3.2031472E0,3.7322264E0,0E0,0E0,0E0,0E0,0E0,0E0,0E0,0E0,0E0,0E0,0E0,0E0,0E0,0E0,0E0,0E0,0E0,0E0],"parents":[2147483647,0,0,1,1,2,2,3,3,4,4,5,5,6,6,9,9,10,10,11,11,15,15,17,17,18,18,19,19,20,20,21,21,22,22,23,23,24,24,25,25,26,26,28,28,29,29,30,30],"right_children":[2,4,6,8,10,12,14,-1,-1,16,18,20,-1,-1,-1,22,-1,24,26,28,30,32,34,36,38,40,42,-1,44,46,48,-1,-1,-1,-1,-1,-1,-1,-1,-1,-1,-1,-1,-1,-1,-1,-1,-1,-1],"split_conditions":[3.7625546E0,9.622865E1,4.0086807E3,5.6085104E7,-2.5719962E-1,1.545691E1,3E0,9.8127216E-2,-6.39774E-3,2.833E1,1.465E1,6.2E1,-5.2195013E-2,2.9005399E-2,1.0060318E-1,1.725753E1,-4.8920624E-2,9.7937E1,2.999E1,3.54E0,7.17E1,-4.1715193E-1,5.3590794E1,1.274747E0,1.316E3,2.053E1,6.4315704E1,-5.7582073E-3,9.662616E0,4.45E0,3.48897E0,-0E0,7.516451E-2,-5.379922E-2,3.6892116E-2,1.3721116E-2,1.03794E-1,4.5515414E-2,-3.1078681E-2,-1.3142834E-2,-3.855826E-2,-1.8799681E-2,7.639413E-2,2.8939337E-2,1.019242E-1,2.551013E-3,-6.966652E-2,-6.7742795E-2,4.0519364E-2],"split_indices":[19,34,30,22,12,29,31,0,0,13,13,4,0,0,0,10,0,34,13,20,4,12,23,29,18,13,11,0,21,20,10,0,0,0,0,0,0,0,0,0,0,0,0,0,0,0,0,0,0],"split_type":[0,0,0,0,0,0,0,0,0,0,0,0,0,0,0,0,0,0,0,0,0,0,0,0,0,0,0,0,0,0,0,0,0,0,0,0,0,0,0,0,0,0,0,0,0,0,0,0,0],"sum_hessian":[3.9111157E2,2.4364111E2,1.4747044E2,1.2298161E1,2.3134296E2,1.3825728E2,9.213167E0,6.2865777E0,6.0115833E0,3.6321968E1,1.95021E2,1.3214522E2,6.1120586E0,4.2678533E0,4.945314E0,3.1320383E1,5.001586E0,5.080517E1,1.4421582E2,1.7262098E1,1.1488312E2,1.9939905E1,1.1380479E1,2.1062645E1,2.9742523E1,1.27243484E2,1.697234E1,4.3676105E0,1.2894487E1,7.432742E1,4.055569E1,4.9332485E0,1.5006656E1,5.849218E0,5.5312614E0,1.4830583E1,6.2320623E0,5.400314E0,2.4342209E1,6.2172173E1,6.507131E1,1.0880654E1,6.091685E0,4.1189556E0,8.775532E0,6.7691605E1,6.635823E0,3.3274596E0,3.722823E1],"tree_param":{"num_deleted":"0","num_feature":"38","num_nodes":"49","size_leaf_vector":"1"}},{"base_weights":[-1.303034E-1,-1.3981168E-1,7.239972E-2,-1.6198745E-1,1.4023535E-1,-1.3611545E-1,-4.4375342E-1,-3.1773716E-1,4.476476E-1,-1.8644671E-1,7.036385E-2,-5.90847E-1,7.0722722E-3,-5.560366E-3,-6.1997283E-2,8.497067E-1,-2.2612493E-2,-2.1200624E-1,3.4449154E-1,-6.280663E-2,1.3752829E-1,-6.4368635E-2,-2.6669243E-2,1.2697265E-1,2.1885468E-2,-6.061064E-2,5.583587E-2,-3.47851E-2,-1.1458433E-2,-2.091403E-2,8.458241E-2,3.4273673E-2,-1.2232824E-2],"categories":[],"categories_nodes":[],"categories_segments":[],"categories_sizes":[],"default_left":[0,0,0,0,0,0,0,0,0,0,0,0,0,0,0,0,0,0,0,0,0,0,0,0,0,0,0,0,0,0,0,0,0],"id":28,"left_children":[1,3,-1,5,7,9,11,13,15,17,19,21,-1,-1,-1,23,25,27,29,-1,31,-1,-1,-1,-1,-1,-1,-1,-1,-1,-1,-1,-1],"loss_changes":[2.5472445E0,1.968224E0,0E0,2.0747428E0,3.2547667E0,2.8103933E0,1.8954582E0,6.527726E-1,2.7107668E0,2.9367657E0,2.419516E0,2.1829987E-1,0E0,0E0,0E0,1.83845E0,2.2029512E0,2.6909504E0,2.8063698E0,0E0,2.5885925E0,0E0,0E0,0E0,0E0,0E0,0E0,0E0,0E0,0E0,0E0,0E0,0E0],"parents":[2147483647,0,0,1,1,3,3,4,4,5,5,6,6,7,7,8,8,9,9,10,10,11,11,15,15,16,16,17,17,18,18,20,20],"right_children":[2,4,-1,6,8,10,12,14,16,18,20,22,-1,-1,-1,24,26,28,30,-1,32,-1,-1,-1,-1,-1,-1,-1,-1,-1,-1,-1,-1],"split_conditions":[1.5130753E2,3.2315144E-1,7.239972E-2,2.811E1,6.011041E7,1.1E-1,5.348363E-1,-3.2065268E7,6.3323716E7,2.61E1,3.342346E0,1.1050734E1,7.0722722E-3,-5.560366E-3,-6.1997283E-2,1.1444541E0,2.09E5,4.0228455E1,9.153953E-1,-6.280663E-2,2.4432404E0,-6.4368635E-2,-2.6669243E-2,1.2697265E-1,2.1885468E-2,-6.061064E-2,5.583587E-2,-3.47851E-2,-1.1458433E-2,-2.091403E-2,8.458241E-2,3.4273673E-2,-1.2232824E-2],"split_indices":[23,12,0,13,22,26,25,5,22,13,10,10,0,0,0,8,17,23,19,0,19,0,0,0,0,0,0,0,0,0,0,0,0],"split_type":[0,0,0,0,0,0,0,0,0,0,0,0,0,0,0,0,0,0,0,0,0,0,0,0,0,0,0,0,0,0,0,0,0],"sum_hessian":[3.1943268E2,3.1611505E2,3.3176389E0,2.9328986E2,2.282518E1,2.6908542E2,2.4204458E1,9.035596E0,1.3789584E1,2.1674564E2,5.2339775E1,1.8962444E1,5.242014E0,5.079412E0,3.9561841E0,7.5049887E0,6.284595E0,2.0702766E2,9.717962E0,4.3878064E0,4.795197E1,1.5954659E1,3.007785E0,4.3493896E0,3.1555996E0,3.2192075E0,3.0653872E0,8.592737E1,1.21100296E2,4.551007E0,5.166955E0,2.6990517E1,2.096145E1],"tree_param":{"num_deleted":"0","num_feature":"38","num_nodes":"33","size_leaf_vector":"1"}},{"base_weights":[9.045867E-2,3.8185753E-2,2.532015E-1,-1.6260147E-1,9.291343E-2,1.1491182E-1,4.8873502E-1,1.8083866E-1,-2.5815696E-1,2.2273964E-1,-1.555852E-2,1.7516571E-1,-7.299556E-2,3.0663913E-1,8.4097856E-1,6.784265E-2,-2.1079206E-1,-3.8131642E-1,1.0976429E-1,4.371221E-1,-9.768097E-2,-2.344137E-1,1.1572619E-1,-5.641273E-3,4.2301986E-1,-2.928342E-2,7.4444103E-1,